200,1,20,16,0.010000,0.010000,8192,Rectangle
0.0000402104
-0.0000076610
0.0000047599
-0.0000068246
-0.0000099423
0.0000124493
0.0000180459
-0.0000141957
-0.0000089071
0.0000281260
-0.0000055380
-0.0000049919
0.0000572097
-0.0000064986
0.0000324260
0.0000102280
0.0000338755
0.0000494949
0.0000057219
0.0000003322
-0.0000097505
-0.0000015201
0.0000036763
0.0000042919
0.0000071716
0.0000423421
0.0000313030
0.0000533890
0.0000103629
0.0001269142
0.0000446696
-0.0000104375
0.0000003067
0.0000190293
0.0000592654
0.0000071981
0.0000165371
0.0000304357
0.0000041904
0.0000973585
0.0000070007
0.0000104124
-0.0000011121
0.0000640066
0.0000148308
-0.0000126730
-0.0000130518
0.0000075777
0.0000210488
-0.0000131014
-0.0000080875
0.0001105791
-0.0000052951
-0.0000093705
0.0001186615
0.0000981303
-0.0000010539
0.0000271807
0.0000288407
0.0000265054
-0.0000095214
0.0000071688
-0.0000082885
-0.0000125732
0.0000290194
0.0000035890
-0.0000040920
0.0000666727
-0.0000056040
0.0000006938
-0.0000002064
-0.0000140607
-0.0000138098
0.0000178220
0.0000020448
-0.0000071019
-0.0000144831
0.0000037371
-0.0000079646
0.0000532591
-0.0000133509
-0.0000100208
0.0000005171
0.0000775625
0.0000530310
-0.0000133131
0.0000437952
0.0000492080
-0.0000122507
0.0000758422
0.0000081541
0.0000098090
0.0000548471
0.0000070388
0.0000044597
-0.0000017300
0.0000271918
0.0000636508
0.0000217091
-0.0000096881
-0.0000107025
-0.0000119329
-0.0000127190
0.0000097173
-0.0000133419
0.0000173469
0.0000044890
-0.0000119560
0.0001388894
0.0000474552
0.0000401534
0.0000058421
-0.0000119572
0.0000350122
-0.0000017959
-0.0000057695
-0.0000070556
0.0000472975
-0.0000145457
0.0000112085
0.0000185143
0.0000024999
0.0000442383
0.0000166653
0.0000419022
0.0000053083
-0.0000049917
0.0000788884
0.0000488921
0.0000187076
0.0000354459
0.0000076519
-0.0000067347
0.0000157427
0.0000757953
-0.0000090776
0.0000063652
0.0000119221
0.0001202055
-0.0000009270
0.0000010792
0.0000097481
-0.0000085878
0.0000235771
-0.0000067461
0.0000136960
0.0000278336
0.0000341234
0.0000251062
0.0000093331
0.0000376192
-0.0000046822
0.0000756058
0.0000390130
0.0000075183
-0.0000107844
0.0000356545
0.0000270517
0.0000427461
-0.0000097624
-0.0000081714
-0.0000057907
-0.0000054567
-0.0000127935
-0.0000085781
-0.0000000963
-0.0000035790
0.0000169766
0.0000339587
0.0000258054
-0.0000078951
0.0000105753
0.0000114736
0.0000096661
-0.0000049890
0.0000217224
0.0000013692
0.0000752379
0.0000072274
0.0000598762
-0.0000027115
0.0000178690
0.0000296153
0.0000085088
-0.0000051290
0.0000347442
0.0000088828
-0.0000133259
0.0000094756
0.0000825763
-0.0000056599
-0.0000138773
-0.0000142735
0.0000441574
0.0000036058
-0.0000134063
0.0000163539
0.0000878646
0.0000116199
0.0000270501
0.0000327679
-0.0000030622
0.0000122598
-0.0000102265
0.0000431420
-0.0000123418
0.0000167281
0.0000012573
-0.0000145031
0.0000016296
0.0000660511
-0.0000047119
0.0000306323
-0.0000061161
-0.0000127530
-0.0000055119
0.0000030178
-0.0000055306
0.0000045249
0.0000144853
0.0000231265
-0.0000044242
-0.0000036301
0.0000281021
-0.0000081543
-0.0000056643
-0.0000018067
0.0000366358
-0.0000136915
-0.0000147916
0.0000500817
-0.0000128832
-0.0000027046
0.0000478493
0.0000044906
0.0001315780
-0.0000048812
0.0000015179
0.0000433710
-0.0000051261
-0.0000099753
-0.0000011731
0.0000070088
-0.0000067994
0.0000323208
-0.0000033519
0.0000038016
0.0000075839
0.0000738575
0.0000123248
-0.0000137936
0.0000211253
-0.0000047922
-0.0000097556
-0.0000097351
0.0000339385
-0.0000081946
0.0000447741
0.0000162017
0.0000034529
0.0000036209
0.0000586705
0.0000279364
0.0000454129
0.0000168619
-0.0000080220
0.0000145527
-0.0000021245
0.0000532891
-0.0000085663
-0.0000058347
-0.0000080372
0.0000450115
0.0000545219
0.0000000958
0.0000255958
-0.0000034125
-0.0000105277
-0.0000115385
-0.0000106071
0.0000099195
0.0000427430
0.0000591245
0.0000671075
-0.0000059278
-0.0000076102
-0.0000053565
0.0000086646
-0.0000066702
-0.0000034951
0.0000486105
-0.0000071890
-0.0000153084
0.0000025053
-0.0000020682
-0.0000005275
0.0000326219
-0.0000141262
-0.0000055456
0.0000168588
-0.0000029552
0.0000000465
0.0000010359
0.0000124631
0.0000258407
-0.0000126439
0.0000070978
0.0000111302
-0.0000110628
0.0000570622
-0.0000087872
0.0000371794
-0.0000110921
0.0000230401
-0.0000121484
0.0000038410
-0.0000003564
-0.0000121378
0.0000618738
-0.0000075361
0.0000132088
-0.0000144625
-0.0000108241
0.0002173190
-0.0000051289
0.0000611874
0.0000077128
-0.0000031631
0.0000008007
0.0000087345
-0.0000149807
0.0000265108
0.0000332923
-0.0000081118
-0.0000142037
-0.0000097452
0.0000722659
0.0000111583
0.0000857207
0.0000110510
0.0000009991
0.0000927093
0.0000079815
0.0000088385
-0.0000101363
0.0000098044
0.0000016187
0.0000335323
0.0000156522
-0.0000120697
0.0000042596
0.0000908734
0.0000359501
0.0000111019
-0.0000144502
0.0000777550
0.0000395369
0.0000162424
0.0000047052
-0.0000138205
0.0000974866
-0.0000018718
0.0000702377
-0.0000053242
0.0000128487
-0.0000126492
0.0000196480
-0.0000039697
-0.0000024360
0.0000223433
-0.0000118997
-0.0000133101
-0.0000005091
0.0000133248
0.0000011981
0.0000013062
-0.0000119988
-0.0000113284
0.0000145855
-0.0000144866
-0.0000104938
0.0000197944
0.0000709013
-0.0000035604
0.0000010216
0.0000021297
0.0000214971
0.0000382555
-0.0000012508
0.0000068256
0.0000884560
0.0000203319
0.0000110669
0.0000065044
0.0000450059
0.0000066789
-0.0000098509
0.0000714971
-0.0000097999
0.0000382510
0.0000578960
0.0000264553
0.0000362903
-0.0000006362
-0.0000103566
-0.0000094617
-0.0000127296
-0.0000067511
-0.0000041317
-0.0000139147
0.0000010407
-0.0000075270
-0.0000024767
0.0000142914
0.0000002585
0.0000463634
-0.0000084835
0.0000419651
-0.0000051437
-0.0000149603
-0.0000104508
0.0000331539
0.0000107015
0.0000413609
-0.0000075520
0.0000511560
0.0000116739
0.0000235284
-0.0000076317
0.0000121306
0.0000185130
0.0000287018
0.0000069350
0.0000642858
0.0000063707
0.0000351619
0.0000320882
-0.0000124035
-0.0000047936
-0.0000091137
0.0000127019
0.0000464049
0.0000201653
0.0000045978
0.0000069783
-0.0000062392
0.0000134176
0.0000144515
0.0000630085
-0.0000086121
-0.0000051082
0.0000090774
-0.0000077711
-0.0000047067
-0.0000058750
0.0000893670
0.0000099391
0.0000102331
0.0000227858
-0.0000023437
-0.0000107410
0.0000340255
-0.0000047172
-0.0000148058
-0.0000010532
0.0000086899
0.0000597658
-0.0000091153
-0.0000025540
-0.0000096643
0.0000364153
-0.0000129689
0.0000126847
0.0000364216
-0.0000026345
0.0000089995
0.0000173896
0.0000576658
0.0001251413
0.0000075759
0.0000018794
0.0000601351
-0.0000128658
-0.0000076625
0.0000160183
-0.0000118574
0.0000017077
0.0000037808
0.0000031301
0.0000334926
0.0000031260
-0.0000019794
-0.0000112693
0.0000812406
-0.0000127541
-0.0000031001
0.0000380844
-0.0000135768
-0.0000125121
0.0000110863
-0.0000107157
0.0000012838
0.0000054610
0.0000184294
-0.0000139689
0.0000028703
0.0000167863
0.0000436776
0.0000248869
0.0000517850
0.0000438894
-0.0000056878
0.0000422675
0.0000022593
0.0000468800
0.0000119992
0.0000250079
0.0000035553
-0.0000043154
0.0000393838
0.0000227674
0.0000007140
-0.0000101719
0.0000186561
0.0000249618
-0.0000030628
0.0000214857
-0.0000000416
0.0000162959
0.0000601336
0.0000211256
0.0000274676
0.0000221026
0.0000702322
0.0000224561
0.0000133289
0.0000200042
0.0000525638
0.0000874944
-0.0000073443
-0.0000062266
0.0000314844
0.0000050133
0.0000842209
-0.0000142653
-0.0000127029
0.0000388484
-0.0000003330
0.0000165661
0.0000101462
0.0000277052
0.0000092891
0.0000030597
0.0000081642
-0.0000140538
0.0000259187
0.0000119786
-0.0000086557
-0.0000055299
-0.0000110054
0.0000253929
0.0000261549
0.0000629651
0.0000157883
-0.0000137462
-0.0000035031
0.0000388335
0.0000170408
-0.0000049590
0.0000106238
-0.0000146447
0.0000588191
-0.0000030832
0.0000078508
-0.0000035046
-0.0000145255
0.0000567792
0.0000124535
-0.0000137987
0.0000269041
-0.0000118954
0.0000236906
0.0000077110
0.0000011685
-0.0000112098
-0.0000113189
-0.0000083800
-0.0000091496
0.0000135908
-0.0000012347
0.0000745108
0.0000432804
-0.0000148992
-0.0000010539
0.0000769793
0.0000061431
0.0000838883
0.0000381243
0.0000817841
0.0000249341
0.0000081964
0.0000133814
0.0000214436
-0.0000003004
0.0000023829
0.0000273748
0.0000030378
0.0000523892
0.0000924534
-0.0000101169
-0.0000082974
-0.0000100624
0.0000044654
0.0001177256
-0.0000020315
-0.0000015180
0.0000686436
-0.0000105982
-0.0000122192
0.0000324417
-0.0000061131
0.0000549175
-0.0000050718
-0.0000106829
-0.0000140315
0.0000328769
-0.0000134712
-0.0000115642
0.0000087896
0.0000126479
0.0000028735
-0.0000012833
0.0000399211
-0.0000130672
-0.0000019021
0.0000651369
-0.0000117582
-0.0000138582
-0.0000149909
-0.0000125690
-0.0000038601
0.0000472295
0.0000225840
0.0000037268
0.0000891788
0.0000321263
-0.0000120474
-0.0000079940
0.0000275185
-0.0000025897
-0.0000105248
-0.0000004771
0.0000484232
-0.0000138232
-0.0000137827
0.0000290724
-0.0000088793
0.0000336426
0.0000210268
0.0000802392
-0.0000024692
0.0000144884
0.0000668748
0.0000010817
-0.0000056856
-0.0000002361
0.0000254056
0.0000081185
0.0000291979
-0.0000083301
-0.0000124487
-0.0000080683
0.0000010387
-0.0000023307
0.0000025927
0.0000037687
-0.0000039487
0.0000260560
0.0000321401
0.0000033370
0.0000470607
0.0001759554
-0.0000066585
0.0000073567
0.0000026469
-0.0000074827
-0.0000016724
-0.0000028230
-0.0000088393
-0.0000131863
-0.0000064419
0.0000309608
-0.0000134358
0.0000155173
0.0000175018
0.0000195807
0.0000318991
-0.0000116254
0.0000224626
0.0000103922
-0.0000013157
0.0000142729
0.0000727373
-0.0000108009
0.0000006826
-0.0000099485
0.0000138456
0.0000368392
0.0000114444
0.0000122224
-0.0000040226
-0.0000118579
-0.0000054061
0.0000144932
-0.0000107093
0.0000304806
0.0000777208
-0.0000074095
0.0000127941
0.0000254250
0.0000490659
-0.0000066257
0.0000070702
0.0000195071
0.0000176837
0.0000527948
0.0000058884
-0.0000144099
-0.0000098302
0.0001041998
0.0000175032
0.0000049388
-0.0000046697
0.0000338042
-0.0000010981
-0.0000148536
0.0000132623
-0.0000148299
0.0000053555
-0.0000045528
-0.0000015849
0.0000079189
-0.0000096865
0.0000157981
-0.0000132522
-0.0000099304
0.0000103284
0.0000466550
-0.0000087198
0.0000582837
0.0000072112
-0.0000096559
0.0000159361
0.0000056645
-0.0000126612
0.0000024654
-0.0000015192
-0.0000095155
-0.0000105530
0.0000135673
0.0000337759
-0.0000080524
-0.0000070277
0.0000139639
-0.0000019916
-0.0000042997
-0.0000121783
-0.0000006829
0.0000201130
-0.0000107788
-0.0000074310
0.0000148484
0.0000716524
-0.0000036892
-0.0000146852
0.0000930261
0.0000326713
0.0000151580
-0.0000103786
0.0000200388
0.0000226057
-0.0000022118
0.0000035715
0.0000094095
-0.0000149129
0.0000018139
-0.0000050470
0.0000782922
-0.0000048634
0.0000204868
0.0000499429
-0.0000105047
-0.0000013339
0.0000060008
0.0000612171
-0.0000119404
-0.0000116465
-0.0000134461
-0.0000002580
-0.0000152900
0.0000011661
-0.0000142154
0.0000993694
0.0000248425
0.0000042554
-0.0000045226
0.0000752072
0.0000277798
-0.0000034740
-0.0000104304
0.0000124845
0.0000130958
0.0000350060
-0.0000028629
-0.0000098274
-0.0000111909
0.0000107224
0.0000386904
0.0000165712
0.0000147865
-0.0000010603
0.0000443260
0.0000038012
0.0000130568
0.0000710877
0.0000164047
0.0000397804
-0.0000108598
0.0000271817
0.0000293030
0.0000294858
0.0000474806
-0.0000011930
0.0000372646
0.0000104933
-0.0000084803
-0.0000089190
0.0000003073
0.0001075491
0.0000005848
-0.0000063277
0.0000470064
0.0000040162
0.0000026920
0.0000464235
0.0000054066
0.0000046022
0.0000295257
-0.0000096127
-0.0000016324
0.0000169539
0.0000673873
0.0000068672
-0.0000018914
0.0000695686
-0.0000108102
0.0000201825
0.0000314301
0.0000305052
-0.0000139916
-0.0000106688
0.0000100122
0.0000161558
-0.0000108736
-0.0000067190
0.0000095280
0.0000458202
-0.0000127333
0.0000290729
-0.0000104947
-0.0000147679
-0.0000124709
0.0000084107
0.0000177186
0.0000217652
-0.0000030633
0.0000106622
-0.0000118349
0.0001376082
-0.0000063924
0.0000228868
-0.0000025309
-0.0000044352
0.0000232648
0.0000458840
0.0000210695
-0.0000088131
-0.0000142223
0.0000235401
-0.0000118745
0.0000055524
0.0000966442
-0.0000047646
-0.0000144471
-0.0000112356
0.0000230418
-0.0000129842
0.0000370146
-0.0000135769
0.0000026041
0.0000058244
0.0000418434
0.0000105195
-0.0000114048
0.0000688402
0.0000153310
0.0000195248
0.0000638328
0.0000652951
0.0000663519
-0.0000141338
-0.0000093385
-0.0000004009
0.0000178467
0.0000405019
0.0000132663
0.0000493165
-0.0000125500
0.0000034498
-0.0000107051
0.0000180552
0.0000231962
0.0000009856
0.0000104052
0.0000005165
0.0000173914
0.0000129974
-0.0000088093
-0.0000019276
0.0000431550
-0.0000138167
0.0000273178
0.0000489306
0.0000343187
-0.0000085203
0.0000065524
-0.0000105490
-0.0000018577
0.0000097311
0.0000029333
0.0000077906
0.0000057091
0.0000001151
-0.0000093783
-0.0000011065
0.0000139797
0.0000098425
-0.0000127903
0.0000198903
0.0000268309
0.0000414421
0.0000313664
0.0000075478
0.0000914132
0.0000582876
0.0000257138
-0.0000013616
0.0000447281
-0.0000082336
-0.0000102790
0.0000060691
0.0000627557
0.0000720232
-0.0000135122
-0.0000098382
-0.0000091969
-0.0000092882
0.0000137004
0.0000427388
-0.0000078373
0.0000324200
0.0000223860
-0.0000011565
0.0000056474
-0.0000116499
-0.0000136917
0.0000672745
0.0000077880
0.0000146416
0.0000413726
0.0000141206
-0.0000100174
0.0000135270
0.0000002687
0.0000218496
0.0000178174
-0.0000126114
0.0000101006
0.0000567760
0.0000093200
-0.0000102226
0.0000333710
0.0000012044
-0.0000032622
-0.0000025102
0.0000546078
0.0000507182
0.0000303386
-0.0000092253
0.0000028295
0.0000190087
-0.0000009447
0.0000109777
0.0000142683
0.0001180550
-0.0000100864
0.0000101460
-0.0000074118
-0.0000118044
0.0000036730
-0.0000094188
0.0000112536
-0.0000143460
0.0000053370
-0.0000089498
0.0000452292
0.0000156673
0.0000068335
0.0000022069
-0.0000042497
0.0000007492
0.0000215966
0.0000284259
0.0000677504
0.0000501160
0.0000067060
0.0000272358
-0.0000119956
0.0000205649
0.0000154219
0.0000573155
0.0001488311
0.0000666774
-0.0000083809
-0.0000034386
-0.0000145700
0.0000190254
0.0000210632
0.0000275552
0.0000456005
-0.0000086779
-0.0000145932
-0.0000141799
0.0000259146
0.0000135096
-0.0000011669
0.0000140057
0.0000172925
0.0000174917
-0.0000142962
-0.0000021543
0.0000323117
-0.0000054010
0.0000344113
0.0000001022
0.0000088367
0.0000831642
-0.0000080204
0.0000329701
0.0000355796
-0.0000123613
0.0000156154
-0.0000130117
0.0000289910
0.0000118362
0.0000141833
-0.0000024606
0.0000189468
-0.0000120827
-0.0000065700
-0.0000114229
0.0000624382
-0.0000086201
-0.0000132045
-0.0000029960
0.0000308295
0.0000063399
-0.0000133891
0.0000325915
0.0000027456
0.0000104564
0.0000025217
0.0000195444
-0.0000083372
-0.0000047323
0.0000061185
0.0000187265
0.0000053627
0.0000356954
-0.0000131766
0.0000040309
-0.0000104654
-0.0000062149
0.0000122816
0.0001327509
0.0000048264
0.0000230915
0.0000074532
0.0000097815
-0.0000125742
0.0000347908
-0.0000094275
0.0000140221
0.0000005164
0.0000469550
-0.0000142665
0.0001436935
-0.0000081180
0.0000240776
0.0000503257
0.0000003018
-0.0000063098
0.0000091393
-0.0000067568
-0.0000069623
0.0000104294
0.0000106012
-0.0000003419
-0.0000043086
-0.0000051992
-0.0000038969
0.0000231106
0.0000316173
-0.0000107376
0.0000035663
0.0000112502
0.0000406964
0.0000162409
-0.0000010742
0.0000385465
-0.0000010758
0.0000303160
0.0000362065
0.0000083848
0.0000412718
-0.0000065770
-0.0000141398
0.0000095952
0.0000504511
0.0000223744
0.0000443878
0.0000072755
0.0000650313
-0.0000108930
0.0000009846
0.0000054852
0.0000010649
0.0000131379
0.0000805890
-0.0000090196
0.0000295554
0.0000554380
0.0000127619
-0.0000095005
0.0000230885
0.0000430062
0.0000117530
-0.0000044841
-0.0000048115
-0.0000122473
-0.0000143420
0.0000138246
0.0000246618
0.0000842583
0.0000027620
0.0000090251
-0.0000151113
-0.0000141601
0.0000028813
-0.0000055941
0.0000561197
-0.0000144936
-0.0000043857
-0.0000082160
0.0000530820
0.0000146620
-0.0000074456
0.0000104667
0.0000093362
-0.0000095242
0.0001094037
0.0000084834
-0.0000069841
0.0000165172
-0.0000043821
0.0000571530
0.0000187111
0.0000696368
0.0000515234
-0.0000091970
-0.0000144194
0.0000196636
-0.0000126256
0.0000010424
0.0000253453
0.0000493236
0.0000338671
-0.0000108592
0.0000414519
-0.0000002715
0.0000273827
0.0000143026
-0.0000134677
-0.0000098611
-0.0000061509
-0.0000070008
0.0000012551
-0.0000071361
-0.0000104598
-0.0000080561
-0.0000114611
-0.0000022034
-0.0000067380
0.0000517477
-0.0000037393
-0.0000006799
0.0000240285
-0.0000122489
-0.0000082930
0.0000591603
0.0000101797
-0.0000002118
0.0000065541
0.0000368962
-0.0000002656
0.0000216837
0.0000091295
0.0000045430
0.0000180578
0.0000454438
-0.0000027234
0.0000016991
0.0000265242
-0.0000007233
-0.0000112205
-0.0000147282
0.0000192778
0.0000571113
0.0000850010
0.0000011738
-0.0000146033
0.0000327367
0.0000020150
0.0000298244
-0.0000150777
-0.0000033795
0.0000003623
0.0000322272
-0.0000097175
0.0000191789
-0.0000063177
-0.0000007322
0.0000394978
-0.0000035205
0.0000186613
-0.0000138538
0.0000437480
0.0000098642
-0.0000058769
0.0001118599
-0.0000085670
0.0000043165
0.0000146702
0.0000125668
-0.0000022512
0.0000057654
0.0000013618
-0.0000136571
-0.0000139189
0.0000005007
0.0000241248
0.0000276966
-0.0000135663
-0.0000012587
0.0000046574
-0.0000081605
-0.0000149381
0.0000270392
-0.0000024713
-0.0000140492
-0.0000072312
0.0000063133
0.0000114788
-0.0000053140
0.0000099966
0.0000381928
-0.0000047068
-0.0000024847
-0.0000076343
0.0000935057
0.0000317599
0.0000535263
0.0000037350
0.0000291466
-0.0000090576
-0.0000095602
-0.0000134965
0.0000132214
-0.0000136473
-0.0000074778
0.0000345203
0.0000170557
-0.0000026137
0.0000490600
0.0000317994
0.0000222285
-0.0000012733
-0.0000101463
0.0000019550
-0.0000000874
0.0000036082
0.0000054917
0.0000432299
-0.0000093675
0.0000098100
0.0000092648
0.0000060351
0.0000175819
0.0000536101
0.0000264557
0.0000060107
-0.0000089176
0.0000214253
-0.0000139089
-0.0000082840
0.0000045655
0.0000105711
0.0000003741
0.0000116501
-0.0000069648
0.0000609824
0.0000043074
0.0000308930
0.0000501400
-0.0000052553
-0.0000070625
-0.0000003062
0.0000211128
0.0000028420
0.0000117615
-0.0000134236
-0.0000126056
0.0000439876
-0.0000004720
0.0000214919
-0.0000087280
0.0000121060
0.0000875289
0.0000445993
0.0000390332
-0.0000011844
0.0000952578
0.0000219653
0.0000098594
-0.0000079330
0.0000314788
-0.0000047337
-0.0000017925
-0.0000063985
-0.0000042475
-0.0000019526
0.0000501441
0.0000057396
0.0000010330
0.0000135544
0.0000027841
0.0000165749
-0.0000064238
0.0000095118
0.0000220188
-0.0000066691
0.0000053455
0.0000229126
0.0000302234
0.0000322634
-0.0000112686
0.0000251064
0.0000740440
0.0000165800
-0.0000042564
0.0000014722
0.0000099165
0.0000268613
0.0000578295
-0.0000075017
0.0000011690
0.0000404338
0.0000064489
-0.0000072491
-0.0000086039
0.0001596004
0.0000256214
0.0000298087
0.0000348354
-0.0000019901
0.0000253833
0.0000150724
0.0000308328
0.0000343034
0.0000069725
-0.0000105100
-0.0000025337
0.0000922621
0.0000276375
0.0000375267
-0.0000003058
0.0000200738
-0.0000074800
-0.0000065132
-0.0000141484
-0.0000046999
0.0000595063
0.0000120556
-0.0000008227
0.0000207287
-0.0000135390
-0.0000137588
-0.0000103649
-0.0000108176
0.0000055130
0.0000192842
0.0000005539
0.0000277532
0.0000212837
0.0000213367
-0.0000149007
-0.0000096435
0.0000511956
-0.0000071014
0.0000369285
0.0001002345
-0.0000112268
0.0000170711
-0.0000067924
0.0000058012
-0.0000137794
-0.0000084543
-0.0000088335
0.0000031921
-0.0000100714
-0.0000080054
-0.0000008632
0.0000289358
0.0000020635
0.0000029973
-0.0000075480
0.0000364782
0.0000078876
-0.0000052018
0.0000351970
-0.0000147522
0.0000092096
0.0000164925
0.0000032362
0.0000740226
0.0000167443
-0.0000034629
0.0000083817
-0.0000037462
0.0000068922
0.0000253696
0.0000017291
0.0000286769
0.0001291886
-0.0000136458
0.0000909856
0.0000167009
0.0000041077
-0.0000039288
0.0000015570
-0.0000069621
0.0000370741
-0.0000003492
-0.0000064302
0.0000921608
0.0000044433
-0.0000094900
-0.0000054560
0.0000639519
-0.0000108013
-0.0000101479
0.0000441174
0.0000016457
0.0000324863
-0.0000036451
0.0000012030
0.0000407287
0.0000767984
-0.0000119876
0.0000398039
0.0000485664
0.0000435954
-0.0000095671
-0.0000048652
0.0000277650
0.0000980729
0.0002129255
-0.0000009824
-0.0000069223
0.0000022753
-0.0000022838
0.0000057776
-0.0000137205
-0.0000022542
-0.0000075334
-0.0000149088
-0.0000062061
-0.0000141102
0.0000480437
0.0000725858
-0.0000054527
0.0000283042
0.0000187942
0.0000353093
0.0000235183
-0.0000128201
0.0000301045
-0.0000118087
-0.0000114159
0.0000041095
-0.0000134723
-0.0000005388
0.0000145379
-0.0000023116
-0.0000053707
0.0000448407
0.0000486198
-0.0000057125
0.0000108566
0.0000501934
0.0000186579
0.0000173344
-0.0000031039
0.0000147927
0.0000146691
0.0000147434
0.0000393885
0.0000362624
0.0000220791
-0.0000033104
0.0000349804
0.0000286033
0.0000452872
-0.0000053712
0.0000011580
0.0000454309
0.0000139424
-0.0000099761
0.0000025492
0.0000126870
-0.0000078441
-0.0000042376
0.0001071587
0.0001204963
-0.0000136223
-0.0000045961
0.0000140034
-0.0000012091
-0.0000061803
0.0000130004
0.0000332367
-0.0000137760
0.0000339444
-0.0000067288
0.0000263624
0.0000708899
-0.0000034118
0.0000296384
0.0000229827
0.0000043140
-0.0000104716
-0.0000128451
0.0000331092
0.0000897723
-0.0000040505
0.0000098874
0.0000362416
0.0000024074
0.0000493291
0.0000348895
-0.0000080504
0.0000119419
-0.0000029305
0.0000157537
-0.0000014500
0.0000392020
-0.0000007854
-0.0000044059
0.0000042243
0.0000029684
0.0000011250
0.0000046701
0.0000254126
0.0000001141
0.0000256986
-0.0000130674
-0.0000092379
0.0000095784
0.0000078060
-0.0000030158
-0.0000069922
0.0000593202
-0.0000086245
0.0000346211
0.0000456737
0.0001173352
0.0000028890
0.0000027451
0.0000151020
-0.0000137524
-0.0000135328
-0.0000106197
0.0000229728
-0.0000013416
-0.0000054626
-0.0000080569
0.0000111803
-0.0000024648
-0.0000092835
0.0000202864
-0.0000076951
-0.0000084597
0.0000191290
0.0000110345
0.0000029296
-0.0000143855
-0.0000017498
0.0000082783
-0.0000031853
-0.0000123088
0.0000163483
0.0000539087
0.0000177901
-0.0000024210
-0.0000030791
-0.0000029056
0.0000488933
0.0000190782
-0.0000013418
0.0000160296
0.0000012929
0.0000155102
0.0000437501
-0.0000141059
0.0000081337
0.0000206310
0.0000092076
-0.0000010770
0.0000035136
0.0000928114
-0.0000147959
0.0000244741
-0.0000061297
-0.0000076538
-0.0000033486
-0.0000073655
-0.0000062835
-0.0000102403
0.0000611582
-0.0000086592
0.0000959831
-0.0000069995
-0.0000058345
0.0000512039
0.0000491526
-0.0000137139
0.0000787246
0.0000130366
-0.0000142225
-0.0000120730
-0.0000003842
0.0000072758
0.0001073396
-0.0000012444
-0.0000074363
0.0000501151
0.0000428222
0.0000498671
0.0000095255
0.0000005986
0.0000121333
-0.0000026863
0.0000002073
-0.0000108102
-0.0000015943
-0.0000119843
0.0000173951
0.0000109017
0.0000081027
-0.0000123285
-0.0000036199
0.0000297576
-0.0000027796
-0.0000109070
-0.0000127661
-0.0000000418
-0.0000124359
-0.0000145018
0.0000073459
0.0000406217
0.0001352497
0.0000375539
0.0000804253
0.0000372216
0.0000041479
-0.0000104723
-0.0000044683
0.0000048985
0.0000076733
-0.0000002467
0.0000237144
0.0000053246
-0.0000077107
-0.0000137573
-0.0000128659
0.0000068543
-0.0000014713
-0.0000120551
0.0000493071
-0.0000055150
-0.0000069060
0.0000318589
0.0000442131
-0.0000105721
-0.0000100096
0.0000422065
0.0000199282
-0.0000055474
-0.0000097364
0.0000185911
0.0000259689
0.0000033744
-0.0000086199
0.0000116352
0.0000307327
0.0000350393
-0.0000022506
-0.0000041771
0.0000065564
0.0001114808
0.0000356168
0.0000266891
-0.0000015572
-0.0000109869
0.0000181423
0.0000448282
-0.0000000575
0.0001326817
0.0001025637
0.0000340478
-0.0000141815
0.0000223677
0.0000363550
0.0000561282
-0.0000085040
0.0000653546
0.0000155462
0.0001446197
0.0000346902
-0.0000052248
-0.0000108590
-0.0000022977
-0.0000121659
-0.0000146136
0.0000688708
-0.0000030826
-0.0000141087
0.0000649025
-0.0000116279
-0.0000120436
0.0000258303
-0.0000000571
-0.0000018578
0.0000713475
-0.0000056558
0.0000076687
0.0000336307
-0.0000117200
0.0000158361
0.0000098750
-0.0000018847
-0.0000123643
-0.0000139009
-0.0000005156
-0.0000150061
0.0001239047
-0.0000047153
-0.0000091889
0.0000060983
0.0000649630
0.0000355126
0.0000146557
0.0000016410
-0.0000140978
0.0000286644
-0.0000143897
-0.0000082236
-0.0000023341
-0.0000091344
0.0000086140
-0.0000092267
0.0000178569
0.0000359651
-0.0000146550
0.0000188820
-0.0000139594
0.0000184404
0.0000824716
0.0000153220
0.0000760196
-0.0000102273
0.0000422963
-0.0000092524
-0.0000090533
0.0000310555
-0.0000045969
-0.0000114657
-0.0000083468
-0.0000058489
-0.0000020582
0.0000004579
0.0000190463
-0.0000067253
0.0000604168
0.0000435137
0.0000334746
0.0000131094
0.0000028927
0.0000114637
0.0000590069
0.0000044434
0.0001430794
0.0000400016
0.0000076635
0.0001360080
0.0000097352
0.0000159695
0.0000331317
0.0000166991
0.0000140298
-0.0000008222
-0.0000115588
0.0000100676
0.0000012783
0.0000021618
-0.0000101017
0.0000089259
0.0000266346
0.0000177815
-0.0000087217
0.0000791848
-0.0000058109
0.0000057670
0.0000023357
-0.0000134726
0.0000109466
-0.0000039521
0.0000353682
0.0000001183
0.0000400365
-0.0000097583
0.0001320175
-0.0000036111
-0.0000070769
0.0000487522
0.0001594492
0.0000635366
-0.0000051127
-0.0000126399
-0.0000123207
0.0000326590
-0.0000048188
0.0000981653
0.0000491206
-0.0000124753
0.0000559491
0.0000273685
0.0000152962
0.0000043188
-0.0000060429
-0.0000150785
0.0000082741
0.0000222207
-0.0000138922
0.0000043687
0.0000649859
-0.0000096967
0.0000643035
0.0000090459
0.0000135424
0.0000048372
0.0000441873
0.0000380739
0.0000015773
0.0000198705
0.0000150330
0.0000110437
-0.0000146144
0.0000009226
0.0000157089
0.0000178261
0.0000369695
0.0000216360
0.0000132989
-0.0000101640
-0.0000077676
-0.0000071650
0.0000056894
-0.0000126998
0.0000057789
-0.0000123654
0.0000005307
-0.0000115386
-0.0000129779
-0.0000135065
0.0000326803
0.0000239408
0.0000532642
-0.0000121748
0.0000007632
0.0000147853
0.0000515018
-0.0000057887
0.0000764029
0.0000245267
-0.0000107674
-0.0000043394
0.0000081414
-0.0000062706
0.0000034769
-0.0000049640
0.0000068034
-0.0000050547
0.0000177644
0.0000041679
0.0000059424
0.0000538610
-0.0000146589
0.0001306381
0.0000271984
0.0000383062
-0.0000006328
0.0000311344
-0.0000147078
0.0000055784
-0.0000078745
0.0000091997
-0.0000051187
0.0000121292
0.0000703923
0.0000099417
0.0000295852
0.0000334631
-0.0000105529
0.0000569616
0.0000501561
0.0000273864
-0.0000153346
0.0000357428
0.0000089622
0.0000750966
0.0000759905
0.0000242047
0.0000534111
0.0000005017
-0.0000144217
0.0000346560
-0.0000100974
-0.0000093820
-0.0000037829
0.0000814250
0.0001046397
0.0000197031
0.0000511619
0.0000196643
-0.0000107326
-0.0000021494
-0.0000026023
0.0000009023
0.0000510232
0.0000212676
0.0000223246
-0.0000126954
-0.0000096377
-0.0000120391
-0.0000042616
0.0000825957
0.0000179209
0.0000559224
0.0000135141
-0.0000128162
0.0000446751
0.0000362662
0.0000165598
-0.0000007994
-0.0000031846
0.0000088803
-0.0000095995
0.0000101712
0.0000026702
0.0000043611
-0.0000040036
0.0000056270
-0.0000102499
-0.0000100416
0.0000014892
0.0000322020
-0.0000055848
0.0000110701
-0.0000108836
-0.0000091221
0.0000232896
-0.0000002448
0.0000060091
0.0000098995
0.0000155356
0.0000919331
-0.0000072828
0.0000514308
0.0000012186
-0.0000000174
0.0000399029
0.0000287083
-0.0000141177
0.0000156395
-0.0000144229
0.0000985690
0.0000280668
0.0000593599
0.0000307841
-0.0000051871
0.0000381112
0.0000690359
-0.0000020626
-0.0000043846
0.0000635925
-0.0000021601
-0.0000113507
0.0000164995
0.0000091189
-0.0000150580
-0.0000057528
0.0000729522
0.0000001713
-0.0000013918
-0.0000130828
0.0000595452
0.0000289930
0.0000045217
-0.0000024907
0.0000581818
-0.0000081404
0.0000209132
-0.0000024181
0.0000086121
0.0000073934
0.0000208155
0.0000160951
0.0000040812
-0.0000088837
0.0000433171
0.0000838532
-0.0000016600
-0.0000140661
0.0000019157
-0.0000052425
-0.0000065393
0.0000625942
0.0000047133
0.0000441082
0.0000270651
0.0000735021
-0.0000080368
0.0000336902
-0.0000149013
-0.0000119758
-0.0000003376
0.0000326929
-0.0000124450
0.0000849072
0.0000237315
0.0000487621
0.0000093573
0.0000059983
-0.0000038744
-0.0000137258
0.0000057799
0.0000044252
-0.0000048859
0.0000514345
0.0000103531
-0.0000143305
-0.0000110455
0.0000411192
-0.0000009839
0.0000039864
0.0000417905
0.0000159839
0.0000224734
0.0000264824
-0.0000065622
-0.0000008153
-0.0000057003
0.0000120384
0.0000153780
0.0000000353
0.0000548457
-0.0000073561
0.0000419112
0.0000025655
0.0000093497
-0.0000144555
-0.0000088716
-0.0000036859
0.0000556519
0.0000000663
0.0000548909
0.0000059069
0.0000170737
0.0001159855
0.0000503169
-0.0000129720
-0.0000071800
0.0000036082
0.0000298104
0.0000166440
-0.0000100564
-0.0000031447
0.0001066099
0.0000105213
-0.0000036351
-0.0000019690
-0.0000112849
-0.0000006109
0.0000187404
0.0000130613
0.0000231634
0.0000247081
0.0000083721
-0.0000064729
-0.0000018643
-0.0000017622
0.0000413120
0.0000070879
0.0000045748
-0.0000102034
0.0000203917
0.0000131616
0.0000056803
-0.0000142017
-0.0000097030
-0.0000138031
0.0000097281
0.0000005165
0.0000277998
-0.0000071187
-0.0000084960
0.0000050939
-0.0000116290
-0.0000113615
0.0000128364
0.0000289072
0.0000330420
0.0000532205
0.0000019353
0.0000263799
0.0000747520
-0.0000149976
0.0000078842
0.0001393123
-0.0000074138
0.0000015902
0.0000529921
0.0000120691
0.0000001581
0.0000070792
-0.0000102381
-0.0000059490
0.0000548636
0.0000040003
0.0000001504
0.0000519587
-0.0000140560
0.0000297871
0.0000216664
-0.0000148788
-0.0000106034
0.0000338220
0.0000075222
0.0000191998
0.0000316280
-0.0000112009
0.0001408312
0.0000779763
0.0000235015
0.0000168872
0.0000014431
-0.0000054328
-0.0000115337
-0.0000042224
0.0000299055
0.0000006638
0.0000804512
0.0000189262
0.0000025863
-0.0000103217
-0.0000066311
0.0000031642
0.0000414142
-0.0000076963
0.0000000220
0.0000882350
0.0000311087
-0.0000047448
-0.0000134865
0.0000164117
-0.0000009749
0.0000258955
-0.0000021272
0.0000070350
0.0000380879
0.0000543869
0.0000373310
-0.0000024705
0.0000124221
-0.0000056926
0.0000069466
0.0000168320
0.0000044249
-0.0000007508
0.0000130178
0.0000588465
0.0000261020
-0.0000108651
-0.0000026640
0.0000000673
0.0000086655
0.0000014091
0.0000299338
0.0000215860
0.0000719778
0.0000539587
0.0000091583
0.0000545806
-0.0000137330
0.0000528903
0.0000047350
0.0000002584
0.0000088992
0.0000138305
0.0000033849
-0.0000143289
-0.0000125750
0.0000433389
0.0000014822
-0.0000128482
-0.0000118022
-0.0000058305
-0.0000109632
0.0000060792
0.0001606313
-0.0000045917
0.0000084988
0.0000453601
0.0000006159
0.0000088513
0.0000831574
0.0000635172
0.0000206702
-0.0000110187
-0.0000082952
0.0000027360
0.0000334207
0.0000316517
-0.0000127945
0.0001181878
0.0000063663
-0.0000143109
-0.0000139464
-0.0000135239
0.0000951468
0.0000095114
0.0000063887
0.0000000611
0.0000129909
0.0000444221
0.0000109283
0.0000167579
-0.0000104617
0.0000176468
0.0000289421
0.0000816149
0.0000100828
-0.0000079860
-0.0000088008
-0.0000142786
0.0000408205
-0.0000010703
0.0000266690
0.0001542374
-0.0000011730
0.0000227781
-0.0000122773
0.0000089526
-0.0000130371
0.0000039814
0.0000118438
0.0000490668
0.0000073261
0.0000386075
0.0000049523
0.0000279564
-0.0000121676
-0.0000108031
0.0000030570
-0.0000139773
-0.0000062549
-0.0000017503
-0.0000144206
-0.0000110787
0.0000575944
0.0000204892
-0.0000072772
0.0000300944
0.0000091679
0.0000153512
0.0001077181
-0.0000091874
0.0000500072
0.0000411421
-0.0000086771
-0.0000081865
0.0000005784
-0.0000039866
0.0000066598
-0.0000076173
0.0000230657
0.0000219012
-0.0000023624
0.0000026428
-0.0000033628
-0.0000142712
0.0000129920
0.0000064516
-0.0000074414
0.0000173247
0.0000101541
-0.0000116970
0.0000164496
0.0000354254
0.0000222110
-0.0000141448
0.0000576467
0.0000588389
0.0000070472
-0.0000137197
0.0000121437
0.0000183483
0.0000200903
0.0000006596
-0.0000134725
-0.0000128481
0.0000534716
-0.0000070363
0.0000315805
0.0000606926
0.0000084472
0.0000588725
0.0000005325
-0.0000048434
0.0000199903
0.0000389578
0.0000730463
0.0000007450
-0.0000148454
0.0000120223
0.0000055564
-0.0000102030
0.0000236646
-0.0000059433
0.0000249161
0.0000017390
-0.0000095884
0.0000774643
-0.0000128738
-0.0000097598
0.0000004639
-0.0000150925
-0.0000073707
0.0000220154
0.0000136466
-0.0000107284
0.0000025563
-0.0000017315
0.0001074820
0.0000653799
0.0000335114
0.0000275923
-0.0000008493
-0.0000004360
0.0000043773
0.0000603081
0.0000161177
-0.0000020784
0.0000009945
-0.0000150498
-0.0000033960
-0.0000021653
0.0000159749
0.0000095104
-0.0000073546
-0.0000075917
0.0000260713
0.0000654280
0.0000117749
0.0000253600
-0.0000106395
0.0000337152
0.0000190611
0.0000425480
-0.0000142021
-0.0000090544
0.0000240900
-0.0000011964
-0.0000081112
0.0000264018
0.0000206139
0.0000230606
0.0000456374
0.0000064203
0.0000227078
-0.0000070060
0.0000203802
0.0000094135
0.0000102169
0.0000525936
0.0000037756
-0.0000113558
0.0000315836
0.0000104674
0.0000385767
0.0000129624
0.0000527475
0.0000079220
0.0000127943
0.0000513210
0.0000086387
-0.0000116401
-0.0000094452
0.0000030894
0.0000323455
0.0000278488
0.0000680399
-0.0000105927
-0.0000023539
-0.0000119834
0.0000442425
-0.0000076846
-0.0000095189
0.0001101284
-0.0000104481
-0.0000088452
0.0000027200
-0.0000141584
-0.0000148689
0.0000029433
0.0000408731
0.0000090104
0.0000147473
0.0000134791
0.0000169914
0.0000250271
-0.0000050253
0.0000040347
-0.0000006588
-0.0000072519
0.0000338634
-0.0000143464
-0.0000076328
-0.0000057887
0.0000106785
-0.0000142032
-0.0000039366
0.0000135282
-0.0000118445
0.0000026927
0.0000275737
0.0000244964
-0.0000027669
0.0000539523
-0.0000042964
-0.0000012448
0.0000336245
-0.0000006281
-0.0000107146
0.0000145230
-0.0000111734
-0.0000080743
0.0000378546
-0.0000082774
-0.0000147246
-0.0000103531
0.0000078496
-0.0000099517
-0.0000011780
0.0000286033
0.0000915877
0.0000035542
0.0000799134
0.0001036021
0.0000983815
0.0000462180
0.0000365946
0.0000007891
-0.0000111520
0.0000223158
0.0000062180
-0.0000111235
0.0000019804
0.0000340834
-0.0000131980
0.0000474357
0.0000569371
0.0000709619
-0.0000029550
0.0001016010
0.0000078596
0.0000045977
-0.0000113140
0.0000204478
0.0000624303
-0.0000136769
-0.0000139708
0.0000241396
0.0000039866
-0.0000120508
-0.0000064142
0.0000209580
0.0000491381
0.0000451832
-0.0000021488
0.0000358292
0.0000417708
-0.0000107518
0.0000246154
0.0000004025
-0.0000071831
-0.0000121648
-0.0000095413
-0.0000099584
-0.0000096789
0.0000233531
-0.0000109033
-0.0000145908
-0.0000051454
0.0000999898
0.0000042076
-0.0000003178
-0.0000051540
-0.0000015049
-0.0000015921
0.0000020640
-0.0000036039
0.0000189465
0.0000298749
-0.0000033734
0.0000002042
-0.0000066951
0.0000215808
-0.0000040907
0.0000420065
0.0000107961
-0.0000040135
0.0000297384
0.0000839912
0.0000341841
0.0000076659
-0.0000121834
-0.0000131529
0.0000281192
-0.0000032980
-0.0000112533
-0.0000095325
0.0000021208
-0.0000029175
-0.0000033173
0.0000293897
0.0000148999
-0.0000092081
-0.0000046807
0.0000372373
0.0000149720
0.0000446836
0.0000082730
-0.0000002375
0.0000336103
0.0000278484
-0.0000030165
0.0000220142
0.0000155170
0.0000216602
-0.0000113886
0.0000024044
-0.0000058351
0.0000470558
0.0000090755
-0.0000094708
0.0000402784
0.0000267959
0.0000037568
0.0000118681
-0.0000122063
0.0000125583
0.0000969230
0.0000219647
0.0000651135
0.0000007685
0.0000174792
-0.0000066157
0.0000576986
0.0000588977
0.0000399305
0.0000123690
0.0000072338
0.0000029002
0.0000599145
-0.0000024657
0.0000192987
0.0001284135
-0.0000140369
-0.0000036409
0.0000048376
0.0000074571
0.0000291035
0.0000736896
0.0000135275
-0.0000063217
0.0000235767
0.0000051938
-0.0000142292
-0.0000037264
0.0000103509
-0.0000039555
-0.0000020590
0.0000717003
0.0000080828
0.0000051377
0.0000095944
-0.0000100478
-0.0000094746
0.0000004496
0.0000104100
-0.0000130001
0.0000299371
-0.0000118998
0.0000773005
-0.0000123394
0.0000022681
0.0000062527
0.0000018127
0.0000218753
0.0000056368
0.0000013770
0.0000016824
0.0000392888
0.0000287136
0.0000050798
0.0000352047
-0.0000045695
0.0000124859
-0.0000064716
0.0000393698
-0.0000052044
0.0000027412
0.0000270312
-0.0000033344
0.0000472273
0.0000002549
0.0000318640
-0.0000064537
-0.0000105050
0.0001588173
0.0000063483
0.0000086289
0.0000046339
-0.0000079411
0.0000179697
0.0000387142
0.0002200397
0.0000546384
0.0000266342
0.0000212214
-0.0000149819
-0.0000007960
-0.0000042251
-0.0000032188
-0.0000147510
-0.0000057263
0.0000078797
0.0000339688
0.0000064425
0.0001073650
0.0000224128
-0.0000148593
-0.0000103505
0.0000005230
0.0000285249
0.0000043169
-0.0000027951
0.0001217510
0.0000785536
0.0000778686
0.0000783326
-0.0000034873
-0.0000038512
-0.0000140405
0.0000745164
0.0000297377
-0.0000096392
-0.0000119825
-0.0000113324
0.0000030108
-0.0000065099
0.0000203539
-0.0000142762
0.0000703659
-0.0000140596
-0.0000146115
0.0000198865
-0.0000147250
0.0000090295
0.0000586758
0.0000075682
0.0000206193
0.0000039120
0.0000111517
-0.0000071807
0.0000017036
-0.0000046482
0.0000002810
-0.0000065783
0.0000186219
0.0000207995
0.0000431489
-0.0000065732
0.0000001663
0.0000181654
0.0000072532
0.0000377056
0.0000134875
0.0000897457
-0.0000117968
0.0000004166
0.0000010536
-0.0000109370
-0.0000114261
0.0000504459
0.0000482248
0.0000057456
0.0000107892
-0.0000123494
0.0000005566
0.0000404682
-0.0000120629
0.0000210331
0.0000161980
-0.0000147916
-0.0000138816
0.0000306295
0.0000041331
-0.0000146886
0.0000781440
0.0000196393
-0.0000142824
-0.0000068838
-0.0000102611
-0.0000069945
0.0000041490
0.0000220535
-0.0000003849
0.0000067192
0.0000401370
0.0000269761
0.0000749402
0.0000355698
-0.0000122718
0.0000331531
0.0000134906
0.0000273759
0.0000087952
0.0000071721
0.0000206482
0.0000130582
0.0000099163
-0.0000007420
-0.0000026732
0.0000099178
0.0000375909
-0.0000093602
0.0000097514
-0.0000144578
0.0000281943
0.0000388108
-0.0000072786
-0.0000027522
-0.0000087455
0.0000382789
-0.0000050934
-0.0000039040
0.0000257733
-0.0000054628
0.0000603786
-0.0000048999
0.0000118195
0.0000405450
0.0000293335
0.0000072369
0.0000011436
-0.0000022044
0.0000549896
-0.0000076499
0.0000199403
-0.0000049359
0.0000150324
0.0000057291
0.0000193151
-0.0000064359
0.0000096341
-0.0000038506
0.0000078423
-0.0000118000
0.0000102214
-0.0000039372
0.0001044325
0.0001331318
0.0001074675
0.0000154302
0.0000341073
-0.0000009182
0.0000180882
-0.0000027996
0.0000362239
0.0000098996
0.0000083882
-0.0000127181
-0.0000105767
-0.0000140630
-0.0000137619
0.0000177075
-0.0000112192
0.0000073402
-0.0000074665
0.0000119203
0.0000699283
0.0000006823
0.0000104078
0.0000523697
0.0000064928
0.0000730480
0.0000841737
0.0000062897
-0.0000043073
-0.0000121121
0.0001638644
-0.0000144364
-0.0000055927
-0.0000090799
0.0000595829
-0.0000078157
-0.0000048895
-0.0000027038
0.0000481210
0.0000147277
0.0000654876
0.0000033209
0.0000159673
0.0000500395
-0.0000123047
0.0000131499
0.0000148928
0.0000032021
0.0000230387
-0.0000081551
0.0000200272
0.0000180826
-0.0000000381
0.0000249690
0.0000183209
-0.0000138731
0.0000103747
0.0000088949
0.0000412988
-0.0000091519
0.0000308581
-0.0000058640
-0.0000131022
0.0000593874
0.0000048976
0.0000058234
0.0000016979
0.0001912897
0.0000083694
0.0000488743
0.0000573837
0.0000080364
0.0000075117
-0.0000130009
-0.0000016850
-0.0000015420
-0.0000018978
-0.0000117049
0.0000091198
-0.0000125924
-0.0000095155
-0.0000131121
0.0000704024
-0.0000105045
-0.0000120658
0.0000118127
-0.0000144179
0.0000752871
-0.0000086192
0.0000128072
-0.0000091243
0.0000061231
-0.0000090172
0.0000382148
0.0000132444
0.0000091835
0.0000926185
0.0000187894
-0.0000122640
0.0000380040
-0.0000055967
0.0000081713
0.0000027718
-0.0000034182
-0.0000143308
0.0000105814
-0.0000023719
-0.0000076534
0.0000237283
0.0000085292
-0.0000082836
0.0000262566
0.0000037395
0.0000042156
0.0000332840
0.0000462104
-0.0000143894
-0.0000149771
0.0000167408
-0.0000140883
-0.0000139203
0.0000256439
0.0000222360
-0.0000083792
0.0000262028
0.0000078375
0.0000644577
-0.0000098593
0.0000276085
0.0000436173
-0.0000131515
0.0000155486
-0.0000078375
-0.0000092235
-0.0000002672
0.0000101389
-0.0000147612
0.0000262095
0.0000137405
0.0000037183
-0.0000074312
-0.0000113160
-0.0000108277
-0.0000102977
-0.0000117504
0.0000034286
-0.0000050596
-0.0000065531
0.0000103636
-0.0000077723
-0.0000125620
0.0000451063
-0.0000006542
0.0000037170
0.0000175280
-0.0000122468
-0.0000038161
0.0000003147
-0.0000007444
0.0000038851
0.0000114698
0.0000180325
0.0000063879
0.0001723040
-0.0000084806
-0.0000126198
-0.0000079383
-0.0000065802
-0.0000036277
0.0000022286
-0.0000144366
0.0000238727
0.0000237573
0.0000184450
0.0000255994
-0.0000075640
0.0000680131
-0.0000115619
0.0000611801
-0.0000116290
-0.0000140988
-0.0000142872
0.0000432311
0.0000028788
0.0000371887
-0.0000110951
0.0000001150
-0.0000062507
0.0000915819
-0.0000111540
0.0000336365
-0.0000031670
-0.0000048837
0.0000955265
-0.0000058134
0.0000176119
0.0000916537
-0.0000134099
0.0000002471
-0.0000114147
-0.0000050237
-0.0000024924
-0.0000067063
0.0000534389
-0.0000149025
0.0000161889
-0.0000077289
-0.0000070842
0.0000239716
0.0000030220
0.0000144885
0.0000006749
0.0000186207
-0.0000111571
-0.0000006902
-0.0000070918
0.0000253676
-0.0000080737
-0.0000084362
-0.0000041405
-0.0000042500
-0.0000101689
-0.0000112622
-0.0000029947
0.0000136141
0.0000766385
0.0000104241
0.0000097739
0.0000001562
0.0000405978
0.0000575011
0.0000277066
0.0000020394
-0.0000108755
0.0000397382
-0.0000067631
0.0000582113
-0.0000079903
0.0000118640
0.0000064830
0.0000182325
-0.0000080634
0.0000263278
0.0000122167
-0.0000142932
0.0000103453
0.0000068077
0.0000022846
-0.0000135122
0.0000415086
-0.0000119908
0.0000063737
0.0000462765
0.0000371401
0.0000159649
-0.0000130206
0.0000067743
0.0000016597
0.0000143785
0.0000090972
-0.0000136566
0.0000107933
0.0000167195
-0.0000022637
0.0000168290
0.0000083518
0.0000763478
0.0000306489
-0.0000127397
0.0000038471
0.0000201232
0.0000068791
0.0000166964
-0.0000126565
-0.0000133618
-0.0000104990
-0.0000015203
0.0000107688
0.0001152897
0.0000429718
-0.0000137071
0.0000264686
0.0000094860
-0.0000145421
-0.0000094353
-0.0000087765
-0.0000141929
-0.0000101968
-0.0000018798
0.0001318089
-0.0000068656
0.0000306044
0.0000254630
0.0000078911
-0.0000126282
0.0000051328
-0.0000008397
0.0000189763
0.0000066008
-0.0000055942
-0.0000031864
-0.0000108246
-0.0000019395
0.0000097003
0.0000071827
-0.0000026295
-0.0000119096
-0.0000020622
0.0000094532
0.0000082371
0.0000007886
0.0000074778
-0.0000150425
0.0001127000
-0.0000020372
0.0000997264
0.0000206222
-0.0000030358
0.0000207903
0.0000020399
0.0000632236
0.0000352009
0.0000018877
0.0000229550
0.0000109433
-0.0000094208
0.0000455518
0.0000318628
-0.0000147567
-0.0000045745
0.0000079948
-0.0000088609
-0.0000035021
-0.0000045185
-0.0000134977
-0.0000007634
0.0000071843
0.0000150153
-0.0000124990
0.0000021751
-0.0000010576
-0.0000036498
-0.0000050416
-0.0000084260
0.0000221000
0.0000092507
0.0000119871
0.0000253088
0.0000116248
-0.0000000193
-0.0000032409
0.0000717619
0.0000409144
0.0000427889
0.0000473547
0.0000172166
-0.0000140936
-0.0000086215
-0.0000077131
0.0000051824
-0.0000039010
0.0000155393
-0.0000127229
0.0000040386
0.0000144530
0.0000118564
0.0000069321
0.0000036294
-0.0000069681
0.0000329846
0.0000200178
0.0000100143
-0.0000121415
-0.0000126277
0.0000733576
-0.0000031511
0.0000277126
0.0000130267
-0.0000139452
0.0000256257
0.0000857185
-0.0000020150
-0.0000035329
0.0000306177
0.0000145928
-0.0000022147
-0.0000073337
-0.0000082276
-0.0000041131
0.0000012758
-0.0000057579
-0.0000041473
-0.0000140512
0.0000170249
0.0000033446
0.0000256658
-0.0000011252
0.0000009043
0.0000370122
-0.0000019006
-0.0000041720
0.0000112066
-0.0000110362
0.0000162906
-0.0000077554
-0.0000002197
-0.0000115841
-0.0000009330
0.0000154155
0.0000032222
0.0000082237
-0.0000148825
-0.0000009641
0.0000055683
0.0000003039
-0.0000085549
-0.0000074527
-0.0000120849
-0.0000048989
0.0000110265
0.0000277109
-0.0000042970
-0.0000066439
0.0000062722
-0.0000124645
-0.0000103826
-0.0000096544
0.0001076145
-0.0000122814
-0.0000054979
0.0000445927
-0.0000047909
-0.0000088412
0.0000043285
-0.0000043797
-0.0000105976
0.0000050541
-0.0000014931
0.0000218236
-0.0000047153
0.0000000561
-0.0000148209
-0.0000072290
-0.0000106515
-0.0000097634
-0.0000096278
-0.0000006912
0.0000267748
0.0001156897
0.0000193873
0.0000118241
-0.0000056356
0.0000316814
-0.0000114859
0.0000493096
0.0000404107
-0.0000002328
-0.0000089456
0.0000042680
0.0000215368
-0.0000135494
-0.0000145845
0.0000096555
0.0000371932
0.0000395650
-0.0000144023
0.0000089418
0.0000807992
-0.0000065197
0.0000271601
0.0000161509
0.0000956584
-0.0000122688
0.0000091759
0.0000089763
0.0000277149
0.0000028453
-0.0000055933
0.0001108976
0.0000102506
0.0000148123
0.0000187993
0.0000119508
-0.0000065362
-0.0000087718
-0.0000104928
0.0000044780
0.0000269603
-0.0000050964
0.0000063134
0.0000051935
0.0000014718
0.0000534558
-0.0000068751
0.0000142264
0.0000372496
-0.0000075313
0.0000014748
0.0000015094
0.0000209361
0.0000003670
0.0000086832
0.0000176882
-0.0000013897
0.0000225072
0.0000332358
0.0000124894
0.0000070158
-0.0000147906
0.0000042551
0.0000085406
0.0000680706
-0.0000142050
-0.0000130031
-0.0000127165
0.0000073857
-0.0000062178
-0.0000010561
-0.0000086197
0.0000177073
0.0000241867
0.0000111964
0.0000201103
0.0000144093
-0.0000042177
0.0000088252
0.0000106144
0.0000352620
0.0000029351
-0.0000097804
0.0000157726
-0.0000106685
0.0000016499
0.0000046865
0.0000259072
0.0000039435
0.0000333485
0.0000083624
0.0000002976
0.0000270416
0.0000107757
0.0000168448
0.0000263868
-0.0000100981
0.0000204166
0.0000088140
-0.0000058168
0.0000460150
0.0000280777
-0.0000102681
-0.0000051384
0.0000206788
0.0000320333
0.0000190431
-0.0000041903
0.0000311029
0.0000366456
-0.0000012786
0.0000931317
0.0000315036
0.0000206480
0.0000436419
0.0000246123
0.0000106219
-0.0000035178
-0.0000127439
0.0000700527
0.0000132674
0.0000011752
0.0000107585
0.0000539832
0.0001088648
0.0000063220
0.0000235745
-0.0000124324
0.0001005178
-0.0000067544
-0.0000021335
0.0000171971
-0.0000146647
0.0000125423
0.0000126107
0.0000736095
0.0000054946
-0.0000082012
0.0000374331
-0.0000098424
0.0000930594
-0.0000138068
-0.0000098929
-0.0000024912
0.0000228159
0.0000613114
-0.0000050637
-0.0000035167
0.0000314159
-0.0000142814
0.0000067428
0.0000005211
0.0000265521
0.0000421002
-0.0000050096
-0.0000109867
0.0000263141
-0.0000026967
-0.0000146725
0.0000133208
0.0000344370
0.0000230562
0.0000103340
-0.0000022633
0.0001036649
-0.0000009499
-0.0000149137
0.0000129969
-0.0000010750
0.0000099781
0.0000000527
-0.0000057944
-0.0000004208
0.0000207406
0.0000302118
-0.0000119355
-0.0000068768
0.0000065415
-0.0000092092
0.0000104311
0.0000102901
-0.0000013587
0.0000549441
0.0000371999
-0.0000115480
0.0000010984
0.0001156992
-0.0000068034
0.0000231936
-0.0000138273
-0.0000047537
-0.0000063104
0.0000795296
-0.0000012703
-0.0000078088
0.0000868476
0.0000518843
0.0000411110
0.0000197794
0.0001161716
-0.0000065625
-0.0000004225
-0.0000075445
0.0000309682
0.0000128983
0.0000442108
0.0000109706
-0.0000081089
-0.0000096777
0.0000652562
0.0000085430
-0.0000016266
0.0000577448
-0.0000004367
0.0001864957
0.0000044320
0.0001063436
-0.0000115010
0.0000129960
-0.0000143307
-0.0000036421
-0.0000075451
-0.0000088921
0.0000204743
-0.0000085542
0.0000058618
-0.0000070621
-0.0000046489
0.0000103433
-0.0000116507
0.0000079383
-0.0000049708
-0.0000092407
0.0000213241
-0.0000039486
-0.0000047860
0.0000447007
0.0000004388
0.0000248913
0.0000373646
-0.0000131245
0.0000260856
-0.0000112651
-0.0000055360
0.0000645496
0.0000022470
0.0000369137
-0.0000124159
0.0000084055
0.0000049211
0.0000854546
-0.0000083764
0.0000119751
-0.0000071882
-0.0000129042
-0.0000096757
0.0000883177
0.0000492407
-0.0000096092
0.0000095946
0.0000145431
-0.0000049827
0.0000149727
0.0000013571
0.0000064348
0.0000017652
0.0000293321
0.0000045402
-0.0000107387
-0.0000047386
-0.0000129333
0.0000203544
0.0000789575
-0.0000106629
0.0000033288
-0.0000070233
0.0000619195
0.0000029798
0.0000246435
0.0000005174
0.0000012749
-0.0000141923
-0.0000104316
0.0000047371
-0.0000053512
-0.0000069615
-0.0000092538
0.0000147559
-0.0000029665
0.0000316455
-0.0000116204
-0.0000047479
-0.0000138699
-0.0000129368
-0.0000108113
0.0001060356
0.0000022076
0.0000153043
0.0000059516
-0.0000059517
-0.0000132403
-0.0000074555
-0.0000138790
0.0000075974
-0.0000048652
0.0000247589
0.0000278536
0.0001339461
-0.0000114342
0.0000210982
-0.0000148176
0.0000210767
0.0000241594
0.0000382176
-0.0000083376
-0.0000074659
0.0000001606
0.0000138133
0.0000257769
0.0000008549
0.0000033726
-0.0000025973
-0.0000016032
0.0000692079
-0.0000095809
-0.0000027782
0.0000951164
-0.0000137003
0.0000056120
0.0000367973
0.0000835412
-0.0000101079
0.0000432108
-0.0000005362
-0.0000031568
0.0000145899
0.0000348146
-0.0000087871
0.0000568228
0.0000295008
0.0000021436
0.0000210734
-0.0000089816
0.0000045683
-0.0000103421
0.0000440026
-0.0000114592
0.0000172911
0.0000297271
-0.0000150103
0.0000115153
-0.0000043789
-0.0000098264
0.0000046189
-0.0000133855
-0.0000066074
0.0000565185
-0.0000059748
-0.0000058985
0.0000380900
-0.0000033654
0.0000012408
0.0000085642
0.0000112975
-0.0000145338
0.0000101665
0.0001186276
0.0000161676
0.0000088837
0.0000050694
0.0000241827
-0.0000149288
-0.0000124731
-0.0000074516
0.0000044935
0.0000039542
-0.0000071149
-0.0000094274
-0.0000035171
0.0000182230
-0.0000079843
0.0000019563
0.0000097418
-0.0000111099
0.0000231191
0.0000006772
-0.0000094771
0.0000302322
-0.0000106082
0.0000124428
0.0000169665
0.0000021004
-0.0000149221
0.0000699567
-0.0000100337
-0.0000135967
0.0000209819
0.0000159904
0.0000117942
0.0000115902
-0.0000042631
0.0000101604
-0.0000125867
-0.0000068440
-0.0000119604
0.0000391159
0.0001499664
-0.0000134241
-0.0000118806
0.0000295746
0.0000020856
0.0000030046
0.0001473856
0.0000081937
-0.0000059156
-0.0000083056
-0.0000148729
-0.0000082357
0.0000229863
0.0000687732
0.0000096597
-0.0000072305
-0.0000012407
0.0000048453
0.0000283428
0.0000134323
0.0000114632
0.0000147246
-0.0000083507
0.0000213652
-0.0000086673
-0.0000129453
0.0000135642
0.0000026085
0.0000024958
-0.0000116302
-0.0000137880
-0.0000017417
0.0000087464
-0.0000112129
0.0000224370
0.0000208343
0.0000493421
-0.0000093890
-0.0000065645
0.0000056127
0.0000045516
-0.0000094644
-0.0000145875
-0.0000080467
0.0000570804
-0.0000065296
0.0000616783
0.0000020705
-0.0000153728
-0.0000032325
0.0002077083
-0.0000132141
0.0000102429
0.0000022190
0.0000264697
0.0000041406
-0.0000073801
0.0000014736
0.0000826071
0.0000234059
-0.0000061059
0.0000237994
-0.0000099927
0.0000034736
0.0000098887
-0.0000002424
-0.0000099835
0.0000399549
0.0000573282
-0.0000124745
-0.0000130546
0.0000901679
0.0000219838
-0.0000123143
0.0000702983
0.0000131091
0.0000062737
0.0000190395
0.0000501960
0.0000484352
0.0000042909
0.0000074108
-0.0000071034
0.0000294119
0.0000423693
0.0000149913
0.0000325661
-0.0000137413
0.0000343521
0.0000251897
0.0000112925
0.0000211419
-0.0000134444
0.0000600564
0.0000008276
-0.0000067550
0.0000066395
0.0000150493
-0.0000144054
0.0000369385
-0.0000071025
0.0000045337
0.0000166544
0.0000381495
0.0000943725
-0.0000075386
0.0000045521
0.0000052418
0.0000456602
-0.0000147308
0.0000024659
-0.0000053629
0.0000653116
-0.0000141517
-0.0000137023
0.0000073491
-0.0000121766
-0.0000022099
0.0000043247
0.0001291443
-0.0000089362
0.0000150667
0.0000350247
0.0000017745
0.0000058462
-0.0000127447
0.0000385863
-0.0000083168
0.0000352593
0.0001417611
0.0000116243
-0.0000103057
0.0000018519
-0.0000069313
0.0000030190
-0.0000136316
-0.0000041556
0.0000299120
0.0000000305
-0.0000071108
0.0000659481
-0.0000116124
0.0000434357
0.0000744292
0.0000751127
0.0000217347
-0.0000074915
-0.0000037929
-0.0000132931
-0.0000088575
0.0000044556
-0.0000036237
0.0000035008
-0.0000000166
-0.0000082307
0.0000189430
0.0000080818
0.0000765945
-0.0000090060
0.0000057349
0.0000350999
0.0000158147
-0.0000089151
-0.0000141982
-0.0000070414
-0.0000074087
0.0000188768
0.0000008290
-0.0000116873
0.0000015162
0.0000644970
0.0000038732
-0.0000144395
0.0000197838
0.0000183984
-0.0000062951
0.0000151337
0.0000821001
-0.0000036383
-0.0000086654
-0.0000080860
-0.0000041223
-0.0000003537
0.0000260054
0.0000183310
0.0000117323
0.0000138582
0.0001396544
0.0000162274
-0.0000106140
-0.0000041109
-0.0000135227
0.0000156316
0.0000104062
-0.0000141666
-0.0000024514
0.0000715242
-0.0000095319
0.0000049961
0.0000271433
-0.0000100183
0.0000039001
-0.0000132082
0.0000733232
-0.0000049680
-0.0000009007
-0.0000113019
0.0000477197
0.0000156824
0.0000179692
0.0000447246
0.0000791227
0.0000039228
0.0000087560
-0.0000088385
0.0000405549
0.0000051831
-0.0000003482
0.0000305427
0.0000224944
-0.0000113315
0.0000018458
0.0000006110
0.0000000108
-0.0000001878
0.0000500755
-0.0000074095
0.0000078909
0.0001449172
0.0000035738
-0.0000049354
0.0000016732
-0.0000043471
0.0000302273
0.0000283038
0.0000108239
-0.0000028650
-0.0000007388
-0.0000046477
0.0000018825
-0.0000118587
-0.0000073280
0.0000474559
-0.0000143951
0.0000008232
-0.0000069167
-0.0000018178
-0.0000036365
0.0000250635
0.0000037335
-0.0000048698
0.0000263034
0.0000016683
-0.0000089630
0.0000073078
0.0000162329
0.0000386281
0.0000388175
0.0000068487
-0.0000012493
-0.0000105267
-0.0000113786
0.0000233895
0.0000026119
0.0000122985
-0.0000050599
-0.0000012201
0.0000084647
0.0000296128
-0.0000038087
0.0000859462
0.0000091670
-0.0000127836
0.0000005909
-0.0000023559
-0.0000085334
-0.0000007381
0.0000815025
-0.0000061584
0.0000498775
0.0000037026
-0.0000134772
0.0000046868
-0.0000077201
0.0000124185
0.0000929956
0.0000215464
0.0001084835
-0.0000134530
-0.0000037608
0.0000995440
0.0000488872
0.0000551919
0.0000155936
-0.0000047139
0.0000376870
0.0000330409
0.0000069355
0.0000063407
-0.0000059560
0.0000462172
0.0000412463
-0.0000031428
0.0000133616
-0.0000011885
-0.0000139843
0.0000441116
0.0000430146
0.0000567929
0.0000542579
0.0000462163
0.0000016776
0.0000734334
-0.0000122661
0.0000061004
0.0000591043
-0.0000085088
-0.0000084897
-0.0000132350
0.0000002501
0.0000859096
-0.0000054240
0.0000278941
0.0000505540
0.0000500038
0.0000016605
0.0000008491
0.0000168475
0.0000105850
-0.0000075655
0.0000283645
0.0000242698
-0.0000136608
0.0000696521
0.0000119820
-0.0000103006
-0.0000071187
0.0000590989
0.0000780582
-0.0000063488
0.0000500395
0.0000550376
0.0000672671
0.0000046160
-0.0000025915
-0.0000033313
0.0000079060
-0.0000117778
0.0000592026
0.0000389000
-0.0000104955
0.0000277792
-0.0000090913
-0.0000113273
0.0000134622
0.0000019904
-0.0000065909
-0.0000008546
-0.0000094036
0.0000237575
0.0000170258
0.0000007776
-0.0000005607
-0.0000040954
0.0000056087
-0.0000084110
0.0000152902
0.0000000819
0.0000624515
0.0000034627
0.0000328311
-0.0000112445
-0.0000111705
-0.0000143577
-0.0000118116
0.0000260187
-0.0000127312
0.0001123262
-0.0000082421
0.0000649519
0.0000239244
0.0000469983
0.0000723418
-0.0000057578
0.0000052666
-0.0000016415
-0.0000030921
-0.0000075265
-0.0000115122
0.0000128398
-0.0000072802
0.0000238311
-0.0000070944
0.0000061267
-0.0000080854
0.0000365285
-0.0000080866
-0.0000115040
0.0000009478
0.0000267949
0.0000536161
0.0000729145
0.0000688869
0.0000189456
0.0000781933
0.0000199457
0.0000839647
-0.0000027198
0.0000083027
0.0000096290
-0.0000140363
0.0000332254
0.0000268089
-0.0000145284
0.0000099613
-0.0000049241
-0.0000077919
-0.0000100456
0.0000160570
-0.0000090578
0.0000076557
-0.0000143757
0.0000834962
0.0000739785
0.0000113887
-0.0000003922
0.0000458065
-0.0000131160
0.0000022675
-0.0000083207
0.0000095436
0.0000360051
0.0000362011
-0.0000033563
-0.0000109908
0.0000160830
0.0000072837
0.0000384651
0.0000041848
-0.0000054449
0.0000185198
0.0000062705
0.0000235600
0.0000485435
-0.0000137060
0.0000132384
-0.0000137052
0.0000247865
-0.0000107454
0.0000346568
-0.0000117680
0.0000203179
0.0000969947
-0.0000106346
-0.0000053643
-0.0000072777
0.0000475982
-0.0000047248
-0.0000084161
-0.0000099185
0.0000458974
0.0000334093
0.0000230361
0.0000825517
0.0000205236
-0.0000124010
-0.0000029932
0.0000075890
-0.0000018318
-0.0000072056
0.0000101936
-0.0000032778
0.0000852521
-0.0000112753
0.0000161329
0.0000220307
0.0000048970
-0.0000014215
0.0000380946
0.0000552480
-0.0000050555
0.0000013862
0.0000288627
-0.0000072192
0.0000075327
0.0000526280
0.0000033699
0.0000436107
-0.0000031775
0.0000019233
0.0000495938
-0.0000122490
0.0000671135
0.0000096079
-0.0000114580
-0.0000086325
0.0000051573
0.0000549738
0.0000911027
-0.0000111184
0.0000435581
-0.0000123201
0.0000109676
-0.0000057081
0.0000049258
0.0000173395
0.0000173658
0.0000685442
0.0000589236
0.0000265616
0.0000073279
0.0000172227
0.0000151488
-0.0000001050
-0.0000010733
0.0000311584
0.0000470761
-0.0000080860
0.0000221321
0.0000041983
-0.0000135722
-0.0000051066
-0.0000006579
-0.0000016894
0.0000381901
-0.0000106778
0.0000080302
-0.0000057042
-0.0000141322
0.0000601191
0.0001524490
0.0000336503
-0.0000058397
0.0000901836
0.0000211273
-0.0000095855
0.0000307326
0.0000323088
-0.0000073319
0.0000446783
0.0000054467
0.0000124971
0.0000149360
-0.0000054187
-0.0000058537
0.0000390315
-0.0000004903
-0.0000045442
0.0000260075
0.0000353697
-0.0000099137
-0.0000125288
-0.0000006765
-0.0000070378
-0.0000110714
0.0000335114
0.0000462209
-0.0000049807
-0.0000045106
0.0000315931
-0.0000129069
-0.0000138334
0.0000878058
0.0001046706
0.0000124960
-0.0000033563
-0.0000101753
-0.0000032561
0.0000128887
-0.0000028147
0.0000307182
0.0000169114
0.0000388199
0.0000405709
-0.0000019051
0.0000097937
0.0000034263
0.0001101647
-0.0000085646
-0.0000090488
0.0000494512
0.0000081665
-0.0000141777
0.0000059946
0.0000159265
-0.0000040240
0.0000228455
0.0000351247
0.0000176692
-0.0000146576
0.0000025018
0.0000242952
0.0000181156
-0.0000024068
-0.0000054573
-0.0000003713
-0.0000120643
0.0000713639
-0.0000090562
-0.0000036741
0.0000610202
-0.0000109352
-0.0000066438
0.0000962772
0.0000815751
0.0000026126
-0.0000146225
0.0000752989
-0.0000020604
0.0000226455
0.0000612120
0.0000197173
-0.0000032952
0.0000897396
0.0000067430
-0.0000114432
-0.0000136551
0.0000321204
0.0000240984
0.0000110850
-0.0000043384
0.0000009095
0.0000587286
-0.0000115633
0.0000509211
-0.0000113817
0.0000312292
-0.0000069569
0.0000074356
0.0000093135
-0.0000074810
-0.0000118922
-0.0000027826
-0.0000082715
0.0000122933
0.0000110739
-0.0000128979
-0.0000073251
0.0000025751
-0.0000088062
0.0000145897
-0.0000027584
-0.0000090695
0.0000045336
0.0000191607
-0.0000078036
0.0000001708
0.0000085518
-0.0000140342
-0.0000151965
-0.0000048587
0.0000429675
0.0000077487
0.0000497498
-0.0000118155
0.0000124054
0.0000354978
-0.0000111385
0.0000371220
0.0000111332
-0.0000019887
-0.0000089615
0.0000094139
0.0000080520
0.0000238789
0.0000148792
0.0000512133
-0.0000131971
0.0000317920
0.0000112743
0.0000302614
0.0000029760
0.0000245515
-0.0000066432
0.0000140109
0.0000201970
0.0000114505
0.0000447923
0.0000228735
-0.0000035220
0.0000044480
0.0000996003
-0.0000121143
0.0000022046
0.0000855291
0.0000106490
-0.0000053813
-0.0000010128
-0.0000023698
-0.0000093069
0.0000261317
0.0000831778
-0.0000075158
0.0000026078
-0.0000074184
0.0000308578
0.0000250335
0.0000136983
0.0000818577
0.0001955800
0.0000164609
-0.0000093900
0.0000249339
-0.0000132812
-0.0000073861
-0.0000135994
0.0000084507
0.0000380107
-0.0000129488
-0.0000015238
-0.0000001071
-0.0000082371
0.0000368653
-0.0000101377
-0.0000068594
-0.0000075137
0.0000008201
0.0000072662
0.0000044028
0.0000332986
0.0000102098
0.0000109472
0.0000016581
-0.0000045935
0.0000368250
0.0000298004
0.0000412070
0.0000060492
0.0000297811
-0.0000073836
-0.0000103314
0.0000071726
0.0000376407
-0.0000023707
-0.0000030947
0.0000129747
-0.0000110075
0.0000107251
0.0000156610
0.0000109787
0.0000031054
0.0000072047
-0.0000126729
0.0000080444
0.0000118804
0.0000162159
0.0000412095
0.0000533134
-0.0000073507
0.0000349454
0.0000149769
0.0000065836
-0.0000116050
-0.0000145231
0.0000346215
0.0001165047
-0.0000045335
0.0000061267
0.0000542811
-0.0000090926
-0.0000142681
0.0000389001
-0.0000050265
-0.0000013506
0.0000144639
-0.0000009952
0.0000265928
0.0000112252
0.0000143793
0.0000377924
0.0000266086
-0.0000099732
-0.0000106355
-0.0000056650
-0.0000123325
0.0000080016
0.0000022376
-0.0000040681
-0.0000114027
0.0000356456
-0.0000110013
0.0000720731
0.0000450885
-0.0000133531
-0.0000069754
0.0000079750
0.0000126160
0.0000081520
0.0000671496
0.0000739822
-0.0000095421
0.0000125981
-0.0000035321
0.0000061976
0.0000090952
0.0000461831
0.0000287070
0.0000026597
0.0000146082
-0.0000030983
-0.0000135037
0.0000551730
0.0001185688
0.0000148788
-0.0000023396
-0.0000150733
0.0000427296
0.0000004268
0.0000054039
-0.0000050768
-0.0000022308
-0.0000031413
0.0000073049
0.0000112404
0.0000122272
0.0000000933
0.0001488465
0.0000109531
-0.0000029606
0.0000032438
-0.0000099830
0.0000601160
0.0000060820
0.0000268216
-0.0000112037
0.0000088518
0.0000393059
0.0000008553
0.0000000262
-0.0000001431
0.0000158378
-0.0000136315
-0.0000104676
-0.0000117749
-0.0000061380
0.0000000299
0.0001821207
-0.0000074832
-0.0000115883
-0.0000137564
-0.0000053020
-0.0000080819
0.0000223428
0.0000185036
0.0000292970
-0.0000129446
-0.0000039926
0.0000620561
0.0000417769
-0.0000149852
0.0000358835
-0.0000109860
0.0000317907
0.0000063524
-0.0000042491
-0.0000059652
0.0000466541
0.0000326797
0.0000195943
0.0001135459
0.0000487171
-0.0000100760
-0.0000145074
-0.0000065773
-0.0000039571
0.0001520143
-0.0000071516
0.0000068958
-0.0000070261
0.0000218414
-0.0000102615
-0.0000141538
0.0000255030
-0.0000087959
0.0000147312
0.0000048889
-0.0000022007
0.0000573394
-0.0000084494
-0.0000026489
-0.0000042881
-0.0000150138
0.0000662649
0.0000362597
0.0000185229
0.0000541589
0.0000040742
-0.0000016382
0.0000140111
0.0000794421
-0.0000008209
0.0000319769
0.0000068893
0.0000692788
-0.0000143401
0.0000555516
0.0000227863
0.0000247069
-0.0000124807
-0.0000146184
0.0001001333
0.0000001770
0.0000261839
0.0000618286
-0.0000010808
0.0000049643
0.0000211889
0.0000192463
-0.0000135727
0.0000371817
0.0000022538
-0.0000016093
0.0000350916
-0.0000040778
0.0001036271
-0.0000113088
-0.0000139376
-0.0000070374
-0.0000146827
0.0000181547
-0.0000023521
0.0000074061
0.0000028814
-0.0000049868
-0.0000006056
0.0000006169
-0.0000025058
0.0000503497
0.0000070830
0.0000024367
0.0000049731
0.0000067798
-0.0000071438
0.0000087817
-0.0000072241
0.0001285265
-0.0000099353
0.0000412463
-0.0000049064
0.0000434926
0.0000011961
0.0000089884
0.0000127397
-0.0000000634
0.0000691541
-0.0000141162
0.0000093315
0.0000064017
-0.0000107562
-0.0000083372
-0.0000050424
0.0000106063
0.0000690889
0.0000094800
-0.0000056000
-0.0000029621
-0.0000139377
0.0000143590
-0.0000076717
-0.0000038217
0.0000062379
-0.0000022195
0.0000100864
0.0000395531
0.0000180918
-0.0000114619
0.0000166694
0.0000263259
0.0000067776
-0.0000051924
0.0000023689
0.0001377993
0.0000206453
-0.0000013749
0.0000538106
-0.0000135039
-0.0000012219
0.0000041990
-0.0000120054
0.0000416545
0.0000081721
-0.0000140644
0.0000166506
-0.0000040727
-0.0000096680
-0.0000015413
0.0000020857
-0.0000058737
0.0000061310
0.0000028268
0.0000043856
-0.0000125429
0.0000030068
-0.0000108111
-0.0000005666
0.0000098021
-0.0000020011
-0.0000068653
0.0000011853
-0.0000066493
-0.0000020816
-0.0000098458
-0.0000145226
0.0000357726
-0.0000127431
0.0000421968
0.0000051339
0.0000668595
-0.0000005332
0.0000043195
-0.0000067434
-0.0000105436
-0.0000062145
-0.0000061761
0.0000258814
0.0000326689
0.0000119857
0.0001293980
0.0000249840
-0.0000131294
0.0000596406
0.0000153442
-0.0000119805
0.0000400506
-0.0000074820
-0.0000060258
0.0000147375
-0.0000074766
0.0000267680
0.0000086880
-0.0000146207
-0.0000044911
0.0000488241
-0.0000055497
0.0000573591
0.0000020818
0.0000065098
0.0000396202
-0.0000005230
0.0000119851
0.0000681353
0.0000867001
0.0000216422
0.0000557983
0.0000568310
0.0000115818
-0.0000011092
-0.0000121360
0.0000087388
0.0000098160
-0.0000002381
-0.0000032901
0.0000736119
-0.0000148375
-0.0000109661
0.0000063797
-0.0000102394
-0.0000029208
-0.0000009725
-0.0000072197
0.0000123053
-0.0000124141
-0.0000071820
0.0001133058
0.0000812860
0.0000385757
-0.0000049304
-0.0000066864
0.0000023833
0.0000025744
0.0000173455
-0.0000086949
0.0000108482
0.0000856040
0.0000021310
0.0000139264
0.0000029319
0.0000811230
0.0000001487
0.0000045726
-0.0000125644
0.0000076081
-0.0000114277
-0.0000086448
0.0000006816
0.0000064115
0.0000095687
-0.0000128820
-0.0000084849
0.0000208332
0.0000099938
0.0000008226
0.0000620052
-0.0000015821
0.0000008095
0.0000048685
-0.0000082966
0.0000263748
0.0000698346
-0.0000075832
0.0000105298
0.0000505932
0.0000066308
0.0000321278
0.0000054561
0.0000069204
-0.0000063262
0.0000234509
-0.0000069927
0.0000133811
0.0000123812
-0.0000145688
0.0000411453
0.0000880058
-0.0000108153
-0.0000026806
-0.0000070772
0.0000315755
0.0000302937
0.0000403229
0.0000373118
-0.0000027941
-0.0000052424
-0.0000050453
0.0000054992
-0.0000152230
0.0000829629
-0.0000088874
0.0000280205
-0.0000069221
0.0000122182
0.0000030326
0.0000019173
0.0001464918
0.0000517823
0.0000004406
-0.0000134635
0.0000480059
0.0000153119
-0.0000085636
-0.0000074430
0.0000492850
-0.0000069949
0.0000446054
-0.0000074310
0.0000185093
-0.0000102814
-0.0000139037
0.0000241766
0.0000114617
0.0000106912
0.0000013940
0.0000100124
0.0000323186
-0.0000114122
-0.0000142010
0.0000260729
0.0000356694
0.0001260972
-0.0000081190
-0.0000089017
0.0001170045
0.0000803272
0.0000455755
-0.0000032265
0.0000367993
-0.0000035264
0.0000553078
-0.0000033025
-0.0000121251
0.0000267749
0.0000425708
0.0000125847
0.0000167703
0.0000153572
-0.0000088023
0.0000002719
0.0000490071
0.0000322597
0.0000066088
0.0000097727
0.0000891588
0.0000459467
0.0000248515
-0.0000099307
-0.0000073656
-0.0000051786
-0.0000066684
0.0000109777
0.0000177115
-0.0000103822
-0.0000023591
0.0000106864
0.0000212517
-0.0000012664
0.0000398389
0.0000141582
0.0000003438
-0.0000059003
0.0000761830
-0.0000065972
0.0000026953
-0.0000107540
0.0000127052
0.0000191933
-0.0000065117
0.0000167373
0.0000070525
-0.0000091867
-0.0000140567
0.0000131259
0.0000284275
0.0000834916
0.0000066005
-0.0000007341
0.0000478718
-0.0000096821
0.0000164364
0.0000019144
0.0000204371
0.0000944486
0.0000362071
-0.0000050123
0.0000109757
0.0000221978
-0.0000092968
-0.0000062519
0.0000114591
-0.0000125149
0.0000223239
-0.0000039517
0.0000815992
0.0000208023
-0.0000094836
0.0000022147
-0.0000014384
0.0000255621
0.0000005898
-0.0000046832
0.0000173131
-0.0000123528
0.0000145940
-0.0000085313
0.0000189580
-0.0000145105
-0.0000027133
0.0000393412
-0.0000021236
0.0000049608
-0.0000035646
-0.0000141228
0.0000044028
-0.0000140235
-0.0000128263
0.0000172864
0.0000292916
-0.0000068489
-0.0000135891
0.0000569981
0.0000012330
-0.0000090896
0.0000411697
0.0000722886
0.0000876228
0.0000102165
-0.0000032894
-0.0000030807
0.0000236965
-0.0000122530
0.0000544423
0.0000055648
-0.0000106797
0.0000240359
0.0000273046
-0.0000058256
0.0000370570
-0.0000034977
-0.0000017268
0.0000233533
0.0000018517
0.0000037237
0.0000075767
0.0000100315
-0.0000020513
0.0000534594
0.0000018827
-0.0000151154
0.0000739851
-0.0000133718
0.0000685047
0.0000134194
-0.0000016221
0.0000145021
0.0000577644
-0.0000083341
-0.0000076394
0.0000152568
-0.0000123133
-0.0000060153
-0.0000030563
0.0000232659
-0.0000125585
0.0000266644
-0.0000098493
0.0000399622
0.0000200105
0.0000586300
-0.0000067794
-0.0000141678
0.0000864720
0.0000007515
0.0001109095
0.0000066792
-0.0000149223
0.0000133719
0.0000024533
-0.0000044442
0.0000230034
-0.0000113004
0.0000137115
-0.0000092870
-0.0000008799
-0.0000143514
0.0000291632
0.0000658508
-0.0000068468
0.0000176966
0.0000363367
0.0000119240
0.0000026572
-0.0000025522
-0.0000069729
-0.0000017521
0.0000002175
0.0000350658
-0.0000143416
0.0000392487
0.0000042543
0.0000017976
-0.0000093462
0.0000074888
-0.0000102016
-0.0000079435
-0.0000085470
0.0000760114
0.0000029978
0.0000096000
-0.0000039216
0.0000141372
0.0000297892
0.0000336178
-0.0000076435
0.0000096180
0.0000903892
0.0000367269
0.0000002569
-0.0000032496
-0.0000103367
0.0000265154
0.0000236187
-0.0000127841
0.0000211160
0.0000191540
-0.0000067760
0.0000202309
-0.0000004118
0.0000087315
0.0000148582
0.0000123335
0.0000215689
0.0000090107
0.0000394167
-0.0000130240
0.0000113447
0.0000257448
0.0000947368
0.0000442165
-0.0000147606
-0.0000022504
0.0000675858
0.0000292172
0.0000116189
-0.0000090686
0.0001258097
-0.0000022626
-0.0000105032
-0.0000088565
0.0000298539
-0.0000121089
-0.0000073042
-0.0000126426
0.0000248357
-0.0000138445
0.0000248272
0.0000307318
-0.0000073340
0.0000318583
0.0000028065
-0.0000035585
0.0000843685
0.0000993191
0.0000129666
0.0000423794
0.0000038717
-0.0000028179
0.0000081236
0.0000056599
0.0000083190
0.0000042681
0.0000548353
-0.0000000229
-0.0000098475
-0.0000070774
0.0000419798
-0.0000096905
0.0000235801
0.0000186782
-0.0000093637
0.0000112542
-0.0000000626
0.0000103493
0.0000723315
0.0000116195
-0.0000023816
-0.0000152084
-0.0000118475
0.0000434005
0.0000117032
0.0000086768
0.0000059076
0.0000226996
0.0000337790
-0.0000012097
-0.0000011765
0.0000271786
0.0000127224
0.0000799485
-0.0000078180
0.0000206881
-0.0000062881
0.0000251489
-0.0000117125
0.0000164264
-0.0000055321
-0.0000112361
0.0000701771
-0.0000066211
-0.0000110782
0.0000325258
0.0000591674
0.0000101831
-0.0000137361
0.0000848756
-0.0000035306
0.0000409914
0.0000202702
-0.0000129728
0.0000232722
-0.0000007368
0.0001214346
0.0000157825
0.0000580288
0.0000017979
0.0000365617
0.0001410779
-0.0000144312
-0.0000027170
0.0000359345
-0.0000093734
-0.0000151920
-0.0000104826
0.0000841061
0.0000331413
0.0000069968
0.0000264831
0.0000150295
-0.0000091017
0.0000280839
-0.0000081880
0.0000123873
0.0000063698
-0.0000041497
0.0000492674
0.0000093582
0.0000032097
-0.0000107114
0.0000143129
-0.0000026988
0.0000436397
0.0000480281
0.0000657008
0.0000383659
0.0000184515
0.0000028072
0.0000397373
0.0000295117
-0.0000090102
-0.0000050890
-0.0000096591
-0.0000059265
-0.0000067983
-0.0000026605
0.0000354816
-0.0000044264
-0.0000108092
0.0000616292
-0.0000074662
-0.0000128888
-0.0000072375
0.0000049681
-0.0000109588
0.0000404638
0.0000070444
-0.0000013370
-0.0000028229
-0.0000049351
-0.0000145213
-0.0000104116
0.0000044957
0.0000138849
0.0000218685
0.0000409698
0.0000313624
-0.0000130552
0.0000569004
0.0000133882
-0.0000089266
0.0000008103
-0.0000124599
0.0000281748
-0.0000029846
-0.0000041579
0.0000678216
0.0000028773
-0.0000116248
0.0000011864
0.0000024657
0.0000362837
0.0000007537
0.0000334966
-0.0000043211
-0.0000012098
0.0000432647
-0.0000031352
0.0000302199
-0.0000073395
0.0000020665
-0.0000129927
0.0000944724
0.0000530530
0.0000008845
-0.0000130428
-0.0000021933
0.0000025092
-0.0000073118
0.0000219469
0.0000062628
-0.0000152718
-0.0000153080
0.0000287203
0.0000069574
-0.0000085125
0.0000083313
0.0000308780
-0.0000069757
0.0000010883
-0.0000138972
-0.0000127942
-0.0000029433
0.0000039353
0.0000181510
0.0002124618
-0.0000138442
0.0000593055
0.0000138874
0.0000141801
-0.0000090531
0.0000157926
0.0000555322
-0.0000144159
0.0000053621
0.0000071659
0.0000584175
-0.0000133630
0.0000227002
-0.0000134599
0.0000276056
0.0001317377
0.0000182250
-0.0000099140
0.0000596804
0.0000336599
-0.0000081862
0.0000480240
-0.0000069866
-0.0000100636
0.0000118821
0.0001452837
-0.0000015554
0.0000264952
-0.0000124724
0.0000418870
0.0000055545
0.0000190667
0.0000166201
0.0000270050
-0.0000098930
0.0000280672
0.0000211582
0.0000561017
0.0000193446
0.0000103782
0.0000575380
0.0000119671
0.0000087908
0.0000021289
0.0000092181
-0.0000062617
0.0000810100
-0.0000035460
0.0000314172
0.0000930312
-0.0000083018
0.0000437612
-0.0000054010
0.0000585474
0.0000079476
0.0000114940
-0.0000033875
0.0000243241
-0.0000131752
-0.0000092963
-0.0000085022
0.0000098514
-0.0000108726
-0.0000031070
-0.0000080004
-0.0000076220
-0.0000031661
0.0000640449
0.0000407396
0.0000519432
0.0000186116
-0.0000054840
0.0000053961
0.0000193163
0.0000044384
0.0000406670
-0.0000091496
0.0000238074
-0.0000140413
-0.0000035516
0.0000306856
-0.0000049207
-0.0000090781
0.0000253253
0.0000352771
0.0000146266
0.0000038888
-0.0000128652
-0.0000065921
0.0000155169
-0.0000039245
-0.0000011688
0.0000107807
-0.0000132090
-0.0000101402
-0.0000105713
0.0000098959
-0.0000076089
-0.0000105087
-0.0000124617
-0.0000129061
0.0000132786
0.0000515831
0.0000186824
0.0000227534
0.0000018078
0.0000254549
-0.0000015409
-0.0000077027
0.0000059698
0.0000169574
0.0000034607
0.0000093909
0.0000028099
-0.0000063084
-0.0000115122
-0.0000141685
0.0000137225
-0.0000135428
-0.0000153428
-0.0000038707
0.0000509768
-0.0000133228
0.0000275464
-0.0000144633
-0.0000111206
0.0000294674
-0.0000072106
0.0000646886
0.0000497610
0.0000558984
0.0000187656
0.0001629682
-0.0000081948
0.0000120252
-0.0000022998
0.0000233539
0.0000240985
-0.0000142090
-0.0000002309
0.0000035680
0.0000873716
-0.0000070709
0.0000087706
0.0000169564
0.0000148069
0.0000393124
0.0000591558
-0.0000072453
0.0000002965
-0.0000085630
-0.0000001028
0.0000165343
-0.0000124952
-0.0000135974
0.0000192946
0.0000304032
-0.0000070472
0.0000483614
0.0000814598
-0.0000054401
0.0000027015
-0.0000094833
-0.0000042831
0.0000027983
-0.0000123341
-0.0000133212
-0.0000070451
0.0000023685
0.0000105327
0.0000248997
-0.0000104251
0.0000223362
0.0000317318
0.0000273226
0.0000536071
-0.0000101057
0.0000269279
-0.0000078790
-0.0000043174
-0.0000075001
-0.0000120588
0.0000131459
0.0000074918
0.0000317465
0.0000112920
-0.0000147736
-0.0000050523
0.0000124762
-0.0000135426
0.0000351133
-0.0000097241
-0.0000136894
0.0000379860
0.0000189425
0.0000128957
-0.0000115568
0.0000291541
0.0000059979
0.0000109681
0.0000129808
0.0000020370
0.0000134944
0.0000090373
0.0000032995
0.0000004052
0.0000171130
-0.0000056519
0.0000109565
0.0000547310
-0.0000081529
0.0000266215
0.0000802078
-0.0000109640
0.0000302578
-0.0000093650
-0.0000032433
-0.0000113521
0.0000271274
0.0000218979
0.0000298037
-0.0000087554
-0.0000145775
0.0001494323
0.0000375410
-0.0000123247
0.0000449833
-0.0000142718
-0.0000077065
0.0000302308
0.0000171709
-0.0000147462
0.0000663871
0.0000060910
-0.0000106263
-0.0000129983
0.0000988744
-0.0000079160
0.0000294447
-0.0000066099
0.0001015526
-0.0000042232
0.0000066791
0.0000202403
0.0000405791
0.0000199676
-0.0000031348
0.0000386087
0.0000281108
0.0000120318
-0.0000097769
-0.0000142812
0.0000314495
0.0000695051
0.0000424238
0.0000055774
-0.0000108161
0.0000064494
0.0000022150
-0.0000104581
0.0000025264
0.0000825356
-0.0000115734
0.0000202616
0.0000797762
0.0000477584
-0.0000101630
0.0001623531
0.0000213566
0.0000495157
0.0000040642
0.0000316620
0.0000369517
0.0000191244
0.0000314059
0.0000137278
0.0000107638
0.0000329433
0.0000401138
0.0000013664
-0.0000013052
-0.0000095662
0.0000134960
0.0000023613
-0.0000092942
-0.0000098539
0.0000196318
0.0000257465
-0.0000094767
0.0000173100
0.0000491447
0.0000331518
-0.0000120711
-0.0000025837
0.0000184244
0.0000878681
0.0000309895
0.0000438425
-0.0000017700
0.0000432071
0.0000325384
-0.0000079535
0.0000583579
0.0000076257
-0.0000035268
-0.0000057997
0.0000130752
-0.0000034754
0.0000044687
-0.0000002257
-0.0000030652
0.0000511710
0.0000058672
0.0000164612
0.0000352665
0.0000747938
0.0000057009
-0.0000034665
-0.0000064927
-0.0000099433
0.0000691428
0.0000051820
0.0000206632
-0.0000144485
-0.0000005588
0.0000040015
0.0000316394
0.0000372916
0.0000280064
0.0000759726
-0.0000147257
0.0000421099
0.0000343234
0.0000953756
0.0000733373
0.0000574510
0.0000133805
-0.0000016260
-0.0000127299
0.0000417415
0.0000319319
0.0000956688
0.0000523716
0.0000344548
-0.0000090023
-0.0000127139
0.0000231208
0.0000405851
0.0000286948
0.0000259145
0.0000002834
0.0000122644
0.0000096260
-0.0000104587
0.0000342569
-0.0000076998
-0.0000065790
0.0000312063
0.0000119051
-0.0000014684
-0.0000053252
0.0000141949
0.0000366285
0.0000414621
0.0000269142
0.0000081636
0.0000581706
0.0000133719
0.0000010308
-0.0000063248
0.0000023074
0.0000046392
0.0000811149
0.0000033001
-0.0000009920
-0.0000014703
0.0000177621
0.0001021223
0.0000070524
0.0000175507
0.0000247688
-0.0000015448
0.0000183331
-0.0000137968
-0.0000128757
0.0000199444
0.0000229964
-0.0000001906
0.0000462974
0.0000481703
0.0000322753
-0.0000013553
0.0001183548
0.0000168055
-0.0000049174
-0.0000132838
0.0000133900
0.0000074923
0.0000008761
0.0000269849
-0.0000012154
0.0000036347
0.0000665592
0.0001009082
0.0000172341
0.0000049089
0.0000583102
-0.0000101715
0.0000365557
-0.0000090541
0.0000111556
0.0000420557
0.0000357626
-0.0000001983
-0.0000078037
0.0000117228
-0.0000092140
0.0000796703
-0.0000114097
0.0000631801
-0.0000124966
0.0000055028
-0.0000075816
-0.0000058870
0.0000384655
0.0000005474
0.0000073834
0.0000761772
0.0001033641
0.0000222181
0.0000063898
0.0001169479
0.0000301863
0.0000059030
0.0001007385
-0.0000042328
-0.0000002223
-0.0000015142
0.0000033683
0.0000003647
0.0000421427
0.0000282623
-0.0000111189
0.0000527279
0.0000013277
0.0000262693
-0.0000089854
-0.0000098499
-0.0000050386
0.0000547623
0.0000213423
0.0000110173
0.0000012977
0.0000017605
-0.0000145215
0.0000359035
0.0000520918
0.0000389260
0.0000264288
0.0000980495
-0.0000094765
-0.0000124962
0.0000162636
-0.0000114890
0.0000115923
-0.0000011916
-0.0000135109
-0.0000133372
0.0000420380
0.0000366651
-0.0000010332
0.0000073427
0.0000532531
0.0000034123
-0.0000088312
0.0000189769
0.0000065857
-0.0000133118
0.0000553255
-0.0000069269
0.0000641855
-0.0000102178
0.0000064480
0.0000420437
-0.0000048654
-0.0000072977
0.0000046966
-0.0000139491
0.0000404162
0.0000350494
0.0000099196
-0.0000055354
-0.0000036524
-0.0000106828
-0.0000073077
0.0000071718
0.0000208707
0.0000188544
-0.0000133699
0.0000033992
0.0000164542
0.0000141398
-0.0000110459
0.0000157659
-0.0000031649
-0.0000108635
-0.0000097624
0.0000376904
-0.0000043520
0.0000247438
0.0000236352
0.0001251817
-0.0000046541
0.0001202264
0.0000285562
0.0000128186
-0.0000068481
-0.0000034033
-0.0000031381
-0.0000000263
0.0000700210
0.0000073968
0.0000432130
0.0000006562
0.0000167367
0.0000341260
0.0000601083
-0.0000139815
0.0000242239
0.0000020696
-0.0000082935
0.0000025251
0.0000311292
0.0000393657
-0.0000038469
0.0000182634
0.0000281923
0.0000468808
0.0000215948
0.0000401024
0.0000176117
-0.0000005003
0.0000012199
0.0000774895
0.0000218780
0.0000122076
0.0000810145
0.0000003813
0.0000293192
-0.0000114613
0.0000106785
-0.0000006813
-0.0000089588
0.0000407575
-0.0000130458
-0.0000037160
0.0000093991
0.0000877533
0.0000587061
0.0000026783
-0.0000146744
-0.0000127404
-0.0000031226
0.0000213231
-0.0000132029
0.0001697377
-0.0000073213
0.0000021255
0.0000046989
0.0000133174
0.0000036328
-0.0000033369
0.0000079315
0.0000142135
-0.0000044950
0.0000166914
0.0000015165
0.0000250876
0.0000213110
-0.0000128007
0.0000124831
0.0000573711
-0.0000013835
0.0000040353
0.0000244881
0.0000033308
-0.0000045191
-0.0000122139
-0.0000012015
0.0000191350
-0.0000036690
0.0000155004
-0.0000133904
0.0000480281
0.0000015253
-0.0000125706
-0.0000076342
0.0000051270
0.0000410656
0.0000090803
0.0000412960
0.0000345686
0.0000058642
0.0000105538
0.0000092999
0.0000426133
0.0000386585
0.0000402065
0.0000253265
-0.0000146203
0.0000361803
0.0000092911
0.0000108505
0.0000607992
0.0000131038
0.0000284221
0.0000888137
0.0001572739
0.0000376169
0.0000148505
0.0000132446
0.0000024675
0.0000399767
-0.0000056669
-0.0000106176
0.0000011522
-0.0000070397
0.0001326975
0.0000120626
0.0000659842
-0.0000091440
-0.0000003687
0.0000030284
0.0000336990
0.0000158809
0.0000605202
-0.0000142556
0.0000752252
-0.0000079251
0.0000126478
0.0000063555
-0.0000148099
-0.0000139470
-0.0000147902
0.0000159788
0.0000229634
-0.0000149972
-0.0000066396
-0.0000088490
0.0000020223
-0.0000018827
0.0001488725
0.0001421029
-0.0000088822
-0.0000016140
0.0000816382
0.0000066233
0.0000125695
-0.0000020702
-0.0000056353
-0.0000033942
0.0000133758
0.0000007232
0.0000899470
-0.0000143514
0.0000046496
0.0000384058
0.0000555662
0.0000045752
-0.0000123815
0.0000306964
0.0000539039
0.0000191246
-0.0000119864
0.0000547267
0.0000332302
0.0001691036
-0.0000042399
0.0000151183
0.0000178109
-0.0000039190
-0.0000094344
-0.0000129433
-0.0000010497
0.0000058411
0.0000129000
0.0000178973
-0.0000029658
0.0000197462
-0.0000029239
0.0000002331
0.0000182877
0.0000000885
0.0000027351
0.0001140242
0.0000023142
0.0000525169
0.0000046108
0.0000099083
-0.0000018121
-0.0000035865
0.0000397936
0.0000107328
-0.0000006502
-0.0000020151
-0.0000133963
0.0000269137
-0.0000087871
0.0000131549
0.0000074805
0.0000014845
-0.0000072833
0.0000125210
0.0000422193
0.0000663610
0.0000620223
0.0000359703
0.0000077167
0.0000863133
-0.0000020500
0.0000058100
0.0000071230
-0.0000130712
0.0000382683
0.0000267595
0.0000181793
-0.0000023912
-0.0000008723
0.0000478327
0.0000603024
0.0000029152
0.0000058439
0.0000114041
-0.0000132669
0.0000042504
-0.0000058909
-0.0000099453
-0.0000051518
0.0000130629
0.0000264063
0.0000343069
0.0000514938
-0.0000103857
0.0000403855
-0.0000145601
0.0000125824
0.0000206901
0.0000074464
0.0000091176
0.0000068457
0.0000289785
0.0000748470
-0.0000098434
0.0000459665
0.0000112678
-0.0000051750
0.0000097885
-0.0000085071
-0.0000063319
0.0000116687
0.0000807402
-0.0000137050
0.0000235704
0.0000222284
0.0000188857
-0.0000139131
-0.0000065403
0.0000476646
0.0000235047
0.0000210805
0.0000000510
0.0000009653
-0.0000081868
0.0000166131
0.0000819144
0.0000318217
0.0000046693
0.0000662706
-0.0000007762
-0.0000153346
0.0000119961
-0.0000063131
0.0000257217
-0.0000133876
0.0000014738
0.0000285597
-0.0000132118
-0.0000041397
-0.0000106813
0.0000051784
0.0000011716
-0.0000071570
0.0000084505
0.0000227902
-0.0000041417
-0.0000143376
0.0000051101
-0.0000056093
0.0000363017
0.0000142949
-0.0000013771
-0.0000006236
0.0000293491
-0.0000056263
0.0000404898
-0.0000049093
-0.0000039139
0.0000079366
-0.0000143849
0.0000125628
0.0000110092
0.0000174696
-0.0000146066
0.0000290079
0.0000121743
0.0000758246
-0.0000129355
0.0000121460
0.0000838807
0.0000172751
-0.0000036316
0.0000025801
0.0000963141
-0.0000113969
0.0000669901
0.0000076668
-0.0000009583
0.0000173406
0.0000747363
0.0000072826
0.0000087868
0.0000996489
0.0000140521
-0.0000040319
-0.0000082321
-0.0000095806
-0.0000127154
0.0000236960
-0.0000112958
-0.0000027996
0.0000705241
-0.0000115945
0.0000103452
0.0000025915
0.0000398917
0.0000236984
-0.0000076606
-0.0000118918
0.0000072721
-0.0000120614
0.0000222874
0.0000042825
0.0000151594
0.0000434679
0.0001129652
-0.0000104613
-0.0000117989
0.0000154931
0.0000438754
0.0000095911
-0.0000056770
0.0000274747
-0.0000031758
0.0000144766
0.0000108590
-0.0000143097
0.0000013228
0.0000104020
0.0000269275
0.0000079618
0.0000465275
0.0000204839
0.0000053391
-0.0000012347
-0.0000057440
0.0000394598
0.0000163205
0.0000307571
0.0000235980
-0.0000095823
0.0000234145
0.0000161734
0.0000431766
-0.0000077974
0.0000689102
0.0000080804
0.0000047393
0.0000523511
0.0000198040
-0.0000100830
0.0000153165
0.0000059620
0.0000799953
-0.0000027898
0.0000369423
0.0000113386
0.0000050291
-0.0000066380
0.0000095467
0.0000102360
0.0000105087
0.0000585526
-0.0000122561
0.0000067913
0.0001092348
-0.0000061276
0.0000115192
-0.0000108875
0.0000065955
-0.0000125728
0.0000032962
0.0000544292
0.0000055695
0.0000406388
-0.0000024169
-0.0000099702
-0.0000038197
0.0000666874
-0.0000086223
0.0000102740
-0.0000094192
0.0000310430
0.0000030881
0.0000042620
0.0000028843
-0.0000115124
0.0000017889
0.0000507733
0.0000050097
0.0000032632
0.0000071798
-0.0000109044
0.0000558303
0.0000144158
0.0000070762
-0.0000067440
0.0000012339
0.0000689527
0.0000088593
0.0000056574
-0.0000133762
0.0000245906
0.0000101933
0.0000728494
-0.0000079049
0.0000216404
0.0000159538
0.0000076109
-0.0000094921
0.0001235203
0.0000188898
0.0000326743
0.0000124009
0.0000137678
0.0000537663
0.0000005540
-0.0000040477
0.0000050766
0.0000187176
0.0000241980
0.0000211243
0.0000025493
0.0000122964
0.0000120032
0.0000346197
-0.0000101719
0.0000206259
0.0000208905
0.0000096544
0.0000330816
-0.0000111353
-0.0000125957
0.0000350982
-0.0000085417
0.0000029287
-0.0000074209
0.0000250674
0.0000105302
0.0000014567
0.0000194020
0.0000272799
-0.0000052487
-0.0000080836
-0.0000036596
0.0000409011
-0.0000007382
-0.0000151110
0.0000922253
0.0000202552
0.0000068199
-0.0000091089
0.0001546003
-0.0000106123
0.0000422516
-0.0000107206
0.0000038697
-0.0000130386
-0.0000118952
0.0000184283
0.0000199996
0.0000172782
0.0000192344
-0.0000044954
0.0000061634
0.0001094195
-0.0000111650
0.0000228857
0.0000071310
0.0000753632
-0.0000131663
0.0000087209
-0.0000122467
0.0000413868
0.0000497551
0.0000247830
0.0000200422
-0.0000057347
0.0000265057
0.0000011059
-0.0000091485
0.0000007197
0.0000746343
-0.0000029113
-0.0000036599
-0.0000070429
0.0000090076
0.0000236465
0.0000145665
0.0000049868
-0.0000147837
0.0000621102
-0.0000029706
0.0000037663
0.0000714549
0.0000202965
0.0000044392
0.0000313493
-0.0000099999
0.0000408081
0.0000148943
-0.0000148674
0.0000315633
-0.0000127894
-0.0000044663
-0.0000137488
-0.0000120615
-0.0000150958
-0.0000143472
0.0000058814
0.0000156625
0.0000049986
-0.0000095287
0.0000442183
0.0000024702
-0.0000020507
0.0000028353
-0.0000135274
-0.0000040447
0.0000012421
0.0000942083
0.0000023521
-0.0000144934
0.0000653336
0.0000000154
-0.0000060483
-0.0000115144
0.0000321435
-0.0000033169
0.0000412291
0.0000109800
0.0000172052
0.0000727547
0.0000372956
0.0000889934
0.0000366153
0.0000044539
0.0000607657
0.0001147249
0.0000119048
-0.0000076244
-0.0000138663
0.0000381849
-0.0000135491
0.0000036763
-0.0000106396
-0.0000010720
-0.0000119599
-0.0000076066
-0.0000079044
-0.0000049892
-0.0000006531
-0.0000131925
-0.0000131048
0.0000043322
-0.0000055561
-0.0000017299
-0.0000067002
-0.0000133648
-0.0000107818
0.0000026303
-0.0000060870
-0.0000028139
-0.0000084563
0.0000111841
0.0000004999
0.0000575929
0.0000170762
-0.0000112448
0.0000312871
-0.0000020775
0.0000276632
0.0000369730
0.0000108676
-0.0000069375
-0.0000063379
0.0000605036
0.0000114464
0.0000322621
0.0000451221
0.0000306930
0.0000539605
-0.0000048031
-0.0000134009
0.0000120527
-0.0000130299
0.0000476161
-0.0000114529
0.0000382251
0.0000133334
0.0000042144
-0.0000040496
-0.0000110191
-0.0000090027
0.0000386756
-0.0000010843
0.0001514712
0.0000187411
0.0000357995
-0.0000128659
0.0000157203
0.0000085086
0.0000316409
0.0000332988
-0.0000041682
0.0000004226
-0.0000061337
0.0000150812
-0.0000037276
-0.0000103006
0.0000032514
0.0000069176
0.0000106907
0.0000690819
-0.0000030827
0.0000140838
0.0001070823
0.0000136363
0.0000172869
-0.0000106998
0.0001193760
0.0000285847
0.0000366801
0.0000286845
-0.0000020569
0.0000055190
0.0000187833
0.0000076813
0.0000310633
-0.0000142461
0.0000834799
0.0000496214
-0.0000144755
0.0000069930
-0.0000020376
-0.0000044678
0.0001139415
0.0000173298
0.0000085041
0.0000096508
-0.0000016440
0.0000004048
0.0000059826
0.0000408448
0.0000002595
-0.0000106656
0.0000277459
0.0000219342
0.0000031194
-0.0000055361
0.0000051451
0.0000198896
0.0000561682
-0.0000011914
0.0000137630
-0.0000100540
0.0000072119
-0.0000127747
0.0000167004
0.0000159851
0.0000069110
0.0000093205
0.0000011552
0.0000234192
-0.0000123024
0.0000677370
0.0000174032
-0.0000071258
-0.0000005603
0.0000103270
0.0000600854
-0.0000120514
-0.0000125784
-0.0000078741
-0.0000056832
-0.0000113224
-0.0000075482
-0.0000073689
0.0000351427
0.0000153731
-0.0000108067
0.0000808941
0.0000373882
0.0000215095
-0.0000042148
0.0000716607
-0.0000085899
-0.0000092213
0.0000065159
0.0000574530
-0.0000105136
0.0000327687
0.0000254312
-0.0000142743
0.0000193543
0.0000048350
0.0000203257
0.0000241171
0.0000637145
0.0001051785
0.0000697536
0.0000873726
-0.0000059199
0.0000344270
0.0000047391
-0.0000119829
0.0000688481
0.0000390787
0.0000465548
0.0000109516
0.0000373387
0.0000774696
-0.0000115576
0.0000128922
-0.0000129436
-0.0000123717
-0.0000140938
-0.0000091085
0.0000248402
0.0000097341
-0.0000128422
0.0000420375
-0.0000013582
-0.0000030669
0.0000362432
-0.0000126755
-0.0000049886
-0.0000016194
0.0000866874
0.0000397416
0.0000018383
-0.0000134450
0.0000234079
-0.0000146707
-0.0000067219
-0.0000086390
-0.0000053602
0.0000250176
0.0000153132
0.0000481673
-0.0000072722
-0.0000119212
0.0000600706
0.0000952468
-0.0000086063
0.0000450316
-0.0000016386
-0.0000063516
0.0000185540
0.0000070954
0.0000152841
0.0000172103
0.0000117583
-0.0000060034
0.0000363833
-0.0000130649
0.0000249752
-0.0000043302
-0.0000065638
0.0000146045
-0.0000114098
-0.0000148285
0.0000484576
-0.0000071656
-0.0000036505
-0.0000061212
0.0000051122
0.0000261611
-0.0000094730
0.0000260134
-0.0000110854
-0.0000140338
-0.0000103010
-0.0000069028
0.0000041061
0.0000158575
0.0000180446
0.0001059549
0.0000683936
0.0000113044
0.0000078798
-0.0000135010
0.0000125394
-0.0000078522
-0.0000074538
0.0000431690
0.0000165176
0.0000375156
-0.0000049626
0.0000083103
0.0000728478
0.0000044488
0.0000160015
-0.0000084550
0.0000065495
0.0000023485
-0.0000097963
0.0000368645
0.0000579490
0.0000481024
0.0000081760
-0.0000016360
0.0000186741
0.0000068049
-0.0000106984
-0.0000025418
0.0000266897
-0.0000031562
0.0000035994
-0.0000023748
0.0000777477
0.0000109896
-0.0000028235
0.0000011349
0.0000836641
-0.0000150230
0.0000842038
0.0000084311
-0.0000035376
-0.0000136630
0.0001462598
0.0000197439
-0.0000115770
0.0000233296
-0.0000059660
-0.0000023068
0.0000788042
-0.0000066433
-0.0000037235
0.0000144043
0.0000401858
-0.0000054979
0.0000137381
0.0000243606
0.0000051913
0.0000173599
-0.0000047570
0.0000084105
0.0000022742
0.0000218153
-0.0000120583
0.0000066775
-0.0000134063
-0.0000106239
0.0000322176
0.0000294362
0.0000323920
0.0000228476
-0.0000043062
0.0000371690
0.0000204691
-0.0000057162
-0.0000141116
0.0000870329
0.0000466123
0.0000060233
0.0000027838
-0.0000118277
0.0000274453
-0.0000032562
0.0000733182
0.0000570137
0.0000252909
0.0000243042
0.0000209472
0.0000376841
0.0000052262
-0.0000053076
-0.0000095907
-0.0000110095
0.0000015347
0.0000061433
-0.0000008193
-0.0000040678
-0.0000061044
0.0000596640
-0.0000031229
0.0000006380
-0.0000110853
0.0000321088
-0.0000108102
0.0000063188
0.0000092499
0.0000472401
-0.0000116334
0.0000121553
-0.0000077861
0.0000222173
0.0000371315
-0.0000110962
0.0000314621
0.0000071396
0.0000021689
0.0000375780
0.0000323560
0.0000021093
0.0000002143
0.0000018964
-0.0000013626
-0.0000032674
-0.0000137862
0.0000286101
0.0000042284
-0.0000144689
-0.0000083368
0.0000033115
0.0001199600
-0.0000149985
0.0000125665
-0.0000042285
0.0000495180
-0.0000116173
-0.0000071619
0.0000133202
-0.0000022911
-0.0000005150
-0.0000011471
-0.0000033417
0.0000171152
-0.0000133305
0.0000420251
-0.0000003898
-0.0000120055
-0.0000014386
0.0000161587
0.0000021785
-0.0000136799
-0.0000022838
0.0000211200
0.0000263250
0.0000059745
-0.0000099626
0.0000110563
-0.0000134662
-0.0000044074
-0.0000083037
0.0000614324
0.0000450340
0.0000023733
0.0000270033
0.0000307686
0.0000839368
0.0000544505
0.0000052672
0.0000007556
-0.0000092338
0.0000522186
-0.0000001425
0.0000141478
0.0000386324
0.0000060804
-0.0000102191
0.0000163058
-0.0000052712
-0.0000053893
-0.0000077957
0.0000318339
0.0000003703
-0.0000078714
-0.0000024467
0.0000087606
-0.0000008428
-0.0000114446
-0.0000025064
0.0000275520
-0.0000058299
-0.0000080885
0.0000128858
-0.0000104592
-0.0000077702
-0.0000002852
-0.0000140576
0.0000096499
0.0000190363
0.0000060855
0.0000007772
-0.0000125428
0.0000131844
0.0000058308
0.0000413584
0.0000610733
0.0000604633
-0.0000143074
0.0000621696
0.0001532430
-0.0000111203
-0.0000092170
0.0000016189
0.0000254339
-0.0000005156
0.0000110545
0.0000111609
0.0000027552
0.0000060501
0.0000132327
0.0000210939
0.0000358633
-0.0000085892
0.0000109940
0.0000024560
-0.0000134809
0.0000230476
0.0000177737
0.0000471352
-0.0000064625
0.0000014134
0.0000171862
0.0000782040
0.0000008451
-0.0000051415
0.0000158930
0.0000135498
-0.0000119658
-0.0000073569
0.0000081866
-0.0000109246
0.0000929470
0.0000132626
0.0000331455
0.0000532396
0.0000060640
0.0000130416
0.0000498424
-0.0000060386
-0.0000084759
0.0000508922
0.0000293320
-0.0000025641
0.0000412924
-0.0000009005
-0.0000046169
0.0000003300
-0.0000069063
0.0000951782
-0.0000119044
0.0000611624
0.0000972020
-0.0000138222
-0.0000093738
0.0000095110
0.0000934548
-0.0000049562
0.0000068648
-0.0000099177
-0.0000033284
-0.0000143314
0.0000101930
0.0000725517
0.0000038116
-0.0000116405
-0.0000126861
-0.0000073915
0.0000029580
-0.0000007318
-0.0000105856
-0.0000018764
0.0000259163
0.0000130087
0.0000075600
-0.0000018120
-0.0000027156
-0.0000121643
-0.0000132346
0.0000297606
0.0000676260
0.0000033053
0.0000213847
-0.0000013720
0.0000026732
-0.0000046784
0.0000373819
0.0000596063
-0.0000077358
-0.0000023826
0.0000446915
0.0000328910
0.0000045612
0.0000685073
-0.0000057855
-0.0000010470
-0.0000137432
0.0000432551
0.0000906730
0.0000175411
0.0000014808
0.0000265269
-0.0000099548
0.0000423216
0.0000062342
0.0000075170
0.0000206991
-0.0000004891
-0.0000115600
0.0000326179
0.0000760156
0.0000392234
-0.0000063101
0.0000065501
0.0000008877
0.0000058325
-0.0000142881
0.0000631110
-0.0000015035
-0.0000127757
0.0000515651
-0.0000050016
0.0000425842
0.0000193136
-0.0000030283
-0.0000136953
-0.0000140328
0.0000046875
0.0000273692
0.0000029828
-0.0000005184
0.0000003839
0.0000219037
0.0001060897
-0.0000068978
0.0000047217
0.0000656640
-0.0000070267
-0.0000126417
0.0000055150
0.0000771006
0.0000339419
-0.0000104912
-0.0000094984
-0.0000009694
0.0000271076
0.0000424030
-0.0000113943
0.0000274165
-0.0000085266
0.0000073888
0.0000147898
-0.0000089663
0.0000006821
0.0000669479
-0.0000028660
0.0000278679
0.0000311240
0.0000353854
0.0000047128
0.0001227313
0.0000025357
0.0000167728
0.0000536078
0.0000079141
0.0001025289
-0.0000141323
0.0000301857
0.0000144354
0.0000020937
0.0000137758
0.0000099060
0.0000075719
0.0000007508
0.0000098895
0.0000357987
0.0000557772
-0.0000132788
0.0000286551
0.0000249127
0.0000092091
0.0001119239
-0.0000021046
0.0000169807
0.0000054536
0.0000102429
-0.0000127158
0.0000004273
-0.0000104165
0.0000005970
0.0000142920
-0.0000032653
-0.0000009089
-0.0000011000
0.0000287180
-0.0000070916
0.0000101787
-0.0000097093
0.0000347635
-0.0000056098
-0.0000089607
0.0000076133
0.0000455438
-0.0000095166
0.0000005672
0.0000106458
0.0000315903
0.0000199738
-0.0000050223
0.0000450604
-0.0000086543
0.0000126785
-0.0000138154
0.0000017296
-0.0000092202
0.0000106371
0.0000179535
-0.0000061557
0.0000530884
0.0000207101
0.0000301048
-0.0000070567
0.0000219383
0.0001219616
0.0001224140
0.0000196539
0.0001067398
-0.0000102095
0.0000131235
0.0000160268
0.0000107572
-0.0000080252
0.0000188927
-0.0000010826
0.0000369381
-0.0000139848
-0.0000035431
0.0000351899
-0.0000045896
-0.0000150779
0.0000080326
0.0000319759
0.0000055002
0.0001022141
-0.0000023144
-0.0000097596
-0.0000023460
0.0000089528
0.0000076915
-0.0000005467
-0.0000078356
0.0000308216
0.0000103604
0.0000162624
-0.0000087336
0.0000063954
0.0000197254
0.0000291976
0.0001370223
-0.0000079005
0.0000147010
0.0000053991
0.0000151880
-0.0000017225
-0.0000082793
0.0000147038
-0.0000118170
0.0000193583
0.0001215109
0.0000028704
0.0000161169
0.0000153833
-0.0000092787
0.0000917788
0.0000416714
0.0000026686
0.0000085321
0.0001769991
0.0001382970
0.0000457014
0.0000015783
0.0000035085
0.0001288528
0.0000210503
-0.0000002302
0.0000022357
0.0000733705
-0.0000034825
0.0000423427
0.0000190131
0.0000664585
-0.0000142589
-0.0000053061
-0.0000136420
-0.0000071506
0.0000142558
-0.0000045068
0.0000228135
-0.0000141738
0.0000138096
0.0000078406
0.0000249003
0.0000004381
-0.0000152310
0.0000006267
-0.0000073557
0.0000656974
0.0000013396
-0.0000063739
0.0000157658
0.0000051318
0.0000014445
-0.0000029930
0.0000339045
0.0000835204
0.0000083060
0.0000644106
-0.0000005941
0.0000014973
0.0000092485
-0.0000102774
0.0000211612
-0.0000140023
0.0000538366
0.0000987217
0.0000003624
-0.0000082949
0.0000636748
0.0000575937
-0.0000137206
0.0000260119
0.0000101584
0.0000646260
-0.0000130915
0.0000178428
-0.0000052811
0.0000026611
0.0000282464
0.0000094117
-0.0000119385
-0.0000024975
-0.0000145216
0.0000265519
-0.0000065924
0.0000103448
0.0000490742
0.0001524970
0.0000404923
-0.0000150910
-0.0000045648
0.0000030691
-0.0000011604
0.0000189152
-0.0000013530
-0.0000057830
-0.0000138201
0.0000205229
0.0000158125
0.0000044980
0.0001264794
-0.0000140720
0.0000244283
0.0000065319
0.0000440945
-0.0000136670
-0.0000081098
-0.0000075125
0.0000092071
0.0000268236
0.0000198344
-0.0000036477
0.0000594805
0.0000502716
0.0000038446
0.0000895103
0.0000288875
-0.0000049192
-0.0000038644
-0.0000045877
-0.0000044095
0.0000137717
0.0000060896
-0.0000039230
0.0000256112
-0.0000076408
0.0000016446
-0.0000096987
0.0000495252
0.0000477739
0.0000258196
0.0000535014
0.0000092336
0.0000335947
0.0000278464
-0.0000043356
0.0000314162
-0.0000090175
-0.0000108126
-0.0000025729
0.0000092818
0.0000915822
0.0000482903
0.0000184280
0.0000170704
-0.0000062737
0.0000377555
-0.0000095918
-0.0000150264
-0.0000069667
0.0000828097
-0.0000043860
0.0000009323
0.0000296555
-0.0000006398
0.0000787133
-0.0000026849
-0.0000057180
0.0000480122
0.0000092871
-0.0000042914
0.0000068174
0.0001493931
0.0000477960
0.0000087140
0.0000044174
0.0000030635
-0.0000098909
0.0000070093
0.0000473497
-0.0000021593
0.0000069275
-0.0000026472
0.0000078670
-0.0000091232
0.0000291223
0.0000098752
0.0000127494
0.0000430835
0.0000976761
0.0000089001
0.0000420857
0.0000122003
-0.0000152675
0.0000118243
-0.0000077260
0.0000581958
-0.0000151196
0.0000037355
0.0000060381
0.0000586170
0.0000011546
0.0000094414
-0.0000018835
0.0000184239
0.0000278164
0.0000519796
0.0000270645
0.0000122869
0.0000467085
-0.0000024742
0.0000221672
-0.0000024253
-0.0000134029
-0.0000104961
0.0000005543
0.0000503860
-0.0000044374
-0.0000147423
-0.0000108519
-0.0000127576
0.0000455549
0.0000170935
0.0000304868
0.0000501032
-0.0000118664
0.0000390676
0.0000178360
-0.0000088720
-0.0000146659
0.0000043779
-0.0000122523
0.0000012024
-0.0000022433
-0.0000152367
-0.0000059498
-0.0000075553
0.0000673838
0.0001305746
0.0000601256
-0.0000042905
0.0000573739
-0.0000088323
-0.0000047332
-0.0000096030
-0.0000010736
0.0000645858
0.0000317546
-0.0000011770
0.0000062223
-0.0000151420
0.0000992205
-0.0000138714
-0.0000083076
-0.0000004673
-0.0000032822
0.0000207554
0.0000652637
0.0000007722
0.0000652869
0.0000094538
-0.0000146678
0.0000312576
-0.0000007616
0.0000726717
-0.0000096744
-0.0000139721
0.0000265138
0.0000445650
0.0000188114
0.0000066391
-0.0000123966
0.0000377949
0.0000224153
-0.0000137887
0.0001094619
0.0000060262
0.0000219918
0.0000242218
-0.0000083760
0.0000029524
0.0000102337
-0.0000122751
0.0000441052
0.0000482345
0.0000073034
-0.0000038893
-0.0000078494
-0.0000023973
0.0000009673
0.0000071848
0.0000098763
-0.0000099580
0.0000492128
-0.0000071070
0.0000031882
-0.0000020162
-0.0000148949
-0.0000098934
-0.0000050952
-0.0000139671
-0.0000081797
0.0000337086
0.0000055884
-0.0000108315
0.0000313969
0.0000066066
-0.0000146440
-0.0000056429
-0.0000015030
-0.0000119850
0.0000086161
0.0000804453
0.0000238835
0.0000930409
-0.0000006965
-0.0000020294
-0.0000059985
0.0000031938
-0.0000085050
-0.0000150799
-0.0000075579
0.0000166688
-0.0000004455
0.0000355529
0.0000021204
0.0000331099
-0.0000128892
0.0000625286
0.0000146910
-0.0000106743
0.0001092642
-0.0000026149
0.0000139028
0.0000434819
-0.0000091270
-0.0000004104
0.0000311042
0.0000517804
0.0000177830
-0.0000126415
-0.0000137853
0.0000735189
0.0001120027
0.0000163204
0.0000541730
0.0002145050
-0.0000054751
-0.0000135137
-0.0000000365
-0.0000043377
-0.0000042988
0.0000100580
-0.0000139070
-0.0000005342
-0.0000073644
0.0000646037
-0.0000105212
-0.0000133008
-0.0000130140
0.0000103780
-0.0000090436
-0.0000062023
0.0000311584
-0.0000097555
-0.0000143907
0.0000078124
-0.0000088433
-0.0000097417
0.0000473458
-0.0000109767
-0.0000149156
0.0000144741
0.0000608494
-0.0000106511
0.0001138417
0.0000091197
0.0000390854
0.0000056978
-0.0000055301
-0.0000140016
0.0000112369
-0.0000091264
0.0000097225
-0.0000037343
-0.0000068443
0.0000305144
0.0000132340
-0.0000066782
0.0000290898
0.0000052637
0.0000319963
-0.0000116853
0.0000228863
-0.0000022096
0.0000030223
-0.0000123781
0.0001284984
-0.0000094147
-0.0000060086
-0.0000073820
0.0000351283
0.0000147002
0.0000227560
-0.0000004516
0.0000717488
0.0000271858
0.0000033048
-0.0000114503
0.0000262493
0.0000137289
0.0000103673
-0.0000081216
0.0000338634
0.0000300624
-0.0000095132
0.0001750071
-0.0000084712
0.0000548122
-0.0000109023
0.0001016941
-0.0000061350
-0.0000015822
0.0000057335
0.0000216201
-0.0000014996
0.0000258181
0.0000017782
0.0000666161
-0.0000000694
0.0000184933
-0.0000011285
