300,1,20,16,0.010000,0.010000,8192,Rectangle
-0.0000069931
0.0000490169
0.0000351284
-0.0000075835
-0.0000040368
-0.0000144457
-0.0000028266
0.0000291794
0.0000115840
0.0000229336
0.0000011634
0.0000297032
0.0000230634
-0.0000144608
0.0000000558
-0.0000096671
0.0000872106
-0.0000083434
0.0000009893
0.0000277908
0.0000340710
-0.0000051770
-0.0000045991
0.0000722331
-0.0000093572
0.0000315546
0.0000166388
-0.0000148996
0.0000348283
-0.0000143861
0.0000003056
0.0000017922
0.0000022745
0.0000334214
-0.0000009249
-0.0000078551
0.0000118056
-0.0000067954
-0.0000057693
0.0000170706
0.0000340897
-0.0000068157
0.0000394306
0.0000320600
0.0000545040
0.0000065603
-0.0000056375
-0.0000063479
0.0000108213
0.0000403281
-0.0000112402
-0.0000123447
0.0000132949
0.0000001027
0.0000000074
0.0000098026
0.0000807677
-0.0000090494
-0.0000127029
0.0000218931
-0.0000144236
0.0000888141
0.0000368951
0.0000072920
0.0000285619
-0.0000133855
0.0000026614
-0.0000140123
0.0000247671
-0.0000134188
0.0000179167
0.0000253453
-0.0000136667
0.0000179659
0.0000011544
0.0000073460
-0.0000071221
-0.0000144140
0.0000092458
0.0000565765
0.0000218163
0.0000136567
0.0000503470
0.0000022759
0.0000543212
0.0000498464
0.0000476744
0.0000126645
0.0000153634
-0.0000129750
0.0000272902
0.0000283670
-0.0000121567
0.0000865957
0.0000288292
-0.0000037658
-0.0000121409
0.0000876443
0.0000032131
-0.0000070366
-0.0000138902
-0.0000107062
-0.0000070331
0.0000088223
0.0000163335
-0.0000003148
0.0000089933
0.0000003177
-0.0000041757
0.0000011176
0.0000288199
0.0000697685
-0.0000128499
0.0000010827
-0.0000135286
-0.0000070507
-0.0000141255
-0.0000046532
-0.0000035974
-0.0000103316
-0.0000003797
-0.0000014795
-0.0000151020
0.0000185043
-0.0000143134
-0.0000123755
-0.0000040504
0.0000008226
0.0000841899
0.0000004268
0.0000097156
0.0000729827
0.0000189424
0.0000271021
-0.0000112741
-0.0000073581
0.0000021636
0.0000037036
0.0000988910
0.0000232906
0.0001083820
-0.0000028457
-0.0000105971
0.0000537622
-0.0000147622
-0.0000056958
0.0000040378
-0.0000037976
-0.0000097768
0.0000051665
-0.0000073000
0.0000328045
-0.0000057772
0.0000869513
0.0000142003
-0.0000127089
-0.0000122598
0.0000003445
-0.0000073463
0.0000158438
0.0000352560
0.0000276741
-0.0000137546
0.0000393073
-0.0000139947
-0.0000151990
0.0000134381
0.0000013226
-0.0000027978
0.0000135565
0.0000166963
0.0000030709
-0.0000134047
0.0000024532
-0.0000130886
0.0000183773
-0.0000070350
0.0000001732
-0.0000149486
-0.0000089801
0.0000358571
0.0000075874
0.0000775177
0.0000093434
-0.0000050531
-0.0000128227
-0.0000107477
0.0000071822
-0.0000059133
0.0000479456
0.0000622207
-0.0000101021
0.0000521845
0.0000090501
-0.0000093729
0.0000017992
0.0000132777
0.0000134865
-0.0000002638
0.0000188994
0.0000392780
0.0000115327
0.0000480985
-0.0000099433
0.0000059142
-0.0000020525
-0.0000132137
-0.0000013028
0.0000411751
0.0000149608
0.0001096653
0.0001499182
-0.0000093040
0.0000563515
0.0000105611
-0.0000057449
-0.0000132851
0.0000021677
0.0000115098
-0.0000134934
-0.0000131520
0.0000100201
0.0000026498
0.0000014097
0.0000252042
-0.0000102332
-0.0000108581
0.0000192155
0.0000531730
0.0000292491
0.0000396496
-0.0000017042
-0.0000057501
-0.0000041873
0.0000113338
0.0000288659
-0.0000045787
-0.0000103612
-0.0000008895
0.0000109164
0.0000062766
-0.0000014248
-0.0000068788
0.0000031661
0.0000134387
0.0000225492
0.0000066594
-0.0000117702
-0.0000071219
0.0000072295
0.0000116633
0.0000812553
0.0000136816
0.0000149269
0.0000203399
-0.0000000423
0.0000493976
0.0000016218
-0.0000014447
-0.0000071639
0.0000661195
-0.0000067949
0.0000297040
-0.0000091806
0.0000037703
0.0000504661
0.0000122180
0.0000512099
0.0000163369
-0.0000104591
0.0000398388
0.0000017985
-0.0000117076
0.0000260963
0.0000119187
0.0000393599
-0.0000089880
0.0000384286
-0.0000021916
0.0000144755
0.0000134132
0.0000176022
0.0000330459
-0.0000124051
-0.0000094831
0.0000569604
-0.0000013469
-0.0000148310
0.0000013844
-0.0000020927
-0.0000065642
0.0000011184
0.0000175368
-0.0000090041
0.0000116373
-0.0000153339
-0.0000120563
0.0000429139
-0.0000055265
0.0000621409
-0.0000018581
0.0000867257
0.0000425818
-0.0000049397
-0.0000021274
0.0000518898
-0.0000110264
-0.0000068723
0.0000971047
0.0000113375
-0.0000136461
0.0000122615
0.0000454121
-0.0000130715
-0.0000083979
0.0000425950
-0.0000133826
-0.0000049187
-0.0000114251
0.0000187639
-0.0000032503
0.0000363576
0.0000494012
-0.0000012188
0.0000030757
-0.0000053180
0.0000140736
-0.0000056701
-0.0000125688
0.0000230819
-0.0000070333
-0.0000023498
0.0000393659
0.0000204338
0.0000568832
-0.0000108271
-0.0000106625
0.0000244662
-0.0000127994
0.0000046865
0.0000796331
0.0000645142
0.0000439315
0.0000099645
0.0000180268
-0.0000144447
-0.0000119956
-0.0000077484
0.0000545856
0.0000136126
0.0000049680
0.0000371366
-0.0000060319
-0.0000050955
-0.0000139059
0.0000120902
-0.0000151863
-0.0000142797
-0.0000133880
-0.0000129954
0.0000018351
-0.0000001028
0.0000202504
-0.0000105836
0.0001072742
-0.0000063121
0.0000275026
0.0000549747
-0.0000077789
0.0000282732
0.0000023228
0.0001391952
0.0000056127
-0.0000051649
-0.0000111987
-0.0000053598
0.0000077644
-0.0000039755
-0.0000152195
0.0000695290
0.0000355118
0.0000184521
-0.0000125076
0.0000330429
-0.0000095093
0.0000121315
0.0000172503
0.0000403807
0.0000089142
-0.0000050287
0.0000269025
-0.0000134302
0.0000000604
0.0000019635
0.0000448396
-0.0000066623
0.0000732397
-0.0000080472
0.0000281306
-0.0000139351
-0.0000077614
0.0000015944
-0.0000110197
-0.0000133947
0.0000130803
-0.0000110328
0.0000055310
0.0000162461
0.0000675322
-0.0000000658
0.0000450783
0.0000523604
-0.0000027081
0.0000040082
0.0000248681
0.0000047735
0.0000094605
0.0000956320
0.0000398772
-0.0000040040
0.0001337974
0.0000092791
0.0000062826
-0.0000073519
0.0000229532
-0.0000111697
-0.0000149570
0.0000059082
-0.0000141363
0.0000223582
0.0000012497
0.0000814671
0.0000106908
0.0000411205
-0.0000021001
0.0000818214
-0.0000075176
-0.0000090883
-0.0000067803
-0.0000008114
0.0000014620
0.0001650949
0.0000140651
-0.0000064297
-0.0000131303
-0.0000119113
0.0000166955
-0.0000134473
0.0000023895
0.0000947138
-0.0000133208
0.0000295971
-0.0000001110
0.0000016362
-0.0000003530
0.0000012583
0.0000031239
-0.0000120547
-0.0000067611
0.0000799397
0.0000329644
0.0000152589
-0.0000077473
0.0000455553
-0.0000134500
-0.0000038356
-0.0000025261
0.0000508864
0.0000032304
-0.0000052645
0.0000143849
0.0000111731
0.0000418790
0.0000232531
0.0000138596
0.0001561585
-0.0000034320
-0.0000051555
-0.0000031785
0.0000003904
-0.0000138307
-0.0000018104
-0.0000149516
0.0000071852
-0.0000101760
-0.0000004897
-0.0000039167
0.0000333041
-0.0000069659
0.0000118412
0.0000135995
-0.0000023695
0.0000075184
0.0000045386
0.0000340117
0.0000152037
0.0000286371
0.0000050274
-0.0000042874
-0.0000050013
0.0000308600
0.0000604526
-0.0000031794
-0.0000130349
-0.0000065686
0.0001472650
0.0000111509
0.0000208014
-0.0000094430
0.0000172151
0.0000776505
0.0000056096
0.0000160206
-0.0000031826
-0.0000137057
0.0000048910
0.0000181759
-0.0000088057
0.0000088035
-0.0000150048
0.0000518921
0.0000586077
0.0000343137
0.0000261393
-0.0000039955
-0.0000051472
0.0000164567
0.0000856108
0.0000488845
-0.0000090471
0.0000369936
-0.0000135918
0.0000018809
-0.0000149494
0.0000166268
0.0000798781
0.0000325013
0.0000039820
0.0000400267
-0.0000138495
0.0000336522
-0.0000123503
0.0000148497
0.0000200742
-0.0000097126
0.0000639658
0.0000126461
0.0000129743
0.0000083725
0.0000188936
-0.0000138798
0.0000269815
0.0000502943
0.0000951813
-0.0000068796
0.0000352502
0.0000013060
0.0000688088
0.0000112238
0.0000012011
-0.0000014435
0.0000044792
0.0000979049
-0.0000141699
0.0000154569
-0.0000039540
0.0000585735
-0.0000151772
0.0000314673
0.0000223265
-0.0000087003
0.0001031340
0.0000491586
0.0000885898
-0.0000092949
0.0000021390
-0.0000027198
0.0000007909
-0.0000152617
0.0001250790
-0.0000084746
-0.0000078201
0.0000504326
0.0000386873
-0.0000058948
0.0000400151
0.0000144711
0.0000133363
0.0000223157
0.0000258439
0.0000023502
0.0000273460
0.0000184797
-0.0000135153
0.0000059281
0.0000173749
0.0000042612
0.0000321036
0.0000129416
0.0000382779
0.0000612178
-0.0000059276
0.0000366110
-0.0000030618
-0.0000133442
0.0000240382
-0.0000002631
-0.0000101709
0.0000319505
-0.0000045121
-0.0000146258
0.0000352613
0.0000000360
0.0000058782
0.0000043135
0.0000528390
0.0000077257
0.0000031003
-0.0000113843
0.0000072186
-0.0000119091
0.0000192509
0.0000358204
0.0000049690
0.0000495253
0.0000804234
-0.0000068041
-0.0000102019
0.0001301506
0.0000007678
0.0000640077
-0.0000042778
-0.0000131745
-0.0000058026
0.0000239017
0.0000097962
0.0000123884
0.0000068580
-0.0000060924
0.0000075814
-0.0000122938
0.0000000207
-0.0000072249
0.0000179060
0.0000055371
-0.0000076310
0.0000283470
-0.0000021474
0.0000229449
0.0000301273
0.0000406628
0.0000539689
-0.0000081412
0.0000429135
-0.0000141825
0.0001047672
0.0000615745
-0.0000058401
-0.0000141519
0.0000071997
0.0000170927
0.0000000050
-0.0000049130
-0.0000104283
-0.0000043347
-0.0000107537
0.0000076526
-0.0000128541
-0.0000099968
-0.0000004374
-0.0000017252
0.0000027316
-0.0000132605
0.0000305162
-0.0000020842
-0.0000003674
0.0000101679
-0.0000121616
-0.0000090196
-0.0000120364
-0.0000083718
-0.0000122922
0.0000523176
0.0000393087
-0.0000068242
0.0000791121
-0.0000143730
0.0000106072
0.0000504132
0.0000092287
0.0000078599
0.0000234138
0.0000009825
0.0000490320
0.0000308444
-0.0000066741
0.0000416831
-0.0000146142
0.0000226865
-0.0000148353
0.0000198893
0.0000115564
0.0000112235
0.0000093839
-0.0000041877
0.0000305326
0.0000172719
0.0000397253
0.0000225514
-0.0000105056
0.0000444084
0.0000251104
0.0000467045
-0.0000045074
0.0000267243
-0.0000112286
0.0000320589
-0.0000085469
-0.0000057746
-0.0000026758
0.0000153533
0.0000115329
0.0000255081
-0.0000099113
0.0000223215
0.0000606889
0.0000715094
0.0000325949
-0.0000030231
-0.0000119742
0.0000055785
0.0000167242
0.0000116063
-0.0000136397
-0.0000148947
-0.0000003471
-0.0000146121
0.0000304293
0.0000223780
0.0000016485
-0.0000059955
-0.0000134100
0.0000395127
-0.0000146256
0.0000060404
0.0000856918
-0.0000089873
0.0000632576
-0.0000080333
0.0000117117
0.0001390520
0.0000240634
0.0000044609
-0.0000140722
-0.0000104319
-0.0000149780
-0.0000042076
-0.0000119433
0.0000298797
0.0000146214
0.0000575723
-0.0000050731
0.0000233041
-0.0000012544
-0.0000131161
-0.0000132020
0.0000346809
0.0000428321
0.0000016416
0.0000183792
0.0000461006
0.0000199258
0.0000749999
0.0000151610
-0.0000124027
0.0001164691
0.0000462383
-0.0000046963
-0.0000072963
-0.0000024389
-0.0000127829
-0.0000053153
-0.0000133001
-0.0000032045
-0.0000105449
-0.0000058392
0.0000554256
0.0000600692
0.0000072481
-0.0000119531
-0.0000117871
-0.0000132944
0.0000820938
0.0000286704
0.0000040392
-0.0000077908
-0.0000083615
0.0000200224
-0.0000126066
0.0000352541
0.0000224682
0.0000338043
0.0000444743
0.0000862754
-0.0000088852
0.0000291712
0.0000026705
-0.0000016552
0.0000043506
0.0000029655
0.0000076581
-0.0000049374
0.0000896590
0.0000260893
0.0000400243
-0.0000133457
-0.0000047789
0.0000586088
-0.0000026961
0.0000449556
0.0000183040
0.0000103069
0.0000117708
0.0000479073
0.0000118952
0.0000215377
0.0000045237
-0.0000071764
0.0000674176
0.0000235920
-0.0000128278
0.0000681882
0.0000305861
-0.0000011938
0.0000200959
0.0000108517
-0.0000072610
-0.0000123806
0.0000190261
0.0000752840
-0.0000134560
0.0000776932
-0.0000091420
0.0000280536
0.0000088045
-0.0000120988
-0.0000012030
0.0000544291
0.0000151303
-0.0000035772
-0.0000144893
0.0000134903
0.0000345557
0.0000547472
-0.0000056076
-0.0000091977
-0.0000108456
-0.0000048517
0.0000001660
-0.0000135580
0.0000591478
0.0000019437
0.0000635920
0.0000075021
-0.0000080101
0.0000428327
-0.0000115532
0.0000567425
0.0000418121
0.0000277277
0.0000906800
-0.0000130382
0.0001230813
-0.0000123758
-0.0000105387
0.0000139454
0.0000002841
0.0000402151
-0.0000083205
0.0000485566
-0.0000141462
0.0000251499
0.0000150615
0.0000160878
-0.0000059634
-0.0000072149
0.0000598917
0.0000170927
-0.0000014079
0.0000026363
-0.0000150996
0.0000037096
0.0001067813
-0.0000058589
0.0000430076
-0.0000061079
-0.0000077719
-0.0000143126
0.0000231024
-0.0000131426
0.0000211252
0.0000073375
0.0000326872
-0.0000099828
0.0000015157
0.0000713005
-0.0000010873
0.0000436965
0.0000805580
0.0000703017
0.0000390799
0.0000211069
0.0000035030
0.0000379920
0.0000014249
-0.0000114293
0.0000487215
0.0000072637
0.0000187395
0.0000307714
-0.0000151765
0.0000082391
-0.0000097519
-0.0000001805
-0.0000009157
0.0000697498
-0.0000057056
0.0000083918
0.0000034789
0.0000053332
-0.0000115314
0.0000357657
-0.0000050941
0.0000054817
0.0000715665
-0.0000020327
0.0001026114
0.0000425831
-0.0000104964
0.0000229922
-0.0000052389
-0.0000014104
0.0000025720
0.0000473277
0.0000317327
-0.0000007880
0.0000470995
0.0000246970
-0.0000146010
-0.0000110653
0.0000091813
0.0000104675
-0.0000097997
0.0000448776
0.0000093072
-0.0000138626
-0.0000004019
0.0000414144
0.0000067148
0.0000046056
0.0000078213
0.0000079032
0.0000312262
-0.0000002050
-0.0000097974
0.0000140742
0.0000914081
0.0000170017
0.0000265481
-0.0000086171
-0.0000033460
0.0000200675
-0.0000022557
0.0000007821
-0.0000033897
0.0000325266
0.0000262519
0.0000291007
-0.0000147972
0.0000060176
0.0000022783
-0.0000017863
0.0000392525
0.0000379477
-0.0000049084
-0.0000070641
-0.0000040448
-0.0000058299
0.0000267241
0.0001157152
0.0000198487
-0.0000089509
0.0000760299
-0.0000082213
0.0000054576
-0.0000022630
0.0000007929
0.0000026718
-0.0000107069
0.0000062629
-0.0000031967
-0.0000020482
0.0000675912
0.0000090325
0.0000022461
0.0000127897
0.0001275027
-0.0000048651
-0.0000139007
0.0000604931
-0.0000077845
0.0000071876
-0.0000088271
0.0000084618
0.0000038542
0.0000022681
0.0000393959
0.0000392587
0.0000111171
0.0000673027
0.0000085680
0.0000025190
0.0000090756
-0.0000027279
-0.0000051191
0.0000305233
0.0000009241
-0.0000121111
0.0000022700
0.0000112059
0.0000299185
0.0000914979
0.0000581852
-0.0000092718
-0.0000086611
-0.0000007867
-0.0000030285
0.0000469141
0.0000642880
0.0000077533
0.0000522549
-0.0000072479
0.0000022647
-0.0000078599
-0.0000078081
0.0000268724
-0.0000080976
-0.0000118276
-0.0000104527
0.0000105656
0.0000847194
-0.0000120839
0.0000042023
0.0000116053
0.0000553190
0.0000901742
0.0000444550
0.0000252182
0.0000434841
0.0000467142
-0.0000127088
-0.0000066993
-0.0000140795
-0.0000145445
0.0000427388
0.0000283247
0.0000033139
0.0000114449
0.0000041496
-0.0000046138
0.0000014245
-0.0000068658
0.0000534494
0.0000495883
0.0000292098
0.0000083772
-0.0000144990
-0.0000110485
-0.0000079869
0.0000365981
-0.0000111058
0.0000180273
-0.0000085210
0.0000031554
-0.0000122250
-0.0000127582
0.0000072761
0.0000154933
0.0000565177
0.0000016313
-0.0000066311
-0.0000095803
-0.0000027090
-0.0000117435
0.0000155887
0.0000010357
-0.0000067147
0.0000143087
0.0000227903
-0.0000034001
0.0000848887
0.0000266059
-0.0000147294
0.0000009694
0.0000260416
0.0000420757
0.0000256363
-0.0000035991
0.0000556832
-0.0000067864
0.0000464887
0.0000363060
-0.0000006486
-0.0000080326
0.0000164785
-0.0000145469
-0.0000009843
0.0000092918
0.0000027961
0.0000132651
0.0000346528
0.0000191212
0.0000175855
0.0000026601
-0.0000028021
-0.0000008843
0.0000244100
0.0000360127
0.0000027926
-0.0000109427
0.0000394662
0.0001994484
0.0000809198
-0.0000113405
-0.0000001789
0.0000110992
0.0000190874
0.0000499939
-0.0000127349
0.0000246364
-0.0000150351
0.0000950601
-0.0000090989
0.0000025836
-0.0000056870
-0.0000124988
-0.0000050551
0.0000460795
0.0000105756
0.0000459489
0.0000216421
0.0000211893
-0.0000059641
-0.0000037070
-0.0000098817
0.0000506058
0.0000251660
0.0000121009
0.0000115707
-0.0000112462
0.0000176225
0.0000078749
0.0000108118
-0.0000071256
0.0000162423
-0.0000066604
0.0000159100
0.0000162117
0.0000733443
0.0000004208
-0.0000072351
0.0000331401
0.0000683102
-0.0000057151
0.0000857589
-0.0000105356
0.0000214141
0.0000120553
0.0000257232
0.0000184816
-0.0000057317
0.0000030601
-0.0000121474
-0.0000128630
-0.0000030062
0.0000085655
0.0000201809
-0.0000061015
-0.0000098315
0.0000743953
0.0000282877
0.0000267259
0.0000247727
0.0000218857
-0.0000076338
0.0000175835
-0.0000009822
-0.0000039878
-0.0000060915
0.0000017409
-0.0000088248
0.0000192796
-0.0000046986
0.0000665281
0.0001021232
0.0000008949
-0.0000109284
0.0000520602
-0.0000127955
0.0000468824
-0.0000027863
-0.0000066040
0.0000754894
0.0000099886
0.0000605699
0.0000497524
0.0000383393
0.0001113694
-0.0000007111
0.0000183045
0.0000023762
0.0000365363
-0.0000088272
-0.0000091671
0.0001118363
-0.0000128358
-0.0000052288
0.0000037760
0.0000065585
0.0000032193
0.0000039629
-0.0000131354
-0.0000095652
0.0000249088
-0.0000117323
0.0000015238
0.0000138094
-0.0000082301
-0.0000123773
-0.0000078578
0.0000047161
0.0000261479
0.0000156957
0.0000051488
-0.0000074159
0.0000031229
0.0000265279
0.0000787346
0.0000727049
-0.0000061074
0.0001765458
-0.0000053575
0.0000602143
0.0000052698
-0.0000028942
0.0000094463
-0.0000040644
-0.0000047465
0.0000046591
0.0000028869
0.0000019946
0.0000362046
0.0000455426
0.0000562935
0.0000101196
0.0000688883
0.0000010687
0.0000514267
0.0000072131
-0.0000054213
0.0000145226
-0.0000117246
-0.0000028557
-0.0000001655
0.0000108905
0.0000031940
0.0000696767
0.0000497521
0.0000425802
0.0000033041
-0.0000100349
0.0000068403
0.0000153598
-0.0000013194
-0.0000116859
-0.0000028777
-0.0000131069
-0.0000015243
0.0000165414
0.0000223355
0.0000264998
-0.0000025455
0.0000715077
0.0000208847
-0.0000111562
0.0000618833
-0.0000000878
-0.0000100893
0.0000512553
0.0000122927
0.0000457063
0.0000066189
0.0000042590
-0.0000145864
-0.0000084595
0.0000058585
0.0000002349
-0.0000124477
0.0000566024
0.0000565423
0.0000413682
-0.0000059387
0.0000042887
0.0000309721
0.0000082988
0.0000122111
0.0000223100
0.0000092700
0.0000212705
0.0000318319
0.0000022314
0.0000411675
0.0000526678
0.0000104682
0.0000270400
-0.0000016506
-0.0000109231
0.0000406918
-0.0000121229
0.0000187307
0.0000036852
0.0000158446
0.0000086578
-0.0000052545
0.0000151812
-0.0000005700
-0.0000132611
-0.0000125054
0.0000311526
-0.0000074585
-0.0000006809
0.0000169776
0.0000447189
-0.0000123026
0.0000204640
-0.0000031159
-0.0000091035
-0.0000089337
-0.0000033814
0.0000101124
-0.0000082950
-0.0000108905
0.0000144256
0.0000336993
-0.0000129445
0.0000340138
-0.0000129435
-0.0000139477
-0.0000072228
-0.0000052082
-0.0000030487
-0.0000045312
-0.0000011748
0.0000237086
0.0000098357
-0.0000012467
0.0000047813
-0.0000096669
0.0000792083
0.0000343219
0.0000100333
0.0000442398
-0.0000078126
-0.0000057435
0.0000274871
0.0000331127
0.0000521484
-0.0000054560
0.0000117226
0.0000017391
-0.0000142265
0.0000431565
-0.0000086132
-0.0000029051
0.0000234634
0.0000953063
-0.0000041267
0.0000062610
-0.0000088862
-0.0000007598
0.0000318577
-0.0000123400
0.0000401508
0.0000391766
0.0000209464
-0.0000036426
0.0000135440
0.0000975990
-0.0000123143
0.0000152262
0.0000570806
-0.0000073547
0.0000395891
-0.0000068331
0.0000792279
0.0000623276
-0.0000021048
-0.0000102910
0.0000182617
0.0000523821
0.0000079666
-0.0000132375
0.0000265839
-0.0000129489
0.0000370586
0.0000060681
0.0000337580
-0.0000037399
-0.0000116518
-0.0000124924
-0.0000140992
-0.0000142893
0.0000088750
0.0000482536
0.0000047461
0.0000069969
0.0000202630
-0.0000109726
-0.0000134926
0.0000055803
0.0000052805
-0.0000091278
0.0000236667
-0.0000104162
-0.0000014683
0.0000076533
-0.0000148622
0.0000099856
0.0000008070
-0.0000060548
0.0000431499
-0.0000096168
0.0000092717
-0.0000142364
0.0000056075
0.0000160143
0.0000282904
-0.0000129557
0.0000031826
0.0000295636
-0.0000122838
-0.0000112136
0.0000236002
-0.0000006730
0.0000109072
0.0000015286
-0.0000042747
0.0000521843
0.0000391565
-0.0000029570
0.0000592751
0.0000374215
0.0001022318
-0.0000089273
0.0000329286
0.0000246291
-0.0000023238
0.0000147280
0.0000182042
-0.0000130942
-0.0000103495
0.0000016583
0.0000590143
0.0000083402
0.0000187783
0.0000005120
0.0000111251
-0.0000127956
-0.0000029228
-0.0000127333
0.0000010993
-0.0000103945
0.0000328428
-0.0000148728
0.0000376315
0.0000073614
0.0000158121
-0.0000011465
0.0000159592
0.0000120057
0.0000105780
-0.0000082490
0.0000164296
0.0000163669
-0.0000093412
-0.0000139463
-0.0000082821
-0.0000129318
0.0000540104
0.0000472086
0.0000084708
0.0000057042
-0.0000021559
-0.0000059827
0.0000098452
-0.0000148161
0.0000138679
0.0000391297
0.0000842358
0.0000374741
0.0000211598
0.0000700565
-0.0000017259
0.0000165160
-0.0000084514
0.0000866291
0.0000230225
0.0000160030
0.0000279929
0.0000065602
0.0000103234
0.0000199942
-0.0000078694
-0.0000024944
-0.0000015104
0.0000158736
-0.0000136431
0.0000459008
0.0000189438
0.0000212558
0.0000476931
0.0000142009
0.0000382008
-0.0000090936
-0.0000089224
0.0000459457
0.0000077939
-0.0000093184
0.0000351964
0.0000003019
0.0000092329
0.0000039523
-0.0000088270
0.0000441648
0.0000223384
0.0000534377
0.0000421767
-0.0000151277
0.0001538790
0.0000118833
0.0000010695
0.0000161043
0.0000085164
0.0000012182
-0.0000012773
-0.0000118255
0.0000133506
0.0000061658
0.0000469270
-0.0000140976
0.0000185717
0.0000205339
-0.0000077712
-0.0000061949
0.0000243067
-0.0000002965
-0.0000007503
-0.0000093000
0.0000327774
0.0000058563
0.0000969888
-0.0000019374
-0.0000119445
0.0000191337
-0.0000019544
0.0000014115
0.0000274706
0.0000137808
-0.0000054900
0.0000079782
-0.0000078025
-0.0000050870
0.0000355917
0.0000874178
0.0000780918
-0.0000131982
-0.0000033438
0.0000139800
0.0000149020
-0.0000081645
-0.0000020977
-0.0000142877
0.0000164393
-0.0000044336
-0.0000117386
-0.0000099688
0.0000261286
0.0000159372
0.0000573522
-0.0000090692
0.0000153892
0.0000352566
0.0000050957
0.0000514255
0.0002132230
-0.0000124914
-0.0000060774
0.0000791442
0.0000374184
0.0000010387
-0.0000150086
-0.0000084018
0.0000257840
-0.0000088909
0.0000123776
-0.0000130575
0.0000334583
0.0000136172
0.0000545736
-0.0000103881
0.0000130088
-0.0000083976
0.0000283030
-0.0000049442
0.0000548453
0.0000024982
-0.0000046806
-0.0000131416
0.0000023467
0.0000038824
-0.0000064395
0.0000006548
0.0000017534
0.0000270679
0.0000301612
0.0000413579
0.0000606991
0.0000010657
0.0001373306
0.0000965917
0.0000462971
-0.0000036022
0.0000168496
-0.0000051396
0.0000318364
0.0000647886
0.0000352841
0.0000013386
-0.0000119986
-0.0000108873
0.0000047378
-0.0000044916
0.0000061375
-0.0000082730
0.0000459000
-0.0000120070
-0.0000102890
0.0000182608
-0.0000105158
0.0000022403
0.0000086655
0.0000305762
0.0000038558
0.0000166263
0.0000487921
-0.0000010976
0.0000137003
-0.0000060610
-0.0000066569
0.0000404213
-0.0000096736
0.0000274908
0.0000767541
-0.0000130978
-0.0000001368
-0.0000032196
0.0000638159
0.0002325804
-0.0000147700
-0.0000093659
0.0000461535
0.0000165810
-0.0000056841
-0.0000148087
-0.0000062903
0.0000462564
0.0000863850
-0.0000004826
0.0000103446
-0.0000048916
-0.0000117751
-0.0000090314
-0.0000033696
0.0000079693
0.0000377855
-0.0000019503
0.0000317304
-0.0000084178
0.0000125977
-0.0000069388
0.0001487528
0.0000194275
-0.0000033176
0.0000083881
0.0000022719
0.0000020381
0.0000685414
-0.0000085621
0.0000269777
-0.0000015700
0.0000154050
-0.0000013350
0.0000363252
0.0000190624
-0.0000125046
0.0000285393
-0.0000035186
-0.0000047149
0.0000100968
-0.0000065460
-0.0000030421
0.0000089618
-0.0000054153
-0.0000044092
0.0000050462
-0.0000000821
0.0000083271
-0.0000144421
0.0000434166
0.0000009295
0.0000171374
0.0000006208
-0.0000145449
0.0001050853
0.0001174180
0.0000051321
-0.0000124741
0.0000095190
-0.0000054044
0.0000191568
-0.0000133748
0.0000292077
0.0000060423
0.0000123323
-0.0000064698
0.0000497240
-0.0000041691
-0.0000126575
0.0000053639
-0.0000024166
-0.0000146739
0.0000026639
0.0000234773
0.0000038830
0.0000048903
0.0000144392
-0.0000057889
-0.0000008770
0.0000600653
-0.0000092853
0.0000793979
-0.0000043001
0.0000148714
-0.0000053735
-0.0000063716
0.0000382378
0.0000124937
-0.0000035274
0.0000219628
-0.0000030858
-0.0000111093
-0.0000085162
0.0000638666
0.0000643070
-0.0000040933
0.0000006347
-0.0000150165
0.0000146898
0.0000015180
0.0000196194
0.0000291831
0.0000068544
0.0000318987
0.0000394629
-0.0000020464
0.0000999389
0.0000009283
0.0000169728
0.0000033221
0.0000082243
-0.0000114595
0.0000486593
0.0000170712
0.0000035051
-0.0000131749
0.0000764860
-0.0000112548
-0.0000123694
-0.0000136397
0.0001308697
0.0000301756
-0.0000117110
0.0000446476
0.0000160012
0.0000125439
0.0000514605
-0.0000075381
-0.0000010294
0.0000055795
0.0000058941
0.0000088199
0.0000272755
-0.0000068329
0.0000024204
-0.0000087636
0.0000363688
-0.0000060296
0.0000309704
0.0000201034
0.0000032522
-0.0000027701
-0.0000078970
0.0000021481
0.0000469262
-0.0000053935
0.0000236045
-0.0000024120
0.0000029758
-0.0000137843
0.0000848480
0.0000254431
0.0000230238
0.0000285026
0.0000365382
0.0001002503
-0.0000042170
-0.0000028373
0.0000249814
-0.0000026428
-0.0000016221
0.0000003979
-0.0000017177
-0.0000039560
0.0000539940
0.0001464738
-0.0000135251
0.0000150961
0.0000259383
-0.0000098707
-0.0000047215
-0.0000110322
-0.0000108533
0.0000452191
0.0000090981
0.0000280734
-0.0000124778
-0.0000034552
0.0001046683
-0.0000120783
-0.0000122220
0.0000257982
0.0000022486
0.0000193075
-0.0000044772
-0.0000089877
0.0000355405
-0.0000015193
-0.0000012076
0.0000095504
0.0000326434
0.0000081680
0.0000040267
0.0000270032
0.0000002462
-0.0000074451
0.0000029350
-0.0000057366
0.0000238488
0.0000083975
0.0000039543
-0.0000116383
-0.0000117040
0.0000616335
0.0000708255
-0.0000062265
0.0000462518
0.0000372313
0.0000314292
0.0000015380
0.0000230598
0.0000069915
-0.0000044558
0.0000288416
0.0000277263
-0.0000141101
-0.0000029956
0.0000010446
0.0000642203
0.0001134688
0.0000056091
-0.0000063649
-0.0000078085
-0.0000064911
0.0000001082
0.0000688397
0.0000240189
-0.0000120419
-0.0000006877
-0.0000057229
0.0000177027
0.0000841474
-0.0000073150
-0.0000043033
-0.0000149784
0.0000139116
-0.0000070515
-0.0000095211
0.0000115478
-0.0000130078
-0.0000086340
0.0000222996
-0.0000134539
-0.0000098490
0.0000322127
-0.0000108728
-0.0000049130
-0.0000085098
-0.0000121546
0.0000187726
-0.0000126313
0.0000031979
0.0000220258
0.0000156630
0.0000060289
0.0000943792
-0.0000082932
0.0000163036
0.0000433304
0.0000962486
0.0000018558
0.0000132832
0.0000023363
-0.0000014072
0.0000306172
0.0000793171
0.0000241330
0.0000635322
-0.0000114359
0.0000197327
-0.0000050279
-0.0000000468
0.0000013297
0.0000062032
0.0000490747
0.0000330482
0.0000368366
-0.0000041914
0.0000035702
0.0000281758
0.0000358966
-0.0000141228
-0.0000014059
0.0000792582
0.0000264708
0.0000294272
0.0000572505
0.0000417229
0.0000020895
0.0000723325
0.0000286857
0.0000534266
0.0000009977
0.0000188298
-0.0000140221
0.0000509041
0.0000215484
0.0000033504
0.0000506338
0.0000115169
-0.0000072108
-0.0000058773
-0.0000041325
0.0000282741
-0.0000116087
0.0000653045
-0.0000093351
0.0000077919
0.0000383316
0.0000266891
-0.0000034977
0.0000535950
0.0000112028
0.0000117326
0.0000313399
-0.0000063322
-0.0000073867
0.0000565506
0.0000140550
0.0000065399
-0.0000105466
0.0000144560
0.0000173232
-0.0000110465
0.0000061821
0.0000372730
-0.0000045937
-0.0000071963
-0.0000146331
-0.0000149459
0.0000097460
0.0000050529
-0.0000125771
0.0000207265
0.0000574547
-0.0000152150
0.0000584008
0.0000058418
0.0000359595
0.0000036375
0.0000504503
-0.0000128710
0.0000255476
-0.0000143904
0.0000353743
-0.0000097706
0.0000668241
-0.0000079995
0.0000525243
-0.0000026668
0.0000048367
0.0001108417
-0.0000008827
0.0000118117
0.0000034828
0.0000077732
0.0000061089
-0.0000061570
-0.0000026527
-0.0000054333
0.0000006439
0.0000016177
-0.0000104346
0.0000173392
0.0000719329
-0.0000094092
0.0000559076
0.0000412461
-0.0000116087
-0.0000060587
-0.0000141224
0.0000047617
-0.0000043833
-0.0000123410
0.0000436957
-0.0000060171
0.0000238042
-0.0000034777
0.0000614637
0.0000367943
-0.0000098602
0.0000029741
0.0000045809
0.0000125172
0.0000141259
-0.0000111758
-0.0000113998
-0.0000112024
-0.0000061339
0.0000056836
0.0000180596
-0.0000027741
-0.0000109000
-0.0000094477
-0.0000150775
0.0000198271
-0.0000130798
0.0000114891
0.0001024827
-0.0000113372
0.0000243048
0.0000251670
-0.0000036394
0.0000612949
0.0000163890
0.0000095470
0.0000194159
0.0000765382
0.0000036155
0.0000088604
0.0000436428
-0.0000123112
-0.0000095212
0.0000314990
0.0000314926
-0.0000138088
-0.0000139917
0.0000249106
0.0000052682
-0.0000051863
0.0000495715
0.0000219034
0.0000957236
0.0000024439
-0.0000004707
-0.0000037001
-0.0000114991
-0.0000025984
-0.0000072403
0.0000002833
-0.0000103562
0.0000912963
-0.0000127381
-0.0000061049
0.0000746200
0.0000153882
-0.0000082117
0.0000250701
-0.0000086252
-0.0000010872
0.0000681526
0.0000562489
0.0000034403
0.0000093065
0.0000259852
0.0000324203
0.0000167905
0.0000011086
-0.0000003841
0.0000035445
0.0000045826
0.0000033443
-0.0000018109
-0.0000028375
0.0000050040
0.0000070408
0.0000029141
0.0000019257
0.0000180714
-0.0000082146
0.0000565316
0.0003014255
-0.0000003891
0.0000138231
0.0000063507
0.0000270000
0.0000042863
-0.0000111716
0.0000346324
0.0001315227
-0.0000116894
0.0000039138
0.0000001855
0.0000107824
-0.0000008803
0.0000023151
0.0000144034
0.0000039454
0.0000145710
0.0000177934
-0.0000138883
-0.0000110202
-0.0000030449
0.0000086355
-0.0000127019
0.0000154468
-0.0000090097
-0.0000081005
0.0000097366
0.0000168801
0.0000159408
0.0000142846
-0.0000111959
0.0000098989
-0.0000052240
-0.0000068195
-0.0000136564
-0.0000122545
0.0000003279
-0.0000135055
0.0000018662
-0.0000039861
-0.0000136765
0.0000541888
0.0000274576
-0.0000123276
0.0000021369
0.0000046599
0.0000560236
0.0000147948
-0.0000069183
0.0000471152
0.0000412380
-0.0000153359
0.0000025676
-0.0000084031
0.0002009998
0.0001284714
0.0000764552
0.0000116858
0.0000120887
0.0000583490
0.0000011609
-0.0000109064
-0.0000135371
-0.0000061991
-0.0000130814
-0.0000000858
0.0000043698
-0.0000026311
0.0000010132
0.0000227651
-0.0000025012
0.0000538790
-0.0000116302
-0.0000137774
-0.0000091077
0.0000546997
0.0000019541
0.0000357050
0.0000503463
0.0000533860
0.0000069890
-0.0000112525
0.0000318067
0.0000237839
0.0000030953
0.0000239557
-0.0000028060
0.0000087322
-0.0000092544
-0.0000113575
0.0000037077
0.0000904945
0.0000996183
-0.0000084862
-0.0000093536
-0.0000049451
-0.0000126703
0.0000516889
-0.0000139052
0.0000326603
-0.0000005885
-0.0000067980
0.0000232862
-0.0000095866
0.0000050543
0.0001115177
0.0000470343
0.0000018769
-0.0000104986
0.0000432064
0.0000549317
0.0000429957
0.0000113840
-0.0000125375
0.0000028951
0.0000071202
0.0000716036
0.0000253882
-0.0000078192
-0.0000061782
0.0000212404
0.0000106381
0.0000253327
0.0000421225
0.0000434391
0.0000138697
-0.0000080898
-0.0000121965
-0.0000148457
-0.0000112045
0.0000004337
0.0000352226
0.0000295686
0.0000232819
-0.0000132233
0.0000167863
-0.0000131748
0.0000056049
-0.0000017734
0.0000687812
-0.0000125666
0.0000398173
-0.0000013415
-0.0000094449
0.0000046338
-0.0000129784
-0.0000031576
-0.0000130484
0.0000265898
0.0000094470
-0.0000002397
-0.0000075090
-0.0000034149
0.0001138944
0.0000087843
-0.0000111911
-0.0000049159
0.0000092126
0.0000073675
0.0000460504
-0.0000105063
-0.0000142862
0.0000149976
-0.0000093771
-0.0000118963
0.0000757619
0.0000364869
-0.0000136212
0.0000038661
-0.0000037956
-0.0000003943
0.0000074793
-0.0000036802
0.0000008332
0.0000273187
0.0000131675
0.0000433507
-0.0000124157
0.0000122384
0.0000035920
0.0000015866
-0.0000147281
0.0000210004
0.0000330626
0.0000114264
-0.0000051914
-0.0000108003
-0.0000070706
0.0000017994
-0.0000119863
0.0000943885
-0.0000030624
0.0000163374
0.0000450863
-0.0000052584
0.0000456737
0.0000030885
0.0000208047
-0.0000086630
0.0000216967
0.0000516816
-0.0000118462
0.0000166155
0.0000042157
0.0000389060
-0.0000064915
0.0000269379
-0.0000116708
0.0000568342
-0.0000032910
-0.0000005836
0.0000231576
0.0000030042
0.0000457645
0.0000100213
-0.0000057600
-0.0000067241
0.0000057954
-0.0000074410
0.0000002195
0.0000325524
-0.0000026732
0.0000106115
-0.0000102618
0.0000100521
0.0000211483
0.0000773817
0.0000098822
-0.0000082166
0.0000300222
0.0000551527
-0.0000144395
0.0000664802
0.0001034597
0.0000818726
0.0000923491
-0.0000128164
-0.0000108745
-0.0000087150
0.0000370112
0.0000345514
-0.0000151610
-0.0000053802
0.0000158137
0.0001932766
0.0000164685
-0.0000054760
0.0000103861
-0.0000084627
-0.0000073881
0.0000047458
-0.0000048453
0.0001640355
-0.0000069667
0.0000400114
-0.0000152443
-0.0000148075
-0.0000039623
-0.0000142137
0.0000056686
0.0000330257
-0.0000109938
-0.0000094146
0.0000304197
-0.0000028561
0.0000159776
-0.0000146358
0.0000387646
-0.0000028981
0.0000056991
0.0000104412
-0.0000120475
0.0000210631
-0.0000019802
0.0000422744
-0.0000132986
0.0000028160
0.0000508280
0.0000081208
0.0000050860
-0.0000088212
0.0000048885
0.0000498721
0.0000188169
0.0000426285
0.0001245887
-0.0000147148
-0.0000006516
0.0000084092
0.0000375517
-0.0000086624
0.0000474850
-0.0000108653
-0.0000073902
0.0000185311
0.0000805000
-0.0000090091
0.0000052823
-0.0000138768
0.0000024364
0.0000112169
-0.0000016971
-0.0000035883
-0.0000132113
0.0000446456
0.0000417338
0.0000271769
0.0000227896
0.0000287360
0.0000236374
0.0000116652
-0.0000082040
0.0000077763
-0.0000064554
-0.0000110796
0.0000148892
0.0001102526
0.0000141183
0.0000311370
0.0000022282
0.0000107014
0.0000131462
-0.0000065061
0.0000711650
0.0000206328
0.0000126380
-0.0000027987
0.0000333289
0.0000183770
-0.0000083270
0.0000051382
0.0000093394
0.0001014810
0.0000030618
0.0000060949
-0.0000120490
0.0000121448
0.0000375363
-0.0000107738
0.0000053393
0.0000048419
-0.0000029885
0.0000319154
-0.0000111445
0.0000787223
-0.0000110274
0.0000044705
0.0000082225
-0.0000134326
0.0000041277
0.0000213816
-0.0000034514
0.0000299757
-0.0000092813
-0.0000108285
0.0000509311
0.0001554037
-0.0000049441
-0.0000067703
0.0000013030
-0.0000119928
-0.0000010151
-0.0000087806
-0.0000117861
0.0000750301
0.0000697001
0.0001153658
-0.0000132505
-0.0000031817
-0.0000035026
0.0000639349
0.0000736938
0.0000238411
-0.0000039816
0.0000353437
-0.0000108810
0.0000313840
-0.0000046104
-0.0000087512
0.0000208256
-0.0000135282
0.0000010453
0.0000237677
0.0000173088
-0.0000111288
-0.0000062704
0.0000102195
-0.0000121580
0.0000374390
-0.0000095021
-0.0000088957
0.0000061508
0.0000166456
0.0000565614
0.0000086468
-0.0000148148
0.0000190793
0.0000140850
-0.0000032719
-0.0000112235
-0.0000004925
-0.0000104411
0.0000266304
-0.0000068508
-0.0000092474
0.0000218309
0.0000006189
-0.0000028550
0.0000190378
0.0000433283
0.0000527556
-0.0000092865
-0.0000088362
-0.0000012290
-0.0000147490
0.0000013981
0.0000151944
0.0000039652
0.0000039968
-0.0000129688
0.0000076906
-0.0000020345
0.0000120107
0.0001544800
-0.0000113057
0.0000283691
-0.0000084651
0.0000483746
-0.0000086190
-0.0000080219
-0.0000147694
-0.0000149343
0.0000111843
0.0000110902
0.0000135661
-0.0000113158
-0.0000121827
0.0000126399
-0.0000145482
0.0000288905
-0.0000146526
0.0000008091
-0.0000006503
0.0001186420
-0.0000046380
0.0000925299
0.0000696453
-0.0000140149
-0.0000019754
0.0000270779
0.0000039783
0.0000427294
-0.0000038665
0.0000118716
0.0000130933
0.0000522424
0.0001065667
0.0000195410
0.0000218204
0.0000129853
-0.0000066265
-0.0000103857
0.0000083974
0.0000017215
0.0001211016
0.0000823672
0.0000153066
0.0000240853
0.0000148457
-0.0000073760
0.0000003209
0.0000080739
0.0000136932
-0.0000083424
0.0000818237
0.0000006424
0.0000123854
0.0000113071
-0.0000149205
0.0000393143
0.0000409805
-0.0000122412
-0.0000113076
0.0000328539
-0.0000028693
0.0000404323
0.0000931110
0.0000219274
0.0000018094
0.0001236382
-0.0000130173
0.0000337296
-0.0000082662
-0.0000049795
-0.0000085454
-0.0000126513
-0.0000077825
-0.0000040873
0.0000381439
-0.0000042035
-0.0000124171
0.0000453476
-0.0000051748
0.0000014750
-0.0000059453
-0.0000148196
0.0000095464
-0.0000015779
-0.0000052542
-0.0000061248
0.0000437098
0.0000094379
0.0000641624
0.0001630353
-0.0000101318
0.0000139682
-0.0000109830
0.0000623177
-0.0000017316
-0.0000080838
0.0000032073
0.0000520797
-0.0000091735
-0.0000103876
0.0000799573
-0.0000108908
-0.0000056289
0.0000151644
0.0001378469
-0.0000121688
-0.0000139227
-0.0000089503
-0.0000110484
0.0000121050
-0.0000029096
-0.0000127027
0.0000307312
-0.0000002225
-0.0000098072
-0.0000134793
0.0000173809
-0.0000023579
0.0000001237
-0.0000067014
-0.0000048370
0.0000505174
-0.0000059425
-0.0000044260
-0.0000119784
-0.0000059795
0.0000000562
-0.0000065819
0.0000125298
-0.0000039466
-0.0000150234
0.0000130536
-0.0000112573
0.0000022272
0.0000128468
0.0000515229
0.0000006109
-0.0000109826
0.0000085593
-0.0000023178
0.0000036243
0.0000235680
0.0000353415
0.0000094658
0.0000039095
-0.0000109146
0.0000093080
-0.0000008593
0.0000162612
-0.0000080404
0.0000119035
-0.0000033112
-0.0000151190
0.0000091356
-0.0000004265
-0.0000099912
0.0000409049
0.0000170103
-0.0000141570
0.0000189276
0.0000196710
0.0000044102
0.0000242073
0.0000230395
0.0000114431
0.0000635273
-0.0000076433
-0.0000011600
0.0000876173
-0.0000003284
-0.0000065860
0.0000095690
0.0000078220
-0.0000015783
0.0000802115
0.0000154159
-0.0000066234
-0.0000111225
0.0000039408
0.0000015154
0.0000821893
0.0000020335
-0.0000026401
-0.0000127997
-0.0000052963
0.0000147662
0.0000154433
-0.0000053501
-0.0000044185
0.0000917447
0.0000105203
0.0000016363
0.0000123919
0.0000146087
0.0000088927
-0.0000138424
0.0000300406
-0.0000032261
-0.0000077865
0.0000808513
0.0000335521
0.0000172220
0.0000020898
-0.0000139386
0.0001039028
0.0000474877
-0.0000101033
-0.0000049782
0.0000061655
0.0000236312
-0.0000051615
0.0000035569
-0.0000075290
0.0000117876
0.0000161688
-0.0000082000
0.0000332018
0.0000486722
-0.0000010824
-0.0000011700
0.0000141213
-0.0000020960
0.0001010302
-0.0000022614
-0.0000109206
0.0000254537
-0.0000130275
0.0000283650
-0.0000123028
0.0000367783
-0.0000081225
-0.0000142314
-0.0000132828
0.0000703238
0.0000161821
0.0000085551
-0.0000106539
0.0000456713
-0.0000000186
-0.0000062555
-0.0000134314
-0.0000011866
0.0000886494
0.0000044688
0.0000112222
0.0000094435
0.0000254666
-0.0000144816
-0.0000074157
0.0000123127
0.0000147737
-0.0000066743
-0.0000144557
-0.0000102853
0.0000196595
-0.0000130732
-0.0000088269
-0.0000078826
0.0000181361
-0.0000026855
-0.0000079774
-0.0000132978
0.0001122586
0.0000046357
0.0000176838
-0.0000053704
0.0000718940
-0.0000119400
0.0001270526
0.0000162586
-0.0000102540
0.0000161602
-0.0000060181
0.0000198237
0.0000171309
0.0000042711
0.0000749075
0.0000127647
-0.0000011168
0.0000270394
0.0000276086
-0.0000039879
0.0000027910
0.0000528476
-0.0000095314
-0.0000141622
-0.0000050633
0.0000280558
0.0000365117
-0.0000109968
-0.0000043735
0.0000144045
0.0001035788
0.0000115192
0.0000065184
0.0000270431
-0.0000126607
0.0000001397
0.0000151249
0.0000660933
0.0000421879
0.0000128578
-0.0000141357
0.0000623751
0.0000096938
0.0000191134
0.0000036949
0.0000829998
0.0000409294
0.0000008832
-0.0000043778
-0.0000106786
0.0000610945
-0.0000089997
0.0000020262
-0.0000048702
-0.0000140035
-0.0000108295
-0.0000120259
0.0000180594
0.0000776944
-0.0000141629
-0.0000007739
-0.0000129519
0.0000026143
-0.0000036718
-0.0000142529
0.0001681124
0.0000278023
0.0000061683
-0.0000012950
0.0000025549
0.0000117291
-0.0000096075
0.0000236641
-0.0000112305
0.0000038007
0.0000067539
0.0000033292
0.0000122947
-0.0000060249
0.0000718142
0.0000724991
-0.0000038785
0.0000021434
0.0000138228
0.0000000037
-0.0000111624
0.0000382608
0.0000489395
0.0000073382
0.0000433220
-0.0000003749
-0.0000033963
0.0000096119
0.0000053374
0.0000678415
0.0000002906
-0.0000078318
-0.0000078364
-0.0000138638
-0.0000149531
-0.0000008371
0.0000118732
0.0000070520
0.0000021534
0.0000388619
-0.0000033627
-0.0000096530
0.0000355304
-0.0000074260
0.0000371127
-0.0000139152
-0.0000068184
-0.0000127557
-0.0000051623
0.0000008954
0.0000087648
0.0000124019
-0.0000028490
-0.0000119059
0.0000203004
-0.0000112087
0.0000458917
-0.0000148135
-0.0000112265
0.0000139599
0.0000058446
0.0000274531
-0.0000102818
0.0000074489
0.0000118372
-0.0000146913
-0.0000048594
-0.0000060357
-0.0000023954
-0.0000008374
-0.0000066870
-0.0000077608
-0.0000094566
0.0000160199
0.0000428925
0.0000176513
0.0001136790
0.0000627453
0.0000053974
0.0000361841
-0.0000005605
0.0000010220
0.0000052340
0.0000248219
0.0000126096
0.0000825207
0.0000503263
-0.0000117280
0.0000342803
0.0001072371
0.0000052618
0.0000120869
-0.0000113543
0.0000286030
0.0000082397
0.0001497235
0.0000575699
-0.0000003572
0.0000294262
-0.0000132512
-0.0000118200
-0.0000055667
0.0000673470
0.0000127301
0.0000180737
-0.0000130321
0.0000019192
-0.0000058919
0.0000083889
0.0000071812
0.0000041538
0.0000070936
0.0000078957
0.0000103441
0.0000783036
-0.0000005742
-0.0000085354
0.0000559009
0.0000083627
0.0000048742
0.0000267003
-0.0000081266
0.0000593762
-0.0000145436
0.0000323771
-0.0000129483
0.0000364044
-0.0000088908
0.0000295014
-0.0000014211
0.0000066111
-0.0000102093
0.0001146920
-0.0000106651
0.0000875012
-0.0000126757
-0.0000146266
0.0000012293
0.0000648737
0.0000156817
0.0000364595
0.0000095616
0.0000207290
0.0000137780
0.0000247923
0.0000317008
-0.0000107838
0.0000498715
0.0000197194
0.0000648773
-0.0000058938
-0.0000030837
0.0000086378
0.0000322477
0.0000204388
-0.0000026489
-0.0000133726
-0.0000102652
0.0000254225
0.0000024398
-0.0000091237
-0.0000065234
0.0000072634
0.0000735580
-0.0000034741
0.0000087395
-0.0000141746
-0.0000139855
-0.0000018853
0.0000056289
0.0001318463
0.0000158843
0.0000066073
0.0000631757
0.0000000090
-0.0000011375
0.0000062298
-0.0000147282
0.0000067161
0.0000141873
-0.0000053828
-0.0000002420
-0.0000128307
0.0000099933
0.0000672416
0.0001001854
-0.0000085491
0.0000629453
-0.0000115403
0.0000893527
0.0000092272
0.0000178866
0.0000281093
0.0000104237
-0.0000105423
-0.0000152524
0.0000772780
0.0000686317
0.0000003706
-0.0000128093
0.0000027606
-0.0000105583
-0.0000046096
-0.0000138577
0.0000034100
-0.0000056595
0.0000127634
0.0001157842
0.0000067108
-0.0000000602
-0.0000097370
0.0000006134
0.0000137980
-0.0000063710
0.0000103795
0.0000264624
0.0000161654
-0.0000049254
-0.0000112731
0.0000162729
-0.0000086939
-0.0000008081
0.0000449359
0.0000295508
-0.0000142381
0.0000158435
-0.0000090561
-0.0000041302
0.0000033287
0.0000239158
0.0000581600
0.0000137968
0.0000000908
0.0000066858
0.0000006576
0.0000401590
0.0000939599
-0.0000042025
0.0000163572
0.0000014328
0.0000327942
0.0000345292
0.0000393294
0.0000951567
0.0000325863
0.0000328556
0.0000621413
0.0000141075
0.0000525374
-0.0000048769
0.0000111923
-0.0000100744
0.0001462640
-0.0000151656
0.0001507877
-0.0000101102
0.0000307096
0.0000049460
0.0000070643
0.0000136291
0.0000166988
0.0000203553
-0.0000112188
-0.0000005254
-0.0000149715
0.0000330648
0.0001153214
-0.0000120122
0.0000083256
-0.0000087586
0.0000263587
-0.0000105409
0.0000965360
0.0000486969
0.0000057627
0.0001010885
0.0000397585
0.0000549047
0.0000116928
-0.0000054397
-0.0000116906
0.0000066489
-0.0000066780
0.0000369186
-0.0000140872
0.0000046579
-0.0000059512
0.0000028147
-0.0000027484
-0.0000052263
-0.0000047471
0.0000186852
-0.0000102346
-0.0000037948
-0.0000117689
-0.0000136656
-0.0000040469
0.0000103584
-0.0000043043
-0.0000064739
0.0000004818
0.0000008899
0.0000215340
-0.0000049323
-0.0000128356
-0.0000097383
0.0000018406
0.0000119237
-0.0000138088
0.0000001440
-0.0000100720
0.0000550194
-0.0000024040
0.0000410542
0.0000230392
0.0000325437
0.0000534503
-0.0000122568
0.0000115670
0.0000007147
0.0000098094
0.0000247958
-0.0000102734
-0.0000097587
-0.0000133973
0.0000131979
0.0000027955
0.0000138529
0.0000251064
0.0001558976
0.0000034859
0.0000093660
0.0000283852
0.0000139823
-0.0000139644
0.0000153198
0.0000069833
-0.0000058118
-0.0000112144
0.0000000960
0.0001703080
0.0000285596
0.0000577126
0.0000070955
-0.0000093427
-0.0000151108
0.0000343041
0.0001250004
0.0000736557
0.0001909117
-0.0000146352
0.0001009173
0.0000520234
0.0000095404
-0.0000006184
0.0001246296
0.0000157694
-0.0000076359
0.0001356780
-0.0000126976
0.0000406612
0.0000110034
-0.0000023024
0.0000005921
0.0000341190
-0.0000063179
-0.0000140564
0.0000021700
0.0000371996
0.0000022624
0.0000663438
0.0000604070
0.0000651200
0.0000428296
0.0000167310
-0.0000086223
0.0000102660
-0.0000055409
0.0000303846
0.0000037515
0.0000376522
0.0000047384
0.0000658812
-0.0000113669
0.0000486174
0.0000072130
0.0000295356
0.0000078682
-0.0000013128
-0.0000108080
0.0000179118
-0.0000013073
0.0000262042
0.0000658401
-0.0000018237
-0.0000078760
0.0000838685
0.0000036539
0.0000164451
0.0000239974
-0.0000082263
-0.0000035284
0.0000015603
-0.0000119009
0.0000262784
-0.0000103231
0.0000164606
0.0001244126
-0.0000091981
-0.0000149673
-0.0000009481
0.0000032982
-0.0000055009
0.0000002591
0.0000660059
0.0000227037
0.0000217077
0.0000369782
-0.0000088640
0.0001068069
0.0000693074
-0.0000067001
0.0000022948
0.0000143020
-0.0000130604
0.0000204161
-0.0000030993
0.0000201060
0.0000971260
-0.0000050016
0.0000375029
0.0000577208
-0.0000146106
0.0000326868
0.0000101044
0.0000271216
0.0000044372
-0.0000142959
0.0001555606
0.0000025720
0.0000016155
0.0000058866
-0.0000025295
0.0000232595
-0.0000065359
0.0000189225
0.0000661736
0.0000124649
0.0000103101
-0.0000075900
-0.0000109478
0.0000814136
-0.0000118504
0.0000156941
0.0000929872
0.0000066904
0.0000846567
0.0000337551
-0.0000033724
0.0001155020
-0.0000138447
0.0000128692
0.0000180157
0.0000725862
-0.0000004450
-0.0000005521
0.0000121314
0.0000004365
0.0000533369
0.0000184752
0.0000003039
0.0000156200
0.0000025313
0.0000378016
0.0000078837
-0.0000048313
0.0000057007
-0.0000089754
0.0000126028
-0.0000103997
-0.0000059716
-0.0000008783
0.0000088405
0.0000067364
-0.0000148938
0.0000774567
0.0000319908
-0.0000045026
-0.0000139945
0.0001167343
0.0000506961
-0.0000010738
0.0000230089
0.0000124314
-0.0000035926
0.0000156449
-0.0000054403
-0.0000152625
-0.0000130741
-0.0000007552
0.0000087804
-0.0000093242
0.0000028400
-0.0000117431
-0.0000093032
0.0000372062
0.0000003692
0.0000345766
0.0000035548
0.0000545319
0.0000040351
-0.0000019546
0.0000358621
0.0000107068
0.0000011237
-0.0000076324
0.0000357385
0.0000077447
0.0000726405
-0.0000042840
-0.0000099106
-0.0000107833
0.0000158137
-0.0000028985
0.0000319743
0.0000008034
0.0000533008
-0.0000109472
0.0000044334
-0.0000128380
-0.0000073724
-0.0000082608
0.0000194096
0.0000209973
-0.0000128494
0.0000177731
0.0000232622
0.0000254174
0.0000610298
-0.0000142498
0.0000506526
-0.0000134736
-0.0000052926
0.0000287717
0.0000177753
0.0000055898
-0.0000082519
-0.0000052201
0.0000207745
0.0000802557
-0.0000125815
-0.0000043657
0.0001086378
0.0000059227
-0.0000055354
-0.0000115380
0.0000090905
0.0000991024
0.0000570002
0.0000041517
-0.0000051265
-0.0000019421
-0.0000058473
-0.0000107447
0.0000251480
0.0000113460
0.0000452222
-0.0000087931
0.0000032709
-0.0000134016
0.0000548935
-0.0000122406
-0.0000143307
0.0000740022
0.0000149408
0.0000527003
0.0000253483
0.0000883528
-0.0000142014
-0.0000131595
-0.0000131467
-0.0000054775
0.0000567141
0.0000934888
-0.0000109760
0.0000427272
-0.0000102407
-0.0000138764
-0.0000141436
-0.0000041994
-0.0000103653
-0.0000118675
0.0000050584
0.0000102301
-0.0000019860
-0.0000101001
0.0000836586
-0.0000048976
-0.0000100754
0.0000225769
0.0000309889
0.0000285364
0.0000000769
0.0000685686
0.0000432803
0.0000848696
-0.0000020233
-0.0000037258
-0.0000056486
0.0000193272
-0.0000021511
-0.0000036953
0.0000048037
0.0000124625
0.0000054932
-0.0000123715
0.0000138363
0.0000308267
-0.0000120981
0.0001010720
-0.0000093231
0.0000249700
-0.0000131607
0.0000198739
-0.0000145299
0.0000581039
-0.0000120437
-0.0000007351
0.0000092248
-0.0000103931
0.0000021939
-0.0000014121
-0.0000080414
0.0000038563
-0.0000037493
-0.0000145144
0.0000012235
-0.0000079258
-0.0000061145
-0.0000033856
0.0000219357
0.0000050444
0.0000019202
-0.0000090364
-0.0000122716
0.0000583996
0.0000212914
0.0000199388
0.0000120683
0.0000246136
0.0000172429
0.0000485759
-0.0000148523
0.0001402437
-0.0000072249
-0.0000149086
0.0000042981
0.0000058060
0.0000006180
0.0000031865
0.0000711879
0.0000351252
-0.0000051129
-0.0000108690
0.0000034294
0.0000222288
0.0000483235
0.0000205302
0.0000309775
0.0000905609
0.0000030869
-0.0000128716
-0.0000029968
0.0000034371
0.0000403659
0.0000020269
-0.0000038309
-0.0000057884
0.0000602704
0.0000420644
0.0000433873
0.0000310985
-0.0000108141
0.0000124467
-0.0000036695
0.0000254528
0.0000176466
0.0000175247
-0.0000043657
0.0000904851
-0.0000011869
0.0000459894
0.0000434893
0.0000280149
0.0000220850
0.0000055993
0.0000626599
0.0000013057
0.0000225796
0.0000266490
-0.0000147899
0.0000109090
0.0000122236
0.0000061902
0.0000137258
-0.0000128623
-0.0000129374
-0.0000039831
0.0000031728
0.0000283069
0.0000302683
0.0000249420
0.0000166985
-0.0000001565
0.0000269674
0.0000057839
0.0000089333
0.0000004310
0.0000048139
-0.0000099736
0.0000326391
0.0000034991
0.0000070917
0.0000649370
-0.0000069809
0.0000628458
0.0000167099
0.0000035059
0.0000470776
0.0000412983
0.0001045857
0.0000133803
0.0000265828
-0.0000087680
-0.0000148042
0.0000121198
0.0001197747
0.0000092092
-0.0000138520
0.0000180218
0.0000980229
0.0000252394
0.0000175396
-0.0000006479
0.0000095796
0.0000474311
0.0000024416
0.0000106005
0.0000239298
0.0000108725
-0.0000070041
0.0000422877
-0.0000144535
0.0000630375
-0.0000138871
0.0000010184
0.0000020074
0.0000013020
0.0000360514
-0.0000128509
-0.0000090982
0.0000101413
-0.0000113641
0.0000440090
-0.0000045979
-0.0000146328
-0.0000092581
0.0000278595
0.0000088948
0.0001332836
0.0000118681
0.0000473624
-0.0000091864
-0.0000150375
0.0000255073
-0.0000004464
0.0000244549
0.0000278702
0.0001427964
0.0000368378
0.0000032626
0.0001785165
0.0000130018
-0.0000117086
0.0000138100
-0.0000136560
0.0000286459
-0.0000012370
-0.0000098170
0.0000806416
0.0000146774
0.0000289700
0.0000045440
0.0000077462
-0.0000052088
0.0000546192
0.0000480045
-0.0000069656
-0.0000144616
0.0000145741
0.0000505133
0.0000108204
-0.0000107886
0.0000448268
-0.0000136988
0.0000312085
0.0000331770
-0.0000078607
0.0000692899
0.0000086840
0.0000358970
0.0000023695
0.0000493384
0.0000002640
0.0000101772
-0.0000007181
-0.0000103696
0.0001844337
-0.0000057757
0.0000305536
-0.0000073459
0.0000249159
-0.0000139003
0.0000247414
0.0000041867
0.0000629883
-0.0000090414
0.0000023563
0.0000057073
-0.0000085521
-0.0000018870
-0.0000019122
0.0000119582
0.0000152565
0.0000257015
-0.0000013809
-0.0000074421
-0.0000054566
-0.0000041085
0.0000725301
-0.0000100352
-0.0000138961
0.0000638479
0.0000327226
0.0000051229
0.0000754751
0.0000188468
-0.0000103125
0.0000620345
0.0000218738
0.0000102784
0.0000320811
0.0000207274
0.0000529149
0.0000893836
-0.0000018001
-0.0000141530
0.0000319342
0.0000680954
0.0001118416
0.0000475643
-0.0000021138
0.0000685409
0.0000093445
0.0000128369
-0.0000013212
0.0000205952
-0.0000077769
-0.0000112799
0.0000011192
0.0000706740
-0.0000136070
0.0000177758
-0.0000075940
-0.0000066728
0.0000286327
0.0000643267
0.0000586491
-0.0000016821
-0.0000091377
-0.0000037031
0.0000136279
0.0000146724
-0.0000143155
-0.0000053693
0.0000255530
0.0000021169
0.0000453746
0.0000196672
0.0000167502
-0.0000105791
0.0000012846
0.0000203794
0.0000173564
0.0000398166
0.0000349904
-0.0000133460
0.0000099436
-0.0000039524
-0.0000086119
-0.0000122159
0.0000124761
-0.0000061333
0.0000010994
-0.0000086645
0.0000679186
-0.0000038252
-0.0000127604
-0.0000096866
-0.0000015000
-0.0000030643
-0.0000064329
-0.0000070343
-0.0000110293
0.0001121892
-0.0000123220
0.0000315192
0.0000932202
0.0000460128
0.0000190846
0.0000314623
-0.0000106763
0.0000078557
-0.0000145029
0.0000182758
-0.0000109566
0.0000509134
0.0000393635
0.0000280714
0.0000246766
0.0000464387
0.0000480603
0.0001643856
-0.0000143215
0.0000425350
-0.0000024897
0.0000064155
-0.0000039250
0.0000230230
0.0000788540
-0.0000034258
0.0000056072
-0.0000095423
-0.0000048576
0.0000254849
-0.0000112473
-0.0000009296
-0.0000046625
0.0000553692
0.0000032351
0.0000021212
-0.0000107371
0.0001582470
0.0000316216
-0.0000121272
0.0000247296
-0.0000150329
0.0000272510
0.0000615483
0.0000432228
-0.0000132995
0.0000206130
0.0000359630
0.0000040137
0.0000664154
-0.0000092990
0.0000101906
0.0000730010
-0.0000052525
0.0000020587
0.0000170364
0.0000094183
0.0000018131
0.0000207723
-0.0000127576
0.0000311389
0.0000616939
0.0000013836
0.0000038965
0.0000002629
-0.0000056831
0.0000144912
-0.0000148148
0.0001161442
-0.0000126840
-0.0000113529
0.0000407932
0.0000772880
0.0000012256
-0.0000099756
0.0000563308
0.0000007008
-0.0000121244
0.0000535713
-0.0000139596
0.0000295639
0.0000639020
-0.0000076204
-0.0000039899
-0.0000088866
0.0001384844
-0.0000105040
0.0000179889
-0.0000012875
0.0000108432
-0.0000058870
-0.0000070793
-0.0000084824
0.0000211528
0.0000956821
0.0000199384
0.0000635027
0.0000014392
0.0000439410
-0.0000031785
0.0001058189
0.0000250773
0.0001282049
0.0001258075
-0.0000092622
0.0000630424
0.0000060219
0.0000059861
0.0000201562
-0.0000087168
0.0000064768
0.0001042875
0.0000016040
0.0000102584
0.0001793537
0.0000016215
0.0000378679
-0.0000092500
0.0000608273
-0.0000069280
-0.0000116360
-0.0000107123
0.0000045498
0.0000057212
-0.0000029180
0.0000302882
0.0000305148
0.0000408418
-0.0000097206
0.0000081690
-0.0000148274
0.0000043813
0.0000318347
0.0000078577
-0.0000048699
-0.0000065968
0.0000477488
-0.0000058344
0.0000156900
-0.0000055153
-0.0000111023
0.0000135694
0.0000795108
0.0000129318
0.0000349791
0.0000217312
0.0000035228
0.0000208844
-0.0000103849
0.0000154406
-0.0000109940
0.0000089242
0.0000006610
-0.0000001520
0.0000230991
0.0000398116
0.0000020433
-0.0000017409
0.0000390656
-0.0000051624
-0.0000079430
0.0000082256
0.0000006692
0.0000106266
0.0000615616
-0.0000066314
-0.0000102598
0.0000313497
0.0000242086
0.0000054616
0.0000150811
0.0000139928
-0.0000048113
0.0000012235
0.0000158428
-0.0000100359
0.0000172874
0.0000169222
-0.0000090825
0.0000604788
-0.0000141393
0.0001121302
0.0000090608
-0.0000149561
0.0000127784
0.0000046457
0.0000380051
0.0000262008
0.0000122036
-0.0000003734
-0.0000023743
0.0000002701
0.0000095059
0.0000325763
0.0000150154
0.0000329205
-0.0000012465
-0.0000051972
0.0000226012
0.0000240980
0.0000642974
0.0000409676
0.0000381044
-0.0000103747
0.0000310652
-0.0000038076
0.0000154523
-0.0000083584
0.0001682772
-0.0000150983
-0.0000041032
0.0000181280
0.0000172118
-0.0000103439
0.0000344217
-0.0000114909
0.0000017697
0.0000078982
0.0000577538
0.0000204142
0.0000018281
0.0000511955
-0.0000118788
0.0000199379
0.0000068381
-0.0000116879
-0.0000065157
0.0000148610
-0.0000052005
-0.0000077045
-0.0000010907
0.0000135966
0.0000313415
0.0000012819
-0.0000045278
-0.0000085737
0.0000325732
0.0000133966
0.0000497571
0.0000037724
-0.0000040206
-0.0000085263
-0.0000112637
-0.0000066103
-0.0000123363
0.0000262497
0.0000417150
-0.0000062456
0.0000036766
-0.0000110050
0.0000545725
0.0000512283
0.0000308502
0.0000495103
0.0000336450
-0.0000037923
-0.0000129600
-0.0000123271
0.0000050394
0.0001015385
-0.0000116357
-0.0000038510
-0.0000099633
0.0000415266
0.0000735914
0.0000209647
0.0000496509
0.0001000611
0.0000789654
-0.0000106849
0.0000208429
-0.0000059147
0.0000152274
0.0000206542
0.0000819554
0.0000031436
0.0000031944
0.0000894566
-0.0000031558
0.0000175267
-0.0000037769
0.0000114591
-0.0000001825
-0.0000101752
-0.0000053007
-0.0000009110
0.0000224220
-0.0000087227
0.0000183748
-0.0000119264
0.0000020936
-0.0000036184
0.0000680738
-0.0000071916
-0.0000010279
0.0000597027
0.0000162938
0.0000161640
0.0000290044
-0.0000060205
-0.0000076266
-0.0000147532
0.0000415946
-0.0000136469
-0.0000051740
0.0000028164
0.0000000065
0.0000151953
0.0000287871
0.0000107097
-0.0000089388
-0.0000031150
-0.0000008165
-0.0000150244
-0.0000086518
0.0000115393
-0.0000000374
0.0000095577
0.0001124764
-0.0000100982
0.0000200595
-0.0000075509
-0.0000026542
0.0000477269
0.0000028948
0.0000525460
0.0000032451
-0.0000061663
0.0000130035
0.0000290529
0.0000007365
0.0000453648
0.0000052260
0.0000123024
0.0000703117
0.0000017782
0.0000151080
0.0000206996
0.0000506894
0.0000031028
0.0000025109
-0.0000102897
0.0000191240
0.0000131294
0.0000461838
-0.0000094619
0.0000405983
0.0000448271
-0.0000030744
0.0000330047
-0.0000117364
0.0000028070
-0.0000153371
-0.0000057453
0.0000603309
-0.0000105229
0.0000108207
-0.0000078558
-0.0000069870
-0.0000136241
0.0000139447
0.0000353318
0.0000010985
0.0000197690
0.0000030930
0.0000653467
-0.0000113867
-0.0000090846
-0.0000126497
0.0000778982
-0.0000120051
0.0000100213
0.0000441401
0.0000763936
0.0000111480
0.0000219126
0.0000402053
0.0000032497
0.0001009582
-0.0000028326
-0.0000147425
0.0000168769
-0.0000071083
0.0000031677
-0.0000046018
0.0000146552
0.0000597756
-0.0000011111
0.0000288181
0.0000227495
-0.0000082105
-0.0000109391
0.0000040813
0.0000398273
0.0000084314
0.0000056467
0.0000731718
0.0000260145
-0.0000105794
0.0000184386
-0.0000114648
0.0000140458
0.0000110576
0.0001596379
0.0000132342
0.0000716796
-0.0000133903
0.0000171756
0.0000375076
-0.0000062613
0.0000167098
0.0000648291
0.0000779219
-0.0000114786
0.0000340767
-0.0000067778
-0.0000098963
0.0000034191
-0.0000084565
0.0001202056
0.0000347908
0.0000255261
0.0000885375
-0.0000072329
0.0000423865
-0.0000153332
0.0000069553
-0.0000113042
-0.0000086101
0.0000228737
0.0000078697
0.0000140348
0.0000678360
-0.0000027070
0.0000779663
0.0000567879
0.0000362083
0.0000278603
0.0000742215
0.0001106320
0.0000044547
0.0000243664
0.0000210333
0.0000787724
-0.0000112114
0.0000145375
0.0000040077
0.0000005858
0.0000403789
-0.0000007631
-0.0000062627
-0.0000136915
0.0002297236
0.0001110917
0.0000023273
-0.0000104131
0.0000261047
0.0000190050
-0.0000044657
0.0000330086
-0.0000097025
0.0000248076
0.0000069967
-0.0000007492
0.0000148255
-0.0000122604
0.0000198906
-0.0000141842
0.0000864223
0.0000359603
-0.0000094642
0.0000416543
-0.0000009063
0.0000683237
0.0000266467
-0.0000035394
-0.0000150692
-0.0000125536
0.0000101573
0.0000159546
0.0000212151
0.0000559855
-0.0000050618
-0.0000048224
0.0000606821
0.0000135515
0.0000417573
-0.0000131110
0.0000114223
-0.0000152684
-0.0000066631
-0.0000081513
-0.0000077420
0.0000038470
-0.0000134320
-0.0000054477
0.0000061921
0.0000048402
-0.0000113310
0.0000447912
0.0000028027
0.0000344391
0.0000168008
0.0000566099
-0.0000015446
-0.0000133983
0.0000040975
0.0001224168
-0.0000129502
-0.0000053669
0.0000441290
0.0000000616
-0.0000089091
-0.0000132795
-0.0000079533
0.0000134494
-0.0000128501
-0.0000141465
0.0000315127
-0.0000041096
0.0000055801
0.0000096804
0.0000210575
-0.0000115976
-0.0000091147
-0.0000034391
0.0000149674
0.0000509113
-0.0000108607
0.0000256062
-0.0000016177
0.0000066137
0.0000348149
0.0000062847
0.0000572311
-0.0000103817
-0.0000019552
-0.0000084256
0.0000200120
0.0000112030
0.0000061361
0.0000122858
-0.0000141297
0.0000086545
-0.0000135716
-0.0000004036
-0.0000132230
0.0002396529
-0.0000053398
0.0000532828
0.0000958051
0.0000496025
-0.0000137153
-0.0000105544
-0.0000015640
-0.0000069932
0.0001096035
0.0000478564
0.0000062361
-0.0000095506
0.0000138006
-0.0000128576
0.0000057812
0.0000357740
0.0000312581
0.0000211207
0.0000258809
-0.0000107997
0.0000032197
0.0000011482
0.0000108629
0.0000323410
-0.0000046059
0.0000130823
-0.0000077241
-0.0000113862
-0.0000105740
0.0000264019
0.0000261303
0.0000126986
0.0000073079
0.0000004669
0.0000856744
0.0000482062
0.0000423419
0.0000970563
-0.0000110345
0.0000291680
-0.0000014080
0.0000262561
0.0000023898
-0.0000036407
0.0000030509
0.0000032676
0.0000386017
-0.0000143334
-0.0000090479
0.0000100125
0.0000488558
0.0000333442
-0.0000140390
0.0000235300
0.0000107032
0.0000674687
0.0000611883
-0.0000067036
-0.0000073034
0.0000010792
-0.0000118543
-0.0000144205
-0.0000042527
0.0000383845
0.0000494607
0.0000394329
0.0000226693
0.0000139582
0.0000210832
-0.0000043189
0.0000001947
0.0001280597
0.0000119382
0.0000036641
-0.0000132931
0.0000078833
0.0000069212
0.0000386515
0.0000217743
-0.0000108068
-0.0000041081
-0.0000151079
-0.0000014080
0.0000232764
0.0000124042
0.0000622785
0.0000081230
-0.0000003713
0.0000202844
0.0000304324
0.0000744928
0.0001020950
0.0000433010
0.0000592712
0.0000299947
0.0000177449
0.0000007739
-0.0000007768
-0.0000101197
-0.0000095559
-0.0000115117
0.0000662373
0.0000635990
-0.0000035696
0.0000071238
0.0000019247
0.0000410737
0.0000888524
-0.0000007975
0.0000062358
-0.0000073087
-0.0000032690
-0.0000093314
0.0000802312
-0.0000129506
0.0000412901
-0.0000047148
-0.0000061144
-0.0000009687
-0.0000141099
-0.0000110463
0.0000061594
-0.0000018665
-0.0000149029
0.0000101903
0.0000019000
0.0000247426
-0.0000058832
-0.0000080408
0.0000730819
0.0000062197
-0.0000113598
-0.0000134371
0.0000407254
0.0000076762
0.0000283419
0.0000026917
-0.0000092422
0.0000240411
-0.0000079017
-0.0000041559
0.0000267749
0.0000214866
0.0000385583
0.0000007739
-0.0000056501
0.0000419003
0.0000126023
0.0000002799
0.0000692075
0.0000411144
0.0000332415
0.0000219125
0.0000268914
0.0000005415
0.0000428213
0.0000417261
0.0000304668
0.0000117860
0.0000040717
0.0000342678
-0.0000050485
0.0000060699
0.0000185624
0.0000039816
-0.0000050181
-0.0000123576
-0.0000004549
0.0000109591
0.0000057691
0.0000310281
0.0000037926
-0.0000037812
0.0000066799
0.0000204906
0.0000178625
0.0000209123
0.0000008279
0.0000516659
-0.0000106518
0.0000586929
-0.0000014796
0.0000036582
0.0000001161
-0.0000151506
0.0000032920
0.0000318286
0.0000058546
-0.0000093213
0.0000188762
0.0000248679
-0.0000104205
-0.0000006312
-0.0000131938
0.0000533243
-0.0000088503
-0.0000010681
-0.0000040344
0.0000168868
0.0000375138
0.0000100604
0.0000065069
-0.0000048618
0.0000607931
-0.0000021125
0.0000570722
-0.0000007558
-0.0000035660
-0.0000039978
0.0000033085
0.0000942137
0.0000079116
0.0000250513
0.0000457631
-0.0000054452
0.0000534353
0.0000079453
-0.0000146243
-0.0000018135
-0.0000067916
-0.0000111393
0.0000039079
0.0000133681
0.0002114735
0.0000790361
-0.0000046153
-0.0000054523
-0.0000122596
0.0000286714
0.0000485907
0.0000608036
0.0000098061
0.0000757769
0.0000253211
-0.0000123261
-0.0000127900
0.0000203019
-0.0000030769
-0.0000064515
-0.0000007100
-0.0000107442
0.0000100516
-0.0000000115
-0.0000147099
0.0000052817
0.0000829984
0.0000256229
-0.0000122635
0.0000039267
0.0000088580
-0.0000085396
0.0000109745
0.0000026460
0.0000026886
-0.0000007860
0.0000035854
0.0000868639
-0.0000068526
0.0000109689
0.0000049143
0.0000173539
-0.0000090144
0.0000015396
0.0000742527
-0.0000115784
-0.0000006718
-0.0000107790
-0.0000107249
-0.0000127668
0.0000090624
0.0000820832
0.0000383519
0.0000078909
-0.0000119964
-0.0000105736
0.0000241176
0.0000619294
0.0002092825
0.0000159877
0.0000417755
-0.0000058701
0.0000540934
0.0000338622
0.0000127200
-0.0000043276
0.0000687776
0.0001253250
0.0000985506
0.0000315393
-0.0000026267
-0.0000059486
-0.0000001699
0.0000374357
0.0000178776
0.0000266297
0.0000660162
-0.0000118703
-0.0000061998
0.0000095339
-0.0000018035
0.0000739771
0.0000621104
-0.0000089306
0.0000145291
-0.0000104613
-0.0000137967
0.0000263961
0.0000247460
0.0000933502
0.0000326142
0.0001077785
0.0000036408
-0.0000089067
0.0000301275
0.0000341216
0.0000056526
-0.0000136279
0.0000127223
-0.0000059022
-0.0000060566
-0.0000137184
0.0000203362
-0.0000064724
0.0000066048
0.0000880268
0.0000289048
-0.0000101394
0.0000022214
0.0000044067
0.0000428098
0.0000097876
-0.0000034405
0.0000318683
-0.0000120904
-0.0000123182
-0.0000114546
0.0000245498
0.0000138504
0.0000591011
-0.0000092789
-0.0000049636
-0.0000045187
0.0000189398
0.0000201174
0.0000034171
0.0000103523
0.0000273690
0.0000037531
0.0000235467
0.0000070123
-0.0000078328
-0.0000033028
-0.0000072431
0.0000825404
0.0000220430
0.0000245098
-0.0000035817
-0.0000061122
0.0000121190
-0.0000125041
0.0001092141
0.0000149433
0.0000122623
-0.0000035290
0.0000424344
0.0000202758
0.0000063002
-0.0000018960
-0.0000084113
-0.0000111205
0.0000049196
0.0000284488
0.0000023795
0.0000284580
0.0000038378
-0.0000112025
-0.0000064254
-0.0000146018
0.0000303999
0.0000681795
0.0000783612
0.0000085692
0.0000056228
0.0000049546
0.0000037972
0.0000126584
-0.0000098464
0.0000359007
0.0000362978
-0.0000030536
-0.0000095578
0.0000133933
0.0000016621
0.0000346937
-0.0000080684
0.0000097864
-0.0000097752
-0.0000065926
0.0000031493
-0.0000063683
0.0000225440
-0.0000144348
0.0000651654
0.0000601746
-0.0000018634
0.0000076159
0.0000131695
0.0001081099
0.0000295674
-0.0000118800
-0.0000019436
-0.0000142378
-0.0000146217
-0.0000117393
-0.0000063542
0.0000105570
0.0000040173
-0.0000074364
-0.0000105710
0.0000633695
0.0000069348
-0.0000026849
-0.0000124024
0.0000580830
0.0000343399
-0.0000130511
-0.0000007109
-0.0000134043
0.0000672147
-0.0000072207
0.0000241945
0.0000197190
-0.0000078143
-0.0000075782
-0.0000021461
-0.0000023467
0.0000187714
0.0000461071
-0.0000122807
-0.0000100742
0.0000089241
-0.0000121911
-0.0000120158
-0.0000023579
0.0000112651
-0.0000092703
0.0000006941
-0.0000020580
0.0000052700
0.0000732915
-0.0000077096
0.0000841011
0.0000062842
-0.0000007996
0.0000217829
0.0000270485
-0.0000053985
0.0000282627
-0.0000088632
0.0000348059
-0.0000122405
-0.0000139432
0.0000216167
-0.0000058290
0.0001628421
0.0000086486
-0.0000137265
-0.0000100057
-0.0000062741
-0.0000148663
-0.0000140516
0.0000612508
-0.0000103956
0.0000613443
0.0000084968
-0.0000012870
0.0000641770
0.0000312411
0.0000485811
-0.0000109223
0.0000143266
0.0000185384
-0.0000140700
0.0000260807
-0.0000019889
0.0000146958
0.0000572322
-0.0000035644
-0.0000034264
-0.0000126445
0.0000124748
0.0000444168
-0.0000006713
0.0000263734
0.0000258225
0.0000039350
-0.0000124128
-0.0000116956
0.0000192487
0.0000217394
-0.0000077666
0.0000309202
-0.0000044598
0.0000227155
0.0000008874
0.0000917125
0.0000318847
0.0000000380
-0.0000022797
-0.0000125326
-0.0000035888
-0.0000108127
-0.0000110805
0.0001559142
-0.0000120159
0.0000035639
0.0000393930
-0.0000044820
0.0000383407
-0.0000028898
0.0000108281
0.0000246304
-0.0000137383
-0.0000035408
0.0000124495
-0.0000114576
0.0000015591
0.0000482373
0.0000194144
0.0000013578
0.0000191697
-0.0000126449
-0.0000038036
-0.0000135912
0.0000376793
-0.0000089987
0.0000172216
-0.0000147546
0.0000974761
0.0000155056
-0.0000120927
0.0000090092
0.0000136829
-0.0000140069
0.0000293372
-0.0000125602
-0.0000116363
0.0000383438
0.0000408387
0.0000078243
-0.0000106567
0.0000151214
0.0000575545
-0.0000115965
0.0000110359
0.0000328775
-0.0000057256
-0.0000133049
0.0000272109
-0.0000076323
0.0000844194
0.0000418163
0.0000113206
-0.0000048838
-0.0000129610
0.0000267101
0.0000154411
-0.0000089607
0.0000107935
-0.0000118782
0.0000331346
-0.0000051390
-0.0000014373
0.0000048041
-0.0000089946
0.0001056322
0.0000283721
-0.0000083709
0.0000037980
-0.0000036928
0.0000028307
-0.0000059382
0.0000050925
0.0000513403
0.0000515694
-0.0000088106
0.0000194499
0.0000028305
-0.0000058207
0.0000111299
0.0001526653
0.0000049901
0.0000136697
0.0000116259
-0.0000041438
-0.0000097925
0.0000206602
0.0001290478
-0.0000134813
-0.0000094511
-0.0000105122
0.0000178223
0.0000248484
0.0000322955
-0.0000108534
0.0000096492
-0.0000047615
-0.0000016882
0.0000186765
0.0000083281
-0.0000066549
0.0000243689
-0.0000111600
0.0000423203
0.0000291178
-0.0000092679
-0.0000112312
-0.0000043209
0.0000404939
0.0000415463
-0.0000059010
-0.0000116227
0.0000584090
-0.0000049877
-0.0000092069
-0.0000000842
-0.0000054087
0.0000016073
0.0000129719
0.0000257517
-0.0000054768
-0.0000133402
-0.0000139356
0.0000338172
0.0000233950
0.0000369316
0.0000348651
0.0000250587
0.0000330009
-0.0000124401
0.0000101444
0.0000407703
0.0000038611
0.0000000223
0.0000122124
-0.0000020951
-0.0000086933
0.0000058501
0.0000040687
0.0000066807
-0.0000010035
-0.0000126061
0.0000059966
-0.0000077723
0.0000104412
0.0000405143
-0.0000111160
0.0000628214
-0.0000099476
-0.0000073893
-0.0000097415
0.0000940145
-0.0000092060
-0.0000084459
-0.0000139419
-0.0000133528
0.0000438211
0.0000108572
0.0000011888
-0.0000043879
0.0000001978
0.0000567508
0.0000043704
-0.0000065013
-0.0000052092
-0.0000040194
0.0000385289
-0.0000131000
-0.0000146108
0.0000283013
-0.0000141405
0.0000155066
0.0000297838
0.0000157994
-0.0000085616
0.0000296798
0.0000278637
0.0000212684
0.0000034848
0.0000098412
0.0000150682
-0.0000059484
0.0000137498
-0.0000103646
0.0000034821
-0.0000052829
0.0000050102
-0.0000043270
0.0000595215
-0.0000082007
0.0000070796
0.0000382091
-0.0000137726
-0.0000123809
-0.0000029863
0.0000408285
0.0000392956
0.0000560540
0.0000037687
-0.0000091341
-0.0000076085
0.0000590265
0.0000222930
-0.0000007522
0.0000658960
-0.0000140893
0.0000018652
-0.0000127783
-0.0000139555
0.0000012386
0.0000001857
0.0000059158
0.0000183778
0.0000106603
0.0000323367
-0.0000009353
0.0001286920
0.0001034787
0.0000025240
-0.0000065903
-0.0000079190
0.0000467838
-0.0000036933
-0.0000103937
-0.0000149775
0.0000335976
0.0000540086
0.0000415454
0.0000554723
-0.0000003778
-0.0000018604
-0.0000124647
0.0000027460
0.0000011157
0.0000359451
0.0000347769
-0.0000022755
-0.0000130062
0.0000236734
0.0000080852
-0.0000122045
0.0001235061
-0.0000021267
0.0000386119
-0.0000007856
0.0000140130
-0.0000058378
0.0000119748
-0.0000098829
-0.0000138180
0.0000188756
-0.0000015746
-0.0000082254
0.0000915546
-0.0000061932
0.0000000624
0.0000365051
0.0000624780
0.0000347616
-0.0000132336
0.0000311811
0.0000131631
0.0000331308
0.0000333287
0.0000064821
-0.0000051857
-0.0000127733
0.0000099658
-0.0000117094
0.0000003235
-0.0000079150
-0.0000139332
0.0000295887
0.0000466312
-0.0000014389
0.0000048118
0.0000122550
0.0000259660
-0.0000104094
0.0000113042
-0.0000098682
0.0000160825
-0.0000134074
0.0000020525
-0.0000052249
-0.0000080179
-0.0000120978
-0.0000120959
-0.0000121343
0.0000275806
0.0000796156
-0.0000054860
0.0000559815
0.0000028664
0.0000015337
-0.0000129576
0.0000401005
0.0000607626
0.0000502902
0.0001993483
0.0001740990
0.0000032606
0.0000007365
-0.0000151606
-0.0000136634
0.0000017026
0.0000322446
0.0000014886
0.0000176213
0.0000057466
0.0000115962
0.0000694140
0.0000353242
0.0000448325
0.0001229218
-0.0000091067
0.0000259711
-0.0000086849
-0.0000125969
0.0000323308
0.0000527198
-0.0000068358
-0.0000029007
0.0000298998
0.0000098790
-0.0000083449
0.0000007608
-0.0000139496
0.0000736554
0.0000073231
0.0000326061
-0.0000064734
-0.0000078070
0.0000008799
-0.0000133368
0.0000066831
0.0000071822
-0.0000005680
0.0000555413
0.0000381108
0.0000109604
-0.0000143532
-0.0000006365
-0.0000114055
-0.0000125031
0.0000122887
0.0000488109
0.0000257470
0.0000378050
-0.0000094409
-0.0000003855
0.0000135856
0.0000357972
0.0000021988
0.0000453315
-0.0000088753
0.0000692867
-0.0000057761
0.0000397417
-0.0000151233
0.0000475174
-0.0000091612
-0.0000120683
-0.0000014151
0.0000707340
0.0000091549
0.0000075708
0.0000843884
0.0000406194
0.0000337082
0.0000051929
0.0000595688
0.0000365862
0.0000445173
0.0000169360
-0.0000138757
0.0000212082
0.0000103253
-0.0000045241
0.0000090538
-0.0000102089
-0.0000012938
-0.0000115289
0.0000349468
0.0000051689
-0.0000032191
0.0000389777
0.0000177583
0.0001000472
0.0000757285
-0.0000002724
0.0000127559
0.0000572534
0.0000114812
-0.0000023770
0.0000021084
-0.0000108393
-0.0000136756
0.0000123196
-0.0000077330
-0.0000039965
0.0000125998
-0.0000114570
0.0000019245
-0.0000141663
-0.0000001616
-0.0000143046
0.0000242953
0.0000455610
-0.0000106470
0.0000879855
-0.0000036055
-0.0000133738
-0.0000047934
0.0000403093
-0.0000019076
0.0000189301
-0.0000126696
0.0000083603
-0.0000048157
-0.0000099681
0.0000110566
-0.0000035944
0.0000197354
-0.0000023728
0.0000186604
0.0000092113
0.0000186795
0.0000024057
0.0000025716
-0.0000066997
0.0000045942
-0.0000131150
0.0000098840
-0.0000070162
0.0000044315
-0.0000080114
-0.0000051090
0.0000269139
-0.0000108217
0.0000107896
0.0000019147
-0.0000150023
0.0000082300
0.0000437577
-0.0000100526
-0.0000028865
-0.0000078868
0.0000156308
0.0000257611
0.0000414184
0.0000115641
0.0000045091
0.0000779039
-0.0000143661
0.0000350158
-0.0000026467
-0.0000102440
0.0000095099
0.0000244939
0.0000155432
0.0000459038
0.0000020980
0.0000135740
-0.0000053425
0.0000013518
0.0000768722
0.0000261898
0.0000163564
0.0000052030
0.0000776397
0.0000093638
0.0000379655
-0.0000086642
0.0000746196
0.0000290310
0.0000272770
0.0000365542
-0.0000052798
-0.0000023538
0.0000252164
0.0000227072
0.0000086285
0.0000569132
0.0000048717
0.0000067130
0.0000331390
-0.0000044846
0.0000347766
0.0000097648
0.0001665794
0.0000137953
-0.0000052515
0.0000207924
-0.0000091466
0.0000608555
0.0000113557
-0.0000061162
0.0000622450
0.0000620112
0.0000882745
0.0000268375
0.0000163126
0.0000061122
-0.0000102978
-0.0000067407
0.0000037230
0.0000046426
-0.0000057669
-0.0000040647
-0.0000137102
0.0000003429
0.0000767847
-0.0000024547
-0.0000143376
0.0000115784
-0.0000143523
0.0000099002
0.0000305830
0.0000138385
-0.0000151059
-0.0000145142
0.0000565388
-0.0000151776
0.0000144146
-0.0000150145
-0.0000081790
0.0000182116
-0.0000058927
-0.0000023236
0.0000118724
0.0000804860
0.0000173506
0.0000138917
0.0000212280
0.0001114388
0.0000454328
0.0000143874
0.0000074743
0.0000195710
0.0000099972
0.0000365199
-0.0000019063
-0.0000053586
0.0000107742
0.0000017791
0.0000340991
0.0000081765
-0.0000059864
0.0000358630
0.0000119618
0.0000565017
0.0000106482
-0.0000153505
-0.0000021739
0.0000262681
0.0000017712
0.0000031403
-0.0000023759
0.0000012485
0.0000411475
0.0000544429
0.0000042647
0.0000565673
0.0000663545
-0.0000031069
0.0000059462
0.0000026294
-0.0000052958
-0.0000072188
0.0000286563
-0.0000083608
0.0000116316
-0.0000075865
-0.0000114350
-0.0000062379
-0.0000109695
-0.0000147720
0.0000002963
0.0000395317
0.0000084891
0.0000192256
0.0000341789
0.0001141377
-0.0000037216
-0.0000029433
0.0000496617
-0.0000098689
0.0000096125
0.0000322108
-0.0000013434
0.0001456038
-0.0000130163
-0.0000129879
0.0000003093
0.0001039655
0.0000229124
-0.0000058484
0.0000602782
-0.0000038612
-0.0000024693
0.0000771795
-0.0000017381
-0.0000009449
-0.0000124873
0.0000025990
-0.0000133788
0.0000723664
-0.0000097782
0.0000618894
0.0000287374
0.0000449991
0.0000263493
-0.0000070279
0.0000372427
-0.0000132040
0.0000142516
0.0000784006
0.0000519114
0.0000160302
0.0000430281
0.0000004788
0.0001074196
0.0001316533
0.0000485228
0.0000989494
0.0000613122
0.0000001025
-0.0000047937
0.0000623216
0.0000431019
0.0000135676
0.0000411967
0.0000279818
0.0000224457
0.0000605181
-0.0000092656
0.0000244156
0.0000360836
0.0000066391
-0.0000014902
0.0000218118
-0.0000043160
-0.0000054287
-0.0000053639
-0.0000016596
-0.0000041914
-0.0000133470
-0.0000141156
0.0000141771
-0.0000034578
-0.0000075754
-0.0000134213
0.0000171557
-0.0000072984
-0.0000088084
-0.0000120414
0.0000217874
-0.0000065866
0.0000587134
0.0000342925
0.0000079397
0.0000497299
0.0000184301
-0.0000066548
0.0000295757
0.0000080963
0.0000260116
-0.0000056495
-0.0000116992
-0.0000022784
-0.0000089953
0.0000173446
-0.0000146261
0.0000397104
0.0000061982
0.0000344861
0.0000129538
-0.0000148496
-0.0000023083
0.0000025194
0.0000051680
-0.0000113074
0.0000032299
-0.0000076084
-0.0000131646
-0.0000112204
0.0000186301
-0.0000146865
0.0000055252
0.0000403270
-0.0000054385
-0.0000016550
0.0000135186
-0.0000104081
0.0000239318
-0.0000078762
-0.0000079141
0.0000897274
0.0001710262
0.0000476952
0.0000276715
0.0000400133
-0.0000010987
0.0000011221
0.0000062024
-0.0000067591
0.0000007934
-0.0000088783
0.0000074465
-0.0000143821
0.0000889696
0.0000037002
0.0000010523
-0.0000150938
0.0000361107
0.0000368416
0.0000428659
0.0000026469
-0.0000100877
0.0000113202
0.0000033163
0.0000471767
0.0000112865
0.0000243093
0.0000062752
0.0000098616
0.0000126660
-0.0000020076
0.0000154896
0.0000127931
-0.0000144848
-0.0000048582
-0.0000091511
-0.0000009119
0.0000471816
0.0000032134
0.0000182986
-0.0000121097
0.0000036079
-0.0000101490
0.0000707824
0.0000016860
0.0000502121
0.0000177270
0.0000007254
0.0000741512
-0.0000085822
0.0000455685
-0.0000010336
0.0000558270
-0.0000143265
0.0000597381
0.0000083424
0.0000655038
-0.0000063942
0.0000549904
0.0000283850
0.0000198822
-0.0000027867
-0.0000002463
-0.0000073554
0.0000174004
0.0000061099
0.0000938934
-0.0000069785
0.0000287893
0.0000306542
-0.0000152680
-0.0000133486
0.0000438920
0.0000007988
0.0000085574
-0.0000086081
-0.0000020320
-0.0000057014
-0.0000092386
-0.0000143344
0.0000107653
0.0001376267
-0.0000083020
0.0000388155
-0.0000012585
0.0000365833
-0.0000134079
0.0000105863
0.0000072726
-0.0000026241
0.0000029201
0.0000117518
0.0000062066
-0.0000121939
-0.0000121298
-0.0000136109
0.0000585752
0.0000111248
0.0000026553
-0.0000027979
-0.0000131364
-0.0000097436
0.0000446138
0.0000115018
-0.0000128982
0.0000416224
0.0000558991
-0.0000147305
0.0000208339
0.0001089473
0.0000037387
-0.0000015252
0.0000017505
0.0000267382
0.0000131959
0.0000271115
0.0000115388
0.0000786140
-0.0000058488
0.0000067218
0.0000027189
0.0000578459
0.0000263302
-0.0000015031
-0.0000050616
0.0000637757
0.0000524845
0.0000027068
0.0000271969
0.0000544566
0.0000462220
0.0000119586
0.0000279400
0.0000264344
0.0000307570
0.0000647554
0.0000219005
0.0000621073
0.0000805217
-0.0000108943
0.0000161820
0.0000089257
0.0000380444
-0.0000017798
-0.0000061828
0.0000054236
0.0000226410
-0.0000114476
-0.0000142402
0.0000437503
0.0000131849
-0.0000130392
0.0000980158
-0.0000139861
0.0000027645
0.0000127841
0.0000166976
0.0000376144
0.0000422228
-0.0000104181
-0.0000024646
-0.0000038281
0.0000312031
0.0000435096
0.0000374254
0.0000315484
-0.0000059012
-0.0000016576
-0.0000126881
-0.0000117979
-0.0000052964
-0.0000085183
0.0000162061
-0.0000102741
0.0000128684
-0.0000107911
0.0000132870
-0.0000030592
0.0000021569
-0.0000006244
0.0000537275
0.0000405758
-0.0000074481
-0.0000103632
-0.0000062270
-0.0000133356
0.0000263530
0.0000150429
-0.0000021958
0.0000156994
0.0000419525
0.0000047219
0.0000205868
-0.0000124612
-0.0000142455
0.0000444164
0.0000189038
0.0000370964
-0.0000147177
-0.0000076889
-0.0000031672
0.0000016091
0.0000342983
-0.0000101109
-0.0000122732
0.0001453643
0.0000293139
0.0000289159
-0.0000128065
-0.0000035990
-0.0000151914
0.0000087983
0.0000300990
-0.0000110357
0.0000117276
-0.0000128901
0.0000522561
0.0000042258
0.0000315178
-0.0000145539
-0.0000075747
-0.0000015480
0.0000177806
0.0000206903
-0.0000121174
-0.0000077976
0.0000513162
0.0001089454
-0.0000052421
0.0000081494
-0.0000074213
-0.0000146390
0.0000137692
0.0000081766
-0.0000078209
0.0000010661
-0.0000120152
-0.0000108328
0.0000041502
0.0000169095
0.0000063787
-0.0000022536
-0.0000143265
-0.0000126145
0.0000233902
0.0000227664
0.0000482826
0.0000031905
0.0000453539
-0.0000007650
0.0000043387
0.0000072791
0.0001062977
-0.0000091590
-0.0000114474
-0.0000093636
0.0000252332
0.0000009213
-0.0000147021
0.0000269983
-0.0000110710
0.0000543873
0.0000055998
-0.0000015703
-0.0000111602
-0.0000077910
-0.0000071978
0.0000340802
-0.0000110262
0.0000970737
0.0000283850
0.0000646186
-0.0000099941
-0.0000016810
-0.0000038561
0.0000289028
-0.0000150109
-0.0000051140
0.0000049090
0.0000060296
-0.0000063052
0.0000149669
-0.0000091160
0.0000276235
-0.0000138479
0.0000153778
-0.0000062193
0.0000134075
0.0000065042
0.0001044088
0.0000387292
-0.0000082383
0.0000458188
-0.0000095011
-0.0000138485
0.0000005979
0.0000053491
-0.0000059817
0.0000126721
0.0000086076
-0.0000140402
-0.0000013583
0.0000240045
0.0000233621
-0.0000041431
0.0000102862
0.0000011013
0.0000256235
-0.0000081330
-0.0000034875
0.0000107023
0.0000846304
0.0000320040
-0.0000082757
-0.0000109849
-0.0000017843
0.0000061529
-0.0000122760
-0.0000071453
-0.0000005289
-0.0000028004
-0.0000082470
0.0000207244
0.0000757366
-0.0000105166
0.0000501176
0.0000128545
0.0000442873
0.0000260059
0.0000335422
-0.0000086691
0.0000184204
0.0000756074
0.0000204041
-0.0000067692
0.0000290072
0.0000679049
-0.0000129751
0.0000098726
0.0000091244
0.0001427871
-0.0000037646
-0.0000113294
0.0000595799
-0.0000006017
0.0000115898
-0.0000139436
-0.0000130339
0.0000169724
-0.0000054159
-0.0000025145
0.0000729004
0.0000183435
0.0000220201
0.0000832766
-0.0000080967
0.0000032141
0.0000994221
-0.0000121528
0.0000146479
0.0000499473
0.0000281568
-0.0000096195
-0.0000150130
-0.0000108983
0.0000025730
0.0000088425
0.0000104936
0.0000279718
0.0000101449
0.0000037159
0.0000519460
0.0000613855
0.0000420918
-0.0000073870
-0.0000002259
-0.0000122841
-0.0000074939
-0.0000007740
0.0000130903
-0.0000056555
0.0000792105
0.0000005281
0.0000552350
0.0000235555
0.0000013885
0.0000028339
-0.0000076508
0.0000352976
-0.0000142662
0.0000435574
-0.0000091751
0.0000294465
0.0000466828
0.0000098507
0.0000050226
-0.0000017013
-0.0000041961
0.0000104897
0.0000037134
-0.0000145552
0.0000149152
0.0000016536
-0.0000041097
-0.0000079363
0.0000043888
0.0000532153
-0.0000015595
-0.0000147218
-0.0000031911
-0.0000116349
-0.0000071927
0.0000158666
-0.0000024149
0.0000377559
0.0000230875
0.0000014191
0.0000001048
0.0000199477
0.0000511447
-0.0000066985
0.0000007823
0.0000963104
-0.0000061382
0.0000003024
0.0000050433
-0.0000136276
0.0000224076
-0.0000059774
0.0000330632
0.0000178221
-0.0000119441
0.0000007458
-0.0000098324
-0.0000109933
0.0001105648
0.0000436877
0.0000366161
0.0000368521
-0.0000020330
-0.0000074270
0.0000110086
0.0000063348
0.0000624505
0.0000293328
0.0000114996
-0.0000137118
-0.0000141560
-0.0000102314
0.0000213827
0.0000234194
-0.0000088758
0.0000544469
0.0000122634
-0.0000145465
0.0000097551
-0.0000031440
0.0000251587
0.0000015643
0.0000357157
0.0000116649
0.0000145948
-0.0000125697
0.0000489485
0.0000367076
0.0000177203
0.0001009851
0.0000299684
-0.0000115594
-0.0000136482
0.0000082975
-0.0000088665
-0.0000134807
0.0000026098
0.0000055578
0.0000368497
-0.0000139916
0.0000646912
-0.0000055515
0.0000500049
-0.0000043092
0.0000076886
0.0000306046
0.0000194604
-0.0000132961
0.0000145635
0.0000378454
0.0001253510
-0.0000041348
0.0000264044
-0.0000051806
-0.0000070693
0.0000053144
0.0000569773
0.0000028779
0.0000003501
0.0000383888
0.0000220065
0.0000305935
0.0000357019
-0.0000151565
-0.0000058321
0.0000005061
0.0000137886
-0.0000089368
-0.0000006056
0.0000284391
0.0000025074
-0.0000099270
0.0000628736
0.0001120101
0.0000344325
0.0000263826
-0.0000112670
-0.0000024556
0.0000716525
0.0000251281
0.0000117609
0.0000062599
-0.0000124675
-0.0000091586
0.0001084412
0.0001766277
0.0000207726
-0.0000067554
-0.0000039355
-0.0000148204
0.0000052766
0.0000096776
-0.0000084569
-0.0000048480
-0.0000120894
0.0000014025
0.0000217178
-0.0000103861
-0.0000143772
0.0000053270
0.0000111133
0.0000232376
0.0000047401
-0.0000080023
0.0000257283
0.0000347469
0.0000121832
0.0000005362
0.0000212810
0.0000190491
0.0000151780
0.0000138952
0.0000371125
-0.0000010469
-0.0000008866
0.0001085068
0.0000549853
0.0000651759
0.0000027675
0.0000168085
0.0000009849
0.0000087590
0.0000356076
-0.0000115135
-0.0000138840
-0.0000057608
0.0000094546
-0.0000070493
0.0000136447
-0.0000007838
0.0000974021
0.0000178488
0.0000152867
0.0000040226
-0.0000065014
-0.0000047498
-0.0000131752
0.0000010455
0.0000180823
-0.0000076529
0.0000244493
-0.0000077834
-0.0000010935
-0.0000076065
-0.0000064046
0.0000033798
-0.0000132977
0.0000186102
0.0000159760
-0.0000142320
-0.0000145273
0.0000038624
0.0000797704
-0.0000074634
-0.0000094850
0.0000073954
-0.0000136227
-0.0000122329
-0.0000063382
-0.0000083631
0.0000149591
0.0000090570
-0.0000026874
0.0000026505
0.0000389870
-0.0000111781
-0.0000089881
0.0000050440
-0.0000034522
0.0000204485
0.0000014961
0.0000473889
0.0000008694
0.0000094074
0.0000217257
0.0000025099
-0.0000148362
0.0000008260
-0.0000110461
-0.0000066767
0.0000337972
-0.0000112621
0.0000220425
0.0000385525
0.0000022868
-0.0000139579
-0.0000078517
0.0000098915
0.0000144107
0.0000742551
0.0000769952
0.0000017165
0.0000464218
0.0000808544
0.0000417071
0.0000025297
0.0001152252
-0.0000133376
0.0001088717
0.0000448626
0.0000371670
0.0001094696
-0.0000075488
0.0000488407
0.0000414065
-0.0000016678
-0.0000011827
0.0000014496
0.0000099950
-0.0000011557
0.0000042833
0.0000578945
0.0000121198
-0.0000126387
0.0000122201
-0.0000097064
-0.0000121886
-0.0000095756
0.0000297030
-0.0000042599
-0.0000086211
0.0000621786
0.0000778315
0.0000449695
-0.0000100835
-0.0000150971
0.0000459079
0.0000555974
0.0000098316
0.0000728054
-0.0000029955
-0.0000152901
0.0000341543
0.0000436363
-0.0000094917
-0.0000080176
0.0000444176
-0.0000146207
-0.0000072926
0.0000314981
0.0000002371
0.0000046331
0.0000076688
0.0000061542
0.0001141951
0.0000295945
0.0000412764
0.0000191140
0.0000061020
0.0000093048
0.0000709527
0.0001284780
-0.0000008603
-0.0000004894
0.0000356492
0.0000310258
0.0000346374
-0.0000095623
-0.0000048596
-0.0000014931
-0.0000080388
-0.0000006977
0.0000233791
0.0000292064
0.0000087970
0.0000180532
0.0000138162
-0.0000134151
-0.0000028333
-0.0000091917
0.0000102287
0.0000068862
0.0000560596
0.0000377933
0.0000145777
0.0000349554
0.0000931323
-0.0000006503
0.0000418827
0.0000023288
0.0000159817
-0.0000030708
0.0001164380
0.0000241854
-0.0000139784
-0.0000007843
0.0000688001
0.0000542012
0.0000310629
-0.0000082727
0.0000121679
0.0000275394
-0.0000088930
-0.0000045350
-0.0000125231
0.0000024744
0.0000150114
0.0000081713
0.0000325819
-0.0000098121
-0.0000073623
0.0000977002
0.0000131466
0.0000043152
-0.0000110672
0.0000079155
-0.0000066633
0.0000631392
0.0000156644
0.0000561368
-0.0000017856
0.0000368963
0.0000309295
-0.0000098371
0.0000077887
0.0000032018
0.0000055074
0.0000004024
0.0000650106
-0.0000086808
0.0000030568
-0.0000139141
0.0000189088
0.0000438476
0.0000072407
-0.0000034403
-0.0000096777
-0.0000091677
0.0000131241
0.0001108862
0.0000036051
0.0000200195
0.0000213266
0.0000002385
0.0000481789
0.0000203719
0.0000198814
0.0000008002
0.0000032645
-0.0000099593
-0.0000130669
-0.0000142826
0.0000145191
0.0000032197
0.0000141922
0.0000575610
0.0000249426
0.0000051235
0.0000213045
0.0000092999
0.0000168966
0.0000040123
0.0000020007
-0.0000126025
0.0000434928
-0.0000034407
0.0000077010
0.0000121937
-0.0000143469
-0.0000140618
-0.0000020472
0.0000159763
0.0000094428
0.0000804339
0.0000350057
-0.0000134922
0.0000088947
0.0000189635
0.0000521642
-0.0000084141
0.0000991056
-0.0000013661
-0.0000131616
-0.0000146472
0.0000052688
-0.0000130772
-0.0000058549
0.0000144728
-0.0000104382
0.0000494991
0.0000570546
0.0001022984
0.0001095142
-0.0000112461
-0.0000111744
-0.0000078105
0.0000209115
-0.0000026688
0.0000057329
-0.0000151446
0.0000257670
0.0000897637
-0.0000138435
0.0000082920
-0.0000108310
-0.0000144729
0.0000234669
-0.0000075371
0.0000023884
0.0000230961
-0.0000142382
0.0000341077
0.0000107174
-0.0000069234
0.0002177886
-0.0000078941
0.0000157331
0.0000130176
0.0000855008
-0.0000066264
0.0000297077
-0.0000011382
0.0000153572
-0.0000151816
-0.0000126790
-0.0000027202
0.0000183207
0.0000017852
-0.0000104281
-0.0000051279
-0.0000030497
-0.0000149498
-0.0000131826
0.0000188897
-0.0000148390
-0.0000028942
0.0000378728
0.0000056732
-0.0000114004
0.0000072885
-0.0000038039
0.0000346940
-0.0000056133
0.0000664087
-0.0000097085
-0.0000010796
0.0000233392
0.0000106917
-0.0000036194
-0.0000034693
0.0000256017
-0.0000030908
0.0000035293
0.0000328334
-0.0000102033
0.0000141375
0.0000240861
0.0000063969
0.0000033145
0.0000503104
0.0000329809
0.0000092618
-0.0000133661
-0.0000022696
0.0000231713
0.0000290890
0.0000954640
0.0000621888
-0.0000066735
0.0000118756
-0.0000007359
0.0000337838
0.0000742590
0.0000253382
0.0000279824
0.0000172711
0.0000139503
0.0000352646
0.0000767461
0.0000951211
-0.0000088907
0.0000096787
0.0000178081
-0.0000048768
0.0000549346
0.0000637375
0.0000114973
0.0000389055
0.0000040573
0.0000158811
0.0000114548
-0.0000114389
-0.0000085663
0.0000036704
0.0000021251
-0.0000091541
0.0000105820
0.0000558042
-0.0000077204
0.0000264078
0.0000263172
0.0000077851
0.0000264702
-0.0000084194
0.0000351685
-0.0000121886
-0.0000002769
0.0000038801
0.0000025102
-0.0000033396
0.0000282325
0.0000283277
0.0000189301
-0.0000069358
0.0000073932
-0.0000040373
0.0000335960
-0.0000052416
-0.0000051057
-0.0000042723
0.0000155849
-0.0000080536
0.0000548406
0.0000285679
-0.0000088936
0.0000249188
0.0001083887
0.0000022134
-0.0000127993
0.0000739731
0.0001296009
0.0000062656
0.0000010996
0.0000112267
0.0000172985
0.0000336919
-0.0000048439
-0.0000135287
0.0000170899
0.0000031118
-0.0000074008
0.0000243186
-0.0000023789
0.0000055983
-0.0000072099
0.0000163363
0.0000853877
0.0000586266
0.0000392104
0.0000177435
0.0000145784
0.0000153212
-0.0000100826
-0.0000053417
-0.0000095997
0.0000180850
0.0000550010
0.0000210971
-0.0000045175
-0.0000132540
0.0000014987
0.0000625934
-0.0000052971
-0.0000034120
0.0000471769
-0.0000061960
0.0000454215
0.0000139940
0.0000361599
-0.0000124831
0.0000136835
0.0000239870
0.0000432859
0.0000232853
-0.0000148994
-0.0000085936
-0.0000138721
0.0000113282
-0.0000096064
-0.0000039155
-0.0000138311
-0.0000025958
0.0000712580
-0.0000112479
-0.0000058171
-0.0000121049
0.0000250829
-0.0000078487
-0.0000025203
0.0000447373
-0.0000027113
0.0000325788
0.0000416361
0.0000124140
0.0000161143
-0.0000025747
-0.0000139689
0.0000058479
0.0000134131
0.0000813039
0.0000086998
0.0000044210
-0.0000090695
0.0000124137
-0.0000005027
0.0000189163
0.0000169432
0.0000105805
0.0000027217
-0.0000132685
-0.0000112923
-0.0000013778
-0.0000098497
-0.0000100592
0.0000111466
0.0000211466
-0.0000012421
0.0000948813
-0.0000129907
-0.0000109333
-0.0000103222
0.0000062807
-0.0000143205
-0.0000137308
0.0000383611
0.0000075634
-0.0000127905
-0.0000137569
0.0000003102
0.0000156758
0.0000095224
-0.0000110811
0.0000999367
0.0000335779
0.0000194337
-0.0000060255
0.0000069867
-0.0000071099
0.0000406286
-0.0000133653
0.0000175242
-0.0000029913
-0.0000113118
0.0000854662
0.0000124547
-0.0000116237
0.0000496810
0.0000034281
0.0000075824
-0.0000064768
-0.0000006860
-0.0000101674
-0.0000054660
0.0000416587
0.0000061852
0.0000070468
0.0000433345
-0.0000135961
-0.0000146747
0.0000236990
0.0000212467
-0.0000066878
-0.0000068658
0.0001126468
-0.0000149411
0.0000012953
0.0000124303
-0.0000073440
0.0000230716
-0.0000147252
0.0000546076
-0.0000142244
0.0000356657
0.0000047978
-0.0000032095
0.0000368665
0.0000516896
0.0000039393
-0.0000144179
-0.0000073864
-0.0000048628
-0.0000059880
-0.0000141614
0.0000212287
0.0000228611
-0.0000064892
0.0000112165
-0.0000126271
0.0000070576
-0.0000115730
0.0000092574
0.0000819560
-0.0000069857
0.0000076224
-0.0000131143
0.0000033395
-0.0000081280
0.0000561418
-0.0000006866
0.0001224532
0.0000037314
-0.0000050839
-0.0000099429
0.0000331859
0.0000505041
0.0000790963
-0.0000098519
0.0000506529
-0.0000086737
0.0000229511
-0.0000126115
0.0000397733
0.0000065822
0.0000699192
0.0000136273
0.0000668011
-0.0000120298
-0.0000150596
0.0000063905
0.0000208119
-0.0000133483
0.0000006225
0.0000041178
0.0000056528
0.0000021018
0.0000196808
-0.0000033924
0.0000031890
0.0000366543
0.0000458478
0.0000089151
0.0000065354
0.0001515780
-0.0000093823
0.0000538169
0.0000154646
-0.0000048038
0.0000113370
-0.0000097710
-0.0000031289
0.0000382657
0.0000200289
-0.0000113215
0.0000197993
-0.0000009943
-0.0000048021
-0.0000120045
0.0000020474
0.0000216970
0.0001680211
0.0000385717
0.0000134539
0.0000180646
0.0000238634
0.0000214697
-0.0000019022
0.0000099699
-0.0000029289
-0.0000018602
0.0000271140
0.0000462126
0.0000530281
-0.0000126262
0.0000855826
-0.0000000948
0.0000334799
0.0000251216
-0.0000129906
-0.0000011973
0.0000504608
0.0000356335
0.0000213369
0.0000186090
-0.0000059134
0.0000105593
-0.0000098084
0.0000306163
-0.0000125317
0.0000223878
0.0000158395
0.0000159190
0.0000892889
-0.0000069779
-0.0000106918
-0.0000083729
0.0000656677
0.0001156770
0.0000752951
0.0000166464
-0.0000144958
-0.0000102840
-0.0000151935
-0.0000057001
0.0000133670
-0.0000008967
-0.0000099181
-0.0000023597
0.0000394221
0.0000013318
-0.0000063847
0.0000106454
-0.0000063725
-0.0000100190
0.0000269035
0.0000192247
0.0000621484
0.0000204742
0.0000197253
0.0000465834
-0.0000150841
-0.0000120266
-0.0000150951
0.0000047824
0.0000161469
-0.0000145388
0.0000055377
-0.0000115499
-0.0000106867
-0.0000152207
0.0000246232
0.0000205365
0.0000281769
-0.0000149496
-0.0000008009
0.0000095659
0.0000111457
0.0000045790
0.0000752048
-0.0000133041
-0.0000025896
-0.0000080943
-0.0000057493
-0.0000146020
0.0001324070
0.0000165090
0.0000037147
0.0000362078
0.0000050613
-0.0000147877
0.0000158387
0.0000061368
0.0000018511
-0.0000151490
-0.0000030637
0.0000054345
0.0000070035
0.0000417643
0.0000357332
0.0000207938
-0.0000012771
0.0000013269
0.0000004071
-0.0000115167
0.0000467236
0.0000487876
0.0000064230
-0.0000146073
-0.0000122437
0.0000193617
0.0000204529
0.0000158729
-0.0000106658
-0.0000094588
0.0000539452
-0.0000142605
0.0000290891
-0.0000108444
0.0001177269
0.0000113253
0.0000691464
0.0000853354
0.0000106367
-0.0000012392
0.0000209578
0.0000341109
0.0000726765
0.0000230709
0.0001108459
-0.0000126477
0.0000743295
-0.0000041194
-0.0000016314
0.0000704616
0.0000155597
0.0000380178
0.0000544383
0.0000130788
-0.0000117412
0.0000345590
0.0000306265
-0.0000092971
-0.0000038461
0.0000000328
0.0000018209
0.0000480078
-0.0000137694
0.0000616673
0.0000210040
-0.0000051343
0.0000683876
0.0000292754
-0.0000091682
0.0000673021
0.0000322634
0.0000419631
0.0000655536
0.0000004842
0.0000242453
0.0000251755
0.0000213196
0.0000471172
0.0000264856
-0.0000079218
0.0000432597
0.0000075857
0.0000439767
-0.0000045710
0.0000687213
-0.0000137707
0.0000398209
0.0000219252
-0.0000136998
0.0000053519
-0.0000045021
0.0000442513
0.0000336381
0.0000640863
-0.0000100458
0.0000078152
0.0000099542
-0.0000034004
0.0000090549
0.0000036552
0.0000056605
0.0000418261
-0.0000145209
0.0000472826
0.0000203029
0.0000054116
-0.0000041785
-0.0000047800
-0.0000136456
0.0000146127
0.0000133032
-0.0000134694
-0.0000082867
0.0000146380
0.0000122593
0.0000043409
-0.0000041358
0.0000195611
-0.0000065572
-0.0000120194
-0.0000008586
0.0000317980
0.0000295433
-0.0000003622
0.0000075663
0.0000088684
0.0000121168
0.0000415076
-0.0000002612
0.0000138597
0.0000050852
-0.0000111397
-0.0000153146
-0.0000087921
0.0000420132
0.0000976780
0.0000078692
0.0000170534
0.0000362651
0.0000080303
-0.0000090426
-0.0000098351
-0.0000067364
0.0000066755
0.0000382166
0.0000198301
0.0000059989
0.0000251884
0.0000302873
-0.0000110649
-0.0000056251
0.0000022143
0.0000727142
-0.0000127877
0.0001630059
-0.0000053450
0.0000041663
0.0000050844
0.0000035381
0.0000246736
0.0000028165
-0.0000152514
0.0000324414
0.0001090491
0.0000582144
-0.0000145776
-0.0000090423
0.0000238094
0.0000061147
0.0000094254
-0.0000099860
0.0000087305
-0.0000091155
-0.0000067709
0.0000394278
0.0000192576
0.0000001260
-0.0000132716
-0.0000096618
-0.0000047841
-0.0000005484
0.0000320092
0.0000692936
-0.0000108615
0.0000290606
-0.0000099936
0.0000253730
-0.0000023165
0.0001927071
0.0000267185
0.0000498931
-0.0000126579
-0.0000052319
0.0000101140
0.0000360140
0.0000352293
-0.0000140103
0.0001094798
-0.0000062403
-0.0000051211
-0.0000002797
-0.0000047723
-0.0000119511
-0.0000147891
0.0000467565
0.0000438892
0.0000070461
0.0000702312
0.0000273052
-0.0000056248
-0.0000073065
0.0001084050
0.0000193483
-0.0000112230
0.0000338186
0.0000084440
0.0000433032
-0.0000048974
-0.0000115640
0.0000057533
0.0000083489
-0.0000116550
-0.0000097295
0.0000085983
0.0000327932
0.0000098322
0.0000193695
0.0000386747
-0.0000114357
-0.0000099915
-0.0000025816
0.0000816372
0.0000364454
-0.0000126518
0.0000110609
0.0000123989
0.0000077750
-0.0000031510
-0.0000000822
0.0000067204
-0.0000136782
-0.0000150396
0.0000543241
-0.0000141537
-0.0000141164
0.0000321181
-0.0000034421
0.0001472859
-0.0000153172
0.0000602940
0.0000141077
-0.0000021716
-0.0000127174
0.0000026729
-0.0000124128
-0.0000100829
0.0000459489
-0.0000001425
0.0000218128
-0.0000124028
-0.0000146515
0.0000039115
0.0000017204
-0.0000105492
-0.0000044163
0.0000388268
-0.0000085781
0.0000348112
0.0000061900
0.0000032738
0.0000214607
0.0000074621
0.0000022332
-0.0000085222
0.0000014931
-0.0000149241
0.0000073890
0.0000272333
0.0001541180
-0.0000097000
-0.0000090271
0.0000239789
0.0000066883
-0.0000002415
-0.0000140191
0.0000343620
0.0000030505
0.0000274832
0.0000050726
0.0000023823
-0.0000147680
0.0000006219
-0.0000142872
0.0000500824
-0.0000090444
0.0000425044
0.0000169913
-0.0000065402
0.0001565975
-0.0000056336
0.0001851908
-0.0000107114
-0.0000109712
0.0000127382
-0.0000138660
0.0000470198
0.0000136096
0.0000083716
-0.0000129290
0.0000142404
-0.0000078043
0.0000060930
-0.0000114272
-0.0000092460
0.0000337459
-0.0000139253
0.0000472546
-0.0000000388
-0.0000101771
0.0000217895
0.0000882234
-0.0000046506
0.0000268640
0.0000073697
0.0000312049
-0.0000031696
0.0000082582
-0.0000115398
0.0000048755
0.0000089429
0.0000096231
-0.0000031027
0.0000278052
0.0000420219
0.0000226982
0.0000251391
0.0000008631
-0.0000004880
0.0000011673
0.0000046333
0.0001111206
0.0000297326
0.0000169237
0.0000642473
0.0000121198
-0.0000021522
0.0000118640
-0.0000146421
-0.0000122853
-0.0000139481
0.0000362041
-0.0000138286
0.0000584403
0.0000025963
-0.0000039591
0.0000800989
-0.0000054193
-0.0000104447
0.0000616669
-0.0000069393
0.0000042880
-0.0000057560
-0.0000140835
-0.0000078315
0.0000866039
-0.0000112535
0.0000411542
-0.0000080379
0.0000107691
-0.0000013894
-0.0000081061
-0.0000145584
0.0000713763
0.0000119686
-0.0000119650
0.0000986147
0.0000300802
-0.0000075130
-0.0000068331
0.0000456290
0.0000090191
0.0000141977
-0.0000138505
-0.0000081857
0.0000174087
0.0000021794
0.0000742054
-0.0000040554
-0.0000114378
-0.0000072622
0.0000026546
0.0000165129
0.0000362732
-0.0000053915
-0.0000129624
0.0000077314
0.0000158788
-0.0000099648
0.0000829194
0.0000048794
-0.0000085134
0.0000342177
-0.0000003307
0.0000067271
-0.0000105211
0.0000358501
-0.0000131077
-0.0000027424
0.0000156943
0.0000010212
0.0000399705
-0.0000000654
0.0000549974
0.0000314082
0.0000331595
-0.0000028592
0.0000500475
0.0000614918
-0.0000135976
0.0000356808
-0.0000076522
-0.0000120259
0.0000049013
0.0000370925
0.0000775894
0.0000262966
-0.0000113193
-0.0000007323
0.0000308155
0.0000091331
0.0000140585
0.0000631023
-0.0000027945
-0.0000109402
0.0000688066
-0.0000094928
0.0000534406
0.0000078703
0.0000077265
0.0000036956
0.0000098639
0.0000372644
0.0000018023
0.0000604813
0.0000309914
0.0000110073
0.0000093805
0.0000388070
0.0000559019
-0.0000010262
0.0000605925
0.0000381449
0.0001134602
0.0000221932
-0.0000026593
0.0000537343
-0.0000091929
0.0000118939
0.0000721694
-0.0000138169
-0.0000132969
0.0000096981
-0.0000096780
-0.0000113419
0.0000531526
-0.0000014752
0.0000089852
-0.0000005287
-0.0000112407
-0.0000126476
-0.0000047864
-0.0000056094
-0.0000080383
0.0000120891
0.0000465192
-0.0000000667
-0.0000097830
0.0000140208
-0.0000098655
-0.0000110768
-0.0000046060
-0.0000086114
-0.0000137482
0.0000011478
-0.0000035150
0.0000274709
0.0000007770
-0.0000111137
0.0000198530
-0.0000026415
-0.0000054838
-0.0000121253
0.0001040980
-0.0000022188
0.0000919871
0.0000061440
-0.0000134635
0.0000219406
0.0000039912
0.0000102198
0.0000119883
0.0000447561
0.0000073190
0.0000112868
0.0000238503
0.0000098327
-0.0000009494
0.0000054245
0.0000114238
0.0000417072
0.0000226819
-0.0000126719
0.0000243987
-0.0000151582
0.0000447790
-0.0000116441
0.0000181279
0.0000654848
-0.0000149154
-0.0000023230
0.0001272592
-0.0000120383
0.0000365756
0.0000039210
-0.0000101955
-0.0000137592
0.0000974030
0.0000147347
0.0000167948
-0.0000119152
-0.0000061865
-0.0000036044
0.0000101549
-0.0000104001
0.0000118266
0.0000344503
-0.0000143476
0.0000921515
-0.0000037877
0.0000290155
0.0000228167
-0.0000124560
-0.0000093207
-0.0000012987
0.0000708443
-0.0000081661
0.0000346395
0.0000114379
-0.0000091589
0.0000910855
0.0000185402
-0.0000087798
0.0000922910
0.0000093121
0.0000000055
0.0000084448
0.0000019249
0.0000576814
0.0000181723
-0.0000120286
0.0000215517
0.0000145688
-0.0000032201
0.0000120583
0.0000086620
-0.0000062839
-0.0000109193
-0.0000096050
0.0000169937
0.0000698501
0.0000015042
0.0000861578
-0.0000032626
0.0000095864
-0.0000150482
0.0000024967
0.0000129911
0.0000279801
0.0000439604
-0.0000078824
0.0000173215
0.0000634456
0.0000317938
-0.0000133117
0.0000955014
0.0000139566
0.0000482204
0.0000409911
-0.0000111437
-0.0000047079
0.0000424476
0.0000084252
0.0000148239
-0.0000125658
0.0000290114
-0.0000075563
0.0000414139
0.0000681756
0.0000289530
0.0000325677
0.0001061720
0.0000014794
0.0000085260
-0.0000113179
0.0000249387
0.0000161869
0.0000055626
0.0000524375
0.0000083994
-0.0000101126
0.0000094993
0.0000386474
-0.0000077658
0.0000029578
0.0000023263
-0.0000096851
-0.0000093585
0.0000053726
0.0000017905
-0.0000121244
0.0000864729
-0.0000100682
-0.0000001354
-0.0000091804
0.0000082654
0.0000035620
0.0000024816
0.0000464165
-0.0000016847
-0.0000002313
0.0000063924
0.0000532815
0.0000000749
0.0000124110
0.0000140818
0.0000385070
0.0000164419
0.0000325510
0.0000442485
