300,2,15,16,0.010000,0.000000,8192,Rectangle
0.0000034306
0.0001046167
0.0000176540
-0.0000065493
-0.0000134135
0.0000163101
0.0000022279
0.0000160015
-0.0000033734
-0.0000079822
-0.0000080472
-0.0000127057
0.0000163275
-0.0000084655
0.0000157623
0.0000079350
-0.0000014765
0.0000099441
-0.0000009099
0.0000642917
0.0000514620
-0.0000098390
0.0000833163
0.0000469396
0.0000739677
0.0000249077
-0.0000102155
-0.0000091447
-0.0000131429
-0.0000027582
0.0000504561
0.0001051102
0.0000034017
0.0000080388
0.0000185637
0.0000141606
-0.0000142226
0.0000235566
-0.0000075147
0.0001598169
0.0000004839
-0.0000128988
0.0000726752
0.0000050088
0.0000021715
-0.0000124686
-0.0000009526
0.0000068591
-0.0000131029
0.0000503305
-0.0000072695
0.0000034728
0.0000301225
-0.0000051024
-0.0000044192
-0.0000142694
0.0000223065
-0.0000003404
-0.0000047702
0.0000309033
0.0000168458
0.0000350088
-0.0000062530
-0.0000136097
0.0000051615
-0.0000047592
0.0000726381
0.0000143437
0.0000016476
0.0000596683
0.0000049861
0.0000117632
-0.0000147678
-0.0000101361
0.0000840069
0.0000490144
0.0000474585
-0.0000053012
0.0000282393
0.0000032102
0.0000027692
0.0001044217
-0.0000126934
0.0001520898
-0.0000139995
-0.0000100737
0.0000392691
0.0000287751
0.0000119036
-0.0000075390
-0.0000061236
0.0000191651
-0.0000107965
0.0000178620
0.0000161775
0.0000197092
-0.0000017481
0.0000430285
0.0000580948
-0.0000125928
-0.0000147609
-0.0000076863
0.0000100279
-0.0000051538
0.0000349321
-0.0000096846
0.0000022770
-0.0000051947
0.0000630519
-0.0000000875
0.0000022812
-0.0000068717
-0.0000066659
-0.0000025968
0.0000295622
0.0000105513
-0.0000051477
0.0000226326
-0.0000128380
-0.0000001948
-0.0000099685
-0.0000057368
-0.0000100847
0.0000041566
0.0000077282
-0.0000152284
0.0000045921
-0.0000132954
0.0000124834
-0.0000009650
0.0000015004
0.0000266589
-0.0000019147
0.0000358139
-0.0000042169
0.0000528791
-0.0000004406
0.0000159207
0.0000330057
0.0000124271
0.0000720910
-0.0000050787
0.0000774303
0.0000099341
0.0000020766
0.0000639578
-0.0000117176
0.0000291708
0.0000142612
0.0000210143
0.0000023496
0.0000162984
0.0000114906
0.0000039149
0.0000251703
-0.0000017849
-0.0000000335
-0.0000019522
-0.0000046857
0.0000131832
0.0000035559
0.0000009305
0.0000129766
-0.0000029170
-0.0000093477
0.0000033552
0.0000147000
0.0000535058
-0.0000077446
0.0000196165
-0.0000135131
0.0000972318
-0.0000040816
-0.0000093994
-0.0000039008
0.0000044626
-0.0000117242
0.0000235842
-0.0000086132
-0.0000068820
0.0000144713
0.0000119401
0.0000066430
-0.0000116274
-0.0000116964
-0.0000105054
0.0000793480
0.0000938082
0.0000421698
0.0000125796
0.0000040772
-0.0000092671
0.0000542536
-0.0000026307
0.0000007848
0.0000040343
-0.0000038646
0.0000080491
-0.0000134561
-0.0000114376
-0.0000022524
0.0000528399
-0.0000080440
-0.0000101959
-0.0000029446
-0.0000106854
0.0000094831
-0.0000104061
-0.0000081621
-0.0000054544
0.0000019999
0.0001145684
0.0000067398
-0.0000047600
0.0000488272
-0.0000004649
-0.0000011624
0.0000632684
-0.0000077256
0.0000962770
0.0000045224
0.0000041308
-0.0000116017
0.0000089099
-0.0000106869
-0.0000148985
0.0000290018
0.0000484320
0.0000787266
0.0000146211
-0.0000049458
0.0000061592
0.0000653471
-0.0000074398
0.0001103366
-0.0000085829
-0.0000107738
0.0000185527
-0.0000120904
0.0001375819
0.0000457803
-0.0000142838
0.0000023216
-0.0000018983
0.0000001805
0.0000075901
-0.0000014524
-0.0000067799
0.0000245050
-0.0000115177
0.0000217442
0.0000007997
0.0000372895
0.0000642594
0.0000322460
-0.0000073230
0.0000105622
-0.0000002398
0.0000151853
0.0000251191
-0.0000092480
0.0001016344
-0.0000109599
0.0000324415
0.0000647919
0.0000029047
0.0000328838
0.0000161705
0.0000355066
-0.0000150723
0.0000438034
0.0000093110
0.0000054023
0.0000560166
-0.0000007942
-0.0000144318
-0.0000136170
-0.0000058101
0.0000082751
0.0000252878
-0.0000145418
0.0000036619
0.0000181459
-0.0000120733
0.0000041705
0.0000083818
-0.0000052553
-0.0000139017
-0.0000073058
0.0000119226
-0.0000024825
-0.0000031697
0.0000115496
0.0000290203
-0.0000068287
0.0000165192
0.0000072098
0.0000184110
0.0000378523
0.0000390915
0.0001834464
-0.0000083515
-0.0000137323
-0.0000138067
-0.0000120474
0.0000153300
0.0000172602
-0.0000119248
-0.0000101590
0.0000142991
-0.0000075322
0.0000439894
-0.0000027314
0.0000583939
-0.0000145096
0.0000215863
0.0000351982
0.0000158407
0.0000241273
-0.0000100827
-0.0000106400
-0.0000079061
0.0000007072
-0.0000138066
0.0000521606
-0.0000097812
-0.0000037673
0.0000181530
0.0000193069
0.0000114682
0.0000876855
0.0000005874
-0.0000142717
-0.0000146835
-0.0000009641
0.0000875851
-0.0000073417
-0.0000092930
0.0000152857
0.0000071797
-0.0000078168
0.0000531623
0.0000643453
0.0000753770
-0.0000092147
0.0000185077
0.0000341695
-0.0000142764
0.0000066684
0.0000122560
0.0000389145
-0.0000075110
-0.0000089912
0.0000277820
0.0000499263
0.0000211461
-0.0000072065
0.0000368755
-0.0000062179
0.0000298606
0.0000977765
0.0000136726
0.0000340935
0.0000707358
0.0000025174
0.0000218081
0.0000056423
-0.0000143124
-0.0000003249
-0.0000004289
0.0000149519
-0.0000102217
-0.0000010007
-0.0000101263
-0.0000085462
-0.0000064819
-0.0000138422
0.0000091181
-0.0000090437
-0.0000075448
-0.0000118764
-0.0000085625
0.0000027950
-0.0000028080
0.0000052439
-0.0000139960
-0.0000097362
-0.0000017439
-0.0000051473
0.0000040791
-0.0000040054
0.0000003478
0.0000406788
0.0000064482
-0.0000095779
-0.0000039180
-0.0000057450
0.0000625511
0.0000053683
0.0000281143
0.0000331573
-0.0000150883
-0.0000103303
0.0000687193
-0.0000055849
0.0000645935
-0.0000088028
-0.0000150103
0.0000423125
-0.0000058587
-0.0000067681
0.0000026679
0.0000200332
-0.0000003241
0.0000510946
0.0000136052
0.0000224458
-0.0000140896
-0.0000069607
-0.0000034288
0.0001105750
-0.0000116415
0.0000057732
-0.0000029772
-0.0000000322
0.0000920134
-0.0000006809
0.0000128127
-0.0000049319
0.0000169207
-0.0000151165
0.0000240466
0.0000070681
-0.0000020532
-0.0000042170
-0.0000054199
0.0000166083
-0.0000117716
0.0000169070
0.0001688811
0.0000185036
0.0000409327
0.0000233865
-0.0000137728
0.0000201836
-0.0000003107
-0.0000068975
-0.0000114978
0.0000107256
0.0000514302
-0.0000013825
-0.0000103775
-0.0000067855
-0.0000084924
0.0000018638
0.0000054954
-0.0000027515
-0.0000075338
0.0000409801
0.0000703688
-0.0000070614
0.0000055909
-0.0000000218
0.0000025006
0.0000033443
0.0000095001
0.0000464956
0.0000061137
-0.0000139374
0.0000261678
-0.0000147503
0.0000051447
0.0000006038
0.0000519142
-0.0000146499
0.0000003426
-0.0000071111
-0.0000113405
0.0000055169
0.0000032914
0.0000147992
0.0000029958
-0.0000035015
-0.0000102994
-0.0000108868
-0.0000008412
-0.0000110225
-0.0000034861
-0.0000095886
-0.0000088084
-0.0000126751
-0.0000136148
0.0000428407
0.0000225803
0.0000511750
0.0000509111
0.0000381885
0.0000204262
-0.0000121915
-0.0000032620
0.0000181159
0.0000652637
-0.0000005583
-0.0000041538
-0.0000136080
-0.0000071206
-0.0000147724
-0.0000148351
-0.0000129288
0.0000002758
0.0000167164
0.0000320427
0.0000222491
-0.0000048248
0.0000073731
0.0000013858
-0.0000071403
0.0000049285
0.0000222480
0.0000277605
0.0000000543
-0.0000131126
0.0000018902
0.0000375467
-0.0000052981
-0.0000042845
-0.0000075025
0.0000139962
0.0000037910
-0.0000109773
-0.0000066192
0.0001031329
-0.0000068909
-0.0000099867
0.0000070681
0.0000603900
-0.0000034448
-0.0000065447
0.0000156721
-0.0000124574
-0.0000091251
-0.0000026817
0.0000192821
0.0001024982
-0.0000012988
-0.0000020342
0.0000459238
0.0000301725
0.0000290016
0.0000069498
0.0000026553
0.0000078837
0.0000199061
-0.0000005405
0.0000140413
0.0000104503
-0.0000059501
0.0000148116
0.0000201262
-0.0000143703
-0.0000070035
0.0000084198
-0.0000032701
0.0000817188
0.0000281235
0.0001723004
0.0000724011
0.0000163332
-0.0000135228
0.0000009414
0.0000053463
-0.0000019802
-0.0000131717
0.0000436923
0.0000091891
0.0000479313
0.0000528050
0.0000051899
-0.0000074145
0.0000410329
-0.0000145635
0.0000040244
0.0000746657
0.0000009714
0.0000340344
-0.0000035723
0.0000131830
0.0000427733
-0.0000104214
0.0001255445
-0.0000071924
0.0000657545
0.0000468213
-0.0000040918
-0.0000150174
0.0000021251
-0.0000147860
0.0000208664
0.0000211384
0.0000759786
-0.0000127767
0.0000100795
-0.0000137312
-0.0000103605
0.0000179108
0.0000103887
0.0000365214
-0.0000062374
0.0000505545
-0.0000106404
-0.0000030712
0.0000485053
-0.0000064586
-0.0000056509
0.0000662766
-0.0000124851
-0.0000123119
-0.0000089660
0.0000088939
0.0000089548
0.0000085148
0.0000000593
0.0000426333
0.0000001583
0.0001206108
-0.0000132388
0.0000018252
0.0000615991
0.0000267934
0.0000443816
0.0000511759
-0.0000041821
0.0000413462
0.0000026761
0.0000061935
0.0000361934
0.0000283597
0.0000052269
-0.0000112035
-0.0000006623
0.0000574523
0.0001036953
0.0000190336
0.0000165271
-0.0000020345
0.0000851597
-0.0000089101
0.0000490428
0.0000005400
-0.0000076533
0.0000191465
-0.0000091445
0.0000303032
0.0000170702
-0.0000131429
0.0000018575
-0.0000020195
-0.0000072682
-0.0000095556
0.0000271308
0.0001412662
-0.0000143599
0.0000519961
-0.0000044876
-0.0000012940
-0.0000062129
-0.0000037169
-0.0000046457
0.0000252780
0.0000238394
0.0000502761
-0.0000070013
0.0000360700
0.0000043603
-0.0000031272
0.0000666841
0.0000200331
-0.0000126023
0.0000712043
0.0000042716
0.0000093593
0.0000036675
-0.0000138655
0.0000209165
0.0000080889
-0.0000086717
0.0000222155
-0.0000100982
0.0000005663
0.0000331233
0.0000149776
0.0000504129
0.0000430611
0.0000097876
-0.0000025814
0.0000169060
0.0000164918
0.0000167348
0.0000300381
-0.0000033543
-0.0000025086
-0.0000072307
0.0000220365
-0.0000076902
0.0000061001
-0.0000016708
0.0000143617
-0.0000066323
0.0000019824
0.0000221853
0.0000020883
0.0000008416
0.0000339536
-0.0000064964
-0.0000139234
0.0000556616
-0.0000080383
-0.0000016358
0.0000285851
0.0000168960
-0.0000048526
-0.0000134274
-0.0000119800
-0.0000129616
0.0000115544
0.0000498794
0.0000208935
-0.0000013696
0.0000115080
-0.0000142072
0.0000062575
-0.0000104503
0.0000063434
-0.0000071787
0.0000476676
0.0000471995
-0.0000107502
0.0000109049
0.0000197376
0.0000192517
0.0000479169
-0.0000007998
-0.0000115661
0.0001021015
0.0000157526
0.0000063386
-0.0000078134
0.0000065853
0.0000078369
0.0000105195
-0.0000074491
0.0000094690
0.0000638668
0.0000242420
0.0000843063
-0.0000113671
0.0000094620
0.0000394447
-0.0000002360
-0.0000088358
0.0000305216
-0.0000150745
0.0000148551
0.0000015557
0.0000273939
-0.0000074050
-0.0000070546
-0.0000125326
0.0000053160
-0.0000060721
0.0000534966
0.0000171834
-0.0000144122
0.0000189226
0.0000723181
-0.0000005813
-0.0000072297
0.0000169140
0.0000105415
0.0000215032
0.0000348688
-0.0000133241
0.0000106342
0.0000047354
0.0000348966
0.0000802265
-0.0000112302
-0.0000148725
0.0000471221
0.0000141468
0.0000219576
0.0000050984
0.0000645713
0.0000275134
-0.0000048313
0.0001083710
-0.0000030368
-0.0000060475
0.0000187411
0.0000200538
-0.0000123495
-0.0000136851
0.0000064242
0.0000793701
-0.0000019603
-0.0000043157
0.0000406251
0.0000557309
0.0000193587
-0.0000033705
0.0000066368
-0.0000062069
-0.0000066039
0.0000419883
0.0000753659
0.0000280724
0.0000370606
-0.0000095798
0.0000143517
-0.0000107406
-0.0000107081
0.0000197204
-0.0000068093
0.0000011658
0.0000006825
0.0000127661
0.0000016839
-0.0000023158
0.0000066030
0.0000178911
-0.0000026663
0.0000008843
0.0000000327
0.0000117553
-0.0000151897
0.0000218002
0.0000097127
0.0000407734
-0.0000111602
-0.0000051774
0.0000460612
0.0000508314
-0.0000048513
0.0000134682
-0.0000110863
-0.0000145101
-0.0000005727
-0.0000137874
-0.0000013529
-0.0000061245
-0.0000124007
-0.0000145815
-0.0000139351
0.0000010795
0.0000434220
0.0000472150
0.0000841313
0.0000171989
0.0000092170
0.0000288578
-0.0000097161
0.0000258001
-0.0000093372
-0.0000108512
-0.0000007538
0.0000194006
0.0000106585
0.0000087093
0.0000294201
0.0000085558
-0.0000083382
0.0000486982
-0.0000112704
0.0000055813
-0.0000047903
-0.0000016850
-0.0000013126
0.0000101764
0.0000332025
-0.0000073563
0.0000461091
-0.0000073431
0.0000047123
0.0000229220
0.0000019748
0.0000073699
-0.0000135563
0.0000311130
0.0000662802
-0.0000071529
0.0000412686
-0.0000097753
0.0000261383
0.0000326923
0.0000023082
0.0000082484
0.0000030858
0.0001065117
-0.0000117398
-0.0000055435
0.0000435238
-0.0000107001
-0.0000099610
0.0000106319
0.0000191907
-0.0000090888
0.0000280942
0.0000144455
0.0000028414
0.0000418911
-0.0000094224
-0.0000119967
-0.0000063462
0.0000321322
0.0000093370
0.0000078205
0.0000243187
-0.0000147330
-0.0000096478
0.0000185593
0.0000292183
0.0000505436
-0.0000070241
0.0000041600
0.0000060213
-0.0000097869
-0.0000151808
-0.0000142312
0.0000186647
0.0000018162
-0.0000126994
0.0000041801
0.0000027794
0.0001196769
-0.0000011210
0.0000038033
0.0000012138
-0.0000098246
0.0000202968
-0.0000146394
-0.0000014000
-0.0000050534
0.0000195625
0.0000880882
-0.0000008532
0.0000045341
0.0000251019
0.0000012525
-0.0000009509
0.0000229426
0.0000666806
0.0000087367
0.0000031174
0.0000069568
-0.0000134976
0.0000693598
0.0000355816
0.0000220278
0.0000022473
-0.0000048383
0.0000589976
-0.0000005197
0.0000067263
0.0000208776
0.0000315958
-0.0000114330
0.0000564814
0.0000339796
0.0000146342
-0.0000122530
0.0000279037
-0.0000017554
0.0000142925
0.0000613215
0.0000161282
-0.0000127522
0.0000875800
0.0000614894
-0.0000036270
0.0000069518
0.0000033581
-0.0000026514
0.0000191728
-0.0000017158
-0.0000013528
0.0000221358
-0.0000116220
0.0000193447
-0.0000097291
0.0000668887
-0.0000036400
0.0000044496
-0.0000108677
-0.0000045742
-0.0000045709
0.0000314405
0.0000022687
0.0000413877
0.0000117271
-0.0000112415
0.0000417521
0.0000723622
0.0000221779
0.0000181878
0.0000402591
-0.0000013017
0.0000399838
0.0000121345
0.0000597276
0.0000231797
0.0000001211
-0.0000062170
0.0000298008
0.0000278070
-0.0000148431
0.0000303052
-0.0000115419
0.0000743803
0.0000200818
0.0000145061
-0.0000068760
-0.0000148241
-0.0000036179
0.0000358544
-0.0000139104
0.0000154059
0.0000106464
-0.0000139634
-0.0000018701
-0.0000140325
0.0000551303
0.0000206843
0.0000937538
0.0000225610
0.0000317201
0.0000095457
0.0000046439
-0.0000054454
0.0000669354
0.0000079413
-0.0000009167
0.0000061494
0.0000092196
0.0000279258
-0.0000120617
-0.0000075138
0.0000151332
0.0000565069
0.0000143174
0.0000348195
-0.0000151238
0.0000502632
0.0000530884
0.0000003683
0.0000068598
0.0000171006
-0.0000149481
0.0000273747
0.0000864314
0.0000335476
0.0000467303
0.0000087839
0.0001081574
0.0000187370
-0.0000013219
0.0000340299
0.0000804879
-0.0000142786
0.0001452529
-0.0000086154
-0.0000064456
-0.0000137391
-0.0000067534
-0.0000096940
0.0000024659
-0.0000006418
-0.0000108096
0.0000173509
0.0000043812
-0.0000007104
0.0000083981
-0.0000140671
0.0000183850
0.0000415190
-0.0000083345
0.0000003595
0.0000835482
0.0000237520
-0.0000036974
-0.0000105111
-0.0000014286
-0.0000024382
0.0000057501
0.0000711365
-0.0000002969
0.0000538073
-0.0000135340
-0.0000030912
-0.0000079198
0.0000090722
0.0000122765
-0.0000099979
-0.0000085478
-0.0000052754
-0.0000107305
0.0000012780
-0.0000091313
0.0000054961
0.0000268037
0.0000867920
0.0000083212
0.0000425069
0.0000522739
-0.0000145030
0.0000027290
0.0000573105
0.0000390392
-0.0000126814
0.0000023950
-0.0000023268
-0.0000142708
0.0000136286
0.0000067367
0.0000202944
-0.0000135563
0.0000225866
0.0001261878
0.0000115546
0.0001183184
0.0000735402
0.0000104482
0.0000770353
-0.0000041514
0.0000029863
-0.0000066115
-0.0000018286
0.0000408575
0.0000041796
0.0000151102
0.0000580626
0.0000155957
0.0000014399
0.0000255579
0.0000247170
0.0000119725
0.0000071387
-0.0000124709
0.0000093904
0.0000512987
0.0000069839
0.0000796735
0.0000221754
-0.0000140981
-0.0000134554
0.0000255349
0.0000063377
-0.0000052710
0.0000791180
0.0000033369
0.0000167641
0.0000033470
0.0000148287
0.0000100826
0.0000318105
0.0000214430
0.0000052199
0.0000008496
0.0000074064
0.0000348102
0.0000136204
0.0000446335
0.0000177323
-0.0000126460
-0.0000065842
0.0000527910
-0.0000021164
-0.0000117088
0.0000200758
0.0000259432
-0.0000083024
-0.0000048547
0.0000047417
0.0000210050
0.0000078426
0.0000497041
0.0000264073
-0.0000080487
0.0000042746
0.0000010591
-0.0000064663
0.0000123526
0.0000458367
0.0000046240
-0.0000132273
-0.0000022536
-0.0000065263
-0.0000092265
-0.0000135198
0.0000621736
-0.0000127603
0.0000012006
0.0000094105
-0.0000135035
-0.0000020000
0.0000691195
0.0000062576
-0.0000060069
0.0000110385
0.0000103141
0.0000200429
-0.0000054976
-0.0000132368
-0.0000069547
0.0000236606
0.0000711983
-0.0000054601
-0.0000146227
-0.0000117001
0.0000171788
0.0000467482
-0.0000090377
0.0000025249
0.0000284246
-0.0000135170
0.0000435847
-0.0000030349
0.0000185063
0.0000267540
0.0000694179
-0.0000061463
-0.0000113379
0.0000286221
0.0000850941
-0.0000052562
-0.0000114372
-0.0000133024
0.0000141582
-0.0000115985
0.0000081434
-0.0000142572
-0.0000140057
0.0000432147
0.0000057837
0.0000621716
0.0000265474
-0.0000126216
0.0000062831
0.0000123028
-0.0000124265
0.0000067257
-0.0000132560
-0.0000152518
-0.0000069063
0.0000123929
0.0000304099
0.0000219629
0.0000767502
-0.0000039350
-0.0000095513
-0.0000075792
-0.0000035499
0.0000457471
0.0000431900
-0.0000054198
0.0000103493
0.0000043708
0.0000667913
-0.0000142531
-0.0000053208
0.0000395313
-0.0000127930
-0.0000060311
-0.0000080876
0.0000735350
-0.0000093538
0.0000321673
0.0000024993
0.0000462641
0.0000548215
0.0000677134
0.0000219773
-0.0000149688
-0.0000140612
-0.0000099404
-0.0000149293
0.0000093942
0.0000369821
0.0000026313
0.0000870283
-0.0000138310
0.0001538402
0.0000204869
0.0000028737
0.0000118777
0.0000723017
0.0000096783
0.0000015765
0.0000090835
-0.0000117622
0.0000023841
-0.0000033367
0.0000040536
0.0000577163
-0.0000140731
0.0000028829
0.0000248949
0.0000160020
-0.0000010208
-0.0000049257
-0.0000112610
-0.0000123040
-0.0000130566
-0.0000092876
0.0000191707
0.0000013939
-0.0000012741
0.0000082029
0.0000461461
0.0000093066
0.0000178115
0.0000187394
-0.0000007364
0.0000997890
0.0000067063
-0.0000132418
0.0000197156
0.0000489311
-0.0000018322
0.0000308034
0.0000014799
0.0000374590
0.0000084465
-0.0000063173
0.0000050731
-0.0000069655
0.0000303191
-0.0000126846
0.0000506178
0.0000070017
-0.0000142724
0.0000103046
0.0000133087
0.0000037390
0.0000705733
0.0000275230
-0.0000033870
-0.0000014823
0.0000104094
-0.0000057961
-0.0000105831
-0.0000129772
-0.0000090217
-0.0000034209
0.0000624115
0.0000132610
0.0000273746
-0.0000140654
0.0000247198
0.0000108603
-0.0000075227
0.0000115331
-0.0000085616
-0.0000137735
-0.0000063233
0.0000110966
0.0000225778
-0.0000111874
-0.0000152426
0.0000199177
0.0000096028
0.0000036430
0.0000016956
0.0000198068
-0.0000122341
-0.0000027410
0.0000080617
-0.0000147834
-0.0000135145
0.0000258996
0.0000345860
0.0000342942
0.0002119182
0.0001030450
0.0000113361
0.0000127905
0.0000300796
-0.0000019409
0.0000451421
-0.0000084494
-0.0000129504
0.0000106250
-0.0000112938
0.0000348203
0.0000233630
0.0000077515
-0.0000074939
0.0000306510
-0.0000024479
-0.0000061993
0.0000098168
0.0000224901
0.0000062316
0.0000101565
0.0000107594
-0.0000111818
0.0000168763
0.0000012837
-0.0000111367
-0.0000128253
0.0000135366
-0.0000121947
0.0000541834
-0.0000045986
0.0000079002
0.0000513315
0.0000195944
-0.0000102033
-0.0000119447
-0.0000114617
0.0000092707
0.0000250614
-0.0000114060
0.0000123305
-0.0000028485
0.0000006013
-0.0000029071
-0.0000150326
0.0000129092
0.0000028743
-0.0000076194
-0.0000143280
-0.0000148397
0.0000160528
-0.0000101216
-0.0000057140
0.0000191707
-0.0000109367
-0.0000064876
-0.0000079408
-0.0000067767
0.0000321816
-0.0000092920
0.0000042839
-0.0000050625
0.0000111288
-0.0000143995
-0.0000098246
0.0000009107
0.0000054232
0.0000109468
0.0000181370
0.0000067457
0.0000080510
0.0000595284
0.0000363387
0.0000067336
0.0000060052
0.0000075024
-0.0000133975
-0.0000067751
0.0000120218
0.0001509413
0.0000170927
-0.0000125734
-0.0000007818
0.0000281684
0.0000391204
-0.0000015376
-0.0000073565
-0.0000144318
-0.0000074519
0.0000209582
0.0000365972
-0.0000148816
0.0000464030
-0.0000093221
-0.0000142102
-0.0000143679
0.0000203883
0.0001389572
0.0000051535
-0.0000061302
-0.0000090067
-0.0000032321
-0.0000135057
0.0000102396
0.0000998935
0.0000074535
-0.0000064788
0.0000005049
0.0000623375
0.0000123135
0.0000010642
-0.0000094312
-0.0000085777
-0.0000034821
0.0000135255
0.0000592782
0.0001351520
0.0000309416
0.0000160536
0.0001013421
0.0000117919
-0.0000107403
-0.0000001911
-0.0000079747
0.0000077082
0.0001180099
0.0000050272
0.0000388785
0.0000439826
0.0000873060
-0.0000067067
-0.0000044718
0.0000857504
-0.0000123297
0.0000057773
0.0000239605
-0.0000088999
-0.0000100673
-0.0000075084
0.0000374094
0.0000673920
0.0001255195
0.0000550698
0.0000899893
-0.0000117014
0.0000080130
-0.0000121576
0.0000317899
0.0000023906
0.0000841426
0.0000390209
0.0000248621
-0.0000079465
0.0000804857
-0.0000081768
0.0000315358
0.0000336914
0.0000221725
0.0000275495
-0.0000103957
0.0000194265
0.0000009782
0.0000639288
-0.0000089389
0.0000143351
-0.0000072859
0.0000327847
0.0000193543
0.0000397680
0.0000110665
-0.0000123905
0.0001270101
0.0000484959
0.0000529394
-0.0000105454
0.0000555429
0.0000005804
0.0000257059
0.0000105389
0.0001039883
-0.0000128289
0.0000355993
0.0000272726
0.0000284174
0.0000097519
-0.0000108105
0.0000080986
-0.0000075893
0.0000001086
0.0000057802
0.0000196030
-0.0000071245
0.0000177323
0.0000670065
0.0000058362
0.0000128216
-0.0000146668
0.0000235065
-0.0000047097
0.0000000753
0.0000052831
0.0000230635
-0.0000056197
-0.0000033534
0.0000331813
-0.0000005734
-0.0000072922
-0.0000106371
-0.0000045865
0.0000696372
0.0000280101
-0.0000028938
-0.0000100010
0.0000603091
0.0000626079
0.0000152226
-0.0000112605
0.0000063240
-0.0000151217
0.0000070165
0.0000517213
0.0000304099
-0.0000083935
0.0000294139
-0.0000124971
0.0000150922
-0.0000042115
0.0000373378
-0.0000139448
0.0000592472
0.0000111336
-0.0000138961
-0.0000029280
-0.0000072415
-0.0000142177
0.0000050917
0.0000476364
0.0000253816
0.0000548308
-0.0000074132
0.0000127272
0.0000010618
0.0000200642
-0.0000025283
0.0000556868
0.0000066175
-0.0000012195
0.0000316863
0.0000333240
0.0000153986
0.0000049677
0.0000029358
0.0000391293
-0.0000093069
-0.0000009572
0.0001310607
0.0000358519
0.0000454673
0.0000255195
-0.0000058699
0.0000726098
0.0000367580
0.0000019823
0.0000148670
0.0000286577
-0.0000139962
-0.0000113696
0.0000020474
0.0000039430
0.0000178271
0.0000504440
-0.0000007047
0.0000332681
0.0000862201
0.0000207724
-0.0000142470
0.0000647805
-0.0000144883
-0.0000137836
0.0000266111
0.0000509833
0.0000084870
0.0000277696
0.0000376144
-0.0000023804
0.0000571340
0.0000156882
-0.0000051399
-0.0000100077
-0.0000097384
-0.0000134322
-0.0000044772
0.0000366523
0.0000075703
0.0000361089
0.0000700631
0.0000423327
-0.0000106887
-0.0000134766
0.0000174178
0.0000307871
-0.0000144135
-0.0000053463
0.0000854909
0.0000127163
0.0000336207
-0.0000136242
-0.0000091164
-0.0000113003
-0.0000135942
0.0000190885
-0.0000074159
0.0000315547
0.0000389115
0.0000423008
-0.0000058059
-0.0000076068
0.0000366743
0.0000136124
-0.0000089710
-0.0000056414
-0.0000150096
0.0000871139
-0.0000117260
-0.0000050801
0.0000136291
-0.0000008792
0.0000048970
-0.0000049120
0.0000167275
0.0000502079
0.0000272760
0.0000096479
0.0000811252
0.0000108555
-0.0000014391
0.0000478636
0.0000011518
-0.0000139394
0.0000022943
0.0000533598
-0.0000042296
-0.0000131801
0.0000128866
-0.0000034792
0.0000499020
0.0000251699
0.0000133730
0.0000123294
0.0000035641
-0.0000129195
-0.0000134775
0.0000021719
-0.0000006293
-0.0000027784
0.0000284584
-0.0000137943
0.0000012911
0.0000260626
0.0001540695
0.0000657324
0.0000038835
0.0000175278
0.0002005908
-0.0000114284
0.0000167340
-0.0000116912
0.0000551763
-0.0000142702
0.0000062907
-0.0000101119
0.0000373841
0.0001237400
0.0000241039
0.0000127978
-0.0000022868
-0.0000136083
-0.0000152120
-0.0000121434
-0.0000127192
0.0000553049
0.0000457832
-0.0000063886
0.0000175163
0.0000120369
0.0000191907
0.0000037481
0.0000129065
0.0000378552
0.0000102805
0.0000595347
0.0000456323
-0.0000147650
0.0000260772
0.0000236776
-0.0000142044
-0.0000000741
-0.0000043193
-0.0000016632
0.0000759526
0.0000183039
0.0000117467
0.0000135766
0.0000572102
-0.0000116318
0.0000092434
0.0000228687
0.0000544786
0.0000133970
0.0000091132
-0.0000023468
-0.0000149364
0.0000250359
0.0000247361
0.0000014048
-0.0000002221
-0.0000017374
0.0000180455
0.0000197616
0.0000178644
0.0000513719
0.0000113821
0.0000054957
0.0000068107
0.0000211792
-0.0000130710
0.0000478009
0.0000064796
-0.0000116585
-0.0000068697
0.0000043299
0.0000027039
-0.0000101013
-0.0000070845
0.0000021979
0.0000114872
-0.0000086042
-0.0000108519
0.0000206981
-0.0000033005
-0.0000102144
-0.0000139375
-0.0000060590
0.0000144878
0.0000420491
-0.0000044810
0.0000521152
0.0000309876
-0.0000038439
-0.0000035187
-0.0000090214
-0.0000135821
0.0000312556
0.0000178416
0.0000278813
0.0000811341
-0.0000004235
0.0000218086
0.0000544687
-0.0000094264
0.0000414846
0.0000100177
0.0000075857
0.0000089896
-0.0000049947
-0.0000115182
-0.0000133293
-0.0000039068
0.0000001123
0.0000069953
0.0000171207
0.0000025093
0.0000030131
0.0000018502
0.0000340980
-0.0000071255
-0.0000131902
0.0000007338
0.0000228500
-0.0000100215
0.0000089599
0.0000087698
-0.0000130193
-0.0000068186
-0.0000102062
0.0000017805
0.0000341786
0.0000540585
-0.0000119864
0.0000512959
-0.0000075844
-0.0000000756
0.0000019402
0.0000306921
-0.0000124971
-0.0000131941
0.0000397603
0.0000385016
0.0000391971
-0.0000000377
0.0000232205
-0.0000136749
-0.0000092627
-0.0000093965
-0.0000092663
0.0000183840
-0.0000101455
0.0000078035
0.0000151315
0.0000435735
0.0000259634
0.0000406817
0.0000035115
0.0000022941
-0.0000113369
0.0000479820
-0.0000005314
0.0000320239
0.0000193793
0.0000098258
0.0000384566
-0.0000004827
0.0000090490
0.0000370291
-0.0000067993
-0.0000002116
0.0000763276
0.0000373985
0.0000275141
-0.0000143115
-0.0000099654
0.0000194444
0.0000249644
0.0000716560
-0.0000142721
-0.0000075567
-0.0000118929
0.0000242062
0.0000475589
-0.0000053986
0.0000861268
-0.0000143766
0.0000074437
0.0000837731
-0.0000099798
-0.0000151396
-0.0000027982
0.0000147389
0.0000582894
-0.0000110440
-0.0000051852
0.0000248235
-0.0000074549
-0.0000062450
-0.0000105574
0.0000153128
-0.0000056416
-0.0000071614
-0.0000122749
-0.0000041137
-0.0000116200
0.0000064579
-0.0000134252
0.0000155364
-0.0000131236
-0.0000054991
0.0000336490
0.0000345849
0.0000107402
-0.0000068322
-0.0000122162
0.0000131567
-0.0000061807
0.0000070942
0.0000373677
0.0000142538
-0.0000120305
-0.0000100005
-0.0000012994
0.0000042693
0.0000050671
0.0000198151
0.0000071745
0.0000197600
-0.0000102696
0.0000682418
-0.0000047704
-0.0000108064
-0.0000148220
0.0000297478
-0.0000089515
-0.0000146824
0.0000466057
0.0000257069
0.0001623643
0.0000139968
0.0000116192
0.0000047926
-0.0000056647
-0.0000047369
-0.0000107450
0.0000207672
0.0000141023
0.0000515486
0.0000044385
0.0000150132
-0.0000043510
0.0000074618
0.0000489029
0.0000096060
0.0000611064
0.0000086350
-0.0000060608
0.0000345981
-0.0000069409
0.0000289827
-0.0000031755
0.0000092260
-0.0000004129
0.0000079570
0.0001286406
-0.0000014172
0.0000247280
0.0000147152
0.0000321504
0.0000392505
0.0000956929
-0.0000090615
0.0000016038
0.0000516615
-0.0000057762
0.0000315501
-0.0000007353
0.0000187890
-0.0000131588
0.0000049194
0.0000159532
-0.0000099337
0.0000018907
0.0000145597
0.0000395992
0.0000232226
-0.0000132970
-0.0000099350
-0.0000025670
0.0000089969
-0.0000042387
-0.0000015645
-0.0000070725
0.0000276189
0.0000546408
0.0000014587
0.0000136583
-0.0000130111
0.0000162927
0.0000208866
-0.0000130191
-0.0000087320
0.0000085266
-0.0000090836
-0.0000068446
-0.0000058018
-0.0000083951
0.0000018270
-0.0000099784
0.0000094160
0.0000088286
-0.0000082743
0.0000135774
-0.0000108378
0.0000231029
-0.0000141285
0.0000338669
0.0000072855
0.0000128685
-0.0000037364
0.0000154779
0.0000537936
0.0000116119
-0.0000047631
0.0000074880
0.0000670686
-0.0000039756
-0.0000145810
0.0000759439
0.0000031550
0.0000523927
0.0000213811
0.0000907550
-0.0000123006
-0.0000141924
-0.0000104454
-0.0000096267
-0.0000051368
0.0000217193
0.0000832695
0.0000133897
0.0000927828
0.0000060815
0.0000092589
0.0000146409
0.0000257831
-0.0000088113
0.0000490528
0.0000163366
-0.0000005669
-0.0000070986
0.0000328607
0.0000620756
-0.0000014415
-0.0000039271
-0.0000127128
-0.0000065361
-0.0000082014
0.0000091205
0.0000298277
0.0000612829
0.0000273217
0.0000520698
0.0000529707
-0.0000141452
0.0000316849
0.0000425800
-0.0000106327
0.0000065534
-0.0000061435
0.0000406706
0.0001016725
-0.0000043941
0.0000522220
0.0000240501
0.0000200881
-0.0000148249
0.0000049952
-0.0000117979
-0.0000005147
0.0000127166
0.0000039628
-0.0000055490
0.0000021457
-0.0000095339
0.0000225793
-0.0000018291
0.0000366520
-0.0000059808
0.0000450556
-0.0000015100
0.0000059564
0.0000195148
0.0000139068
-0.0000069050
-0.0000026423
-0.0000067441
-0.0000149500
0.0000994617
-0.0000045761
0.0000715483
0.0000018851
0.0000197495
-0.0000065683
0.0000008306
0.0000228624
-0.0000039267
0.0000262074
-0.0000145685
-0.0000034173
0.0000012925
0.0000246581
0.0000320728
0.0000486936
-0.0000071924
0.0000380787
0.0000736760
0.0000798882
-0.0000017596
-0.0000072013
0.0000221552
-0.0000133491
-0.0000077135
0.0000037597
0.0000318092
0.0000416212
0.0000379644
0.0000063001
-0.0000039176
0.0000594521
-0.0000062341
-0.0000100506
-0.0000135713
0.0000400376
0.0000177522
0.0000470060
0.0000213789
-0.0000129835
0.0000364642
-0.0000137241
0.0000008008
-0.0000080974
-0.0000130251
-0.0000026398
0.0000105045
0.0000118905
-0.0000102074
0.0000074960
0.0001038975
-0.0000132642
-0.0000141903
0.0000006411
0.0001033814
0.0000136943
-0.0000134821
-0.0000148467
-0.0000095895
-0.0000024517
0.0000387576
0.0000007879
0.0000195319
-0.0000045171
0.0000584953
0.0000402289
0.0000005356
0.0000154616
-0.0000079865
-0.0000059571
-0.0000148879
0.0001051787
-0.0000048935
-0.0000119511
-0.0000002757
-0.0000085801
0.0001025303
0.0000092446
0.0000099068
-0.0000046793
-0.0000049842
0.0000289409
0.0000174336
-0.0000134819
-0.0000104961
0.0000163458
0.0000070061
0.0000072341
0.0000251275
0.0000161012
0.0000758780
0.0000117782
-0.0000065384
0.0000288334
0.0000555040
-0.0000056831
0.0001451347
-0.0000054194
0.0000113713
-0.0000003885
0.0000809734
0.0001012468
0.0000458594
0.0000154106
0.0000065328
-0.0000028931
0.0000555047
0.0000098500
-0.0000074949
0.0000934160
-0.0000143184
0.0000070119
-0.0000013704
-0.0000143547
-0.0000147708
0.0000004794
0.0000009419
-0.0000040844
0.0000125864
0.0000649960
-0.0000065158
0.0001237751
-0.0000134630
-0.0000102338
0.0000029057
0.0000409234
0.0000596258
0.0000283346
0.0000566688
0.0001081890
-0.0000114629
-0.0000028285
-0.0000067601
-0.0000054433
0.0000314126
-0.0000128028
0.0000397943
-0.0000125847
-0.0000076021
0.0000440154
-0.0000140174
-0.0000137431
0.0000068810
0.0000190631
0.0000069646
0.0000082809
0.0000098445
-0.0000062081
0.0000185905
0.0000051849
0.0000237336
0.0000150317
-0.0000088777
0.0000120820
-0.0000142530
-0.0000151095
0.0000983991
0.0000137981
0.0000643736
-0.0000145920
0.0000207074
-0.0000073551
-0.0000134600
0.0000540138
-0.0000037777
0.0000040832
0.0000079167
-0.0000124125
-0.0000068568
-0.0000097648
0.0000680702
-0.0000135357
0.0000061355
0.0000162343
0.0000182587
0.0000639976
-0.0000102544
0.0000237914
-0.0000112085
0.0000142950
-0.0000108273
0.0000530446
0.0000259850
-0.0000017969
0.0000089311
0.0000076717
-0.0000006691
0.0000085348
0.0000286810
0.0000105504
-0.0000144371
0.0000075759
-0.0000089192
0.0000127024
0.0000021612
0.0000142750
-0.0000103219
0.0000851550
0.0000008143
0.0000536532
0.0000270660
-0.0000093354
-0.0000023972
-0.0000094337
-0.0000039887
0.0000037659
-0.0000063836
0.0000082574
-0.0000101700
-0.0000001817
0.0000041423
0.0000138774
0.0000351374
0.0000697126
0.0000083143
-0.0000096274
-0.0000050686
0.0000050738
0.0000113521
-0.0000090059
-0.0000055237
-0.0000027633
0.0000741197
0.0000260347
-0.0000116738
0.0000343197
0.0000464515
0.0000319977
0.0000170297
0.0000081253
-0.0000142697
0.0000397193
-0.0000112169
-0.0000022284
-0.0000055791
-0.0000055610
-0.0000070895
0.0000197258
0.0000256500
0.0000998281
0.0000938258
0.0000559443
-0.0000100748
0.0000128558
0.0000348926
0.0000548509
0.0000238886
0.0000031219
-0.0000124917
0.0000239425
-0.0000126774
0.0000111431
0.0000101025
0.0000231310
0.0000009089
0.0000165563
0.0000713061
0.0000106296
-0.0000150185
0.0000104285
0.0000544607
-0.0000114458
-0.0000043417
0.0000589771
0.0000738710
0.0000084041
0.0000511349
0.0000425192
-0.0000119639
0.0000468382
-0.0000139249
0.0000566308
0.0000398661
-0.0000138805
-0.0000051407
0.0000020850
-0.0000067522
0.0000852026
0.0000288932
-0.0000098981
-0.0000069645
-0.0000043069
-0.0000132920
0.0000338312
0.0000899143
0.0000147436
-0.0000130649
-0.0000046955
-0.0000003179
0.0000004640
-0.0000071842
0.0001117477
0.0000134639
0.0000246763
0.0000838246
-0.0000094828
-0.0000091308
0.0000037091
0.0000169371
-0.0000043839
0.0000071688
-0.0000151788
-0.0000128201
0.0000344780
-0.0000083611
-0.0000106515
-0.0000030661
0.0000083628
-0.0000116707
0.0000328326
-0.0000008388
-0.0000036833
0.0000451722
0.0001386719
0.0000611679
0.0000573384
0.0000146855
0.0000185391
0.0000129300
0.0000000578
-0.0000103697
0.0000026247
0.0000178913
0.0000007246
0.0000425934
-0.0000035130
0.0000000390
0.0000092963
0.0000387409
0.0000767062
0.0000879258
0.0000501026
0.0000076324
-0.0000057718
-0.0000064832
0.0000471315
-0.0000101910
-0.0000140049
0.0000432562
-0.0000106591
0.0000352054
0.0000428268
-0.0000093446
0.0000856582
0.0000768046
-0.0000083920
-0.0000092552
-0.0000072704
0.0000311128
0.0000014348
0.0000108524
0.0000023482
0.0000538101
0.0000654127
0.0000715951
-0.0000038955
-0.0000134608
-0.0000025319
-0.0000071941
-0.0000027209
-0.0000030551
-0.0000128273
0.0000320154
0.0000390387
0.0000302209
-0.0000069032
0.0000316670
0.0000002671
0.0000118517
-0.0000119430
0.0000470157
0.0000464659
0.0000223519
-0.0000087268
-0.0000027232
-0.0000019253
0.0000079823
0.0000638199
-0.0000030130
0.0000195756
0.0000164547
-0.0000124388
-0.0000122616
0.0000405112
0.0000112992
-0.0000096340
-0.0000113151
-0.0000081908
0.0000543625
-0.0000144177
-0.0000003238
0.0000333798
-0.0000002011
-0.0000071007
-0.0000127061
-0.0000105162
-0.0000096587
0.0000388621
0.0000131102
0.0000281088
0.0000220661
-0.0000051800
0.0000822323
0.0000519295
0.0000140944
-0.0000130977
0.0000326620
0.0000314766
0.0000744209
-0.0000108264
-0.0000140870
-0.0000079143
0.0000638557
0.0000895758
0.0000198730
0.0000802342
0.0000516349
0.0000228894
-0.0000134319
0.0000102749
0.0000109627
-0.0000065999
-0.0000055137
-0.0000124628
-0.0000104452
-0.0000101627
0.0000133406
0.0000223944
-0.0000093561
0.0000166719
0.0000240510
-0.0000046216
0.0000410081
0.0001074131
-0.0000027426
0.0000414471
-0.0000071272
0.0000122285
0.0000526767
-0.0000002135
0.0000416254
0.0000067385
0.0000134712
-0.0000045811
-0.0000044729
0.0000413297
-0.0000056999
0.0000638682
-0.0000077901
-0.0000084140
0.0000614269
0.0000578542
0.0000166558
0.0000019408
-0.0000075581
-0.0000112651
-0.0000118171
0.0000234966
0.0000082379
0.0000098492
0.0000264368
0.0000098201
0.0000322888
0.0001181756
0.0000008890
0.0000082096
0.0000907883
0.0000417180
0.0001060642
0.0000131721
0.0000198612
-0.0000139819
0.0000786452
0.0000757801
0.0000534587
-0.0000124546
0.0000200728
0.0000253601
-0.0000150988
-0.0000145290
0.0000142407
-0.0000142677
-0.0000046958
0.0000678558
0.0000207760
-0.0000105510
0.0000251782
0.0000114909
0.0000186518
-0.0000058491
0.0000242381
0.0000367315
-0.0000019019
0.0000196716
0.0000380018
0.0000260433
0.0000761616
0.0000287332
-0.0000046979
0.0000962138
-0.0000045768
0.0000404864
0.0000022346
-0.0000051445
0.0000355548
0.0000779332
0.0000212397
0.0000079756
0.0000372851
0.0000150296
0.0000446653
0.0000141516
-0.0000123782
0.0000135192
-0.0000121915
-0.0000072869
0.0000073469
0.0000199965
0.0000330178
0.0000027624
-0.0000057160
-0.0000124948
0.0000041366
-0.0000026020
-0.0000113869
-0.0000007570
0.0000193652
0.0000258205
0.0000092557
0.0000073777
0.0000114073
-0.0000115921
-0.0000128533
-0.0000109074
-0.0000145454
0.0000286610
0.0000055266
-0.0000144506
0.0000092173
0.0000286411
0.0000125702
0.0000690432
-0.0000107867
0.0000464876
0.0000371434
-0.0000110791
-0.0000122317
-0.0000095327
0.0000982277
-0.0000068662
0.0000126341
-0.0000016556
0.0000555108
-0.0000141381
0.0000830856
0.0000947312
-0.0000135862
0.0000198283
0.0000387400
0.0000384088
0.0000178775
0.0000497702
0.0000079168
-0.0000011063
0.0000386408
-0.0000024136
0.0000105235
-0.0000034887
-0.0000097227
-0.0000090616
0.0000082656
0.0000488670
-0.0000065112
0.0000404074
0.0000021641
0.0000118104
0.0000051499
-0.0000077290
-0.0000014359
0.0000480349
0.0000248430
0.0000058689
0.0000159951
-0.0000133515
0.0000280772
-0.0000053459
0.0000296138
-0.0000041484
0.0000852134
0.0000284293
0.0000159242
-0.0000081055
0.0000633698
0.0000106828
-0.0000130790
-0.0000008675
-0.0000151584
-0.0000104775
0.0000009213
0.0000060870
0.0000298974
-0.0000119772
0.0000203731
-0.0000039879
0.0000062129
0.0000058917
-0.0000150474
-0.0000103850
0.0000049118
0.0000155578
0.0000168744
0.0000000996
-0.0000074958
0.0000033522
0.0000787598
0.0000175014
-0.0000079111
-0.0000016067
-0.0000090518
-0.0000035281
0.0000539426
-0.0000024876
-0.0000139484
0.0000260449
-0.0000134192
-0.0000142256
0.0000299433
-0.0000036306
-0.0000064562
-0.0000144804
0.0000019548
-0.0000124880
-0.0000048180
0.0000056599
-0.0000122022
0.0000925690
0.0000262809
0.0000018765
0.0000553239
0.0000401846
0.0000216357
0.0000374724
0.0000145528
0.0000678258
0.0001311537
0.0000583402
0.0000085173
-0.0000072001
-0.0000029934
0.0000854762
0.0000712987
0.0000695112
-0.0000092827
0.0000041098
0.0000320842
0.0000738937
0.0000052628
0.0000544672
0.0000686624
0.0000221105
0.0000322719
0.0000269386
0.0000174933
-0.0000120984
-0.0000096718
-0.0000055341
0.0000408169
0.0000432420
0.0000690149
-0.0000091553
0.0000450416
-0.0000072238
0.0000011772
0.0000261613
0.0000931112
-0.0000042165
0.0000181225
0.0000235793
-0.0000113804
0.0000369675
0.0001399455
0.0000063744
-0.0000086168
0.0000032227
-0.0000001965
0.0000623958
0.0000449692
-0.0000146078
0.0000117147
-0.0000125999
0.0000265551
0.0000032328
0.0000402880
-0.0000121309
0.0000443414
-0.0000145193
0.0000073301
0.0000531593
-0.0000140279
-0.0000069018
0.0000057123
-0.0000044630
0.0000302649
0.0000232788
-0.0000097708
0.0000368410
-0.0000011155
-0.0000026136
0.0000720613
0.0000085321
0.0000055258
0.0000511492
0.0000500457
-0.0000077460
-0.0000118920
-0.0000053283
-0.0000066822
0.0000103804
-0.0000042199
0.0000034655
0.0000048568
0.0000266110
-0.0000030387
0.0000457693
-0.0000138362
0.0000086362
-0.0000090196
0.0000179576
0.0000740112
-0.0000136238
0.0000131874
0.0000104799
-0.0000009736
0.0000592446
-0.0000094647
0.0000376467
-0.0000148909
-0.0000026882
0.0000377439
0.0000369190
0.0000054738
-0.0000013300
-0.0000051027
0.0000139962
0.0000394953
0.0000276334
-0.0000071331
-0.0000105835
-0.0000117103
0.0000677360
-0.0000094796
-0.0000104049
-0.0000134231
0.0000594373
-0.0000107987
0.0000061183
-0.0000071319
-0.0000113160
0.0000760089
0.0000155706
0.0000062970
0.0000016536
0.0000127492
0.0000246196
0.0000147475
0.0000158642
0.0000038812
-0.0000151390
-0.0000138321
0.0000090577
-0.0000145813
-0.0000142946
0.0000095511
-0.0000117606
0.0000317583
0.0000016397
0.0000689872
0.0000531300
0.0000533504
-0.0000068466
-0.0000064727
0.0000568482
0.0000026282
0.0000034274
0.0000546878
-0.0000053845
-0.0000090142
-0.0000065062
0.0000301754
0.0000049133
0.0000405946
-0.0000113478
0.0000474495
-0.0000083165
0.0000025943
0.0000741924
-0.0000147767
0.0000016810
-0.0000086992
-0.0000097945
0.0000183962
0.0000385666
-0.0000130733
-0.0000133547
-0.0000026695
0.0000014089
0.0000875749
-0.0000042211
-0.0000098760
0.0000025799
-0.0000101416
-0.0000004374
0.0000029938
0.0000547681
-0.0000038226
-0.0000018700
0.0001052177
0.0000377695
-0.0000114819
0.0000084173
0.0000460130
0.0000472856
0.0000062373
-0.0000051672
-0.0000124955
0.0000071783
-0.0000025610
0.0000821138
-0.0000115538
0.0000153240
0.0000224616
-0.0000090221
-0.0000035105
0.0000859339
-0.0000128470
0.0000012921
0.0000710268
0.0000652951
0.0000105182
-0.0000123915
-0.0000046716
-0.0000071651
0.0000102003
0.0000562144
0.0000393529
0.0000090628
0.0000024775
-0.0000151780
0.0000216662
-0.0000030283
0.0000084122
0.0000045523
-0.0000083278
0.0000145560
-0.0000125776
0.0000604444
0.0001497758
-0.0000115145
-0.0000135987
0.0000037322
-0.0000078424
0.0000227115
0.0000076809
-0.0000079876
0.0000066947
0.0000004574
0.0000087245
0.0000599995
0.0001298179
0.0000354195
0.0000198174
-0.0000035826
0.0000715105
0.0000314456
0.0000066563
-0.0000082404
0.0000439167
-0.0000049606
0.0000582396
-0.0000099014
0.0001040382
0.0000054928
0.0000493833
0.0000008952
0.0000001344
0.0000220324
0.0000327055
0.0000205548
-0.0000128064
0.0000059236
0.0000704122
0.0000199249
0.0000171002
-0.0000067603
0.0000089734
0.0000111710
0.0001217680
0.0000384849
0.0000196127
0.0000454376
0.0000271324
-0.0000054513
0.0000046628
-0.0000002419
0.0000885257
-0.0000016364
0.0000022797
-0.0000091222
0.0000483894
0.0000563420
0.0000340159
0.0000109856
-0.0000079846
0.0000049929
-0.0000034256
-0.0000151831
0.0000131838
0.0000173015
0.0000017181
0.0000063331
-0.0000148521
-0.0000091994
-0.0000023663
0.0001037191
0.0000439253
0.0000488628
-0.0000113047
0.0000307089
0.0000290089
0.0000004821
-0.0000128753
-0.0000048454
0.0000208216
0.0000325029
-0.0000117231
0.0000266758
0.0000100746
0.0000163859
0.0000485613
0.0000443240
-0.0000127928
0.0000075086
0.0000034992
-0.0000144862
0.0000274046
-0.0000141838
0.0000043078
-0.0000078624
0.0000547871
0.0000164718
-0.0000134869
0.0000176391
0.0000086511
-0.0000032507
-0.0000059244
0.0000221385
0.0000517287
-0.0000025475
0.0000014092
0.0000132194
0.0001169653
-0.0000028648
-0.0000148904
0.0000068972
0.0000950940
-0.0000082847
-0.0000120298
0.0002607057
0.0000113627
-0.0000134681
-0.0000087175
-0.0000113329
0.0000238995
0.0000175571
0.0000034723
-0.0000058473
0.0000033658
0.0000135012
-0.0000112442
0.0000950098
0.0000520380
-0.0000102807
-0.0000125292
0.0000475469
-0.0000003169
0.0000108036
0.0000236019
0.0000843453
-0.0000127608
0.0000098302
0.0000582796
0.0000004354
0.0000426792
-0.0000022388
0.0000242407
0.0000097266
0.0000057329
0.0000255043
-0.0000051442
-0.0000130770
-0.0000110041
0.0000339523
0.0000124181
-0.0000146489
-0.0000068720
0.0000054910
0.0000230829
0.0000404739
0.0000477553
-0.0000115235
-0.0000018617
-0.0000151887
-0.0000023147
-0.0000062898
-0.0000138636
0.0000316864
0.0000178779
0.0000318389
0.0000059039
0.0000312760
-0.0000023445
-0.0000075308
0.0000436741
-0.0000006256
0.0000108321
-0.0000118966
0.0000103086
-0.0000041453
-0.0000150997
-0.0000026062
0.0000330006
-0.0000064764
0.0000052160
-0.0000078569
0.0000158078
-0.0000043806
0.0000576372
-0.0000129523
0.0000165461
0.0000104572
0.0000061165
0.0000339111
0.0000968957
0.0000363027
-0.0000033129
0.0000537174
0.0000021408
0.0000210617
0.0000193173
0.0000047124
0.0000473009
0.0000490235
-0.0000013189
0.0000016564
-0.0000089890
0.0000166452
0.0000111337
-0.0000024875
-0.0000119439
0.0000215955
-0.0000053806
0.0000004638
-0.0000093218
0.0000191985
0.0000354887
-0.0000050871
-0.0000007829
-0.0000151614
0.0000561212
-0.0000105908
0.0000196565
0.0000011301
0.0000144414
-0.0000018631
-0.0000107909
0.0000003726
0.0000104287
0.0000197451
0.0000963227
-0.0000099023
0.0000434157
-0.0000134366
0.0000658825
-0.0000029839
0.0000399043
0.0000093240
0.0000020796
-0.0000119466
-0.0000148621
0.0000682488
0.0000031946
0.0000399574
0.0000366909
-0.0000129245
-0.0000150322
0.0000344584
-0.0000048532
0.0001109189
0.0000520816
0.0000208607
0.0000001421
-0.0000147385
-0.0000014064
0.0000115792
0.0000126036
0.0000712060
0.0000641719
-0.0000021384
0.0000509187
0.0000565473
-0.0000005866
0.0000164139
-0.0000070753
0.0000294197
0.0000233704
0.0000359636
0.0000160806
0.0000925569
0.0000353525
0.0000153256
-0.0000056644
0.0000233966
0.0000105492
0.0000336674
0.0000000408
0.0000383429
-0.0000149752
0.0000310195
0.0000160458
0.0000703485
0.0000019971
0.0000119362
0.0000186469
0.0000185824
-0.0000012193
0.0000141851
0.0000514188
0.0000488703
0.0000287729
0.0000453291
0.0000019476
-0.0000046467
0.0000677640
-0.0000089122
0.0000350394
-0.0000144399
0.0000361515
-0.0000104414
0.0000261572
-0.0000081022
-0.0000117251
-0.0000151857
0.0000021416
0.0000395566
0.0000354361
0.0000023879
0.0000115309
-0.0000149959
0.0000028180
0.0000162864
0.0000138409
0.0000058683
0.0000401098
0.0000517744
0.0000994149
-0.0000145797
-0.0000011868
0.0000362236
0.0000142095
-0.0000084215
0.0000129284
-0.0000052131
0.0000241631
0.0000026842
-0.0000084384
0.0000121776
0.0000711644
0.0000630189
-0.0000030493
0.0000113110
0.0000380914
-0.0000089494
-0.0000074118
0.0000514883
0.0000044092
-0.0000016777
-0.0000012734
0.0000096930
0.0000156246
0.0000323406
0.0000240204
0.0000061981
-0.0000041246
0.0000280181
0.0000586697
-0.0000011143
-0.0000030920
-0.0000121057
0.0000058133
-0.0000093086
-0.0000066176
-0.0000134215
-0.0000042962
0.0000473998
-0.0000006835
-0.0000078796
-0.0000011133
0.0000866255
-0.0000136212
-0.0000117763
-0.0000134163
-0.0000034591
-0.0000003733
-0.0000139444
-0.0000150995
-0.0000031146
-0.0000074162
0.0000010682
-0.0000062292
0.0000149720
0.0000175698
0.0000328793
-0.0000048499
-0.0000126598
0.0000554501
0.0000495371
-0.0000006582
-0.0000113764
0.0000001004
-0.0000025036
-0.0000142743
-0.0000095663
0.0000182116
0.0000034615
-0.0000001402
0.0000373758
-0.0000064437
-0.0000111021
0.0000071335
-0.0000002027
-0.0000068983
-0.0000132319
-0.0000053983
-0.0000038186
-0.0000059948
-0.0000039913
0.0000018293
0.0000772840
0.0000166745
0.0000902466
-0.0000108699
-0.0000035552
0.0000018749
0.0000170573
0.0000306524
-0.0000028420
0.0000172523
0.0000035524
0.0000051615
0.0000194348
-0.0000042216
0.0000365262
0.0000227342
-0.0000027813
0.0000618933
0.0000076091
-0.0000024926
0.0000219964
0.0000527648
0.0000258520
0.0000533127
0.0000604291
0.0000260471
-0.0000046008
-0.0000145695
-0.0000118819
-0.0000027711
0.0000074659
0.0000074485
0.0000349790
-0.0000027867
0.0000419823
0.0000212376
0.0000130528
0.0000016180
-0.0000123009
-0.0000124751
0.0000449388
0.0000071394
-0.0000139416
-0.0000054927
-0.0000099877
0.0000147585
-0.0000019069
0.0000066369
-0.0000096957
-0.0000112433
-0.0000127841
-0.0000002549
-0.0000031133
-0.0000116904
-0.0000073218
0.0000883935
-0.0000045987
-0.0000011831
-0.0000025058
0.0000356501
0.0000117108
0.0000094842
-0.0000113323
0.0000785483
-0.0000073719
-0.0000065593
0.0000051965
0.0000212970
-0.0000066828
0.0000042977
0.0000023859
0.0000103572
0.0000043889
0.0000260437
0.0000364834
-0.0000093880
0.0000230360
-0.0000028985
-0.0000139923
-0.0000137522
0.0000388564
-0.0000128320
-0.0000056986
0.0000036828
0.0000368222
0.0000018741
0.0000043703
0.0000164467
0.0000074843
-0.0000001603
0.0000046435
-0.0000047872
0.0000285846
0.0000977037
-0.0000018443
0.0000478898
-0.0000047610
-0.0000068200
0.0000465110
0.0000214546
0.0000186894
0.0000105091
-0.0000116807
0.0000161171
0.0000516570
0.0000436271
-0.0000047470
0.0000414078
-0.0000090816
-0.0000122006
-0.0000005503
-0.0000118497
0.0000119146
0.0000165546
0.0000187620
0.0000080156
0.0000394120
0.0000146661
-0.0000002197
0.0000005319
-0.0000104964
-0.0000144719
-0.0000066902
0.0000008460
0.0000242491
0.0000493206
0.0000230999
0.0000218372
-0.0000031404
-0.0000016315
0.0001726111
-0.0000071375
0.0000244497
0.0000149568
-0.0000091792
-0.0000120571
0.0001066347
-0.0000050632
-0.0000136293
0.0000862906
0.0000944589
-0.0000028178
-0.0000105347
0.0000526579
0.0000440174
0.0000691641
-0.0000023467
0.0000084469
-0.0000079408
0.0000047098
-0.0000069851
-0.0000086377
0.0000621974
0.0000592941
0.0000358120
0.0000157793
-0.0000101174
0.0000579690
-0.0000069403
0.0000258854
0.0000088026
-0.0000124712
-0.0000139634
0.0000294573
-0.0000135658
0.0000034103
0.0000063148
-0.0000136779
-0.0000136736
0.0000445351
0.0000162404
0.0000289794
0.0000474360
0.0001904663
0.0000443079
0.0000032991
-0.0000145150
-0.0000096215
-0.0000061281
-0.0000109086
-0.0000075753
0.0000289205
0.0000109240
0.0000296898
0.0000245604
0.0000023899
-0.0000127345
0.0000674466
0.0000168720
-0.0000045537
0.0000099098
-0.0000142675
0.0000176442
0.0000194604
-0.0000059029
-0.0000106059
-0.0000105517
0.0000337087
0.0000187843
-0.0000007463
0.0000346123
-0.0000015303
-0.0000129721
0.0000299185
-0.0000061053
0.0000644861
-0.0000140039
0.0001376452
-0.0000043386
-0.0000056472
-0.0000074148
0.0000887811
0.0000283097
-0.0000142352
0.0000080221
0.0000018962
0.0000273727
-0.0000076791
0.0000036787
0.0000493293
0.0000052143
-0.0000142448
0.0000875852
0.0000276781
0.0000010554
0.0000289546
0.0000541640
0.0000981165
-0.0000034497
0.0000518363
0.0000028297
-0.0000150422
-0.0000094263
0.0000116172
-0.0000147379
-0.0000140239
-0.0000054509
0.0000065288
-0.0000149964
0.0000245706
-0.0000063012
-0.0000021912
0.0000076718
0.0000942624
0.0000633205
0.0000248562
0.0000180832
0.0000299163
-0.0000035135
-0.0000146163
0.0000425633
0.0000423222
-0.0000013969
-0.0000042965
0.0000030177
-0.0000046524
-0.0000073532
0.0000388601
-0.0000048669
0.0000144227
-0.0000142274
0.0000292838
0.0000091042
-0.0000120287
-0.0000114976
-0.0000037595
0.0000611870
0.0000238037
-0.0000059064
-0.0000103398
0.0000257171
0.0000399093
-0.0000095149
0.0000016121
-0.0000089982
0.0000716707
0.0000219154
0.0000235731
-0.0000014692
-0.0000004453
0.0000153741
-0.0000136246
0.0000054239
0.0000320267
0.0000192079
-0.0000014827
-0.0000070094
-0.0000074351
0.0000558304
0.0000074799
0.0000256710
0.0000152334
0.0000434682
-0.0000091756
0.0000034428
0.0000118323
-0.0000044849
-0.0000079071
0.0000137084
0.0000041607
-0.0000139785
0.0000171597
0.0000098857
0.0000616948
-0.0000027069
-0.0000119603
0.0000104095
0.0000162231
0.0000204852
0.0000352932
-0.0000148960
0.0000236217
0.0000125443
-0.0000006800
0.0000047344
0.0000154348
-0.0000123120
-0.0000147097
0.0000505265
-0.0000144410
0.0000914777
0.0000525774
-0.0000149779
-0.0000089167
0.0000035891
0.0000569169
0.0000130516
-0.0000090889
0.0000051052
-0.0000102958
-0.0000107312
-0.0000023043
0.0000517798
-0.0000003891
0.0000065320
0.0000071798
0.0000581838
0.0000273286
0.0000099720
-0.0000059973
0.0000297126
0.0000083306
0.0000384495
0.0000021115
-0.0000107723
0.0000359779
0.0000081855
0.0000230742
-0.0000035641
-0.0000026548
0.0000585860
0.0000333780
-0.0000039219
0.0000492090
-0.0000148085
0.0000051491
-0.0000104412
-0.0000076538
-0.0000133475
0.0000617674
0.0000182490
0.0000154045
0.0000196053
-0.0000093160
0.0000525392
0.0000208230
-0.0000104898
0.0000148834
-0.0000130665
0.0000101790
-0.0000143215
0.0000195764
0.0000093131
0.0000003167
0.0000278156
0.0000254389
0.0000147316
-0.0000035189
0.0000170648
-0.0000018319
-0.0000049780
0.0000168975
-0.0000131397
-0.0000010390
-0.0000022129
0.0000014103
0.0000134351
-0.0000042877
-0.0000106965
-0.0000040699
-0.0000149668
0.0000073980
0.0000397572
0.0000027655
0.0000078703
0.0000298100
0.0000143590
-0.0000052847
0.0000279749
0.0000183549
-0.0000052691
-0.0000081303
-0.0000106087
-0.0000086740
0.0000542467
0.0000125940
0.0000098722
-0.0000124201
0.0000171309
-0.0000013597
0.0000503487
-0.0000113427
0.0000154747
-0.0000050538
-0.0000121488
0.0000533028
0.0000159412
0.0000100405
0.0000336470
-0.0000053893
-0.0000131931
0.0000500639
-0.0000099965
0.0000807696
-0.0000142173
-0.0000134436
-0.0000061851
0.0000364474
0.0000191729
0.0000258251
0.0000011602
-0.0000056725
-0.0000108001
0.0000059965
0.0000033038
-0.0000079469
0.0000020346
-0.0000057945
0.0000271942
-0.0000150342
-0.0000029469
-0.0000030071
0.0000243300
-0.0000057572
0.0000481804
0.0000304202
0.0000060908
-0.0000039327
-0.0000075231
0.0000110605
0.0000170301
-0.0000014419
0.0000108646
0.0000509829
-0.0000081036
0.0000255309
-0.0000068811
-0.0000076658
0.0000387670
-0.0000000974
-0.0000027885
-0.0000109902
0.0000062472
-0.0000141455
0.0000189909
0.0000087314
0.0000146081
0.0000036742
-0.0000080066
0.0000063574
-0.0000016859
0.0000413240
0.0000456875
0.0000053177
0.0000340441
0.0000205618
-0.0000122176
-0.0000134297
0.0000821574
0.0000012983
0.0000577321
0.0000211727
0.0000035370
-0.0000066222
-0.0000031339
0.0000158750
0.0000392166
0.0000693382
0.0000171199
0.0000336419
0.0000061990
0.0000115113
-0.0000044050
0.0000148567
-0.0000094734
-0.0000141636
0.0000116096
0.0000131415
0.0000250368
0.0001071119
0.0000019154
0.0000287432
0.0000440202
0.0000378942
0.0000362327
0.0000548020
0.0000187079
-0.0000084260
-0.0000109820
0.0000024192
-0.0000070947
0.0000402478
0.0000033048
0.0000908832
0.0000491515
0.0000157174
0.0000203007
0.0000157202
0.0000186550
0.0000653956
0.0000261358
-0.0000123484
-0.0000132694
0.0000774134
0.0000298813
0.0000212576
0.0000079502
-0.0000115666
0.0000034594
-0.0000132841
0.0000107446
-0.0000043999
0.0000034421
0.0000117592
0.0000293930
0.0000018458
-0.0000148491
-0.0000074965
-0.0000088137
0.0000212056
0.0000539674
0.0000316520
0.0000078752
0.0000297337
0.0000398520
0.0000037189
0.0000069960
-0.0000146694
-0.0000016262
-0.0000110525
0.0000668172
-0.0000037559
0.0000248275
0.0000055188
0.0000381552
0.0000096769
0.0000341969
0.0000273699
0.0000255005
0.0000081706
-0.0000092736
0.0000600012
0.0000015750
0.0000065755
0.0000078148
0.0000951993
0.0000013483
0.0000018761
0.0000264379
0.0000300763
-0.0000102158
0.0000061098
0.0000218798
0.0000217891
0.0000188789
-0.0000119984
0.0000001059
-0.0000123128
0.0000638703
-0.0000012472
-0.0000046832
0.0000223845
-0.0000142308
-0.0000044996
-0.0000124698
-0.0000005822
-0.0000037351
0.0000059006
0.0000168620
-0.0000045078
0.0000067854
0.0000211154
0.0000086271
-0.0000059514
0.0000242796
0.0000274360
-0.0000070548
-0.0000083017
0.0000151558
0.0000421483
0.0000421587
0.0000191138
0.0000008613
0.0000153795
-0.0000129256
-0.0000047209
0.0000277213
0.0000729749
0.0000154183
-0.0000075209
-0.0000083258
-0.0000151208
0.0000118366
0.0000184976
0.0000079515
-0.0000143805
0.0000062093
0.0000913543
0.0001101150
-0.0000117051
0.0000942332
0.0000667150
-0.0000101651
0.0000137012
0.0000400013
0.0000028662
0.0000000689
0.0000391852
-0.0000067453
-0.0000012564
-0.0000013126
0.0000034620
0.0000245900
-0.0000032096
0.0000095481
0.0000162201
-0.0000135728
0.0000231673
-0.0000127169
0.0000014794
0.0000211268
-0.0000103283
0.0000007108
0.0000226900
0.0000577203
0.0000038590
-0.0000130501
0.0000019401
-0.0000069428
-0.0000091150
0.0000133464
-0.0000054717
0.0000184736
0.0000094720
0.0000752269
0.0000220106
0.0000368046
0.0000086318
-0.0000109408
-0.0000070260
0.0000245819
-0.0000086351
0.0000022079
0.0000114068
0.0000324076
-0.0000050676
-0.0000118308
0.0000130890
0.0000016628
-0.0000083281
0.0000217677
0.0000388256
0.0000092816
-0.0000038475
0.0000180990
0.0000090714
-0.0000139685
-0.0000104441
0.0000098918
0.0000182122
-0.0000128985
0.0000046037
0.0000072535
-0.0000062747
0.0000177050
-0.0000058532
-0.0000011223
0.0000088608
0.0000264325
0.0000544876
0.0002279694
-0.0000036444
-0.0000104391
-0.0000006094
-0.0000111364
0.0000059673
0.0000424924
0.0000036584
0.0000505692
0.0000131092
0.0000589585
0.0000441460
-0.0000081106
-0.0000086756
-0.0000132327
-0.0000132629
-0.0000007471
0.0001100837
0.0001707622
-0.0000146245
0.0000504139
0.0000236295
-0.0000061181
0.0000862230
-0.0000123762
0.0000144116
0.0000572047
0.0000047361
-0.0000008274
-0.0000135042
0.0000478050
0.0000082142
0.0000074542
-0.0000139808
-0.0000136526
-0.0000011196
0.0000044534
0.0000112694
0.0000820946
-0.0000005947
0.0000488456
0.0000043173
0.0000066684
0.0001291420
-0.0000092197
0.0000055229
0.0000383115
-0.0000078021
0.0000286409
0.0000335052
0.0000019675
-0.0000131238
0.0000613332
-0.0000034168
0.0000175798
-0.0000112571
0.0000449302
-0.0000019985
0.0001230471
-0.0000150210
-0.0000096824
0.0000379049
0.0000049638
0.0000894838
0.0000126038
0.0000017273
0.0000037261
-0.0000063175
0.0000229398
0.0000223076
-0.0000144468
0.0000720197
0.0000844454
0.0000046406
-0.0000014031
-0.0000099993
-0.0000011330
-0.0000006681
0.0000800375
0.0000014987
-0.0000097428
0.0000414748
0.0000160333
-0.0000095812
0.0000121686
0.0000085229
0.0000074834
-0.0000065462
0.0000447534
0.0000119656
0.0000436232
0.0000293597
0.0000052701
0.0000066391
-0.0000115879
-0.0000032405
0.0000626461
0.0001362619
-0.0000014543
0.0000072754
0.0000052089
-0.0000092728
0.0002188752
-0.0000008967
-0.0000125905
-0.0000075686
-0.0000126117
0.0000289082
0.0000440628
-0.0000145503
0.0000487037
0.0000222643
-0.0000036888
-0.0000143411
0.0000030031
0.0000475149
0.0000019587
0.0000023880
0.0000194381
0.0000060990
-0.0000073604
-0.0000066793
-0.0000021629
-0.0000133912
0.0000275041
0.0000157092
0.0000095961
-0.0000088708
-0.0000059767
0.0000131363
-0.0000021152
-0.0000047049
0.0000056124
-0.0000117795
-0.0000090591
-0.0000098655
0.0000876450
0.0002511800
0.0000011316
-0.0000041457
0.0000201578
-0.0000119025
-0.0000076644
0.0000685424
-0.0000029070
-0.0000018025
-0.0000092185
-0.0000067361
-0.0000086125
-0.0000148318
0.0000492791
-0.0000121109
0.0000061372
-0.0000113943
0.0000103101
0.0000633532
0.0000075850
0.0000230250
0.0000268254
-0.0000148433
-0.0000041068
0.0000290075
0.0000239940
-0.0000034508
0.0000238064
0.0000067953
-0.0000034161
0.0000009203
0.0000410424
-0.0000068895
0.0000063848
-0.0000071831
-0.0000027544
0.0000394604
-0.0000002242
0.0000062364
-0.0000041843
-0.0000114910
0.0000556657
-0.0000130661
-0.0000103725
0.0000481704
0.0000080417
-0.0000134815
-0.0000077746
-0.0000137006
-0.0000127282
0.0000013894
0.0000104669
0.0000196945
-0.0000092625
-0.0000141443
-0.0000116883
0.0000236921
0.0000452641
0.0000899954
0.0000424840
0.0000147941
-0.0000035287
0.0000112211
-0.0000138351
-0.0000149032
0.0000950004
0.0000037133
-0.0000065580
-0.0000083100
0.0000138620
0.0000049797
0.0000143055
-0.0000074882
0.0000754395
0.0000358434
0.0000124381
0.0000001293
0.0000123197
0.0000111930
-0.0000099089
-0.0000070023
0.0000324659
-0.0000127603
0.0000680011
-0.0000066122
-0.0000057018
0.0000615426
0.0000053197
-0.0000133200
0.0000028469
-0.0000042701
0.0000050118
0.0000190066
0.0000305478
-0.0000141145
0.0000095384
0.0000497198
-0.0000027834
0.0000098695
-0.0000121457
-0.0000051246
0.0001182865
-0.0000015866
0.0000157745
-0.0000152336
0.0000178520
0.0000334905
0.0000004455
0.0000093247
0.0000308107
-0.0000078558
0.0000588208
-0.0000043740
0.0000603560
0.0000597174
0.0000538240
0.0000292379
0.0000120154
-0.0000015866
0.0000072698
-0.0000105017
0.0000334211
0.0000009222
0.0000420921
0.0000003062
0.0000320577
-0.0000092051
0.0000088197
0.0000081890
-0.0000080261
0.0000131915
-0.0000056619
-0.0000144157
-0.0000137886
-0.0000130621
0.0000666229
-0.0000136732
-0.0000118848
0.0000964856
0.0000230826
-0.0000138576
-0.0000089263
0.0000879438
0.0000103270
-0.0000106220
-0.0000094625
0.0000264308
-0.0000112463
-0.0000142298
0.0000205242
0.0000007968
0.0000243256
0.0000188524
0.0000564793
-0.0000139937
-0.0000105545
0.0000458304
0.0000192482
-0.0000056806
-0.0000101088
-0.0000040024
0.0000204389
0.0000174709
0.0000211760
0.0000725962
-0.0000117775
0.0000420882
0.0000053728
-0.0000042861
0.0000002592
0.0000041467
-0.0000069631
-0.0000030742
-0.0000132644
0.0000251248
0.0000260329
0.0000166397
-0.0000071839
0.0000711766
-0.0000137132
-0.0000011807
0.0000939987
0.0000564027
-0.0000129340
0.0000486187
-0.0000100596
0.0000171783
-0.0000118701
0.0001007455
-0.0000115967
0.0000683121
-0.0000150839
-0.0000072116
-0.0000140520
0.0000164385
0.0000048657
0.0000079739
0.0000066693
0.0000037980
0.0000161842
0.0000045824
0.0000288784
0.0000043245
0.0000215914
0.0000219527
-0.0000064499
0.0000246036
-0.0000027749
-0.0000130399
-0.0000083365
0.0000140820
0.0000010103
0.0000256027
0.0000232919
-0.0000103913
0.0000243789
0.0000125637
0.0000022556
0.0000105100
0.0000019117
0.0000015835
-0.0000073242
0.0000801007
0.0001107512
-0.0000101918
-0.0000039834
-0.0000136950
0.0000469678
0.0000038471
0.0000010056
-0.0000083188
0.0000072001
0.0000216537
-0.0000117874
0.0000831963
-0.0000115157
-0.0000000933
-0.0000145452
-0.0000026667
0.0001336347
-0.0000025850
0.0000072861
0.0000058558
0.0000410460
-0.0000072769
0.0000863134
0.0000412300
-0.0000073996
0.0000345842
0.0000093421
-0.0000149800
-0.0000141569
0.0000150766
-0.0000102070
0.0000038446
0.0000718379
0.0000161027
0.0001081411
-0.0000051875
0.0000147366
-0.0000007161
0.0000011314
0.0000105020
-0.0000122677
-0.0000075945
0.0000323142
0.0000115937
0.0000066282
0.0000475201
0.0000323283
0.0000243926
-0.0000044405
0.0000899880
0.0000193441
-0.0000062366
-0.0000109100
-0.0000022565
0.0000496785
-0.0000023508
0.0000482535
0.0000335117
0.0001155900
0.0000530188
0.0000032978
0.0000093239
0.0000009478
0.0000246929
0.0000064497
0.0000105811
0.0000419438
-0.0000021022
0.0000022142
0.0000042592
-0.0000043749
-0.0000001397
0.0000186934
0.0000347775
-0.0000047077
0.0000066877
0.0000260671
0.0000100574
0.0000233830
0.0000321314
0.0000682769
0.0000577627
0.0000143243
0.0000101110
0.0000496743
0.0000332078
0.0000534417
-0.0000112897
0.0000028584
-0.0000092079
0.0000249023
-0.0000077267
-0.0000131318
0.0000223723
0.0000418858
-0.0000131996
0.0000100601
-0.0000005262
0.0000088392
0.0000209794
0.0000085436
-0.0000017043
0.0000143789
-0.0000064135
0.0000236734
0.0000585064
-0.0000097207
-0.0000003817
0.0000240509
0.0000339212
0.0000149506
-0.0000094838
0.0001131039
-0.0000069706
-0.0000013983
0.0000224666
-0.0000072027
-0.0000062446
0.0000566839
0.0000528373
-0.0000073280
0.0000017793
-0.0000097047
0.0000127307
0.0000108605
-0.0000062946
0.0000106874
-0.0000101778
-0.0000075373
0.0000141162
0.0000403928
0.0000238627
0.0000021562
0.0000241857
0.0000264197
-0.0000141644
0.0000806197
0.0000019461
0.0000334877
-0.0000059800
0.0001269943
0.0000162175
0.0000461015
0.0000304774
-0.0000105769
0.0000101221
0.0000932700
-0.0000136030
0.0000449810
0.0000462229
0.0000232685
-0.0000092941
-0.0000136880
0.0000489576
0.0000386784
0.0000438380
-0.0000122974
-0.0000125834
-0.0000109774
0.0000560152
-0.0000016849
-0.0000139995
-0.0000124332
0.0000480012
0.0000181226
-0.0000103556
0.0000101522
0.0000103945
0.0000240117
0.0000456290
0.0000141306
0.0000342123
0.0000147469
0.0000275891
-0.0000140918
-0.0000079717
0.0000313497
0.0000198566
0.0000346594
0.0000147852
-0.0000119208
-0.0000067201
0.0000115824
0.0000298771
-0.0000129877
0.0000201024
0.0000139735
-0.0000134421
0.0000114484
-0.0000073291
-0.0000146313
-0.0000110331
-0.0000130421
-0.0000118952
-0.0000028760
-0.0000112594
0.0000021633
0.0000017734
0.0000046311
0.0000481658
0.0000393104
0.0000019170
-0.0000115291
-0.0000063226
-0.0000113340
0.0000066635
0.0000357695
0.0000018487
0.0000097884
0.0000022510
-0.0000075642
0.0000551026
0.0000464061
-0.0000071077
0.0000104565
-0.0000009117
-0.0000120651
-0.0000150016
0.0000209174
0.0000536182
0.0000512016
0.0000665662
-0.0000101263
-0.0000133207
0.0000279023
0.0000038043
-0.0000108509
0.0000047232
0.0000041099
0.0000138089
0.0000053805
0.0000849360
-0.0000150646
-0.0000041230
0.0000112240
0.0000698555
0.0000161749
0.0000483315
0.0000083938
0.0000358429
-0.0000113280
0.0000289656
0.0000126544
-0.0000097063
0.0000295629
-0.0000061165
0.0000450471
0.0000029679
0.0000009250
0.0000592626
0.0000513758
-0.0000064616
-0.0000045892
0.0000293417
0.0000305130
0.0000049674
0.0000546785
0.0000187737
0.0000441955
0.0000075606
0.0000088457
0.0000247815
0.0000016787
0.0000020793
0.0000202778
0.0000191741
-0.0000146591
-0.0000068141
0.0000419913
0.0000941791
-0.0000091202
-0.0000091442
-0.0000098858
0.0000276823
0.0000246454
0.0000123229
0.0000093926
-0.0000044143
0.0000125909
-0.0000112535
0.0000130358
0.0000204938
0.0000672540
-0.0000150726
0.0000451063
0.0000197630
0.0000355653
0.0000528047
-0.0000122125
-0.0000127621
0.0000389461
0.0000155362
0.0000372298
0.0000524083
0.0000436116
-0.0000015410
0.0000023657
0.0000987249
-0.0000133021
0.0000460875
0.0000462259
0.0000300988
0.0000599740
-0.0000007058
-0.0000059342
0.0000399660
0.0000165503
0.0000299743
0.0000379892
0.0000113946
-0.0000117916
-0.0000124160
0.0000070359
-0.0000080186
0.0000646473
0.0000001491
-0.0000117117
0.0000712767
0.0000002112
0.0000077436
-0.0000126142
-0.0000030246
0.0001757855
0.0000609504
0.0000266584
0.0000346984
-0.0000094170
0.0000625654
0.0000011359
0.0000262046
-0.0000083049
0.0000935794
0.0000061176
0.0000151222
0.0000010137
-0.0000048362
-0.0000066026
0.0000079006
0.0000047323
-0.0000092803
0.0000888731
-0.0000078536
0.0000142111
0.0000172614
-0.0000141027
0.0000008041
0.0000138564
-0.0000115699
0.0000454512
0.0000383443
0.0000625659
-0.0000062939
0.0000151418
0.0000196652
-0.0000068305
-0.0000139771
0.0000171501
0.0000150388
-0.0000126648
-0.0000064062
-0.0000127324
0.0000345183
-0.0000121145
-0.0000023386
0.0000519644
0.0000030100
0.0000034270
0.0000055151
-0.0000135386
-0.0000040679
-0.0000126858
0.0000163693
-0.0000148896
-0.0000149393
-0.0000011429
0.0000105852
-0.0000092487
-0.0000109856
0.0000027625
-0.0000018269
-0.0000151356
-0.0000092001
0.0000119791
-0.0000072003
-0.0000085701
0.0000421452
0.0000329553
0.0000127642
-0.0000122854
0.0000157502
0.0000520956
0.0000350732
0.0000391783
-0.0000073886
0.0000034253
0.0000370677
-0.0000015582
-0.0000143467
-0.0000007463
0.0000261309
-0.0000121199
0.0000048667
-0.0000082078
0.0000046675
0.0000003968
0.0000425142
0.0000055556
0.0000319922
0.0000592206
0.0000034186
-0.0000075396
0.0000293482
0.0000228784
0.0001084287
-0.0000127788
0.0001351709
0.0000499587
-0.0000092314
-0.0000117643
0.0000186889
0.0000079362
-0.0000058031
0.0000186744
0.0000102785
0.0000065482
-0.0000074207
-0.0000119566
-0.0000132818
-0.0000100452
0.0000219983
0.0000732661
-0.0000070891
0.0001161832
0.0000232973
0.0000062535
0.0000112742
0.0000618832
0.0000359597
0.0000083845
-0.0000002738
0.0000364550
0.0000559431
-0.0000032042
-0.0000003634
0.0000203295
0.0000295222
0.0000225225
0.0000119048
-0.0000050543
0.0000150924
0.0000219779
-0.0000137485
-0.0000041041
-0.0000099818
-0.0000069005
0.0000681541
0.0000268318
0.0000055303
0.0000453022
0.0000212249
0.0000202773
-0.0000080662
0.0000207980
0.0000077565
0.0000431147
-0.0000019127
0.0000655028
-0.0000111951
-0.0000139235
0.0000029579
-0.0000091628
0.0000294511
-0.0000071343
0.0000077629
-0.0000018651
0.0000156034
0.0000370165
0.0000209376
0.0000032820
-0.0000020834
-0.0000037447
-0.0000103235
-0.0000048153
-0.0000114172
0.0000294505
0.0000953022
-0.0000074801
0.0000146064
-0.0000142284
0.0000079353
-0.0000119281
0.0000070450
0.0000158049
0.0000027644
0.0000053300
0.0000008663
0.0000669359
-0.0000093396
0.0000225077
-0.0000072868
0.0000673927
-0.0000127933
0.0000869099
0.0000071583
0.0000158450
-0.0000085105
-0.0000045273
0.0000027898
0.0000078543
0.0000153682
0.0000114240
-0.0000042984
0.0000237829
0.0000104544
-0.0000094129
0.0000492963
-0.0000042401
-0.0000094257
0.0001279659
-0.0000000261
0.0000047489
0.0000696201
-0.0000001886
-0.0000135503
-0.0000090826
-0.0000113335
0.0000002792
0.0000143404
-0.0000012111
0.0000000099
-0.0000035908
0.0000533781
-0.0000044505
0.0000125353
-0.0000138675
0.0000096539
0.0000051247
0.0000286943
0.0000021860
0.0000068262
-0.0000022624
0.0000005640
0.0000494775
-0.0000045552
-0.0000006486
-0.0000141811
0.0000052230
0.0000362496
0.0000086764
0.0000017275
-0.0000110277
-0.0000088572
0.0000104466
0.0000003569
-0.0000102505
-0.0000003894
-0.0000130699
0.0000139425
0.0000230516
-0.0000107824
0.0000243664
-0.0000145832
-0.0000021154
0.0000048988
0.0000347793
-0.0000152096
0.0000088820
0.0000671861
0.0000230462
0.0000089537
-0.0000035789
-0.0000147433
0.0000202338
-0.0000100485
-0.0000031972
-0.0000066990
0.0000011986
-0.0000001456
0.0001620110
-0.0000064293
0.0000085323
0.0000806640
-0.0000078041
0.0001615123
-0.0000151960
-0.0000029749
0.0000581601
0.0000306055
-0.0000052390
0.0000324112
-0.0000093778
-0.0000096344
0.0000376928
0.0000580359
0.0000070942
-0.0000138625
0.0000655272
-0.0000104721
-0.0000060232
0.0000423360
-0.0000028728
0.0000513798
0.0000031933
0.0000561585
-0.0000134079
0.0000387379
0.0000065276
-0.0000007831
0.0001385733
0.0000095487
-0.0000092070
0.0000513654
0.0000103888
0.0000088839
-0.0000048382
0.0000519276
-0.0000085349
0.0000199440
0.0000008179
0.0000166576
0.0000034370
0.0000630243
0.0000593204
0.0000187967
-0.0000142813
-0.0000147133
0.0000727216
0.0000383317
-0.0000030540
0.0000077561
-0.0000086921
0.0000125441
-0.0000082272
-0.0000086200
-0.0000129122
-0.0000101315
-0.0000118147
0.0000024391
0.0000239389
0.0000321307
0.0000170912
0.0000216720
0.0000483087
0.0000242304
0.0000351092
0.0000027234
-0.0000098650
0.0000475856
0.0000430134
0.0000067786
-0.0000024904
-0.0000078885
-0.0000060218
0.0000628692
-0.0000063382
-0.0000152191
-0.0000139773
-0.0000109518
0.0000092407
0.0000286919
-0.0000094862
-0.0000103805
-0.0000138045
0.0000894333
0.0000016876
0.0000166616
0.0000405795
-0.0000051395
0.0000067088
0.0000558323
-0.0000150304
0.0000775429
0.0000091580
0.0000081135
0.0000158521
0.0000129406
0.0000499797
0.0000473058
0.0000141746
0.0000014069
0.0000015921
0.0000206967
0.0000104999
-0.0000047997
0.0000376508
0.0001416044
-0.0000048866
-0.0000127530
0.0000222886
-0.0000118031
0.0000044905
-0.0000124458
0.0000215328
-0.0000050265
0.0000093126
0.0000235460
0.0000851950
-0.0000140477
-0.0000089632
-0.0000090311
0.0000580213
0.0000036125
-0.0000115580
0.0000166111
0.0000226169
-0.0000101794
-0.0000107095
0.0000207231
0.0000064160
-0.0000142872
-0.0000130836
0.0000096852
0.0000017500
-0.0000131662
0.0000485281
0.0000313797
0.0000311942
0.0000199894
-0.0000058880
-0.0000119914
0.0000227445
-0.0000020145
0.0000049925
-0.0000071166
0.0000370649
0.0000520960
0.0000126913
-0.0000138835
-0.0000130444
0.0000032999
0.0000318527
-0.0000151326
0.0000359420
0.0000573930
0.0000153654
0.0000500424
0.0000497011
-0.0000119345
-0.0000133076
-0.0000027733
-0.0000138592
0.0000245532
-0.0000150641
0.0000052026
0.0000010699
0.0000017746
-0.0000009417
0.0000350524
0.0000100577
0.0000235851
0.0000099693
0.0000095175
0.0000082775
-0.0000028703
-0.0000127685
-0.0000039815
0.0000109383
0.0000237796
-0.0000095748
0.0000144291
-0.0000118407
-0.0000075237
0.0000134834
0.0000011262
-0.0000100207
-0.0000044597
-0.0000073256
0.0000114632
-0.0000104853
-0.0000012820
-0.0000093866
-0.0000146696
0.0000168877
-0.0000120689
-0.0000098351
-0.0000096722
0.0000064660
0.0000184328
-0.0000071043
-0.0000041069
-0.0000136102
0.0000231296
-0.0000050445
-0.0000088725
-0.0000091672
0.0000006797
0.0000268946
-0.0000001468
0.0001121149
-0.0000117291
0.0000896614
-0.0000111175
-0.0000100432
-0.0000103460
0.0000298791
0.0000773066
-0.0000141020
0.0000016507
0.0000058007
0.0000227970
-0.0000101246
-0.0000133190
-0.0000148905
0.0000099908
0.0000066688
0.0000892452
0.0000547160
0.0000464534
-0.0000012757
0.0000228003
0.0000580596
0.0000728778
-0.0000073160
0.0000359829
0.0000386645
0.0000288863
-0.0000020059
0.0000223047
-0.0000003938
0.0001283892
0.0000602997
0.0000100601
-0.0000104272
0.0000033844
-0.0000077146
0.0000118531
-0.0000032678
-0.0000028962
0.0000339753
0.0000617839
0.0000216226
-0.0000123902
0.0000288583
-0.0000112788
0.0000297125
-0.0000083700
-0.0000040043
-0.0000056597
0.0000225029
0.0000388441
0.0000542472
-0.0000062283
-0.0000044277
-0.0000034590
0.0000010447
0.0000536055
0.0000221695
-0.0000129191
0.0000124758
0.0000022292
-0.0000102764
0.0000727170
0.0000014812
-0.0000059747
0.0000154236
0.0000250874
0.0000678754
-0.0000008525
0.0000514421
-0.0000135055
-0.0000113390
0.0000432460
0.0000161584
0.0000241386
-0.0000019972
0.0000367846
-0.0000095756
-0.0000036442
-0.0000102650
0.0000264990
0.0000090987
0.0000160562
-0.0000145727
0.0000050541
0.0000648977
-0.0000130797
0.0000157881
0.0000634606
-0.0000137632
0.0001142731
-0.0000099055
-0.0000029564
0.0000044545
0.0000203583
-0.0000047702
0.0000675144
0.0000013165
-0.0000136374
0.0000204334
0.0000154961
0.0000317961
-0.0000123984
0.0000229168
0.0000535909
-0.0000014241
-0.0000051804
0.0000321520
0.0000116928
-0.0000051894
-0.0000067755
0.0000266983
0.0000380596
-0.0000094581
-0.0000093265
0.0000149356
0.0000978675
-0.0000033096
0.0000300540
0.0000467909
-0.0000017790
-0.0000149995
0.0000075284
0.0000263693
0.0000102805
0.0000086528
0.0000130384
-0.0000086696
-0.0000126144
0.0000039623
0.0000074632
0.0000954121
-0.0000125129
0.0000042680
0.0000220117
-0.0000053326
0.0000136424
-0.0000132818
0.0000004649
0.0000328554
-0.0000087393
-0.0000082434
-0.0000000007
0.0000752827
0.0000284507
0.0000281557
0.0000053230
-0.0000104766
-0.0000133993
-0.0000110455
0.0000117568
0.0000149154
0.0000056894
-0.0000014996
-0.0000151017
0.0000233238
0.0000384288
0.0000101312
0.0000008491
0.0000120816
0.0000138499
0.0000516071
-0.0000075997
-0.0000011749
0.0000366846
-0.0000142794
0.0000398311
0.0000151914
-0.0000138195
0.0000200593
0.0000038967
0.0000258674
0.0000223160
-0.0000055045
0.0000118472
0.0000243220
0.0000106237
-0.0000029172
-0.0000011729
-0.0000058935
0.0000035671
-0.0000109990
-0.0000087307
0.0000579415
-0.0000088727
0.0000151016
0.0000172794
0.0000430924
-0.0000139629
0.0000851398
0.0000532619
0.0000014116
0.0000052221
-0.0000015202
0.0000603752
-0.0000054158
-0.0000121062
0.0000130069
-0.0000061966
0.0000778754
0.0000437221
-0.0000053099
0.0000304123
0.0000280482
0.0000366870
-0.0000138982
-0.0000018298
0.0000225524
0.0000059432
0.0000015296
0.0000587906
-0.0000002866
0.0000091196
-0.0000066430
0.0000047413
-0.0000128743
-0.0000114311
-0.0000067693
0.0000401720
0.0000156070
-0.0000094308
0.0000232751
0.0000504311
-0.0000055230
-0.0000028515
-0.0000084431
-0.0000008755
-0.0000030816
0.0000117974
0.0000166343
0.0000396971
0.0000070714
0.0000267978
0.0000592833
0.0000334749
0.0000183066
0.0000287305
0.0000110226
0.0000181608
-0.0000067327
-0.0000145627
0.0000001215
0.0001836643
-0.0000104981
-0.0000122851
0.0000452747
0.0000262774
0.0000563971
-0.0000074542
0.0000171689
0.0000727709
-0.0000016000
0.0000075821
-0.0000101713
-0.0000124049
0.0000328093
0.0000425366
0.0000230605
0.0000144480
0.0000126866
-0.0000024599
0.0000079717
0.0000591154
-0.0000110476
0.0000804570
-0.0000067732
-0.0000110318
-0.0000041798
0.0000171658
0.0000156389
0.0000586104
0.0000244684
-0.0000046491
0.0000093673
0.0000614043
0.0000427324
-0.0000131588
0.0000312062
0.0000163421
-0.0000112291
0.0000026434
0.0000598392
-0.0000117556
0.0000221941
0.0000154274
-0.0000131590
0.0000011109
0.0000500586
0.0000128985
-0.0000017587
0.0000444460
0.0000147128
0.0000297374
-0.0000146776
0.0000155223
-0.0000143652
0.0000042945
0.0000473742
0.0000983929
-0.0000045941
-0.0000097333
0.0000591530
0.0000176121
0.0000063744
-0.0000066654
0.0000456022
0.0000328093
-0.0000076741
-0.0000136555
-0.0000127323
-0.0000116587
0.0000463301
0.0000152901
-0.0000063169
0.0000066964
-0.0000084431
0.0001395058
-0.0000017952
-0.0000095745
-0.0000081275
0.0000732014
-0.0000056291
0.0000018230
0.0000367241
-0.0000027502
-0.0000002716
-0.0000126570
-0.0000084299
-0.0000100436
0.0000604656
-0.0000115651
-0.0000073058
0.0000603830
-0.0000108979
0.0000068689
-0.0000113584
-0.0000137867
-0.0000094895
-0.0000007107
-0.0000126638
0.0000978407
0.0000061981
-0.0000103719
0.0000261682
-0.0000147136
0.0000110603
0.0000152928
0.0000029106
-0.0000020908
-0.0000089464
-0.0000152552
0.0000038175
0.0000290261
-0.0000124226
-0.0000072685
0.0000383076
-0.0000107971
0.0000727544
0.0000025495
-0.0000052574
0.0000016926
-0.0000036906
0.0000277828
-0.0000115591
-0.0000141299
0.0000012319
-0.0000049027
0.0000458625
0.0000388077
0.0000234970
0.0000195263
-0.0000118613
0.0000312432
-0.0000119310
0.0000149578
-0.0000005722
0.0000309912
0.0000189723
-0.0000131663
-0.0000059974
0.0000016166
0.0000720580
0.0000084440
0.0000248014
0.0000595767
0.0000571567
0.0000433058
0.0000049339
-0.0000147383
0.0000567894
0.0000275044
0.0000363702
0.0000217775
-0.0000007879
-0.0000023679
-0.0000002326
-0.0000017133
-0.0000031279
0.0000377442
0.0000136535
-0.0000031736
0.0000127271
0.0000178670
0.0000819518
-0.0000149855
-0.0000119702
0.0000596622
-0.0000099792
-0.0000118579
-0.0000068713
-0.0000147813
-0.0000131429
0.0000755099
-0.0000008142
0.0000438610
0.0000295654
0.0000594137
-0.0000099955
0.0000101897
-0.0000113040
0.0000046448
-0.0000122453
0.0000346277
0.0000103841
-0.0000030969
0.0000536254
-0.0000020372
0.0000534315
0.0000470746
0.0000099686
0.0000015721
-0.0000076282
0.0000275080
0.0000757388
0.0000211169
0.0000153851
0.0000081684
0.0000136967
0.0000819440
-0.0000121702
0.0000101448
-0.0000119503
0.0000834144
0.0000007265
0.0000101158
0.0000609858
-0.0000104826
0.0000094338
0.0000156313
-0.0000129534
-0.0000112284
0.0000141345
-0.0000125580
-0.0000133804
0.0000486431
0.0000587866
0.0000394965
0.0000225820
0.0000211080
0.0000125150
0.0000399011
-0.0000124572
0.0000398723
-0.0000009883
0.0000331843
0.0000553553
0.0000408659
0.0000927359
-0.0000148062
-0.0000074094
0.0000411903
-0.0000127293
-0.0000023209
-0.0000118173
-0.0000145496
0.0000465392
0.0000096889
0.0000455453
-0.0000075057
0.0000078950
-0.0000074324
0.0000131668
0.0000407572
0.0000341455
-0.0000074726
-0.0000032305
0.0000152254
0.0000324174
-0.0000116278
0.0000196642
0.0000018651
0.0000313457
0.0000053476
0.0000360724
0.0000175209
-0.0000139714
-0.0000042353
0.0000194937
-0.0000060354
0.0000197786
0.0001144951
0.0000753078
-0.0000041922
-0.0000132135
0.0000591280
0.0000190444
-0.0000092480
0.0000096724
0.0000083630
-0.0000139076
-0.0000057212
0.0000220730
0.0000181724
-0.0000019981
-0.0000106604
0.0000054612
-0.0000042770
0.0000253469
-0.0000090082
-0.0000080238
0.0000165928
0.0000433825
-0.0000043741
0.0000132329
0.0000523223
0.0000043735
0.0000102557
0.0000959550
0.0000252034
-0.0000098078
-0.0000111478
-0.0000081637
0.0000638319
-0.0000009111
0.0000046511
0.0000205568
-0.0000101136
0.0001242470
-0.0000092722
-0.0000040520
-0.0000112248
0.0000347920
0.0000008395
-0.0000072009
0.0000119637
-0.0000012127
0.0000036890
0.0000010596
0.0000075777
-0.0000008364
0.0000322840
0.0000006214
0.0000016929
-0.0000086471
0.0000031447
0.0000351402
0.0000317292
0.0000298828
-0.0000042420
-0.0000130994
0.0000221582
0.0000214867
0.0000757093
0.0000277952
0.0000287614
-0.0000125669
-0.0000003108
-0.0000018246
0.0000078152
0.0000094156
0.0000268028
-0.0000035339
0.0000083801
-0.0000075938
-0.0000040569
0.0000369482
0.0000128925
0.0000015138
0.0000026861
0.0000076385
-0.0000104154
-0.0000063753
0.0000048693
-0.0000033176
-0.0000041434
0.0000089681
0.0000854493
0.0000711155
0.0000215938
0.0000102934
0.0001099333
0.0000196855
0.0000398816
-0.0000100636
0.0000297580
0.0000134108
0.0000268795
-0.0000044996
0.0000206763
-0.0000123059
0.0000307122
-0.0000118370
0.0000040462
0.0000000326
-0.0000082253
-0.0000092302
-0.0000135586
0.0000337193
0.0000001173
0.0000163609
0.0000008195
-0.0000115615
0.0000134982
-0.0000011844
0.0000899063
0.0000765074
0.0000059473
0.0000222346
-0.0000025880
0.0000532341
0.0000151252
-0.0000140028
-0.0000023443
-0.0000116743
-0.0000067679
-0.0000045408
0.0000861301
0.0000011241
0.0000006078
-0.0000072742
-0.0000022584
0.0000095045
0.0000394022
-0.0000116337
0.0000094608
0.0000376586
-0.0000074361
-0.0000068277
0.0000452717
-0.0000045110
-0.0000031841
0.0000073850
0.0000777906
0.0000462051
0.0000791788
0.0000053686
0.0000126429
-0.0000112619
-0.0000094944
-0.0000006403
0.0000007326
0.0000388350
-0.0000067480
0.0000066250
0.0000137256
0.0000976900
-0.0000042904
0.0000019121
0.0000073958
-0.0000125757
0.0000183840
0.0000220243
-0.0000118234
-0.0000049298
-0.0000098545
0.0000708322
-0.0000061048
-0.0000127448
0.0000654067
-0.0000134867
-0.0000118181
0.0000597782
-0.0000141755
-0.0000063714
-0.0000120445
-0.0000022376
0.0000135428
-0.0000148758
0.0000354565
-0.0000002681
0.0000139023
0.0000317711
-0.0000148762
-0.0000146532
-0.0000035221
0.0000622344
0.0000637560
0.0000165067
0.0000003760
-0.0000054356
0.0000085103
0.0000987462
-0.0000015267
0.0000374244
-0.0000146232
0.0000665472
0.0000099380
-0.0000059340
0.0000862267
0.0000103474
-0.0000131360
0.0000391798
0.0000185675
0.0001340065
0.0000037487
-0.0000141231
-0.0000038125
0.0000094347
-0.0000133166
0.0000128070
-0.0000126848
-0.0000135307
0.0000162806
-0.0000135453
-0.0000038070
0.0000295486
0.0000019579
0.0000302234
-0.0000025352
-0.0000126750
-0.0000040921
0.0000153544
0.0000254799
-0.0000145626
0.0000555915
0.0001540520
-0.0000092700
0.0000627133
0.0000525302
0.0000997310
0.0000459273
-0.0000101200
0.0000250161
0.0000019284
0.0000053531
0.0000342758
-0.0000060564
0.0000207731
0.0000167625
0.0000141280
0.0000254002
0.0000173112
0.0000528354
-0.0000035689
0.0000260487
-0.0000094244
-0.0000071608
0.0000484278
-0.0000003795
0.0000003961
-0.0000025988
0.0000076486
0.0000436172
-0.0000056742
0.0000293303
0.0000303455
0.0000191818
-0.0000004913
0.0000447259
0.0000003035
-0.0000120980
-0.0000030908
-0.0000025803
-0.0000052470
-0.0000041082
-0.0000021235
-0.0000013218
0.0000115154
-0.0000087939
0.0000030268
0.0000410405
0.0000629791
0.0000274490
0.0000314319
0.0000110594
-0.0000088364
0.0000325273
0.0000168596
0.0000138855
0.0000452197
0.0000486856
0.0000091822
0.0000872298
0.0000142993
0.0000101134
0.0000342172
0.0001157922
0.0000628088
-0.0000006174
0.0000690134
-0.0000121445
0.0000430256
0.0000485076
0.0000301448
0.0000097821
0.0000101160
-0.0000094562
0.0000566832
0.0000086720
-0.0000143893
0.0000378236
0.0000710220
0.0000537015
0.0000177642
-0.0000071944
-0.0000111011
0.0000098109
-0.0000071740
-0.0000038302
0.0000341913
0.0001711155
-0.0000116462
0.0000331909
0.0000763851
-0.0000111317
-0.0000151198
-0.0000031444
-0.0000053127
0.0000922523
0.0000147739
0.0000341689
0.0000232603
0.0000379597
0.0000223441
0.0000737456
-0.0000026682
0.0000370904
0.0000066158
-0.0000103652
-0.0000145917
0.0000032593
0.0000051726
0.0000493406
0.0000021318
0.0000481337
-0.0000066367
-0.0000049375
-0.0000105712
-0.0000045731
0.0000006626
0.0000553025
0.0000698284
0.0000132256
-0.0000119371
-0.0000040434
0.0000072807
-0.0000136723
0.0000209016
-0.0000151105
0.0000062806
-0.0000000252
-0.0000117048
0.0000019294
0.0000091468
0.0000835872
0.0000378681
0.0000041989
-0.0000032188
0.0000108146
-0.0000124587
0.0000259187
0.0000137851
0.0000098685
0.0000159101
-0.0000098108
0.0000027540
0.0000277781
0.0000910893
0.0000201899
-0.0000050057
-0.0000023116
-0.0000146109
-0.0000150127
-0.0000053530
0.0000031115
0.0000579332
0.0000651258
0.0000211155
-0.0000065591
-0.0000145974
0.0000034814
-0.0000106929
0.0000067823
0.0000102297
0.0000949468
-0.0000028036
0.0000100943
0.0000041174
-0.0000071418
-0.0000141922
0.0000796998
0.0000419072
0.0001146075
0.0000049940
-0.0000015736
0.0000037207
-0.0000140683
0.0000324360
-0.0000055994
-0.0000054100
0.0000014824
-0.0000022612
0.0000363181
0.0000041173
0.0000254075
-0.0000128903
-0.0000107976
-0.0000073601
-0.0000031964
-0.0000135091
0.0000794766
0.0000417047
0.0000558280
-0.0000099645
0.0000069442
-0.0000141650
0.0000837317
0.0000176892
-0.0000071277
0.0000126857
0.0000193229
0.0000081285
0.0000380707
-0.0000072314
0.0000877342
0.0000031170
0.0000542481
0.0000364994
-0.0000054900
-0.0000035922
-0.0000130341
0.0000099744
0.0000047993
0.0000089150
-0.0000019192
0.0000258549
0.0000093786
0.0000247925
0.0000502538
0.0000184369
-0.0000040970
0.0000015461
0.0000617021
-0.0000041443
-0.0000058649
-0.0000041126
-0.0000014643
0.0000768859
-0.0000094960
-0.0000071418
0.0000190118
0.0000318750
0.0000368403
0.0000419057
0.0000044305
0.0000035394
0.0000258214
0.0000044396
-0.0000093471
0.0000082220
0.0000059740
0.0000300195
-0.0000086526
0.0000245017
0.0000242701
0.0000297952
0.0000837691
0.0000209191
-0.0000148466
0.0000102215
-0.0000131641
0.0000204137
-0.0000116524
-0.0000064452
-0.0000103860
0.0000078149
-0.0000121429
0.0000002890
0.0000494689
0.0000848057
-0.0000002550
0.0000326768
0.0000218624
-0.0000049741
-0.0000023106
-0.0000077980
0.0000520059
0.0000262931
-0.0000151543
-0.0000054879
0.0000132354
-0.0000035940
0.0000034403
0.0000339881
-0.0000090194
-0.0000040428
-0.0000063293
-0.0000098708
0.0000053501
0.0000200906
-0.0000109291
0.0000183299
-0.0000118697
0.0000271879
-0.0000146374
0.0000170910
0.0000016518
0.0000332450
0.0000694128
-0.0000048296
0.0000643830
0.0000303181
-0.0000079897
0.0000412877
0.0000037327
0.0000244537
-0.0000061924
0.0000209934
0.0000135375
-0.0000139922
0.0000019164
-0.0000047773
-0.0000137910
0.0000123361
0.0000302260
0.0000374703
0.0000011344
-0.0000119578
0.0000335420
0.0001003739
0.0000027039
-0.0000077717
0.0000003091
0.0000031333
0.0001476537
0.0000683811
-0.0000065109
0.0000539822
0.0000048252
0.0000110845
-0.0000150775
0.0000769934
-0.0000052680
0.0000013324
-0.0000151223
0.0000747636
0.0000210788
0.0000173061
-0.0000027916
0.0000259314
0.0000438713
0.0000194352
-0.0000107068
0.0000355674
0.0001022790
-0.0000134078
0.0000133290
-0.0000107851
0.0000100342
-0.0000110855
0.0000274393
-0.0000121807
-0.0000011764
0.0000047789
0.0000013323
-0.0000018195
0.0000448464
-0.0000003791
-0.0000106214
0.0000303906
0.0000265974
-0.0000064953
0.0000502083
-0.0000146615
0.0000482519
0.0000320727
-0.0000137776
-0.0000109173
-0.0000091363
0.0000126985
-0.0000019522
-0.0000046034
0.0000575977
-0.0000076191
0.0000079095
0.0000096038
-0.0000134111
-0.0000026377
-0.0000150052
-0.0000003092
0.0000796352
0.0000129782
0.0000056075
0.0000034299
0.0000158782
0.0000326066
0.0000065563
0.0001065945
0.0001206112
0.0000072181
0.0000261430
-0.0000121426
-0.0000149753
-0.0000119899
0.0000383164
0.0000349587
0.0000126361
0.0000315556
0.0000011607
-0.0000077651
-0.0000108731
-0.0000024332
0.0000423198
0.0000021515
0.0000309874
-0.0000116104
0.0000173475
-0.0000148771
0.0000001818
-0.0000117566
0.0000196781
0.0000128637
-0.0000114084
-0.0000067783
0.0000078638
0.0000241690
0.0000121087
0.0000480738
0.0000177362
0.0000037707
0.0000003286
0.0000047505
0.0000525770
0.0000181363
-0.0000102476
-0.0000110252
-0.0000138649
-0.0000093992
0.0000040760
0.0000187557
-0.0000105932
-0.0000052771
0.0000208226
-0.0000023350
0.0000323512
0.0000649964
0.0000803064
-0.0000039491
0.0000347152
0.0000283667
-0.0000046116
0.0000135930
0.0000175871
0.0000077579
0.0000126667
-0.0000036397
0.0000203212
-0.0000057755
0.0000088185
0.0000060102
0.0000491359
0.0000052569
-0.0000051466
-0.0000005355
0.0000673551
-0.0000086221
-0.0000092373
-0.0000075520
-0.0000148053
0.0000374960
0.0000072951
0.0000066577
0.0000739398
0.0000635376
-0.0000010844
0.0000268868
-0.0000120062
0.0000285510
-0.0000034858
0.0000152706
-0.0000152216
0.0000226248
0.0000179311
-0.0000079577
-0.0000058037
0.0000079250
0.0000732194
-0.0000132339
0.0000540071
0.0000183731
0.0000014619
0.0000802122
-0.0000149623
0.0000089112
0.0000203865
0.0000062616
0.0000254463
-0.0000150592
-0.0000124840
0.0000919983
-0.0000004466
-0.0000112788
0.0000007341
0.0000090581
0.0000814087
-0.0000143767
0.0000281660
-0.0000096076
0.0000318457
0.0000012859
0.0000048379
-0.0000018664
-0.0000149480
0.0000573133
-0.0000148394
-0.0000152343
0.0000204210
0.0000342650
-0.0000046123
-0.0000112247
-0.0000007784
0.0000498448
-0.0000104599
0.0000431127
-0.0000020123
0.0000730332
-0.0000105381
0.0000180637
-0.0000004851
0.0000520990
0.0000161248
0.0000418146
0.0000110120
0.0000054590
-0.0000113938
-0.0000078062
0.0000089682
0.0000491327
0.0000187711
-0.0000014485
-0.0000132088
-0.0000077857
0.0000086426
0.0000071648
0.0000582845
-0.0000070487
0.0000434707
0.0000344826
-0.0000107919
-0.0000106394
0.0000140232
0.0000171032
0.0000371101
0.0000074673
-0.0000121507
0.0000049320
0.0001199169
-0.0000139328
-0.0000106455
0.0000255403
0.0000187679
-0.0000089073
0.0000877352
0.0000373127
0.0000085407
0.0000209392
0.0000343655
-0.0000106908
0.0000237520
-0.0000075888
-0.0000138965
0.0000408278
0.0000448877
-0.0000141476
0.0000290876
0.0000439713
-0.0000010231
0.0000227993
0.0000153296
-0.0000136306
0.0000318806
-0.0000034154
-0.0000091365
-0.0000130744
0.0000042435
-0.0000131371
0.0000163773
0.0000454978
-0.0000016243
-0.0000116753
-0.0000064436
0.0000276669
0.0000050899
-0.0000052431
0.0000055060
0.0000225198
0.0000052121
0.0000381872
0.0000780718
0.0000162940
-0.0000015071
-0.0000122483
-0.0000095305
-0.0000140407
-0.0000053824
-0.0000041413
0.0000000632
0.0000582454
0.0000337158
0.0000143515
-0.0000102226
0.0000252658
-0.0000036468
0.0000847452
-0.0000124487
-0.0000040616
-0.0000108838
0.0000801803
-0.0000002665
0.0000426631
0.0000034854
-0.0000135116
0.0000263932
-0.0000129681
-0.0000134844
-0.0000083231
-0.0000086283
-0.0000139949
0.0000247779
0.0000361089
-0.0000110001
-0.0000105109
0.0000027631
0.0000035450
-0.0000104827
0.0000447940
-0.0000033437
0.0000137562
0.0000747725
0.0000330793
0.0000111702
0.0000369863
0.0001288989
-0.0000045056
0.0000442205
0.0000403860
0.0000047025
0.0000166312
0.0000268142
0.0001087368
0.0000197540
-0.0000009866
0.0000186828
-0.0000151063
-0.0000085165
-0.0000085021
0.0000798285
-0.0000025137
0.0000698298
0.0000230450
-0.0000092027
0.0000130999
0.0000432902
0.0000005623
0.0000117828
0.0000106931
-0.0000102750
-0.0000126783
-0.0000107545
0.0000019087
-0.0000122534
-0.0000125444
0.0000092073
0.0000109651
0.0000110346
-0.0000120233
-0.0000144891
-0.0000091983
-0.0000055269
0.0000350115
0.0000175955
0.0000197181
-0.0000001541
0.0000265013
0.0000012726
0.0000401175
0.0000242759
-0.0000047524
-0.0000141160
-0.0000113464
0.0000002109
-0.0000087904
0.0000218107
0.0000806303
-0.0000041442
0.0000265501
0.0000237458
-0.0000053769
0.0000591911
0.0000913225
-0.0000101300
-0.0000146501
0.0000772496
-0.0000069457
0.0000349961
-0.0000145076
0.0000142607
0.0000356682
0.0000241959
-0.0000103976
-0.0000001923
-0.0000103604
0.0000291277
-0.0000149361
-0.0000129270
0.0000533940
0.0000736023
0.0000265147
0.0001082791
0.0000016381
0.0000419749
0.0000060875
-0.0000021494
0.0000126655
-0.0000014696
-0.0000111066
-0.0000111634
-0.0000132047
0.0000015318
0.0000180968
0.0000031308
0.0000072329
-0.0000141967
0.0000524304
0.0001228257
0.0000664005
-0.0000085067
0.0000528027
0.0000160639
-0.0000150601
0.0000416588
0.0000005797
-0.0000091350
-0.0000046599
0.0000201618
-0.0000137232
0.0000496541
0.0000871471
0.0000095284
0.0000090567
0.0000007483
0.0000381271
-0.0000078922
0.0000487811
0.0000222289
-0.0000111823
-0.0000038765
-0.0000040002
0.0000018382
0.0000082899
0.0000168791
0.0000021675
0.0000710581
0.0000144677
0.0000055813
0.0000442205
0.0000453059
0.0000050974
0.0000796681
0.0000077414
0.0000545384
-0.0000151101
0.0000419617
0.0000185522
0.0000158246
-0.0000016281
0.0000856725
-0.0000079381
0.0000002492
0.0000195166
0.0000331936
0.0000722553
-0.0000052608
0.0000281885
0.0000328827
0.0000248012
-0.0000134767
0.0000524243
-0.0000129061
0.0000044772
-0.0000000899
0.0000479457
0.0000211899
-0.0000118572
0.0000242181
0.0000630560
0.0000074234
-0.0000032514
0.0000635954
-0.0000141534
-0.0000019095
-0.0000052207
0.0000375510
-0.0000073225
0.0000140579
0.0000181717
-0.0000049189
0.0000166232
0.0000240862
-0.0000100811
-0.0000112001
-0.0000117189
-0.0000147340
0.0000610586
0.0000901291
-0.0000069583
0.0000177428
0.0000246564
0.0000224350
0.0000796252
0.0000199766
-0.0000009107
0.0000172631
0.0000986754
0.0000041718
0.0000152219
0.0000305479
0.0000010418
0.0000229053
0.0000043733
0.0000065956
0.0000124352
0.0000396476
-0.0000100715
0.0000679420
-0.0000130335
-0.0000101589
0.0000169714
0.0000493361
-0.0000086619
-0.0000032183
0.0000928647
0.0000560328
-0.0000092541
-0.0000008945
-0.0000105700
0.0000770329
-0.0000114682
0.0000102669
0.0000012610
0.0000003733
0.0000580536
-0.0000057830
0.0000086095
-0.0000116959
-0.0000148090
0.0000136256
-0.0000009121
-0.0000072245
-0.0000022193
-0.0000114513
-0.0000150603
-0.0000091182
0.0000014854
-0.0000024344
0.0000404171
-0.0000062092
0.0000293028
-0.0000089744
-0.0000046060
0.0000286574
0.0000439306
0.0000062874
0.0000464450
0.0000061185
-0.0000125197
0.0000483551
0.0000014145
0.0000288774
-0.0000103125
-0.0000064992
-0.0000105441
0.0000148470
0.0000119532
0.0000177062
0.0000049995
0.0000622536
0.0000774265
0.0000040221
0.0000110784
-0.0000147729
-0.0000088637
0.0000102458
-0.0000104789
0.0000176184
-0.0000129065
0.0000392344
0.0000480170
0.0000044815
-0.0000150904
-0.0000104442
0.0000010376
-0.0000114170
0.0000204863
-0.0000076677
0.0000097545
0.0000033762
-0.0000112663
-0.0000147064
0.0000277166
0.0000296288
0.0000468181
0.0000184703
-0.0000112305
0.0000137230
0.0000280135
0.0000092266
-0.0000117750
0.0000020848
0.0000427580
0.0000624923
0.0000196556
0.0000336545
-0.0000011371
-0.0000060707
0.0000370317
0.0000415792
0.0000335743
-0.0000104953
-0.0000070884
0.0000046577
0.0000324336
0.0000158002
0.0000642836
-0.0000075618
0.0000800534
0.0000104512
-0.0000088046
-0.0000031558
-0.0000122657
-0.0000021507
0.0000033731
-0.0000134898
-0.0000025268
-0.0000109737
-0.0000139590
-0.0000021026
-0.0000140396
-0.0000059537
0.0000446820
-0.0000021190
0.0000115139
0.0000513498
0.0000295599
-0.0000072570
0.0000085288
-0.0000012715
-0.0000083737
0.0000586855
-0.0000041210
0.0000257510
0.0001070746
0.0000281742
0.0000098945
0.0000262455
-0.0000142501
0.0000581427
0.0000963087
0.0000370785
0.0000279023
0.0000016694
-0.0000082962
0.0000354618
-0.0000130976
0.0000004612
-0.0000002770
0.0000233222
0.0000336804
0.0000496225
0.0000143883
-0.0000077935
-0.0000114334
-0.0000124154
0.0000783878
0.0000071210
0.0000621128
0.0000879577
0.0000028040
-0.0000055466
0.0000171347
0.0000139158
0.0000447626
0.0000301891
-0.0000063681
0.0000170240
0.0000422128
-0.0000116455
0.0000504398
-0.0000120979
0.0000238797
0.0000188053
-0.0000135080
-0.0000099198
0.0000221932
0.0000479371
0.0000575027
-0.0000070492
0.0000189538
0.0000036891
0.0000317907
0.0000227241
0.0000005367
0.0000055811
-0.0000114877
0.0000000383
-0.0000088803
-0.0000136093
0.0000214095
-0.0000075700
0.0000115276
0.0000109539
0.0000640599
-0.0000079244
0.0001047233
0.0000315411
-0.0000010997
-0.0000056597
-0.0000032938
-0.0000060771
0.0000018527
-0.0000034554
0.0000165732
-0.0000105681
0.0000232662
-0.0000131814
0.0000336049
0.0000001005
0.0000470444
0.0000145658
-0.0000132445
0.0000456013
-0.0000144796
-0.0000147982
0.0000113840
-0.0000034753
0.0000455544
-0.0000114052
0.0000337166
-0.0000117426
0.0000378915
0.0000235597
-0.0000139189
-0.0000027120
-0.0000063383
-0.0000030859
0.0000043757
0.0000179306
0.0000041332
0.0000096454
0.0000237724
0.0000141109
0.0000067029
-0.0000116341
-0.0000078706
0.0000225490
-0.0000093237
0.0000202322
-0.0000106329
0.0000130046
0.0000062562
-0.0000035350
-0.0000086146
0.0000017073
-0.0000088496
0.0000100627
-0.0000134071
0.0000190202
0.0000623585
0.0000343790
0.0000227931
-0.0000038872
-0.0000137492
-0.0000152363
-0.0000115217
-0.0000095969
0.0000511639
0.0000063266
0.0000300661
0.0000013100
-0.0000128696
0.0000520062
0.0000026667
0.0000064853
-0.0000119675
0.0000964503
0.0000338400
0.0000190323
0.0000064186
0.0000001542
0.0000408367
-0.0000106716
0.0000049588
-0.0000129471
-0.0000001447
-0.0000061376
-0.0000105045
-0.0000063297
-0.0000113570
-0.0000074732
-0.0000151002
0.0000096767
0.0000045923
0.0001637126
0.0000881434
-0.0000092730
-0.0000001333
0.0000378326
-0.0000078088
-0.0000038406
0.0000069772
0.0000318442
-0.0000143767
-0.0000065101
0.0000025776
-0.0000084590
-0.0000089840
0.0000159155
0.0000029887
0.0000104242
-0.0000082017
-0.0000111579
-0.0000012941
-0.0000078525
-0.0000020253
-0.0000037744
0.0000183218
0.0000587690
-0.0000088943
0.0000054764
0.0000395289
0.0000614374
0.0000274623
0.0001131457
0.0000965948
0.0000141529
0.0000015494
0.0000304422
0.0000326646
0.0000241647
0.0000177309
0.0001062109
0.0000696728
0.0000054862
-0.0000104014
-0.0000082546
-0.0000057002
0.0000665654
0.0000420443
0.0000010265
0.0000219938
0.0000474934
0.0000537707
-0.0000141561
0.0000024028
-0.0000033133
0.0000117275
0.0000060231
0.0000137175
-0.0000114297
-0.0000129775
-0.0000065419
0.0000236408
0.0000119584
0.0000619749
-0.0000006396
0.0000220733
-0.0000065444
0.0000110714
0.0000398043
0.0000097079
0.0000092456
-0.0000048302
0.0000418268
0.0000313056
0.0000104554
0.0000030234
0.0000373180
-0.0000001637
0.0000020178
0.0000269196
0.0000028549
0.0000527907
0.0000168600
0.0000206316
0.0000042248
-0.0000130475
-0.0000124869
0.0000212761
0.0000059590
-0.0000040331
0.0000316122
0.0000456091
-0.0000127996
0.0000501281
-0.0000097507
0.0000070556
0.0000365553
-0.0000143313
0.0000229676
0.0000022004
-0.0000127252
0.0000255385
0.0000065619
0.0000550632
0.0000016763
0.0000235404
0.0000091593
-0.0000023286
0.0000670603
0.0000304252
-0.0000031083
0.0000237592
0.0000231167
-0.0000125529
0.0000905658
-0.0000023850
-0.0000104569
0.0000162431
-0.0000144826
0.0000085649
0.0000670998
-0.0000029877
0.0000746206
0.0000355495
0.0000166030
-0.0000116005
0.0000283034
-0.0000124610
0.0000447063
0.0000306709
-0.0000132142
0.0000275080
0.0000540127
-0.0000124869
-0.0000040960
0.0000633028
0.0000082460
0.0000274128
0.0000422262
0.0000020518
0.0000360934
0.0000186901
0.0000090645
-0.0000148968
-0.0000086308
0.0000038528
-0.0000056201
-0.0000003307
0.0000122959
-0.0000057267
-0.0000137383
-0.0000091322
-0.0000020700
0.0000035281
0.0000370711
-0.0000033876
-0.0000096341
0.0000082501
0.0000509100
-0.0000060629
-0.0000108244
-0.0000146988
0.0000336288
0.0000690276
0.0000218115
0.0000125502
0.0000160585
-0.0000003512
-0.0000152193
0.0000364572
0.0000042062
-0.0000141197
0.0000637931
0.0000511991
-0.0000045709
0.0000063322
-0.0000043694
0.0000649955
0.0000432221
0.0000070302
-0.0000010471
-0.0000090861
0.0000169272
0.0000169491
0.0000663124
-0.0000065446
0.0000480784
0.0000300867
0.0000029317
0.0000637243
0.0000094712
0.0000354471
0.0000261828
0.0000270142
0.0000018550
0.0000103070
-0.0000046306
0.0000782422
0.0000115581
-0.0000003138
0.0000087686
0.0000393206
0.0000217210
0.0000120170
0.0000482109
-0.0000149152
0.0000219787
-0.0000145530
-0.0000063355
-0.0000075864
0.0000172771
0.0000097880
0.0000186960
0.0000005676
0.0000174134
0.0000059676
0.0000036514
-0.0000024228
0.0000201784
0.0000259992
0.0000070781
-0.0000099261
0.0000031381
0.0000015710
0.0000130242
0.0000060083
-0.0000071073
-0.0000127422
0.0000068870
-0.0000121049
0.0000139461
0.0000140544
-0.0000127357
0.0000069925
-0.0000000285
0.0000546405
0.0000015586
-0.0000019689
0.0000108388
0.0000181849
-0.0000097618
0.0000121804
0.0000234420
0.0000614743
0.0000042644
0.0000049211
-0.0000033516
-0.0000111110
-0.0000134707
0.0000155819
-0.0000006902
0.0000330407
0.0000081274
-0.0000010943
-0.0000125414
-0.0000018290
-0.0000109823
0.0000061824
0.0000004970
0.0000176214
0.0001034338
0.0000076897
0.0000889371
-0.0000121540
-0.0000142719
-0.0000112126
-0.0000092236
-0.0000076267
0.0000295830
0.0000279527
0.0000270198
0.0000170834
-0.0000112542
0.0000021768
-0.0000032926
-0.0000002104
-0.0000097220
0.0000057505
0.0000034062
-0.0000136804
0.0000730459
-0.0000118595
-0.0000109673
-0.0000059271
0.0000041212
-0.0000138807
-0.0000102386
-0.0000111171
0.0000190314
0.0000076663
-0.0000112236
0.0000348040
-0.0000070354
0.0000085154
0.0000001863
-0.0000046006
-0.0000087923
0.0000705222
-0.0000103603
-0.0000125235
-0.0000148109
0.0000082779
-0.0000041596
0.0000851048
0.0000053372
0.0000004865
0.0000010017
0.0000253138
0.0000065889
-0.0000104638
-0.0000010597
0.0000012604
0.0000121316
-0.0000087645
-0.0000006921
0.0000163100
-0.0000037669
0.0000473823
0.0000361532
0.0000055917
-0.0000066848
-0.0000011120
0.0000098205
0.0000193844
0.0000162913
-0.0000143958
-0.0000062945
0.0000438213
-0.0000150250
0.0000268463
-0.0000093462
0.0000554536
0.0000322301
-0.0000043276
0.0000074461
0.0000531372
-0.0000143963
0.0000532290
-0.0000085053
-0.0000037254
0.0000214896
-0.0000053860
0.0000004551
-0.0000096909
-0.0000134163
-0.0000041606
0.0000146114
-0.0000127994
0.0000136026
-0.0000127873
0.0000231616
0.0000270858
0.0000173702
0.0001018803
-0.0000146104
0.0000117885
0.0000123431
0.0000093071
-0.0000008232
0.0000225592
0.0000931890
-0.0000071919
0.0000007801
0.0000086649
-0.0000019465
0.0000008936
-0.0000079792
-0.0000134368
0.0000708159
-0.0000123863
0.0000283473
-0.0000065649
-0.0000087262
0.0000300008
0.0000154957
-0.0000091022
0.0000148007
0.0000080011
0.0001219981
-0.0000095815
0.0000305338
0.0000136786
-0.0000079355
-0.0000062689
0.0000226061
-0.0000132881
-0.0000063496
-0.0000143753
-0.0000008180
-0.0000041888
0.0000263566
0.0000110929
0.0000555771
-0.0000135484
0.0000149161
-0.0000095158
-0.0000030213
0.0000990360
-0.0000047177
-0.0000023169
0.0000580786
-0.0000102488
0.0001410026
0.0000019090
0.0000350196
0.0000593880
0.0000019302
-0.0000062132
0.0000034579
-0.0000005338
-0.0000139495
-0.0000068999
0.0000278727
-0.0000106116
-0.0000107795
-0.0000103618
-0.0000147148
-0.0000152494
-0.0000039249
0.0000182193
0.0000338747
-0.0000008281
0.0000359354
0.0000178246
0.0000795472
-0.0000079209
0.0000588514
