300,1,20,16,0.010000,0.000000,1024,Welch
0.0001495429
0.0000287092
-0.0000103347
0.0000088620
-0.0000136466
0.0000429992
0.0000132886
0.0000585939
0.0000224206
0.0000122521
-0.0000075366
-0.0000020539
-0.0000045835
-0.0000093804
0.0000093231
-0.0000039968
0.0000083822
0.0000333793
-0.0000128363
-0.0000045522
0.0000188153
-0.0000115238
0.0000005315
0.0000026779
0.0000159742
-0.0000004020
0.0000717148
0.0000003001
-0.0000140525
0.0000437081
-0.0000136689
0.0000038724
-0.0000136139
0.0000120256
0.0001330876
-0.0000037518
0.0000012814
0.0000250275
-0.0000093776
0.0000101859
-0.0000002502
-0.0000093440
-0.0000149404
-0.0000033161
0.0000336343
-0.0000125675
0.0000192816
-0.0000017107
-0.0000090932
-0.0000147201
0.0000306071
-0.0000008452
0.0000134885
-0.0000084075
0.0000945953
0.0000331095
-0.0000053106
-0.0000128364
0.0000131867
-0.0000018713
-0.0000025415
0.0000244478
-0.0000051901
0.0000463291
-0.0000011352
0.0000219754
0.0000077204
0.0000220999
0.0000508923
-0.0000029925
0.0000188068
0.0000212275
0.0000202759
0.0000189344
-0.0000020210
-0.0000016793
0.0000015219
-0.0000117767
-0.0000096745
0.0000721308
-0.0000118986
0.0000018498
0.0000111870
0.0000680407
-0.0000055122
-0.0000110327
-0.0000134275
-0.0000096297
0.0000008837
-0.0000045247
-0.0000091895
0.0000158109
0.0000133628
-0.0000139234
0.0000142636
0.0000997710
-0.0000087162
-0.0000023406
-0.0000032102
0.0000606628
0.0000449776
-0.0000152315
0.0000356758
0.0000009741
-0.0000071800
0.0000502058
-0.0000118483
0.0001052131
-0.0000115979
-0.0000076711
-0.0000126660
0.0000003577
0.0000284728
-0.0000133890
-0.0000122010
-0.0000052195
-0.0000051718
0.0000553073
-0.0000096647
0.0000288912
0.0000604755
-0.0000055408
-0.0000128973
0.0000101464
-0.0000114862
-0.0000020845
0.0000038292
-0.0000080476
0.0000191528
-0.0000062189
0.0000028640
-0.0000148008
0.0000280344
-0.0000117499
0.0000528068
-0.0000019248
-0.0000133753
0.0000333869
-0.0000094207
0.0000010647
0.0000033947
0.0000216265
0.0000277515
0.0000172272
0.0000350996
-0.0000034037
0.0000119280
-0.0000069676
0.0000420105
-0.0000119030
0.0000037436
-0.0000046748
0.0000049040
0.0000204123
0.0000011738
0.0000142577
0.0000245831
0.0000128718
0.0000339690
0.0000327028
0.0000128924
0.0000293011
0.0000038808
0.0000171529
0.0000151138
0.0000641032
0.0000001326
0.0000911157
0.0000076455
0.0000233121
-0.0000093058
-0.0000097492
-0.0000094322
-0.0000041986
0.0000144696
0.0000225104
0.0000092410
0.0000464561
-0.0000037361
0.0000151138
-0.0000090000
0.0000314907
0.0000157575
-0.0000020842
0.0000206150
-0.0000115720
-0.0000100024
-0.0000016334
0.0000238722
-0.0000140518
0.0000359321
-0.0000030136
-0.0000038195
-0.0000084944
0.0000080951
-0.0000110549
-0.0000054270
0.0000382830
0.0000190917
0.0000031466
0.0000001609
-0.0000093218
-0.0000079592
-0.0000139530
0.0000251313
0.0000094308
0.0000070678
0.0000089621
-0.0000099714
0.0000212404
0.0000205766
-0.0000109341
0.0000008331
0.0000030335
0.0000104869
0.0000118370
0.0000154967
-0.0000076709
0.0000180599
-0.0000093639
0.0000026511
-0.0000141961
0.0000031543
-0.0000139119
-0.0000007700
0.0000299336
-0.0000111194
0.0000022008
-0.0000019061
0.0000090755
0.0000046989
-0.0000138239
-0.0000050008
-0.0000099777
0.0000033394
-0.0000052464
0.0000112590
-0.0000014569
0.0000299836
0.0000404515
0.0000004707
-0.0000075858
0.0000229856
0.0000644734
0.0000621979
0.0000283719
0.0000988035
0.0000455460
-0.0000064549
-0.0000126075
-0.0000056150
-0.0000138172
0.0000031369
0.0000073129
0.0000241175
0.0000039310
0.0000046627
0.0000654801
0.0000279835
-0.0000113804
0.0000168036
-0.0000025327
0.0000087454
0.0000725759
0.0000928417
0.0000033087
-0.0000129577
-0.0000093052
-0.0000044130
0.0000320307
0.0000791024
0.0000101745
-0.0000120447
-0.0000119970
-0.0000023351
-0.0000039410
0.0000022807
0.0000028731
0.0001024183
0.0000531982
0.0000226546
0.0000408063
-0.0000022730
-0.0000129899
0.0000395953
-0.0000002286
-0.0000063567
0.0000167387
0.0000489172
0.0000141988
0.0000526643
0.0000136813
-0.0000067137
0.0000174485
0.0000044412
0.0000079455
-0.0000152532
-0.0000121702
0.0000069425
-0.0000086523
0.0000148963
0.0001024829
-0.0000106186
0.0000112919
0.0000490215
0.0001839639
-0.0000121815
0.0001578750
-0.0000059526
0.0000299159
-0.0000064409
0.0000283882
-0.0000137254
0.0000081314
0.0000123952
-0.0000135609
0.0000089038
0.0000234155
-0.0000134452
-0.0000136732
-0.0000001826
0.0000649657
-0.0000018991
-0.0000148908
-0.0000096134
0.0000384670
-0.0000032040
0.0000452711
0.0000053572
-0.0000062586
-0.0000020925
-0.0000019100
0.0000095082
0.0000011345
-0.0000121466
0.0000220816
0.0000227607
-0.0000027412
-0.0000077884
0.0000371827
-0.0000075585
0.0000699380
0.0000597282
-0.0000118117
-0.0000061358
-0.0000148707
-0.0000137343
0.0000543614
0.0000158386
0.0000091862
-0.0000050857
0.0000009010
-0.0000001273
-0.0000148313
-0.0000029854
0.0000103811
-0.0000033560
0.0000373696
-0.0000152311
0.0000064926
0.0000022032
0.0000070750
0.0000079640
-0.0000022335
-0.0000148209
-0.0000115851
0.0000080431
0.0000098614
0.0000008291
-0.0000109226
0.0000406197
0.0000166298
0.0000038591
-0.0000137216
-0.0000081896
0.0000325767
0.0000336061
0.0000318301
0.0000127526
0.0000108726
0.0000160119
0.0000167434
0.0000300788
0.0000061932
0.0000161264
0.0000375340
0.0000087259
0.0000417829
-0.0000107849
-0.0000112606
0.0000035471
-0.0000129719
0.0000191580
-0.0000148964
0.0000932300
0.0000214088
-0.0000152198
-0.0000141690
0.0000349381
-0.0000090178
0.0000330712
0.0000486406
0.0000156895
-0.0000086451
0.0000051905
-0.0000139100
0.0000012045
-0.0000023310
0.0000034770
0.0000967358
0.0000062715
-0.0000097600
0.0000010667
-0.0000040987
0.0000129358
0.0000234138
0.0000064841
0.0000292909
-0.0000050068
0.0000665425
-0.0000081679
0.0000217090
0.0000299980
0.0000245453
-0.0000024488
-0.0000066242
0.0000335711
-0.0000076315
-0.0000143045
-0.0000146203
-0.0000132091
-0.0000069554
0.0000375345
-0.0000152263
-0.0000093597
-0.0000080026
0.0000007456
-0.0000040238
0.0000314402
0.0000231935
-0.0000131852
-0.0000025909
-0.0000137822
-0.0000081825
-0.0000089547
-0.0000108772
0.0000157126
-0.0000061977
0.0000307382
0.0000732401
0.0000619891
0.0000598159
0.0000023157
0.0000136274
0.0000621891
-0.0000149156
0.0001011084
-0.0000048163
-0.0000011562
0.0000060954
-0.0000148159
-0.0000030577
0.0000004159
0.0000043709
-0.0000124332
0.0000108949
0.0000215254
0.0000120936
-0.0000102249
-0.0000094822
0.0000031973
0.0000122502
0.0000185333
0.0000130227
-0.0000052639
-0.0000045460
0.0000022789
-0.0000132629
-0.0000033050
0.0000200740
-0.0000080188
0.0000188539
0.0000189081
0.0000468890
0.0000310145
0.0000045216
0.0000064315
0.0000159530
0.0000202116
-0.0000103406
-0.0000004496
0.0001074723
-0.0000057528
-0.0000047381
-0.0000068438
0.0000003841
0.0000576875
-0.0000074053
0.0000705797
-0.0000070556
0.0000252102
0.0000832536
-0.0000099549
0.0000121264
-0.0000107704
-0.0000062146
-0.0000138106
-0.0000144536
0.0000799918
0.0000591420
0.0000025066
0.0000169231
-0.0000089554
-0.0000014031
0.0000031472
0.0000664058
0.0000374050
0.0000126137
0.0000500693
0.0000176693
-0.0000026987
0.0000192095
0.0000099840
-0.0000050610
0.0000129619
0.0000317760
0.0000694000
0.0000076237
-0.0000146864
-0.0000119489
0.0000010504
0.0000023396
-0.0000076989
0.0000206507
-0.0000059480
0.0000201584
0.0000218619
0.0000008318
-0.0000078374
0.0000123827
0.0000559872
0.0000386174
-0.0000077324
-0.0000148453
0.0000131472
0.0000503444
0.0000128299
0.0000210303
0.0000823673
0.0000666896
-0.0000003486
0.0000538385
-0.0000052334
0.0000365231
-0.0000011871
0.0000140643
-0.0000056660
0.0000027958
-0.0000066068
0.0000054701
0.0000180899
0.0000097037
0.0000148872
0.0000316605
0.0000392958
0.0000598768
-0.0000110195
-0.0000129867
0.0000103034
-0.0000065630
-0.0000091027
0.0000249190
-0.0000113603
-0.0000121249
0.0000769367
-0.0000137627
0.0000275514
0.0000231855
-0.0000068560
0.0000148268
0.0000201709
-0.0000038274
-0.0000032849
0.0000085817
0.0000709642
0.0000740813
0.0000628364
0.0000659110
0.0000657238
-0.0000137687
-0.0000128367
-0.0000079386
0.0000070133
0.0000138046
0.0000095908
0.0000054506
-0.0000090075
0.0000572438
0.0000532947
-0.0000102931
0.0000456825
-0.0000143233
0.0000272415
0.0000643012
-0.0000118010
0.0000171869
-0.0000026336
0.0000133535
-0.0000118777
0.0000802642
0.0000093236
-0.0000067595
-0.0000076375
0.0000028745
0.0000217733
-0.0000120806
-0.0000106627
0.0000611756
0.0000185684
0.0000287364
0.0000125038
-0.0000126990
0.0000649224
-0.0000138581
-0.0000003964
-0.0000086333
0.0000502874
-0.0000106965
-0.0000095987
0.0000156280
0.0000072512
-0.0000026644
0.0000317247
0.0000477295
0.0000231711
-0.0000058259
-0.0000052558
0.0000595241
-0.0000065142
0.0000761833
0.0000508635
0.0000356383
0.0000044351
0.0000024038
0.0000235183
0.0000155885
0.0000190631
0.0000192321
-0.0000148316
-0.0000088775
0.0000608556
-0.0000033345
-0.0000104476
-0.0000119847
0.0000155654
-0.0000148790
-0.0000093014
-0.0000050327
0.0000095148
0.0000472093
0.0000094885
0.0000182523
0.0000227593
-0.0000150208
-0.0000102513
0.0000022560
0.0000084581
0.0001024888
0.0000731245
-0.0000126749
0.0000753265
0.0000005717
-0.0000001326
0.0000030546
0.0000023216
0.0000200852
0.0000246845
0.0000218599
-0.0000083743
-0.0000044602
0.0000004959
0.0000108897
-0.0000121885
0.0000850165
0.0000744599
-0.0000132218
0.0000030476
0.0000021934
-0.0000094666
0.0000016495
0.0000290587
-0.0000145248
0.0000074820
0.0000001970
0.0000200207
0.0000286247
0.0000514264
-0.0000007370
-0.0000091117
0.0000101574
0.0000072095
0.0000033058
0.0000228330
0.0000273004
-0.0000042009
0.0000334145
-0.0000140511
-0.0000041868
-0.0000095885
-0.0000121150
-0.0000140939
-0.0000039812
0.0000696032
-0.0000056905
-0.0000104425
0.0000557458
-0.0000091828
-0.0000088480
0.0000143068
0.0000463814
0.0000417180
0.0000771271
0.0000574974
-0.0000103098
-0.0000127270
0.0000181683
0.0000178279
0.0000393504
-0.0000033784
-0.0000149237
0.0000612795
0.0001108856
-0.0000067775
0.0000416419
0.0000092707
-0.0000148850
0.0000011032
-0.0000038209
0.0000186042
0.0000199949
0.0000000027
0.0000066739
0.0000974054
0.0000128557
0.0000430992
-0.0000126610
0.0000450856
0.0000130935
-0.0000095156
-0.0000104838
0.0000071575
0.0000084154
0.0000089587
0.0000278941
-0.0000085068
0.0000110365
0.0000176132
0.0000393719
0.0000252888
0.0000128850
0.0000249099
0.0000690191
0.0000171610
0.0000139600
0.0000700393
-0.0000011503
-0.0000045313
-0.0000015097
0.0000027880
0.0000384125
0.0000297947
-0.0000128330
0.0000271739
-0.0000013020
0.0000236276
0.0000009673
0.0001218868
0.0000004446
-0.0000149700
-0.0000078967
0.0000334056
0.0000007912
-0.0000138510
-0.0000056073
-0.0000023453
0.0000055617
0.0000556160
0.0000213422
0.0000326660
-0.0000040674
-0.0000028435
0.0000622975
0.0000575305
0.0000161121
0.0000746682
0.0000676644
0.0000982999
-0.0000136127
0.0000004766
0.0000270504
-0.0000120637
0.0000327114
0.0000213510
0.0000117915
-0.0000037428
-0.0000115764
-0.0000115703
0.0000040067
0.0000154148
-0.0000080301
-0.0000091902
0.0000100096
0.0000033553
-0.0000070189
-0.0000091621
0.0001032683
-0.0000098621
-0.0000075654
0.0000867040
0.0000344911
-0.0000042886
0.0000482357
0.0000359020
0.0000433536
0.0000141314
0.0000265213
0.0000365700
-0.0000037202
0.0000113796
0.0000425788
0.0000004216
0.0000514992
-0.0000149107
0.0000550409
-0.0000059239
-0.0000104396
-0.0000147190
0.0000007178
-0.0000084919
0.0000206777
0.0000172947
0.0000195597
0.0000206081
0.0000053878
0.0000393308
-0.0000085578
-0.0000122050
0.0000150339
-0.0000064127
0.0000468962
0.0000082315
0.0000045875
0.0000332134
-0.0000015417
-0.0000014611
0.0000145201
0.0000548520
-0.0000086894
0.0000215901
-0.0000080183
-0.0000096473
-0.0000131003
-0.0000083262
0.0000092954
0.0000294833
0.0000291452
0.0000069897
-0.0000141074
0.0000463046
0.0000276098
-0.0000046534
-0.0000151267
0.0000986354
0.0000352159
0.0000578297
-0.0000091671
0.0000181801
0.0000015236
0.0000135485
0.0000641693
0.0000043202
0.0000003028
0.0000332433
-0.0000034029
-0.0000073357
-0.0000083124
0.0000257223
-0.0000028005
0.0000307778
0.0000102511
0.0000081931
-0.0000102194
0.0000431923
0.0000354376
-0.0000080355
0.0000140328
-0.0000112476
0.0000165837
0.0000594703
0.0000210572
0.0000254938
-0.0000063777
-0.0000050363
-0.0000056391
-0.0000114674
0.0000289389
0.0000065194
-0.0000042891
0.0000262243
0.0000148690
-0.0000105592
-0.0000041791
-0.0000065097
-0.0000032789
-0.0000150426
0.0000295402
-0.0000151821
0.0000252062
-0.0000052997
0.0000037515
0.0000043223
-0.0000141184
-0.0000146605
-0.0000140515
0.0000085855
-0.0000103700
-0.0000112032
0.0000204475
-0.0000056408
-0.0000086769
-0.0000087917
0.0000247448
-0.0000063582
0.0000137688
0.0000212144
0.0000282260
0.0000741438
0.0000132409
0.0000230732
0.0000053271
0.0000171485
-0.0000040850
-0.0000082851
-0.0000107841
0.0000574523
-0.0000072375
0.0000619952
0.0000053219
0.0000265296
-0.0000016963
0.0000262661
0.0000346840
0.0000049012
0.0000167996
0.0000002344
-0.0000120258
0.0000607006
-0.0000082184
-0.0000055369
-0.0000003952
0.0001373083
-0.0000075483
0.0000003746
0.0000663771
0.0000135846
0.0000030008
0.0000865834
0.0000183226
0.0000018893
0.0000021496
0.0000137971
0.0000791905
0.0000113052
0.0000717624
0.0000033074
0.0000055727
0.0000733913
0.0000128945
0.0000399157
-0.0000052149
0.0000077921
-0.0000146477
-0.0000125869
-0.0000046670
0.0000134592
-0.0000131576
-0.0000076131
-0.0000034547
-0.0000023493
0.0000176785
0.0000177174
0.0000048998
0.0000725753
0.0000038273
-0.0000058472
0.0000565503
-0.0000140332
0.0000901174
0.0000043992
0.0000160359
0.0000032398
-0.0000075140
-0.0000033495
-0.0000054148
0.0000123466
-0.0000142758
0.0000198135
-0.0000091293
-0.0000136654
0.0000057018
0.0000037586
0.0001413192
-0.0000076289
0.0000214243
-0.0000044485
0.0000469797
0.0000012068
-0.0000069713
-0.0000107138
0.0000184980
-0.0000089618
-0.0000068092
0.0000069982
0.0000174003
0.0000215115
0.0000090248
-0.0000152150
-0.0000008693
0.0000148964
-0.0000134701
-0.0000096994
-0.0000040152
0.0000057411
-0.0000115937
-0.0000150370
0.0000004829
-0.0000125860
0.0000915840
0.0000177252
-0.0000143966
0.0000590389
0.0000130030
0.0000112037
0.0000155797
0.0000196166
-0.0000090519
0.0000289688
0.0000177634
-0.0000105992
0.0000259459
-0.0000141206
-0.0000086128
0.0000101634
0.0000591841
0.0000543827
0.0000105295
0.0000497875
0.0000022172
0.0000161893
-0.0000063811
-0.0000131823
-0.0000148688
0.0000025059
-0.0000003141
-0.0000024214
-0.0000136040
0.0000111870
0.0000411424
0.0000107090
-0.0000060255
0.0000296541
-0.0000144867
0.0000202384
0.0000243837
0.0000256314
0.0000252288
-0.0000121657
0.0000262838
-0.0000128574
-0.0000012190
0.0000222449
0.0001010129
0.0000339710
-0.0000110545
0.0000280844
0.0000291319
0.0000053313
-0.0000058915
0.0000030651
0.0000044332
0.0000034733
0.0000047322
0.0000679929
-0.0000077601
-0.0000142458
-0.0000016861
-0.0000147402
-0.0000022269
0.0000003750
-0.0000145235
-0.0000104836
0.0000020974
-0.0000010479
-0.0000026897
0.0000103739
0.0000022248
-0.0000143441
-0.0000146897
0.0000091525
-0.0000084377
0.0000352467
-0.0000086450
0.0000071771
-0.0000086423
0.0000328330
0.0000101354
-0.0000009169
-0.0000099518
0.0000337785
-0.0000129305
0.0000355148
0.0000083207
0.0000255473
0.0000030224
-0.0000029839
-0.0000106485
0.0000563726
0.0000456932
0.0000120398
0.0000150948
-0.0000148280
-0.0000062107
0.0000139515
-0.0000142267
-0.0000113373
0.0000243276
-0.0000036212
-0.0000112395
-0.0000087606
0.0001062876
0.0000406437
0.0000072316
0.0000143569
-0.0000062784
-0.0000149600
0.0000102839
-0.0000034741
0.0000105271
0.0000591736
-0.0000011662
0.0000199587
0.0000034177
0.0000059473
-0.0000006617
-0.0000096416
-0.0000029084
0.0000159181
-0.0000085730
-0.0000026544
-0.0000132918
0.0000064229
0.0000193432
-0.0000134545
-0.0000041926
-0.0000055470
0.0000102317
0.0000232769
0.0000086825
0.0000062946
0.0000010531
-0.0000140310
-0.0000013425
0.0000228567
0.0000482952
0.0000338968
0.0000235344
-0.0000127578
0.0000039012
0.0000111459
0.0000087830
-0.0000025078
-0.0000102076
0.0000567254
-0.0000129617
-0.0000096614
-0.0000148800
0.0000172219
0.0000014756
-0.0000140015
0.0000019513
0.0000009903
0.0000869483
-0.0000048252
0.0000283386
0.0000169224
-0.0000135759
0.0000244929
-0.0000040037
0.0000102070
-0.0000042511
-0.0000138006
0.0000060990
-0.0000131087
0.0000224230
0.0000191049
-0.0000070311
-0.0000063942
0.0000045487
0.0000013100
0.0000547989
-0.0000070841
0.0000021734
-0.0000144982
0.0000074073
-0.0000095297
0.0000558660
-0.0000012593
0.0000301410
0.0000238305
0.0000495379
0.0000686975
-0.0000137193
-0.0000118337
0.0000046860
0.0000024346
-0.0000125875
-0.0000076537
-0.0000147588
0.0000292839
-0.0000057268
0.0000101811
0.0001137718
-0.0000143231
-0.0000093601
-0.0000086798
-0.0000102819
0.0000329888
0.0000018113
-0.0000133210
-0.0000038758
0.0000952897
-0.0000108296
0.0000281444
0.0000346909
-0.0000127021
0.0000268000
0.0000071112
-0.0000087960
-0.0000053973
-0.0000098818
0.0000049278
0.0000538015
-0.0000039763
-0.0000047481
0.0000559149
0.0000088385
0.0000242070
0.0000104384
-0.0000120085
0.0000041061
0.0000348605
-0.0000051215
0.0000198160
0.0000320749
0.0000292616
-0.0000105057
-0.0000114380
-0.0000020205
-0.0000091809
0.0000363802
0.0000874180
0.0000113401
0.0000460997
-0.0000115554
-0.0000131416
0.0000935259
-0.0000122002
0.0000099134
-0.0000039644
0.0000036559
0.0000164013
-0.0000082894
0.0000670319
-0.0000120677
-0.0000124699
0.0000599395
0.0000176249
0.0000460652
-0.0000021908
0.0000494881
0.0000815663
0.0000031721
-0.0000077477
-0.0000045118
-0.0000118060
-0.0000028657
-0.0000112788
0.0000788970
-0.0000076717
-0.0000080093
-0.0000143521
0.0000123031
0.0000173498
-0.0000066683
-0.0000071965
0.0000571041
0.0000489986
0.0000526704
-0.0000109670
-0.0000119547
0.0000959276
0.0000236861
-0.0000144705
0.0000044341
0.0000049561
0.0000161638
0.0000128464
0.0000074317
0.0000043068
0.0000276589
-0.0000052650
-0.0000093766
-0.0000085193
0.0000293197
-0.0000008178
0.0000148440
0.0000184141
0.0000488858
0.0000609658
-0.0000135355
0.0000175841
-0.0000091636
0.0000670277
0.0000011870
0.0000088590
0.0000333038
0.0000021138
-0.0000129448
0.0000014977
-0.0000010617
0.0000952679
-0.0000045230
-0.0000018679
0.0000124743
0.0000521905
0.0000185061
0.0000545309
-0.0000022086
0.0001104701
-0.0000137505
-0.0000148129
0.0000057095
0.0000177490
0.0000028670
0.0000419701
0.0000152985
-0.0000132115
0.0000246728
-0.0000117944
0.0000186374
0.0000014742
-0.0000071208
0.0000301727
0.0000255360
-0.0000149292
0.0000099640
-0.0000103253
0.0000310462
-0.0000112671
0.0000044315
-0.0000006263
0.0000109544
-0.0000128008
0.0001080705
0.0000542748
-0.0000121809
0.0000063757
0.0000797493
0.0000759386
-0.0000131610
-0.0000088916
-0.0000067634
-0.0000103514
0.0000025677
-0.0000045669
0.0000121512
-0.0000121857
0.0000186330
0.0000680129
0.0000645750
-0.0000067007
0.0000191052
0.0000595234
0.0000018278
-0.0000031363
0.0000004040
0.0000535889
0.0000772136
0.0000012415
-0.0000105488
-0.0000099755
0.0000649040
-0.0000032114
-0.0000115413
-0.0000051450
-0.0000135070
-0.0000002559
0.0000066277
-0.0000110648
-0.0000131302
0.0000063992
0.0000444740
0.0000452581
0.0000770288
-0.0000101297
0.0000918517
-0.0000118439
0.0000025358
0.0000059015
-0.0000079960
0.0000193632
0.0000336662
0.0000061702
0.0000097365
0.0000011398
0.0000345022
-0.0000101484
-0.0000092386
-0.0000046288
-0.0000142204
0.0000183876
0.0000247279
0.0000251683
-0.0000084623
0.0000284652
-0.0000128726
-0.0000122171
-0.0000052753
-0.0000066543
0.0000047212
-0.0000031892
0.0000015302
0.0000475068
0.0000581584
0.0000137027
0.0000019689
0.0000176986
0.0000100975
-0.0000101961
0.0000335214
0.0000052397
0.0000020103
-0.0000102371
-0.0000012218
0.0000121906
-0.0000103877
-0.0000000388
0.0000546064
0.0000051259
0.0000528720
0.0000104875
0.0000234686
0.0000096559
0.0000218464
-0.0000066336
-0.0000004422
0.0000849595
0.0000077000
-0.0000008968
0.0000261616
0.0000801115
0.0000121673
0.0000243453
0.0000279563
-0.0000014554
0.0000317094
0.0000695846
-0.0000080135
0.0000113225
0.0000204182
0.0000088505
-0.0000006610
-0.0000025927
-0.0000020475
0.0000030673
0.0000031809
0.0000151681
-0.0000125277
0.0000013437
0.0000196332
0.0000289754
0.0000657899
0.0000735183
0.0000295097
0.0000784056
0.0000975263
0.0000834490
0.0000719604
0.0000562767
0.0000117767
0.0000123688
0.0000032956
-0.0000013045
0.0000849944
-0.0000034728
0.0000158982
0.0000125232
-0.0000109651
0.0001378202
0.0000026207
-0.0000072355
-0.0000136028
-0.0000144099
0.0000560340
0.0000271640
0.0000033146
0.0000601955
-0.0000129182
0.0000023863
0.0000045267
0.0000305732
0.0000019189
0.0000148246
0.0000167178
0.0000778333
0.0000268815
-0.0000026275
-0.0000107420
0.0000088882
0.0001527605
0.0000324484
0.0000429213
-0.0000089353
0.0000393052
0.0000397567
0.0000118137
0.0000196335
-0.0000064793
-0.0000048229
-0.0000096531
0.0000637693
-0.0000087526
0.0000249217
0.0000417469
0.0000223693
-0.0000142859
-0.0000142256
-0.0000042097
0.0000181406
0.0000196227
-0.0000146488
0.0000915278
-0.0000096776
0.0000668015
0.0000073556
0.0000511437
0.0000665239
-0.0000034692
0.0001452319
0.0000230738
0.0000256179
-0.0000127034
0.0000141761
0.0000164538
-0.0000063064
0.0000094139
-0.0000140726
0.0000129920
0.0000368738
-0.0000057542
-0.0000083210
0.0000536904
-0.0000012542
0.0001082215
0.0000091860
0.0000093115
0.0000209893
-0.0000112286
0.0000062377
0.0000044187
0.0000438007
0.0000534788
0.0000225028
0.0000157109
0.0000255175
-0.0000086467
0.0000228708
0.0000120119
0.0000318713
-0.0000015458
0.0000280827
0.0000113930
0.0000066420
-0.0000151033
0.0000020386
0.0000103613
0.0000030751
0.0000504837
0.0000025434
0.0000024895
-0.0000026819
0.0000054034
0.0000102013
-0.0000063416
0.0000302387
-0.0000136538
0.0000094304
0.0000347755
-0.0000061233
-0.0000149011
0.0000283650
-0.0000092330
0.0000097615
0.0000203018
0.0000233389
0.0000177269
0.0000239743
-0.0000107605
0.0000769643
-0.0000103913
-0.0000149319
0.0000456696
-0.0000148692
0.0000203715
0.0000891806
0.0001045870
-0.0000035962
0.0000778239
0.0000062935
0.0000017116
-0.0000083329
-0.0000000962
-0.0000022379
0.0000390810
-0.0000037049
0.0000137933
0.0000359046
0.0000018268
0.0000852378
0.0000483587
0.0000217565
0.0000253168
-0.0000096574
0.0000142371
-0.0000054483
0.0000255940
0.0000133688
0.0000108469
-0.0000031345
0.0000065716
0.0000131083
0.0000251936
0.0000263665
0.0000546752
-0.0000013846
-0.0000083261
-0.0000070533
0.0000361800
0.0001080127
-0.0000105057
0.0000113194
-0.0000053453
0.0000174259
-0.0000132343
0.0000207844
0.0000079350
0.0000087152
-0.0000103436
0.0000090060
-0.0000142980
0.0000739903
-0.0000042393
0.0000059109
-0.0000136847
0.0000255432
0.0000850988
0.0000252832
0.0000376002
-0.0000069883
0.0000016229
0.0000130733
-0.0000044131
0.0000142645
0.0000488067
-0.0000036443
-0.0000066421
-0.0000147633
0.0000013242
0.0000044397
-0.0000034012
0.0000037944
-0.0000118795
-0.0000141661
0.0000394285
0.0000136185
0.0000042439
0.0000486127
0.0000305074
-0.0000129326
0.0000345560
-0.0000052092
-0.0000065419
-0.0000152221
0.0000018330
0.0000225878
-0.0000120941
0.0000290731
-0.0000082944
-0.0000136204
-0.0000133625
0.0000037098
-0.0000078258
-0.0000065523
0.0000748786
0.0000440685
0.0000302414
-0.0000062856
0.0000092620
0.0000148932
0.0000245614
0.0000144194
0.0000139589
0.0000094000
-0.0000103285
0.0000006776
-0.0000082311
0.0000036983
0.0000579100
0.0000065509
0.0000245357
0.0000384426
0.0000584936
0.0000032677
0.0000168971
0.0000385793
-0.0000111794
0.0000517299
-0.0000049791
0.0000151742
0.0000337450
-0.0000062271
-0.0000076713
0.0000436600
-0.0000081880
-0.0000060268
-0.0000108191
0.0000160467
0.0000202848
-0.0000106993
0.0000113088
-0.0000040345
0.0000082754
0.0000053160
0.0000057466
0.0000133920
0.0000419861
0.0000011912
0.0000149744
-0.0000123170
0.0000157463
0.0000030655
0.0000214090
0.0000214610
-0.0000134053
-0.0000146255
-0.0000067132
-0.0000000100
-0.0000008925
-0.0000008914
0.0000623814
-0.0000064924
0.0001109724
-0.0000107961
-0.0000009602
0.0000042672
0.0000402441
0.0000496354
0.0000080363
0.0000012443
-0.0000028362
0.0000531462
0.0001448096
0.0000146592
-0.0000061586
0.0000321231
-0.0000064365
-0.0000131214
-0.0000075873
0.0000090091
0.0000090984
-0.0000075351
0.0000299977
-0.0000034343
-0.0000104188
-0.0000099427
0.0001045791
0.0000363119
-0.0000110960
-0.0000028490
-0.0000059228
-0.0000036973
-0.0000010034
-0.0000011848
0.0000051577
0.0000322398
-0.0000045621
0.0001255810
-0.0000050215
0.0000131053
-0.0000047272
0.0000002141
-0.0000066980
-0.0000130710
0.0000330998
-0.0000001038
0.0001055201
-0.0000085701
0.0000902847
0.0000220909
0.0000043257
-0.0000056346
0.0000048605
0.0000502798
0.0000268892
0.0001021510
0.0000176477
0.0000142069
0.0000086340
0.0001302578
-0.0000133904
0.0000038619
0.0000224911
-0.0000101668
0.0000230923
-0.0000021652
-0.0000068035
0.0000826495
-0.0000040867
0.0000883641
-0.0000082694
0.0000295480
0.0000301608
-0.0000059297
0.0000170439
-0.0000041885
-0.0000042609
0.0000092910
0.0000586854
-0.0000099453
0.0000029696
-0.0000071714
0.0000477915
-0.0000003100
0.0000156708
-0.0000005499
0.0000633152
-0.0000111816
0.0000731153
-0.0000076954
0.0000007584
0.0000216166
-0.0000147733
0.0000016851
-0.0000148401
-0.0000044821
0.0000191548
0.0000040911
0.0000474343
0.0000131893
-0.0000066319
0.0000375736
0.0000329536
0.0001058236
0.0000270200
-0.0000150297
-0.0000075752
0.0000057040
0.0000200065
0.0000401760
0.0000070547
0.0000261386
-0.0000136556
0.0000071779
-0.0000047356
-0.0000106825
-0.0000026206
-0.0000092240
0.0000192010
-0.0000076643
-0.0000086744
0.0000913871
0.0000224345
0.0000761889
0.0000483873
-0.0000014267
-0.0000091633
0.0000058938
0.0000538982
-0.0000146299
-0.0000131110
0.0000228699
0.0000177222
-0.0000120897
0.0000198687
0.0000312211
-0.0000147393
0.0000176323
-0.0000116475
0.0000564104
0.0000316357
0.0000395223
0.0001663031
0.0000005396
0.0000325556
-0.0000069858
-0.0000065907
0.0000263778
0.0000319426
0.0000074721
0.0000001325
0.0000103728
-0.0000147913
-0.0000068679
-0.0000110477
0.0000265948
-0.0000141618
-0.0000004777
-0.0000123329
0.0000114441
-0.0000005470
0.0000777707
-0.0000056578
0.0000160457
0.0000026297
0.0000568635
0.0000039601
-0.0000146200
-0.0000110953
0.0000013610
0.0001087803
0.0000545735
-0.0000127447
0.0000024883
-0.0000103377
0.0000226525
0.0000580218
-0.0000045775
0.0000169465
-0.0000001930
0.0000132712
-0.0000075213
0.0000198175
0.0000329089
-0.0000025359
0.0000215452
-0.0000077537
-0.0000071279
-0.0000061274
-0.0000002830
0.0000093533
-0.0000127924
0.0000153965
0.0000001211
-0.0000143682
0.0000277593
0.0000347719
0.0000055465
-0.0000029620
0.0000199005
-0.0000066892
0.0000589999
0.0000577104
-0.0000118136
-0.0000078105
0.0001021998
-0.0000127965
0.0000036741
0.0001678996
0.0000286425
0.0000074131
0.0000324183
0.0000377775
0.0000206249
-0.0000106071
0.0000170587
-0.0000140029
0.0000045676
0.0001278255
0.0000511910
-0.0000057753
-0.0000031913
-0.0000152496
-0.0000062581
-0.0000043299
-0.0000028866
-0.0000124732
-0.0000093493
0.0000121305
0.0000190941
-0.0000084727
0.0000168296
-0.0000077584
-0.0000118658
0.0000099538
-0.0000090812
-0.0000145785
0.0000339671
-0.0000024657
-0.0000110794
0.0000218930
-0.0000122560
0.0000260968
-0.0000149553
-0.0000006205
0.0000284672
0.0001712692
-0.0000007824
0.0000011688
0.0001043418
-0.0000029399
-0.0000052234
0.0000173395
-0.0000077085
0.0000275968
-0.0000143827
-0.0000000132
0.0000299992
0.0000254466
-0.0000111136
-0.0000055147
-0.0000005038
-0.0000109076
0.0000520456
0.0000212898
0.0000067382
-0.0000006102
-0.0000070312
-0.0000079831
0.0000089972
0.0000283551
-0.0000125513
-0.0000009265
-0.0000054813
-0.0000093731
0.0001042427
0.0000105385
-0.0000045418
-0.0000123304
-0.0000052620
-0.0000145318
-0.0000087749
-0.0000098951
0.0000447721
0.0000130359
0.0000436433
0.0000194859
0.0000597549
-0.0000071676
0.0000004066
-0.0000115331
-0.0000117147
0.0000093522
0.0000137804
-0.0000111456
0.0000396268
-0.0000087998
-0.0000132130
-0.0000030374
0.0000073566
-0.0000042240
0.0000006930
-0.0000139500
0.0000056029
-0.0000116636
-0.0000112076
0.0000156018
0.0000226672
0.0000042436
-0.0000150021
0.0000163950
0.0000327964
-0.0000107831
-0.0000133711
0.0000154792
0.0000748487
-0.0000100040
-0.0000071190
0.0000098735
0.0000184997
0.0000587703
0.0000156712
0.0000193804
0.0000222149
0.0000992152
0.0000890646
0.0000011939
0.0000007323
-0.0000060679
0.0000086899
0.0000130692
-0.0000062234
-0.0000152063
-0.0000090658
-0.0000065087
0.0000074671
0.0000362357
0.0000127083
0.0000057464
0.0000207258
-0.0000120792
-0.0000092186
0.0000606355
0.0000401939
0.0000135392
0.0000314777
0.0000589020
-0.0000149998
0.0000012432
-0.0000057955
0.0000086282
-0.0000030992
0.0000184272
0.0000212064
-0.0000150083
0.0000405880
0.0000728661
-0.0000005728
-0.0000073315
0.0000607379
-0.0000044555
0.0000116825
-0.0000111054
0.0000422881
-0.0000002579
-0.0000091660
0.0001297829
-0.0000030666
-0.0000136337
0.0000310541
0.0000064335
0.0000130076
0.0000477954
0.0000087978
-0.0000114286
0.0000189143
-0.0000028088
-0.0000101452
-0.0000063302
0.0000490593
0.0000865325
0.0000100170
-0.0000033437
0.0000186789
-0.0000106423
-0.0000119317
-0.0000051190
-0.0000081212
-0.0000118751
0.0000022709
0.0000000422
0.0000129305
-0.0000052169
0.0000057330
0.0000149062
0.0000311069
0.0000093145
0.0000149092
-0.0000123984
-0.0000097318
-0.0000150532
0.0000114272
0.0000103375
-0.0000096806
0.0000037676
0.0000060015
0.0000428211
0.0000116423
0.0000542838
-0.0000118313
0.0000120768
-0.0000076326
0.0000030224
-0.0000119899
0.0001274112
0.0000137018
0.0000641662
0.0000252038
0.0000271763
-0.0000055875
-0.0000033543
0.0000245503
-0.0000018209
0.0000023022
-0.0000148832
0.0000064249
-0.0000061936
0.0000529384
0.0000331842
0.0000926499
-0.0000131423
-0.0000066687
0.0000000890
0.0000605252
0.0000591672
-0.0000108815
0.0000508845
0.0000333760
0.0000187564
0.0000139133
0.0000151503
0.0000667612
-0.0000099064
0.0000577122
-0.0000122041
-0.0000096421
0.0000096347
-0.0000067467
0.0000043187
-0.0000031349
0.0000002111
-0.0000096710
0.0000863636
-0.0000106041
0.0000152074
0.0000209347
0.0000024968
0.0000277122
-0.0000065406
0.0000366145
0.0000341024
-0.0000016545
-0.0000050897
-0.0000125988
0.0000103157
0.0000246425
-0.0000146546
-0.0000072055
0.0000191188
0.0000318016
-0.0000140098
0.0000094916
-0.0000056210
0.0000100243
-0.0000151301
0.0000303904
-0.0000052386
0.0000313793
0.0000104086
-0.0000051607
-0.0000057019
-0.0000100629
0.0000094014
0.0000030771
-0.0000121995
-0.0000062836
0.0000125897
0.0000070542
0.0000593427
-0.0000080207
0.0000129959
-0.0000071146
-0.0000079520
0.0000144646
-0.0000124928
-0.0000128968
0.0000185959
0.0000103148
0.0000201996
0.0000536493
-0.0000065095
-0.0000052755
0.0000219903
0.0000887279
-0.0000077664
0.0000124985
0.0000227759
0.0000161094
0.0000067531
0.0000059355
0.0000491124
0.0000697146
0.0000325462
0.0000120515
0.0000025816
-0.0000031078
0.0000054569
0.0000244318
-0.0000071442
0.0000293355
0.0000434135
0.0000973826
-0.0000107971
0.0000972119
0.0000643140
0.0000339950
0.0000222463
0.0000558903
0.0000394057
-0.0000144445
0.0001011587
0.0000328362
0.0000202017
-0.0000087402
-0.0000109046
0.0000745497
0.0000008843
0.0000078042
-0.0000108846
0.0000036611
-0.0000149958
-0.0000119002
0.0000496207
-0.0000055729
-0.0000095392
0.0000232336
0.0000470958
0.0000147383
0.0000137358
0.0000004470
0.0000743615
-0.0000114802
0.0000052412
-0.0000089306
0.0000079731
-0.0000028331
-0.0000001520
-0.0000079567
-0.0000012840
0.0000225531
-0.0000045751
0.0000782426
-0.0000001781
0.0000687534
0.0000778624
0.0000172089
0.0000088942
-0.0000014651
0.0000031285
-0.0000117417
0.0000163370
-0.0000006484
0.0000124616
-0.0000054329
0.0000043529
0.0000160077
0.0000406817
0.0000386850
-0.0000092864
-0.0000031865
0.0000078654
0.0000326904
0.0000177662
0.0000189633
-0.0000058346
0.0000597795
0.0000140725
0.0000478010
0.0000097172
0.0000246249
0.0000082222
-0.0000037627
0.0000350319
0.0000452789
0.0000259395
0.0000101335
0.0001132434
-0.0000101240
-0.0000133515
0.0000065768
-0.0000007236
0.0000159257
0.0000142741
0.0000064545
0.0000177787
0.0000330926
0.0000235288
0.0000157193
0.0000780920
-0.0000131313
-0.0000126071
-0.0000099179
-0.0000104490
0.0001032621
0.0000590963
-0.0000011409
0.0000032223
-0.0000104123
0.0000612921
0.0000069128
0.0000268217
0.0000055351
0.0000380514
0.0001162205
-0.0000103701
0.0000271516
0.0000094486
0.0001077321
0.0000182258
-0.0000125694
-0.0000087217
0.0000213710
0.0000075123
0.0000123696
-0.0000100737
0.0000391925
-0.0000090764
-0.0000069752
0.0000107830
0.0000177884
0.0000047596
-0.0000026795
-0.0000022212
0.0000126379
-0.0000036296
-0.0000063261
0.0000162102
0.0000074447
0.0000876891
0.0000645960
0.0000300519
0.0000504027
0.0000052146
-0.0000069981
0.0000093419
-0.0000056597
0.0000582464
-0.0000112124
0.0000262588
0.0000503837
0.0000325253
0.0000047235
0.0000145950
-0.0000043582
0.0000033845
0.0000547513
0.0000770017
0.0000329704
-0.0000086633
0.0000082621
-0.0000011067
0.0000169687
-0.0000110109
-0.0000117277
0.0000663121
-0.0000143113
0.0000643141
0.0000715139
-0.0000016814
0.0000011218
0.0000198051
0.0000070639
0.0000127711
0.0000274681
0.0000045676
-0.0000095679
0.0000134714
0.0000253529
-0.0000046431
-0.0000129642
0.0000168551
0.0001368662
-0.0000109791
0.0001223152
-0.0000004042
-0.0000095961
0.0000957711
-0.0000081238
-0.0000099007
-0.0000148910
0.0000001355
0.0000768699
-0.0000040211
0.0000058160
-0.0000071526
-0.0000147748
0.0000061159
0.0000230769
-0.0000130209
0.0000060945
-0.0000050762
-0.0000072950
0.0000082905
-0.0000081363
-0.0000013979
-0.0000114127
0.0000200927
0.0000128116
0.0000148123
0.0000002010
-0.0000057749
-0.0000124513
0.0000418493
-0.0000132815
-0.0000117719
-0.0000080572
0.0000269086
0.0000022364
-0.0000150527
-0.0000066107
0.0000747611
0.0000682691
0.0000349593
-0.0000062278
-0.0000135523
0.0000386727
0.0001096249
0.0000050621
-0.0000090101
-0.0000142009
0.0000607285
0.0000300966
0.0000127537
0.0000024053
0.0000093695
-0.0000141742
-0.0000079009
-0.0000020899
0.0000313160
0.0000343927
0.0000518717
-0.0000032218
0.0000938647
-0.0000110366
0.0000604599
-0.0000023865
-0.0000104091
0.0000081702
0.0000325654
-0.0000085802
-0.0000097432
0.0000280515
0.0000746486
-0.0000093664
-0.0000148447
0.0000574454
0.0000319183
-0.0000065378
0.0000409923
0.0001563654
0.0000625297
-0.0000091946
-0.0000144888
-0.0000039075
-0.0000043361
-0.0000088534
0.0000186751
0.0000051161
-0.0000141823
-0.0000073152
-0.0000137790
0.0000045814
-0.0000047959
0.0000271712
-0.0000054033
-0.0000065891
0.0000446678
-0.0000068326
-0.0000121451
-0.0000077989
0.0000169837
0.0000077460
0.0000274053
-0.0000111013
0.0000183682
0.0000407130
0.0000071885
-0.0000016104
0.0000768899
0.0000010267
0.0000303936
0.0000068545
-0.0000048565
0.0000632927
0.0000186668
0.0000060443
0.0000326997
-0.0000125317
0.0000489222
0.0000090698
0.0000100767
-0.0000000495
0.0000810929
0.0000209987
0.0000671255
0.0000641332
0.0000882557
0.0000336935
0.0001163731
0.0000083405
-0.0000105027
-0.0000001002
0.0000056925
-0.0000137512
0.0000088401
-0.0000128684
0.0000427854
0.0000302389
0.0000243633
0.0000150885
-0.0000083123
0.0000189480
0.0000078095
0.0000119432
-0.0000149153
0.0000618326
0.0000016001
0.0001375515
-0.0000073102
0.0000381414
0.0000025638
-0.0000025641
0.0000347658
0.0000329332
-0.0000132966
0.0000439757
-0.0000107913
0.0000110350
0.0000020519
-0.0000150746
0.0000423471
0.0000614103
0.0000345689
-0.0000147757
-0.0000109237
-0.0000047266
0.0000076075
-0.0000039613
0.0000242737
-0.0000074733
0.0000332435
0.0000025033
-0.0000075872
-0.0000113185
-0.0000019416
-0.0000083936
0.0000964009
0.0000515416
0.0000854471
0.0000289611
0.0000404556
-0.0000053640
0.0000462394
0.0000065804
0.0000045841
-0.0000029010
0.0000171293
0.0000737977
0.0000084227
0.0001672397
0.0000353887
-0.0000125553
0.0000809195
0.0000024852
-0.0000141005
-0.0000082731
0.0000522053
-0.0000122263
-0.0000089661
0.0000028377
0.0000086634
-0.0000087181
-0.0000082252
-0.0000124921
0.0000145218
-0.0000077558
0.0000219111
0.0000539421
-0.0000127451
0.0000322091
-0.0000017804
0.0000043930
0.0000907942
-0.0000097274
0.0000360146
-0.0000122314
0.0000206216
0.0000020487
-0.0000007982
-0.0000054838
-0.0000036094
0.0000090763
0.0000195258
0.0000149812
-0.0000050311
-0.0000076736
0.0000035183
-0.0000032953
0.0000057543
-0.0000137795
-0.0000018093
-0.0000135728
0.0000325414
0.0000604819
0.0001075015
-0.0000090203
0.0000229821
0.0000024415
-0.0000079151
0.0000273378
0.0000312956
0.0000095605
-0.0000010107
0.0001583473
0.0000324910
0.0000712309
0.0000088630
0.0000152881
0.0000212486
-0.0000142501
0.0000091583
0.0000021380
-0.0000115595
0.0000117007
0.0000071224
-0.0000012071
0.0000865113
0.0000024831
0.0000784893
0.0000305909
0.0000054015
0.0000086921
-0.0000115834
-0.0000038654
-0.0000138763
0.0000252563
-0.0000086348
-0.0000055218
-0.0000008460
-0.0000128199
0.0000232888
0.0000277260
-0.0000138689
-0.0000079728
-0.0000076397
-0.0000118444
-0.0000145635
0.0000044951
-0.0000111337
0.0000723345
0.0000328591
0.0000318189
0.0000191073
-0.0000130522
0.0000080820
0.0000271595
-0.0000091341
0.0000883389
-0.0000143156
0.0000088852
-0.0000038407
-0.0000061547
0.0000652731
0.0000050869
0.0000070119
-0.0000099867
0.0000165856
-0.0000054063
0.0000148608
-0.0000124251
0.0000423711
-0.0000001525
0.0000267312
0.0000178958
-0.0000083131
-0.0000003194
0.0000552808
-0.0000013402
-0.0000100553
-0.0000011229
-0.0000073983
-0.0000144170
0.0000364259
0.0000993603
0.0000495900
0.0000046460
-0.0000102010
0.0000309457
0.0000079105
0.0000115887
-0.0000056332
0.0000549734
-0.0000145822
-0.0000041425
-0.0000068949
0.0000284889
-0.0000131424
0.0000215179
0.0000116060
0.0000734843
0.0000317151
0.0000576676
0.0000189548
0.0001132918
0.0001023511
0.0000641037
0.0000034578
0.0000426594
-0.0000053145
-0.0000136593
-0.0000062650
-0.0000099053
0.0000458043
-0.0000151253
0.0000111281
0.0000173310
0.0000261549
0.0000136113
-0.0000070341
-0.0000019002
-0.0000003270
-0.0000102787
0.0000771907
-0.0000149532
-0.0000133952
-0.0000146869
0.0000130839
0.0000090067
-0.0000044014
0.0000391137
0.0000182768
-0.0000133734
0.0000493590
-0.0000021817
-0.0000130292
-0.0000086001
0.0000045360
0.0000075611
-0.0000061701
0.0000039318
-0.0000066270
0.0000181735
-0.0000061783
-0.0000024390
0.0000274956
-0.0000017173
0.0000319967
-0.0000091918
0.0000029905
-0.0000116587
0.0000141431
0.0000166360
0.0000005542
0.0000149461
0.0000129431
-0.0000014333
0.0000454900
0.0000377929
-0.0000045544
-0.0000063002
0.0000313803
0.0000437829
-0.0000128257
0.0000090711
-0.0000009032
0.0000887674
-0.0000108519
-0.0000039187
0.0000273821
0.0000316120
0.0000059421
0.0000011632
-0.0000118962
-0.0000087646
0.0000000782
0.0000463471
0.0000076359
-0.0000077094
0.0000506068
-0.0000042468
-0.0000128182
-0.0000089494
0.0000525628
-0.0000045989
0.0000442616
0.0000324436
-0.0000129824
0.0000073641
-0.0000011488
0.0000414621
0.0000041429
0.0000307640
0.0000487169
0.0000557341
0.0000317124
-0.0000047522
-0.0000004471
-0.0000025860
-0.0000087450
-0.0000151800
-0.0000092272
0.0000054089
-0.0000127677
-0.0000135177
-0.0000033573
-0.0000017663
-0.0000098845
-0.0000108898
-0.0000148040
0.0000534008
0.0000132241
0.0000636965
-0.0000128241
-0.0000029980
0.0000076454
0.0000880827
0.0000118209
0.0000155884
-0.0000142449
-0.0000133389
0.0000017887
0.0000286341
-0.0000002516
-0.0000070054
-0.0000089303
-0.0000085547
0.0000918802
0.0000431926
0.0000276117
-0.0000044651
0.0000147753
0.0000155424
-0.0000101354
0.0000051739
0.0000350627
0.0000067671
0.0000292216
0.0000179762
-0.0000066903
0.0000130785
-0.0000152455
0.0000563584
-0.0000039311
0.0000017179
0.0000728468
0.0000053462
-0.0000135289
0.0000264390
-0.0000114557
0.0000351833
0.0000891605
0.0000528372
0.0000075722
0.0000041051
-0.0000132987
0.0000054403
-0.0000039030
0.0000416077
-0.0000030831
-0.0000148144
-0.0000120676
0.0000072743
-0.0000024301
0.0000266973
0.0000006783
0.0000067300
-0.0000030852
-0.0000023617
0.0000056265
0.0000154940
0.0000064854
0.0000076116
0.0000948927
0.0000372540
-0.0000109953
-0.0000013864
-0.0000023540
0.0000130189
-0.0000006749
0.0000124338
-0.0000021057
0.0000020605
0.0000006968
0.0000229804
-0.0000013601
-0.0000032388
-0.0000087137
-0.0000062142
0.0000158365
0.0000775624
0.0000001311
-0.0000028768
-0.0000096775
-0.0000116702
-0.0000096375
0.0001073005
0.0000165954
-0.0000149004
-0.0000151724
-0.0000124746
-0.0000138290
0.0000092677
-0.0000101279
-0.0000015783
-0.0000046982
-0.0000015816
0.0000025403
0.0000313697
0.0000061266
0.0000051872
-0.0000042516
0.0000031100
0.0000861948
0.0000004296
0.0000616619
0.0000511556
-0.0000072732
0.0000094989
0.0000116704
-0.0000045092
0.0000419439
-0.0000013916
-0.0000080147
-0.0000141928
-0.0000111802
0.0000144850
-0.0000055568
-0.0000074540
0.0000166993
0.0000000891
-0.0000085601
-0.0000118878
0.0000132279
-0.0000128075
0.0000731747
-0.0000091513
-0.0000109320
0.0000065821
0.0000449198
-0.0000106220
0.0000143027
0.0001007808
-0.0000108385
0.0000084654
0.0000832068
-0.0000120015
0.0000405219
-0.0000063960
0.0000077485
0.0001465193
0.0000443631
0.0000619617
0.0000223395
0.0000048005
-0.0000077846
-0.0000005732
-0.0000145954
-0.0000094905
-0.0000070645
0.0000520256
0.0000114805
-0.0000111286
0.0000555094
0.0000506829
-0.0000122638
-0.0000011038
-0.0000030318
0.0000309238
-0.0000036003
0.0000119490
-0.0000064904
-0.0000124806
0.0000136412
-0.0000122228
0.0000176839
0.0000415893
-0.0000083444
-0.0000064880
-0.0000059703
0.0000547743
-0.0000133991
0.0000180345
-0.0000107611
-0.0000019220
0.0000011425
-0.0000146748
0.0001090522
-0.0000053675
0.0000162306
0.0001298892
0.0000182380
0.0000242181
-0.0000069211
0.0000593427
-0.0000136735
0.0000398381
0.0000064976
0.0000260546
0.0000169917
0.0000072999
0.0000547685
0.0000019890
0.0000642942
0.0000104971
-0.0000137092
0.0000079725
-0.0000035946
0.0000295274
0.0000082601
-0.0000065510
0.0000118896
0.0000176474
0.0000205687
0.0000449836
0.0000021786
0.0000110767
-0.0000117907
-0.0000079493
-0.0000090781
-0.0000081667
-0.0000012993
-0.0000055745
0.0000074544
-0.0000106416
0.0000124096
0.0000254986
0.0000374875
0.0000154789
-0.0000135737
0.0000142804
-0.0000022400
-0.0000125096
0.0000483428
0.0000321028
-0.0000032897
0.0000131132
0.0000522230
-0.0000013404
0.0000040907
0.0000431545
0.0000098192
-0.0000120608
-0.0000088116
0.0000313133
-0.0000015850
0.0000939777
0.0000410560
-0.0000106867
-0.0000096773
0.0000231101
0.0000678141
-0.0000025518
0.0000381583
-0.0000057895
-0.0000126176
0.0000579482
0.0000136235
0.0000227757
0.0000400895
0.0000334459
0.0000268374
0.0000334786
-0.0000134013
-0.0000024054
0.0000095971
0.0000136550
0.0000038203
0.0000409006
0.0000420187
0.0000508944
0.0001968014
0.0000134956
0.0000199348
0.0000791468
-0.0000087772
0.0000266016
0.0000114829
0.0000251407
0.0000777901
-0.0000046736
-0.0000132436
0.0000645862
0.0000517476
0.0000182999
0.0000672287
0.0000010577
0.0000028832
-0.0000134075
-0.0000076094
0.0000322924
0.0000351906
0.0000329379
0.0000238733
0.0000296021
0.0000057963
-0.0000152276
-0.0000070698
0.0000084352
-0.0000004193
0.0000071688
0.0000344604
0.0000220570
-0.0000051319
-0.0000129497
-0.0000105731
-0.0000085788
-0.0000048320
-0.0000148131
0.0000012717
-0.0000094221
-0.0000127407
0.0000006375
-0.0000084815
-0.0000143265
0.0000003646
-0.0000073430
0.0000533799
0.0000210810
0.0000200672
0.0000306972
0.0000024027
-0.0000103343
0.0000587625
-0.0000085258
0.0000122732
-0.0000094090
0.0000062728
0.0000908407
0.0000344072
-0.0000141149
0.0000131029
-0.0000057118
-0.0000047118
0.0000266735
0.0000013218
-0.0000116835
-0.0000139894
-0.0000123997
0.0000199061
-0.0000107730
0.0001126173
0.0000448622
0.0000194258
0.0000292800
0.0000159709
0.0000026078
0.0000755145
0.0000066898
0.0000135303
-0.0000131143
-0.0000115098
0.0000313031
-0.0000088669
-0.0000050627
-0.0000086139
0.0000020872
-0.0000091037
0.0000033708
0.0000534264
0.0000416023
-0.0000108217
-0.0000031052
-0.0000103710
0.0000654679
-0.0000124648
-0.0000006208
-0.0000014140
0.0000276588
0.0000779628
0.0000365629
-0.0000096779
0.0000026710
0.0000299943
0.0000298551
0.0000496438
0.0000112790
-0.0000091052
0.0000873053
0.0000904468
0.0000045513
0.0000963676
0.0000078062
-0.0000059519
0.0000223245
0.0000376174
-0.0000082259
0.0000039930
0.0000012001
0.0000086615
-0.0000077100
0.0000108225
0.0000317714
0.0000068308
0.0000321019
-0.0000070824
-0.0000047720
0.0000159657
0.0000020873
-0.0000100668
-0.0000071077
-0.0000143783
0.0001228915
-0.0000057606
0.0000743604
0.0000016979
0.0000745496
0.0000300759
0.0000622995
-0.0000090283
0.0000671834
0.0000376717
-0.0000102185
-0.0000142255
0.0000189638
0.0000089111
0.0000069268
0.0000240634
-0.0000116398
-0.0000133310
0.0000183574
0.0000029881
-0.0000001966
0.0000847534
-0.0000095271
-0.0000101384
0.0000012493
-0.0000025471
0.0000114949
-0.0000045323
-0.0000067759
-0.0000141012
0.0000587151
0.0000106133
-0.0000128668
-0.0000069743
-0.0000036884
0.0000025521
-0.0000139095
0.0000396237
-0.0000102518
-0.0000151430
0.0000023891
0.0000452309
0.0000261733
0.0000032466
-0.0000002331
0.0000251288
-0.0000111006
-0.0000081323
0.0000232720
-0.0000140979
-0.0000073680
-0.0000140400
0.0000190802
0.0000175322
-0.0000146303
0.0000570636
0.0000017660
0.0000063251
0.0000094554
0.0000064102
0.0000500637
0.0000017762
0.0000232282
-0.0000067683
0.0000540012
0.0000138250
0.0000510757
0.0000894487
0.0000121438
0.0000067867
0.0000183943
-0.0000033898
-0.0000071352
-0.0000142416
-0.0000019474
0.0000088298
-0.0000084097
-0.0000122665
0.0000137929
0.0000267537
-0.0000114671
0.0000040010
0.0000524667
0.0000231167
-0.0000141584
-0.0000076740
-0.0000011774
0.0000239668
0.0000424958
-0.0000054188
0.0000069316
-0.0000068369
0.0000228877
0.0000526773
0.0000199751
0.0000255703
0.0000141999
-0.0000127562
0.0000294704
-0.0000115911
-0.0000135631
0.0000304950
-0.0000039206
0.0000452041
-0.0000119230
0.0000043496
0.0000039904
0.0000245451
0.0000488325
-0.0000030445
0.0000114357
0.0000232855
0.0000259928
-0.0000070906
-0.0000063690
0.0000631915
0.0000248984
-0.0000010503
-0.0000133380
-0.0000008837
0.0000245964
0.0000110547
-0.0000136764
0.0000089748
-0.0000114349
0.0000058375
0.0000351653
0.0000839581
0.0000176286
0.0000111009
-0.0000003136
-0.0000096195
0.0000096364
0.0000165548
0.0000187473
0.0000309445
-0.0000048540
-0.0000011866
0.0000072755
0.0000183027
0.0000626287
0.0000011766
-0.0000071054
0.0000505404
0.0000362672
-0.0000091624
-0.0000022615
0.0000085458
0.0000033905
0.0000304365
-0.0000013219
0.0000257136
-0.0000036299
0.0000033389
-0.0000002736
-0.0000095810
-0.0000000146
0.0000070228
0.0001023421
0.0000044579
0.0000015959
-0.0000053628
0.0000454629
-0.0000124063
-0.0000148807
-0.0000081157
-0.0000045929
0.0000049152
-0.0000143948
0.0000297672
0.0000076378
0.0000035086
0.0000043507
0.0000605383
-0.0000063137
-0.0000062176
0.0000132249
0.0000790129
0.0000032242
0.0000318746
0.0000211216
-0.0000085126
-0.0000057366
0.0002158427
0.0000142108
0.0000082971
0.0000844981
0.0000338102
0.0000348295
0.0000060598
0.0000212030
-0.0000105381
-0.0000097849
0.0000285407
0.0000109359
-0.0000152220
0.0000124374
-0.0000079700
0.0000356809
0.0000048241
-0.0000077116
0.0000228959
-0.0000028640
-0.0000058229
-0.0000145686
-0.0000053078
-0.0000122159
0.0000525886
0.0000353884
0.0000722989
-0.0000136147
-0.0000005636
0.0000075792
-0.0000136479
-0.0000135261
-0.0000136258
0.0000454648
0.0000087358
0.0000345423
0.0000098363
0.0000332328
0.0000088530
-0.0000133109
0.0000999565
-0.0000036913
0.0000598992
0.0000019717
-0.0000112038
0.0000407202
0.0000245542
0.0000031592
0.0000215331
0.0000497960
0.0000128328
0.0000013163
0.0000142758
0.0000147620
0.0000554771
0.0000312038
0.0000063855
0.0000144482
0.0000136673
-0.0000085689
-0.0000033866
0.0000003861
-0.0000078547
-0.0000106254
-0.0000070191
0.0000674516
0.0000033241
0.0000361090
-0.0000089466
0.0000146198
0.0000175467
0.0000085332
-0.0000085741
-0.0000025257
-0.0000030347
-0.0000010473
-0.0000151496
0.0000337386
0.0001652518
0.0000308687
0.0000320391
0.0000273802
-0.0000034650
0.0000296898
0.0000563646
0.0000230416
0.0000029699
0.0000214189
0.0000054916
-0.0000105084
0.0000057022
0.0000194760
0.0000043963
0.0000342062
-0.0000049516
0.0000530043
0.0000562022
-0.0000047512
0.0000795844
0.0000189984
0.0000192451
-0.0000028669
0.0000475540
0.0000607858
-0.0000053867
-0.0000098564
-0.0000053969
0.0001556797
0.0000385475
-0.0000098792
0.0001301266
0.0000288051
-0.0000092016
0.0000560320
-0.0000002597
-0.0000118823
0.0000169943
-0.0000027863
0.0000030283
-0.0000093739
0.0000240461
0.0000464217
0.0000503481
0.0000191806
0.0000593775
0.0000706656
-0.0000047617
0.0000030313
0.0001138485
-0.0000018995
0.0000261597
0.0000315770
0.0000008588
0.0000157523
0.0000297367
-0.0000126762
0.0000107554
0.0001096724
-0.0000099385
-0.0000063152
-0.0000007311
0.0000074202
-0.0000084283
-0.0000038936
0.0000130826
0.0000041783
0.0000280224
0.0000041644
-0.0000061419
0.0000164165
0.0001201701
0.0000595272
-0.0000094262
-0.0000127216
0.0000540232
-0.0000077179
-0.0000069986
0.0000260023
0.0000059564
-0.0000145383
0.0000315304
0.0000014531
0.0000093972
-0.0000038056
0.0000135703
0.0000071480
0.0000659065
0.0000289904
0.0000080597
-0.0000102970
0.0000014730
-0.0000036264
0.0000540931
0.0000309957
0.0000026910
0.0000093207
-0.0000110378
0.0000532596
0.0000313611
0.0000155225
0.0000060907
-0.0000048881
0.0000011773
0.0000186107
0.0000044388
-0.0000130892
0.0000035639
-0.0000125484
0.0000387237
-0.0000121519
0.0000737085
0.0000850602
0.0000223336
0.0000535100
0.0000052366
-0.0000083553
0.0000806596
-0.0000064582
0.0000214113
0.0000265202
0.0000285713
-0.0000147038
0.0000687571
-0.0000138977
0.0000138812
-0.0000014900
-0.0000113554
0.0000138910
0.0000497880
0.0000597456
-0.0000093691
0.0000303862
0.0000078793
-0.0000028668
0.0000038405
0.0000522617
0.0000291395
0.0000095176
0.0000005637
0.0000258339
0.0000439603
0.0001000020
-0.0000081766
-0.0000147899
0.0000371665
0.0000579646
0.0000031789
0.0000102519
-0.0000025343
-0.0000110007
0.0000159290
0.0000355603
0.0000001140
-0.0000132484
-0.0000052767
0.0000175843
-0.0000107417
-0.0000120840
0.0000579213
0.0000324544
-0.0000129839
0.0000663392
-0.0000135945
0.0000198194
-0.0000111162
-0.0000134191
-0.0000128486
-0.0000048323
0.0000254043
-0.0000151058
0.0000001752
0.0000656303
-0.0000040155
0.0000501369
-0.0000147951
-0.0000097952
0.0000247284
0.0000245872
0.0000068937
0.0000243219
0.0000146856
0.0000089440
-0.0000143205
0.0000328862
0.0000116612
0.0000463697
0.0000614511
0.0000017692
-0.0000090005
-0.0000103175
0.0000283389
0.0000790404
0.0000426296
0.0000326961
0.0000117116
0.0000128316
0.0000134264
-0.0000146132
0.0000599422
-0.0000104719
0.0000455771
0.0000074106
-0.0000010733
0.0000345318
0.0000166746
0.0000028187
0.0000190897
0.0000159334
0.0000856253
-0.0000093843
0.0000031376
-0.0000063488
0.0000298012
0.0000049206
-0.0000072571
-0.0000045490
0.0000995696
0.0000044574
0.0000161170
-0.0000120555
0.0000180543
0.0001325207
-0.0000077930
0.0000265251
0.0000343162
0.0000707857
0.0000043973
0.0000170550
0.0000184289
-0.0000105073
-0.0000080917
-0.0000041365
0.0000967328
0.0000029856
0.0000018704
-0.0000093772
0.0001021509
0.0000646213
-0.0000077040
-0.0000086603
0.0000102942
0.0000008304
0.0000016648
-0.0000013722
-0.0000062776
-0.0000151656
-0.0000076351
-0.0000043808
0.0000135542
0.0000274220
0.0000347531
0.0000475709
0.0000204965
-0.0000011733
0.0000209484
-0.0000058991
-0.0000141736
-0.0000075132
-0.0000086600
-0.0000014938
-0.0000072433
-0.0000003429
-0.0000103285
0.0000535870
0.0000391073
0.0000142113
0.0000125217
0.0000024278
0.0000155574
0.0000229241
0.0001055743
-0.0000146560
0.0000004940
0.0000521262
0.0000260104
0.0000371979
0.0000092620
0.0000465210
0.0000378801
0.0000016068
-0.0000119584
-0.0000141806
-0.0000136396
-0.0000146861
-0.0000069487
-0.0000102279
0.0000115259
0.0000131944
0.0000642626
0.0000746579
0.0000166708
-0.0000069693
-0.0000074058
-0.0000087921
0.0000014290
0.0000153024
0.0000041725
-0.0000096247
0.0000076420
-0.0000106086
-0.0000027442
-0.0000086580
0.0000072143
0.0000428484
-0.0000076140
0.0000818685
-0.0000117299
0.0000081097
0.0000227892
0.0000541791
0.0000382792
0.0000416569
-0.0000014693
0.0000348632
-0.0000027247
0.0000180175
-0.0000093891
-0.0000111076
-0.0000046273
-0.0000030241
-0.0000148736
-0.0000094346
-0.0000143341
0.0000310660
-0.0000004406
0.0000005074
0.0000210184
0.0000172463
-0.0000141570
0.0000349580
0.0000199324
0.0000429138
0.0000345742
0.0000014979
0.0000071775
0.0000226054
-0.0000018460
0.0000522932
0.0000420649
0.0000385435
0.0000104486
0.0000103967
0.0000367482
-0.0000053580
0.0000370562
0.0000822565
0.0000069243
-0.0000013028
-0.0000026497
0.0000009238
0.0000781119
0.0000096849
0.0000196473
0.0000351748
-0.0000030226
0.0000050027
0.0000449265
0.0000013738
0.0000346806
0.0000282552
-0.0000072522
0.0000027006
0.0000036869
-0.0000110374
-0.0000060525
-0.0000038590
0.0001074656
0.0000005711
0.0000468712
-0.0000106317
-0.0000006295
-0.0000103549
0.0000107034
0.0000037167
0.0000019244
0.0000386654
0.0000031846
0.0000301982
0.0000192894
-0.0000143022
-0.0000021382
0.0000195095
-0.0000024748
0.0000056039
0.0000617246
-0.0000002424
0.0000500248
-0.0000109612
-0.0000017390
-0.0000147563
-0.0000049098
0.0000051011
-0.0000103626
0.0000016221
0.0000232627
-0.0000116259
0.0000011411
0.0000047820
0.0000523092
0.0000034412
0.0000200149
0.0000308683
-0.0000005226
0.0000464385
-0.0000145799
0.0000160166
0.0000039297
0.0000558929
0.0000454967
0.0001185371
-0.0000115863
-0.0000061510
0.0000113291
0.0001283861
0.0000124928
0.0000046113
0.0000159184
0.0000403258
0.0000224508
0.0000060994
0.0000452247
0.0000303804
-0.0000084547
-0.0000051102
-0.0000065308
-0.0000117930
0.0000308449
-0.0000069557
-0.0000073895
0.0000223595
0.0000386143
0.0000728684
0.0000268569
-0.0000149003
0.0000465025
0.0000156611
0.0000511526
-0.0000002403
-0.0000099094
0.0000013311
-0.0000142373
-0.0000074519
0.0000393092
0.0000662588
-0.0000149601
-0.0000044853
-0.0000060504
-0.0000102070
0.0000043012
-0.0000140739
0.0000037317
-0.0000117048
0.0000149463
0.0000758798
0.0000086987
-0.0000090338
-0.0000088818
-0.0000140136
0.0000124696
0.0000499881
-0.0000060003
0.0000575253
-0.0000118623
0.0000242080
0.0000637685
-0.0000126474
-0.0000059821
-0.0000003693
-0.0000082274
0.0000059004
0.0000773228
-0.0000132243
0.0000022150
0.0000390289
0.0000415189
-0.0000089525
0.0000296489
-0.0000049771
0.0000225041
0.0000405750
-0.0000063758
-0.0000060040
0.0000166338
0.0000016536
0.0001021981
0.0000991176
0.0000014515
0.0000114378
0.0000303679
0.0000005152
-0.0000122413
0.0000129840
-0.0000149282
-0.0000127857
0.0000713741
0.0000000539
-0.0000090233
0.0000191442
0.0000008671
-0.0000060864
-0.0000124821
0.0000059562
-0.0000025267
0.0000336210
0.0000571135
0.0000008072
-0.0000005865
-0.0000055916
-0.0000087378
-0.0000149859
-0.0000133729
-0.0000038590
-0.0000041856
-0.0000075135
0.0000035017
-0.0000035288
0.0000244124
0.0000271020
0.0000042324
-0.0000095290
0.0000031229
-0.0000055306
0.0000254186
0.0000060822
-0.0000073171
-0.0000059778
-0.0000098024
0.0000516348
-0.0000007352
0.0000265706
-0.0000143644
-0.0000082182
0.0000094058
0.0000101641
0.0000084845
0.0000196161
0.0000218720
0.0000076672
0.0000016273
-0.0000045676
-0.0000125272
-0.0000001471
0.0000144262
0.0000492311
-0.0000050009
0.0000447523
0.0000818336
0.0000182973
0.0000072915
-0.0000066808
0.0000488533
0.0000065163
0.0001217965
-0.0000129355
0.0000041486
0.0000437214
0.0000041186
0.0000103043
0.0000079125
0.0000122918
0.0000547870
0.0001222208
0.0001016527
-0.0000029632
-0.0000122253
0.0000051717
-0.0000024092
0.0000287802
-0.0000004794
0.0000215681
-0.0000039610
-0.0000030054
0.0001277734
0.0000380723
0.0000403697
0.0000102215
-0.0000072417
-0.0000089214
0.0000047758
0.0000695869
-0.0000062254
0.0000460090
0.0000320191
-0.0000091398
-0.0000151121
0.0000722859
-0.0000008316
-0.0000048947
-0.0000101330
-0.0000025882
-0.0000071548
0.0000570776
-0.0000009356
0.0000229332
-0.0000022191
0.0000203073
-0.0000098512
0.0000311271
-0.0000037091
-0.0000086662
0.0000221051
0.0000354004
-0.0000038455
0.0000229480
0.0000892732
0.0000030450
-0.0000015531
0.0000243401
0.0000351831
-0.0000032638
-0.0000150908
0.0000013553
-0.0000141172
0.0000534805
-0.0000090897
-0.0000102525
0.0000314725
0.0000164499
-0.0000119640
0.0000059793
-0.0000091180
0.0000140679
-0.0000097006
0.0000213717
0.0000833362
-0.0000085844
0.0000081609
0.0000488993
0.0000481245
0.0000641553
0.0000130451
-0.0000015062
0.0000176867
0.0000277485
-0.0000105523
-0.0000032265
0.0000113294
0.0000289049
0.0001777083
0.0000129874
-0.0000112867
-0.0000144476
0.0000024681
0.0000156453
0.0000205242
0.0000042984
-0.0000061048
-0.0000036942
-0.0000033662
-0.0000084863
-0.0000084786
0.0000334835
-0.0000056192
-0.0000129748
0.0000408382
0.0000041708
-0.0000005240
0.0000190306
-0.0000139381
-0.0000039570
0.0000165906
-0.0000134852
0.0000196845
0.0000097608
-0.0000023994
-0.0000082210
0.0000054711
-0.0000142585
0.0000567106
0.0000408917
0.0001325477
-0.0000119950
-0.0000114833
0.0000384229
-0.0000144622
-0.0000150257
0.0000064761
0.0000032093
-0.0000083567
-0.0000087735
0.0000297074
0.0000139145
-0.0000035589
-0.0000111177
-0.0000081672
0.0000788122
0.0000193783
-0.0000005858
-0.0000081542
0.0001032368
-0.0000052069
0.0000053495
0.0000153233
0.0000084107
-0.0000026814
0.0000506311
0.0000232899
-0.0000141256
-0.0000037184
-0.0000114318
0.0000302805
0.0001179382
0.0000749087
0.0000064819
0.0000099292
-0.0000125397
0.0000157983
-0.0000050113
0.0000121147
0.0000172114
0.0000093040
0.0000059401
-0.0000100191
0.0000094697
-0.0000116548
0.0000101170
0.0000036055
0.0000023225
0.0000453175
0.0000270626
0.0000122262
-0.0000014618
-0.0000032054
0.0000356703
-0.0000053570
0.0000070258
-0.0000075592
0.0000044691
-0.0000081724
0.0000005267
-0.0000069561
0.0000150931
0.0000215532
-0.0000062529
-0.0000101283
0.0000297027
0.0000222775
-0.0000064015
0.0000782415
-0.0000094232
-0.0000042448
0.0000019057
-0.0000114751
0.0000156516
0.0000175774
-0.0000147070
0.0000517864
-0.0000114941
-0.0000115409
-0.0000150314
-0.0000093740
0.0000046272
0.0000298810
0.0000046022
0.0000301307
0.0000410268
0.0000862335
0.0000444432
0.0000134630
-0.0000136847
0.0000043183
-0.0000104396
-0.0000103963
0.0000385217
0.0000010426
0.0000001202
0.0000017899
-0.0000068909
0.0000379801
0.0000087477
-0.0000007253
-0.0000064646
0.0000381488
-0.0000114398
0.0000718556
0.0000088924
0.0000235773
0.0000045168
0.0000275366
0.0000047093
0.0000153106
0.0000233160
0.0000302414
-0.0000134690
0.0000096229
-0.0000019694
0.0000218194
0.0000660143
0.0000014014
-0.0000063523
-0.0000145319
-0.0000128806
0.0000276063
-0.0000035999
0.0000199567
0.0001098574
0.0000150936
-0.0000058236
-0.0000123962
0.0000045887
0.0000396712
-0.0000048982
-0.0000038912
0.0000694756
0.0000405172
0.0000008639
0.0000140470
-0.0000090059
-0.0000131466
-0.0000005175
0.0000086654
-0.0000034025
0.0000309614
0.0000183169
-0.0000071873
-0.0000134416
0.0000363931
0.0000700056
0.0000102472
0.0000651856
0.0001545052
0.0000254077
0.0000345074
0.0000095904
-0.0000114646
-0.0000032654
-0.0000150262
-0.0000136259
-0.0000119049
0.0000087879
0.0000356347
0.0000470864
-0.0000004337
0.0000231245
0.0000211118
0.0000071029
0.0000917906
0.0000518237
-0.0000127759
0.0000099035
0.0000222101
0.0000233975
0.0000228370
0.0000020156
0.0000518020
-0.0000014415
0.0000303403
0.0000077467
-0.0000141405
0.0000293193
0.0000507157
-0.0000062186
0.0000029530
-0.0000119571
0.0000654041
-0.0000104083
0.0000060086
0.0000803617
0.0000328280
-0.0000138941
-0.0000151501
0.0000003119
0.0000229256
0.0000716230
0.0000211510
-0.0000120363
0.0000076858
0.0000002207
-0.0000127903
0.0000238024
-0.0000140724
0.0000082091
0.0000361310
0.0000005114
0.0000303546
0.0000185827
-0.0000133182
0.0000201024
-0.0000112967
0.0000044337
0.0000169282
0.0000040557
-0.0000019530
0.0000709311
-0.0000025532
0.0001013180
-0.0000113109
-0.0000088977
0.0000038543
0.0000144408
0.0000135314
-0.0000135357
-0.0000086014
-0.0000138982
-0.0000026754
0.0000071985
-0.0000103408
-0.0000103576
0.0000281654
0.0000035208
-0.0000147317
-0.0000148512
0.0000101567
0.0000524130
0.0000244021
-0.0000040701
-0.0000143856
-0.0000127457
-0.0000140562
0.0000669767
-0.0000004856
0.0000522911
-0.0000116356
0.0000917346
-0.0000082394
0.0000189674
0.0000081428
-0.0000026293
0.0000765108
0.0001147894
0.0000079205
0.0000007849
0.0000004276
0.0000584583
-0.0000045825
0.0000033371
-0.0000028348
-0.0000036156
-0.0000117112
-0.0000093243
0.0000408060
-0.0000075337
0.0000422708
0.0000123181
0.0000001712
-0.0000111678
0.0000349599
0.0000519521
0.0000247455
0.0000024594
0.0000127837
0.0000851784
-0.0000024489
-0.0000028818
-0.0000138044
0.0000329247
-0.0000096367
0.0000624193
0.0000082024
0.0000356252
0.0000453652
0.0000164420
-0.0000098015
0.0000020777
0.0000046221
-0.0000126519
-0.0000126936
0.0000239750
0.0001208182
-0.0000001815
0.0000698664
0.0000448042
0.0000124209
0.0000295726
-0.0000056542
0.0000241008
-0.0000094878
-0.0000081220
0.0000161029
-0.0000129896
-0.0000002311
0.0000655988
-0.0000135827
-0.0000033833
0.0000126710
0.0000310542
-0.0000132218
-0.0000093766
-0.0000146293
0.0000003786
-0.0000055074
0.0000728627
0.0000111822
-0.0000066594
-0.0000024215
-0.0000026084
-0.0000049147
0.0000168041
-0.0000061659
-0.0000081976
0.0000716485
0.0000029968
0.0000035248
-0.0000111631
0.0000044843
0.0000007888
0.0001551239
-0.0000095000
0.0000885692
0.0000277871
0.0000636380
-0.0000104957
-0.0000139951
0.0000036216
0.0000008403
0.0000177976
-0.0000010993
-0.0000102480
-0.0000071482
0.0000285122
-0.0000113901
-0.0000132402
-0.0000119587
0.0000035972
-0.0000013573
0.0000121280
0.0000251051
0.0000086491
-0.0000142230
0.0000120550
0.0000939200
-0.0000033974
0.0000233000
0.0000041614
0.0000089231
0.0000559813
-0.0000116752
0.0000181514
-0.0000152130
-0.0000029163
-0.0000103656
0.0000187633
0.0000035819
-0.0000006175
0.0000119643
0.0000896958
-0.0000039938
0.0000145020
0.0000072643
-0.0000107500
0.0000133957
-0.0000016396
-0.0000111116
-0.0000135514
-0.0000076321
0.0000217477
0.0000069153
-0.0000081552
0.0000040691
0.0000348197
-0.0000037636
0.0000484435
0.0000086217
-0.0000028975
0.0000468953
0.0000154281
-0.0000096504
-0.0000025488
0.0000575956
0.0000731952
-0.0000061283
0.0000166444
0.0000115078
0.0000181993
-0.0000104743
0.0000101636
0.0000637864
0.0000125092
0.0000326656
0.0000250725
-0.0000148374
-0.0000110395
0.0000485016
0.0000138441
-0.0000134296
0.0000123192
0.0000062533
0.0000629180
0.0000161266
0.0000180203
-0.0000014695
0.0000006800
0.0000065065
-0.0000041136
-0.0000018534
0.0000435423
0.0000013896
-0.0000050803
0.0000139950
-0.0000053471
0.0000170068
0.0000251105
-0.0000050721
0.0000138236
0.0000062912
0.0000504305
-0.0000023418
-0.0000152021
0.0000884907
-0.0000120892
-0.0000051785
-0.0000073096
-0.0000094710
-0.0000083844
-0.0000115844
-0.0000115193
-0.0000130463
-0.0000099364
-0.0000007772
0.0000397920
0.0000460646
0.0000223012
0.0000458150
0.0000057194
0.0000206790
0.0000010425
0.0000195391
0.0000708036
0.0001108318
0.0000022630
-0.0000092849
0.0000152650
-0.0000104516
-0.0000123299
0.0000193757
0.0000310561
-0.0000004460
0.0000177829
-0.0000054010
-0.0000144878
-0.0000148166
-0.0000133763
0.0000089186
0.0000040738
-0.0000063098
0.0000071560
-0.0000014071
0.0000287754
0.0000486256
-0.0000052463
-0.0000064808
0.0000209325
0.0000292339
-0.0000023675
0.0000223692
-0.0000135462
0.0000273288
0.0000068021
0.0000248113
0.0000423215
0.0000170117
-0.0000026494
-0.0000107246
0.0000671538
0.0000265575
-0.0000044459
0.0000256988
-0.0000079766
0.0000016394
0.0000014256
0.0000174861
0.0000039274
0.0000112649
0.0000333909
0.0000133425
-0.0000095304
0.0000036087
0.0000051731
-0.0000079960
0.0000083148
-0.0000047906
0.0000561720
-0.0000078473
-0.0000055672
0.0000113810
0.0000157001
0.0000124723
0.0000217139
-0.0000137687
0.0000328900
-0.0000063765
-0.0000111563
-0.0000147199
0.0000037378
0.0000459705
0.0000035857
-0.0000044008
-0.0000130278
-0.0000049327
0.0000368410
0.0000100839
0.0000142238
-0.0000104628
0.0000103218
0.0000041655
-0.0000072634
0.0000036945
0.0000141698
0.0000060560
-0.0000116311
0.0000044684
0.0000323837
0.0000255381
0.0000724497
-0.0000108346
0.0000860245
-0.0000032183
0.0000495334
0.0000209099
0.0000233222
0.0000369908
0.0000070989
0.0000505061
-0.0000124178
0.0000265509
0.0000530195
0.0000009274
0.0000374546
-0.0000132454
-0.0000080071
-0.0000140509
-0.0000004557
-0.0000101470
0.0001047441
0.0000122063
0.0000600818
0.0000030064
0.0000597143
-0.0000021574
-0.0000052081
0.0000083728
0.0000301910
-0.0000098167
0.0000312255
-0.0000049897
0.0000103643
-0.0000063598
0.0000128225
0.0000186243
-0.0000018174
-0.0000127577
0.0000028999
-0.0000111108
0.0000850442
0.0000201740
-0.0000063855
-0.0000084156
0.0000067238
0.0000391858
-0.0000143422
-0.0000133268
-0.0000123449
0.0000595582
0.0000696795
-0.0000132508
-0.0000046198
0.0000508367
0.0000131803
0.0000116183
-0.0000034833
0.0001056364
-0.0000107132
0.0000804682
0.0000399107
-0.0000099904
-0.0000146265
0.0000075740
0.0000436248
-0.0000147448
0.0000479357
-0.0000150128
-0.0000008980
-0.0000087204
0.0000230870
0.0000269451
0.0000345763
-0.0000114099
0.0000177622
0.0000139392
-0.0000090161
0.0000359845
0.0000450921
-0.0000098841
0.0000017328
0.0000565344
-0.0000112497
0.0000039790
0.0000603073
-0.0000140133
0.0000626645
0.0000232407
-0.0000007400
0.0000688304
0.0000257912
0.0000253334
-0.0000033867
-0.0000116519
-0.0000116017
0.0000032789
0.0000118463
-0.0000011433
-0.0000103645
-0.0000126513
0.0000167848
-0.0000114533
-0.0000130421
-0.0000054863
0.0000492700
0.0000673514
-0.0000060161
0.0000096678
0.0001745131
-0.0000080777
-0.0000101118
-0.0000105212
0.0000125138
-0.0000130808
-0.0000150625
-0.0000039079
-0.0000141482
0.0000071362
0.0000063997
-0.0000065249
0.0000016759
-0.0000071980
-0.0000074366
-0.0000069864
0.0000305148
-0.0000104309
0.0000102368
-0.0000132446
-0.0000057003
0.0001314780
0.0000044588
0.0000453979
0.0000226011
0.0000365886
0.0000274007
-0.0000093848
0.0000198025
0.0000374971
0.0000326832
0.0000068141
0.0000643045
-0.0000149742
0.0000331934
0.0000224136
-0.0000080045
0.0000124433
-0.0000064017
-0.0000088887
0.0000062794
0.0000950804
0.0000272859
0.0000000812
0.0000098815
0.0000038246
0.0000004163
0.0000089781
0.0000368658
0.0000068521
0.0000516544
-0.0000095119
-0.0000127180
0.0000237969
0.0000036220
-0.0000029654
-0.0000051568
0.0000066786
0.0000346307
0.0000200837
-0.0000038112
-0.0000071057
-0.0000078616
0.0000434420
0.0000496648
-0.0000054357
0.0000097984
0.0000179300
0.0000253089
0.0000176282
0.0000738640
0.0000302813
0.0000506166
0.0000298849
0.0000608073
0.0000108690
0.0000282125
0.0000194326
0.0000190087
-0.0000079773
-0.0000060485
-0.0000105382
0.0000049472
0.0000564151
0.0000187801
-0.0000109139
0.0001077898
-0.0000127611
0.0000015326
0.0000633127
-0.0000152226
0.0000278379
-0.0000120132
0.0000076296
0.0000010961
0.0000202065
0.0000195954
0.0000017824
0.0000012214
0.0000074219
-0.0000101191
0.0000201140
-0.0000124692
0.0000097132
-0.0000128907
0.0000313937
0.0000678859
0.0000208319
-0.0000082086
0.0000151366
-0.0000007475
-0.0000037309
0.0000341629
-0.0000003962
0.0000025718
0.0000245304
-0.0000063840
-0.0000046207
0.0000007568
0.0000148169
0.0000970692
0.0000106647
-0.0000111473
0.0000828806
0.0000451876
0.0000052897
0.0000349902
0.0000060739
-0.0000064451
0.0000132302
0.0000041508
0.0000096840
-0.0000025565
-0.0000111627
0.0000122764
0.0000319938
-0.0000099424
0.0001601640
-0.0000021690
0.0000180840
0.0000115493
-0.0000136144
-0.0000048131
0.0000082111
0.0000195237
-0.0000058885
-0.0000082495
0.0001134967
0.0000258608
-0.0000050987
-0.0000025806
-0.0000065383
0.0000168558
0.0000104604
-0.0000070245
-0.0000033851
0.0000036597
0.0000549031
0.0000451833
-0.0000061786
0.0000066508
-0.0000127382
0.0000186126
-0.0000094121
0.0001370329
-0.0000105685
0.0000309745
0.0000001414
-0.0000097928
-0.0000150424
0.0000348850
-0.0000046093
0.0000008317
0.0000139166
0.0000237195
-0.0000005862
0.0000604787
0.0000202226
-0.0000055850
0.0000291657
-0.0000103963
-0.0000059947
0.0000123504
0.0000021965
-0.0000151357
0.0000097286
-0.0000027617
0.0000004498
-0.0000042629
0.0000467559
0.0000119846
-0.0000064335
-0.0000033571
0.0000371976
0.0000081571
0.0000467737
-0.0000017661
-0.0000131904
0.0000175228
0.0000132269
-0.0000097742
0.0000168943
-0.0000029400
-0.0000139866
0.0000007449
0.0000073503
-0.0000089683
-0.0000067277
-0.0000066955
0.0000166633
0.0001164135
0.0000664644
-0.0000037884
-0.0000057806
0.0000221698
-0.0000069290
0.0000551626
0.0000054608
-0.0000100587
0.0000038562
-0.0000086976
0.0000159739
0.0001207773
0.0000307307
0.0000478497
-0.0000132051
0.0000415599
0.0000280986
-0.0000121855
-0.0000009470
0.0000023283
-0.0000142093
0.0000108842
0.0000017160
0.0001082203
0.0000248733
-0.0000145538
-0.0000119740
-0.0000121730
0.0001057970
-0.0000124078
-0.0000136937
0.0000398770
0.0000337599
0.0000003597
0.0000024874
0.0000374306
-0.0000100247
0.0000041788
-0.0000031825
-0.0000067047
-0.0000140725
0.0000152502
0.0000124147
-0.0000094071
-0.0000132271
-0.0000060416
0.0000040161
-0.0000051667
0.0000186285
0.0000052784
0.0000072680
0.0000361563
0.0000594537
0.0000022728
-0.0000074524
0.0000117630
0.0000457445
-0.0000134357
0.0000391650
-0.0000002381
-0.0000074317
-0.0000131200
0.0000019367
0.0001146200
-0.0000020891
0.0000087413
-0.0000067096
0.0000390464
-0.0000058976
-0.0000147014
-0.0000022974
0.0000482489
0.0000217883
-0.0000068822
-0.0000118984
-0.0000030189
-0.0000133299
0.0000253171
-0.0000036751
0.0000316324
-0.0000119299
0.0000356424
0.0000535874
-0.0000038195
-0.0000070595
0.0000163342
0.0000406322
-0.0000121877
0.0000683944
0.0000351242
-0.0000144450
0.0000268519
0.0000272603
-0.0000119747
-0.0000114022
0.0000988923
-0.0000138336
-0.0000060044
0.0000116972
-0.0000090806
0.0000280995
0.0000848761
-0.0000025714
0.0000093177
0.0000918169
-0.0000006788
-0.0000057144
0.0000115213
-0.0000083114
0.0000020134
-0.0000068017
-0.0000135727
-0.0000076018
0.0000422814
-0.0000110542
-0.0000113514
0.0000072120
-0.0000052330
-0.0000073477
0.0000807042
0.0001424347
0.0000222242
0.0000237146
0.0000161921
-0.0000138806
-0.0000046402
0.0000129493
0.0000004655
0.0000150316
-0.0000025890
-0.0000139031
-0.0000132133
0.0000177806
0.0000036547
0.0000278296
0.0000424614
-0.0000075910
-0.0000011169
0.0000233186
0.0000936507
-0.0000081598
0.0000072888
-0.0000134691
-0.0000140555
0.0000223211
-0.0000138450
0.0000161530
-0.0000096984
-0.0000135859
0.0000034152
-0.0000076291
0.0000118099
0.0000012124
0.0000243585
0.0000071491
0.0000762420
-0.0000147033
0.0000833961
0.0000043762
0.0000290407
0.0000221129
0.0000453402
-0.0000145762
-0.0000126844
0.0000119107
0.0000290301
0.0000322619
0.0000006100
-0.0000032998
0.0000169763
0.0000080489
0.0000121517
-0.0000134921
-0.0000026790
0.0000754142
0.0000088720
0.0000095627
0.0000451327
-0.0000068842
0.0000056249
0.0000292665
0.0000104743
0.0000203392
-0.0000132529
-0.0000085964
-0.0000047429
0.0000373381
-0.0000072315
0.0000097549
-0.0000144664
0.0000136026
-0.0000049849
0.0000183565
0.0000090518
-0.0000108313
0.0000291450
-0.0000043972
0.0000351064
0.0000174936
0.0000029707
0.0000678016
0.0000006223
-0.0000145053
-0.0000141578
-0.0000129925
0.0000048926
0.0000114984
0.0000258315
0.0000093337
0.0001206773
-0.0000138618
-0.0000123311
0.0000522221
-0.0000073737
0.0000215464
0.0000016834
0.0000119080
0.0000011154
0.0000082887
0.0000023055
0.0000405684
0.0000350553
0.0000209147
0.0001081024
0.0000187995
0.0000013177
0.0000000695
-0.0000105404
0.0000000157
0.0000821812
-0.0000112415
-0.0000123597
-0.0000014418
0.0000188345
-0.0000067518
0.0000026905
0.0000198644
-0.0000021281
-0.0000105878
-0.0000019874
-0.0000107522
-0.0000118273
-0.0000109123
-0.0000043813
0.0000087832
-0.0000091439
-0.0000131009
0.0000106729
0.0000221627
0.0000613550
-0.0000130870
0.0000278021
0.0000321753
0.0000477514
0.0000243419
0.0000347672
-0.0000142453
0.0000230485
0.0000324197
0.0000001079
-0.0000069468
0.0000359294
0.0000383045
-0.0000056756
0.0000574202
0.0000745827
-0.0000067860
-0.0000133112
0.0000385850
0.0000105197
-0.0000014198
0.0000285020
-0.0000052687
-0.0000090287
0.0000348722
-0.0000138458
0.0000634362
-0.0000086339
0.0000228448
0.0000462059
0.0000319147
0.0000190943
-0.0000059879
0.0000530263
0.0000282481
0.0000054910
0.0000041628
0.0000053243
0.0000190178
-0.0000056603
-0.0000128469
0.0000134802
0.0000452587
0.0000016678
0.0000272701
0.0000032112
0.0000376414
0.0000074691
0.0000581201
0.0000111231
-0.0000145735
-0.0000071344
0.0000361010
0.0000501296
0.0000380609
-0.0000132584
0.0000635478
-0.0000043342
-0.0000070479
-0.0000150808
0.0000202736
-0.0000000236
0.0000211204
-0.0000150938
-0.0000094072
0.0000373920
0.0000114598
0.0000317385
0.0000294160
0.0000360820
0.0000377058
-0.0000140146
-0.0000121557
-0.0000057820
-0.0000116536
-0.0000060710
-0.0000035962
0.0000024505
0.0000612937
0.0000294475
0.0000555136
0.0000045548
-0.0000098794
0.0000663911
0.0000427210
-0.0000029781
0.0000538870
0.0000000338
-0.0000117429
0.0000414109
-0.0000138114
0.0000150747
-0.0000110157
-0.0000107095
0.0000099774
0.0000134362
0.0000013240
-0.0000012376
-0.0000113259
-0.0000136579
0.0000426038
0.0000014155
0.0000020938
0.0000113719
-0.0000020208
0.0000312216
-0.0000009339
-0.0000123719
0.0000170987
0.0000058018
0.0000102252
0.0000305997
0.0000585162
0.0000051260
0.0000558446
0.0000168710
0.0000130599
-0.0000149116
0.0000186531
-0.0000125205
-0.0000029936
0.0000395630
-0.0000094440
0.0000009079
-0.0000081673
0.0000245825
-0.0000128277
-0.0000135135
-0.0000137912
0.0000376518
0.0000001645
0.0000031482
0.0000056107
0.0000089906
-0.0000076167
0.0000191349
0.0000262981
0.0000171293
-0.0000042061
-0.0000031457
0.0000159808
-0.0000023214
-0.0000111934
0.0000341703
0.0000351784
-0.0000101806
0.0000117466
0.0000876964
0.0000180308
0.0000204654
0.0000099627
-0.0000032191
0.0000088744
-0.0000068292
-0.0000009585
-0.0000099815
0.0000689449
0.0000056510
0.0001535800
0.0000035049
-0.0000077807
-0.0000146167
0.0000199504
0.0000286147
0.0000403384
0.0000215630
-0.0000147769
0.0000538014
0.0000221035
0.0000049983
0.0000796416
0.0000168396
-0.0000120206
0.0000507083
0.0000251785
-0.0000151477
0.0000570002
0.0000047915
-0.0000101062
-0.0000128994
-0.0000104097
0.0000515719
0.0000282213
0.0000020490
-0.0000142796
0.0000426840
0.0000220625
0.0000028507
-0.0000098390
0.0000394987
0.0000341218
-0.0000144943
-0.0000045541
0.0000059721
0.0001462136
0.0000148041
-0.0000112254
0.0000121252
0.0000129723
-0.0000150987
-0.0000033534
0.0000113605
0.0000357747
-0.0000068755
-0.0000050798
0.0000102302
-0.0000120060
0.0000091413
-0.0000143820
-0.0000150534
0.0000724182
0.0000043808
0.0000206649
0.0000450585
-0.0000019319
-0.0000031256
-0.0000132795
0.0000004544
-0.0000035271
-0.0000075974
-0.0000064945
0.0000284093
0.0000141361
-0.0000097431
-0.0000098678
0.0000670341
0.0000083340
-0.0000075235
0.0000039689
-0.0000038538
0.0001929028
0.0000389084
0.0000290847
-0.0000052313
0.0000154639
0.0000592101
0.0000117623
0.0000021429
-0.0000025958
0.0000062040
0.0000322796
-0.0000104811
0.0000197683
0.0000380432
0.0000742306
-0.0000072450
-0.0000128409
-0.0000041468
-0.0000045240
0.0000326543
0.0000309872
0.0000293923
-0.0000023420
0.0000616193
0.0000324746
0.0000010197
0.0000082469
0.0000952081
-0.0000150114
0.0000362805
-0.0000136788
0.0000172747
0.0000016677
-0.0000033778
-0.0000094032
0.0000171594
-0.0000071871
-0.0000063216
0.0000387416
0.0000088694
-0.0000121827
-0.0000096902
-0.0000130409
0.0000171382
-0.0000031378
-0.0000125650
-0.0000093383
0.0000149008
0.0000980913
0.0000817228
-0.0000039924
0.0000145130
-0.0000134340
-0.0000030537
-0.0000151599
-0.0000110571
-0.0000045116
-0.0000082350
0.0000797482
0.0000067689
0.0000883396
0.0000276355
0.0000479901
0.0000333087
-0.0000055519
0.0000203274
0.0000058499
0.0000069553
-0.0000089283
0.0000059450
0.0000029723
0.0000155793
0.0000126735
-0.0000134614
0.0000875345
0.0000081518
-0.0000052939
-0.0000145732
0.0000201597
0.0000219946
0.0000143434
0.0000955310
-0.0000052576
-0.0000111747
0.0000006081
0.0000267208
0.0000870498
0.0000535217
0.0000067987
0.0000370171
0.0000057137
-0.0000044889
-0.0000009852
0.0000443405
0.0000084849
0.0000641722
-0.0000040379
0.0000103062
0.0000514705
0.0000187310
0.0000173987
-0.0000025696
-0.0000077079
-0.0000024242
-0.0000059774
0.0000106087
0.0000172124
0.0000187152
0.0000225702
0.0000195555
-0.0000111050
0.0000200213
0.0000018923
0.0000407656
0.0000117458
0.0000124300
0.0000022144
-0.0000127770
0.0001046540
0.0000497636
0.0000315255
0.0000061405
0.0000806095
0.0000045595
-0.0000044284
-0.0000014310
0.0000561299
0.0000464088
-0.0000138601
0.0000231802
0.0000257430
0.0000251257
0.0000285644
-0.0000001877
0.0000207763
0.0000057279
-0.0000007733
0.0000178387
0.0000577608
0.0000371137
0.0000477551
-0.0000136537
-0.0000031895
0.0000228291
0.0000979318
-0.0000120336
0.0001187925
-0.0000125843
-0.0000150515
-0.0000101014
0.0000716426
-0.0000114341
-0.0000107019
-0.0000117619
-0.0000015418
-0.0000130146
0.0000076319
0.0000002460
-0.0000046326
0.0000103958
0.0000113795
-0.0000039666
0.0000029164
-0.0000085909
0.0000181866
-0.0000057460
-0.0000006860
-0.0000026625
0.0000122678
0.0000052899
0.0000893487
-0.0000151561
0.0000095531
0.0000273559
0.0001113117
0.0000253104
-0.0000052816
0.0000314505
-0.0000058938
0.0000191153
0.0000392586
0.0000170990
0.0000150076
0.0000647347
0.0000606573
0.0000233191
0.0000399501
-0.0000141108
-0.0000068536
-0.0000019882
0.0000170938
0.0000339284
0.0000594782
0.0000883901
0.0000047293
0.0000295402
-0.0000054419
0.0000014551
0.0000076381
0.0000155513
0.0000101414
-0.0000110613
-0.0000060169
0.0000335283
0.0000792369
0.0000007265
0.0000009553
-0.0000147210
0.0000103027
0.0000046700
-0.0000041085
-0.0000106112
0.0000191484
-0.0000139556
-0.0000138741
-0.0000021703
-0.0000079607
-0.0000107356
-0.0000145933
-0.0000121800
-0.0000094875
0.0000318168
0.0000000218
0.0000160862
0.0000358726
0.0000023941
0.0000213841
-0.0000104272
0.0001126796
0.0000556212
0.0000386309
0.0000045787
0.0000011017
-0.0000129607
-0.0000042460
0.0000343577
-0.0000133906
0.0000101940
0.0000388633
0.0000420895
0.0000069759
0.0000176963
0.0000426276
0.0000179326
0.0000010527
0.0000204870
0.0000081113
0.0000106327
-0.0000087639
0.0000130313
0.0000264677
0.0000076303
0.0000062821
0.0000401314
0.0000347466
-0.0000106328
0.0000221296
0.0000401015
0.0000216816
-0.0000124671
0.0000320106
0.0000206664
0.0000586245
0.0000436504
0.0000261385
0.0000115125
-0.0000021226
0.0000058651
0.0000003071
-0.0000062576
0.0000078159
0.0000337295
0.0000233028
-0.0000034121
0.0000141523
0.0000142511
-0.0000134788
0.0000002094
0.0000603693
-0.0000138955
0.0000296305
-0.0000032760
0.0001308770
0.0000409838
0.0000273656
0.0000209615
-0.0000083036
-0.0000098301
0.0000326380
-0.0000117743
0.0000227072
0.0000982121
-0.0000135690
0.0000169061
-0.0000112105
-0.0000048873
-0.0000049182
0.0000098164
0.0000078971
-0.0000033453
0.0001504094
-0.0000094269
-0.0000073634
-0.0000139735
0.0000062867
-0.0000029462
0.0000068026
0.0000015470
-0.0000103169
-0.0000001529
0.0001269032
0.0000652190
-0.0000031858
0.0000340181
0.0000186335
0.0000039818
0.0000059865
0.0001018040
-0.0000061084
-0.0000009178
0.0000615550
0.0000484713
-0.0000124788
0.0000022698
0.0000173794
0.0000066395
-0.0000093129
0.0001231872
0.0000093016
0.0000229121
-0.0000123860
-0.0000092491
-0.0000120930
0.0000169134
0.0000297390
0.0001095452
0.0000000312
0.0000368494
0.0001418383
0.0000112801
0.0000861555
0.0000290829
-0.0000102863
0.0000126007
0.0000176691
0.0000302271
0.0000045024
0.0000155256
0.0000615269
0.0000801694
-0.0000056041
0.0000392458
0.0000554169
0.0000130893
-0.0000074893
0.0000266583
0.0000031965
-0.0000046024
0.0000158119
0.0000000612
-0.0000024584
-0.0000084874
-0.0000075255
0.0000064269
-0.0000039815
0.0000071567
-0.0000132922
-0.0000098644
0.0000199018
-0.0000097717
-0.0000142950
0.0000133176
0.0000220073
0.0000050750
-0.0000023499
-0.0000096566
-0.0000107432
0.0000456936
0.0000153224
0.0000407698
-0.0000064278
0.0000476463
0.0000385088
-0.0000037553
0.0000696703
-0.0000054343
-0.0000118165
-0.0000146915
0.0000307071
0.0000114959
0.0000107416
0.0000008409
0.0000955490
0.0000496268
-0.0000055544
-0.0000012044
0.0000435125
0.0000207943
0.0000898624
-0.0000098596
-0.0000041221
-0.0000110985
-0.0000014492
-0.0000024845
0.0000362869
-0.0000144776
0.0000136163
-0.0000069250
-0.0000031643
-0.0000017664
-0.0000074255
0.0000187443
0.0000537944
0.0000013585
0.0000144213
-0.0000134893
0.0000034382
0.0001375713
0.0000051544
-0.0000107590
0.0001045236
-0.0000088507
-0.0000111102
-0.0000053229
0.0000357575
0.0000372272
0.0000297458
0.0000153453
0.0000298224
-0.0000083660
0.0000129364
0.0000127544
0.0000399084
0.0000469112
-0.0000150303
-0.0000017853
-0.0000109373
0.0000058678
-0.0000016554
0.0000061067
-0.0000056846
0.0000756637
0.0000073795
0.0000123350
0.0000731331
-0.0000016972
0.0000439896
-0.0000039750
0.0000482349
0.0000187992
-0.0000060887
0.0000461237
0.0000104224
-0.0000054601
0.0000047180
-0.0000112900
-0.0000149186
0.0000076001
-0.0000111377
0.0000526256
0.0000737017
-0.0000116005
0.0000304033
-0.0000007271
-0.0000045963
0.0000005614
0.0000044187
-0.0000051601
-0.0000004580
0.0001306733
0.0000250456
-0.0000083677
-0.0000118172
0.0000114501
0.0000087059
-0.0000049149
0.0000316967
0.0000101909
0.0000171736
0.0000493144
-0.0000119360
-0.0000020210
0.0000197562
-0.0000024035
0.0000615220
0.0001087453
0.0000160695
-0.0000146497
0.0000786954
0.0000159666
0.0000071283
0.0000039962
-0.0000119384
-0.0000093502
-0.0000118269
0.0000757815
0.0000098946
-0.0000095341
0.0000072478
-0.0000140738
0.0000290659
0.0000351520
0.0000080945
0.0002057695
0.0000276101
0.0000051016
0.0000071267
-0.0000100481
0.0000135798
-0.0000028661
0.0000039315
0.0000788426
-0.0000089794
0.0000507795
0.0000063905
-0.0000106945
0.0000345760
-0.0000108458
0.0000009547
-0.0000148019
0.0000407866
0.0000484324
0.0000302384
0.0000117156
-0.0000100095
0.0000287575
0.0000052206
-0.0000147185
0.0000198906
-0.0000004646
0.0000088070
-0.0000097788
0.0000131560
0.0000163679
-0.0000125330
-0.0000118812
0.0000409020
0.0000123721
0.0000311544
-0.0000060354
0.0000115107
0.0000136652
0.0000146018
0.0000250231
0.0000234151
-0.0000023613
0.0000164421
0.0000246136
-0.0000148649
-0.0000151727
0.0000167532
-0.0000131516
0.0000058672
0.0000024692
0.0000044511
0.0000272484
-0.0000088267
0.0000501116
-0.0000007341
0.0000480067
0.0000821681
0.0000588649
-0.0000064708
-0.0000051761
0.0000161576
-0.0000107116
-0.0000079164
-0.0000119404
0.0000183554
-0.0000148010
-0.0000056968
0.0000359868
-0.0000051152
-0.0000079506
-0.0000141351
-0.0000028794
0.0000410031
0.0000301114
0.0000738538
-0.0000121904
-0.0000116859
-0.0000057507
0.0000120131
0.0000242131
-0.0000007346
0.0000066542
0.0000000565
0.0000145523
-0.0000067136
-0.0000144675
0.0000099312
-0.0000116985
0.0000257386
0.0000089308
0.0000680041
0.0000276741
0.0000396514
0.0000412573
0.0000199542
0.0001202076
-0.0000090915
-0.0000105839
0.0000044585
0.0000375807
-0.0000133141
0.0000041758
-0.0000098000
0.0000178592
0.0000070542
0.0000153069
0.0000025047
0.0000146580
-0.0000145297
-0.0000115046
0.0000147557
0.0000348902
0.0000082295
0.0000189080
-0.0000072410
-0.0000003319
0.0000158209
-0.0000042698
-0.0000149603
-0.0000081561
0.0000160762
0.0000255074
0.0000033645
0.0000010890
0.0000358346
0.0000129454
0.0000149014
0.0000771049
0.0000514952
0.0000419832
-0.0000013002
0.0000116931
0.0001061647
-0.0000140529
0.0000333773
-0.0000138264
0.0000416694
0.0000400072
-0.0000149358
0.0000122317
0.0000165436
0.0000080613
0.0000026979
0.0000171406
-0.0000007900
-0.0000024478
-0.0000085984
0.0000007448
0.0000862256
0.0000455355
-0.0000035806
0.0001529906
0.0000023052
0.0000243505
0.0000924983
0.0000160567
-0.0000051571
0.0000259298
-0.0000139539
-0.0000023447
0.0000243141
-0.0000128081
0.0000792485
-0.0000144130
-0.0000102875
0.0000437255
-0.0000087518
-0.0000033205
-0.0000136384
-0.0000037476
0.0000236187
-0.0000144768
0.0000581622
0.0000050069
0.0000233329
0.0000015414
-0.0000034006
0.0000053849
-0.0000138641
-0.0000130888
-0.0000130754
-0.0000094687
0.0000401981
-0.0000078461
-0.0000145113
0.0000110599
0.0001071250
0.0001210077
0.0000438906
0.0000050896
0.0000095882
0.0000275072
0.0000269441
0.0000105463
0.0000240552
-0.0000045797
0.0000296170
0.0000074107
0.0000443330
0.0000539012
0.0000384140
0.0000152802
-0.0000114663
-0.0000140550
-0.0000116402
0.0000256406
-0.0000104516
0.0000979755
-0.0000042896
-0.0000041578
-0.0000062757
0.0000024762
0.0000197167
0.0000078723
0.0000684972
-0.0000029402
-0.0000101295
0.0000652185
0.0000096337
-0.0000094666
0.0000084621
0.0000003259
-0.0000080418
-0.0000046082
0.0000090721
0.0000508498
-0.0000026328
-0.0000148968
-0.0000122681
-0.0000057536
-0.0000088079
-0.0000055185
0.0000096868
0.0000494195
0.0000164405
0.0000045466
0.0000052374
0.0000652795
0.0000167213
0.0000239656
-0.0000141516
0.0000524297
-0.0000040534
0.0000174419
0.0000053064
0.0000063646
0.0000204451
0.0001231576
0.0000106500
-0.0000146280
0.0000047003
-0.0000110869
0.0000010055
0.0000904579
-0.0000051821
0.0000515754
0.0000175606
0.0000414926
0.0000380829
-0.0000021425
-0.0000047371
-0.0000046976
0.0000337132
0.0000763165
-0.0000011103
-0.0000041449
0.0000013027
0.0000117327
0.0000104918
-0.0000088300
-0.0000113381
0.0000691751
0.0000266786
0.0000046586
0.0000156501
0.0000115332
-0.0000005503
0.0000152054
0.0000747150
0.0000052532
0.0000489726
-0.0000115270
0.0000265197
0.0000041554
0.0000454997
0.0000226410
-0.0000066109
-0.0000035096
0.0000187914
0.0000571700
0.0000416704
0.0000043518
-0.0000088261
0.0000084779
0.0000253458
0.0000028633
0.0000934853
0.0000024156
0.0000031893
-0.0000118107
-0.0000097529
0.0000361644
0.0000139028
0.0000526381
-0.0000079760
-0.0000124870
-0.0000120854
0.0000591449
-0.0000151213
-0.0000042146
0.0000239851
0.0000342469
0.0000004273
0.0000497316
-0.0000108858
-0.0000104434
0.0000034742
0.0001084378
-0.0000039138
-0.0000050347
0.0000027609
-0.0000121564
0.0000066108
-0.0000113149
0.0000537047
-0.0000100587
-0.0000145051
0.0000606358
-0.0000133716
0.0000047598
0.0000405593
0.0000156721
0.0000252627
0.0000044883
-0.0000010766
0.0000100723
-0.0000068761
0.0000109955
-0.0000044031
-0.0000057745
0.0000107358
-0.0000071964
-0.0000146214
-0.0000017279
-0.0000101655
-0.0000132826
0.0000118016
0.0001027519
0.0000081182
-0.0000112735
0.0000457698
-0.0000066628
0.0000100249
0.0001541230
0.0000211968
0.0000050603
0.0000095377
0.0000359720
-0.0000098513
-0.0000113612
-0.0000128039
0.0000321830
-0.0000029712
0.0000345493
0.0000329419
0.0000331581
-0.0000131222
0.0000160389
0.0000356013
0.0000014410
-0.0000015890
-0.0000145178
-0.0000008680
-0.0000006645
0.0000230222
-0.0000004742
0.0000509791
0.0000010919
-0.0000090373
0.0000250342
0.0000034452
0.0000038814
0.0000484887
0.0000558650
0.0000110468
0.0001601100
0.0000251867
0.0000057303
0.0000764659
-0.0000003223
-0.0000084346
0.0001459229
0.0000281148
-0.0000058767
0.0000171789
0.0000517217
0.0000137427
0.0000315167
-0.0000048500
0.0000112223
0.0000243827
0.0000122159
0.0000239717
0.0000213350
-0.0000111156
0.0000066273
0.0000224505
-0.0000122297
0.0000200254
0.0000315354
0.0000129691
0.0000008264
-0.0000122787
-0.0000038447
0.0000158131
-0.0000012541
0.0000248742
0.0000880986
-0.0000062525
0.0000334400
0.0000201529
0.0000271823
0.0000449312
-0.0000079205
0.0000138882
0.0000064247
0.0000281162
-0.0000086083
0.0000033599
0.0000668590
0.0000190231
0.0000001189
-0.0000016992
0.0001960435
-0.0000066860
-0.0000022657
-0.0000065605
0.0000425509
0.0000214111
0.0000106986
-0.0000127293
-0.0000081652
0.0000176039
-0.0000030950
0.0001224288
0.0000064041
0.0000224984
0.0000766172
0.0000173239
-0.0000020641
0.0000035643
0.0000598178
-0.0000152571
-0.0000103427
-0.0000132970
0.0000340228
0.0000247639
-0.0000011057
0.0000108660
-0.0000051200
0.0000124875
0.0000019095
0.0000004627
0.0000387005
0.0000082717
-0.0000087710
-0.0000101814
-0.0000149234
-0.0000115616
-0.0000139489
-0.0000017695
-0.0000053984
0.0000140774
0.0000063031
0.0000008459
-0.0000051563
-0.0000047862
0.0000320711
0.0000006497
0.0000063247
0.0000781671
0.0000260680
0.0000063173
-0.0000070204
0.0000067369
0.0000270018
0.0000172305
-0.0000025842
-0.0000048784
0.0000152801
0.0000209221
-0.0000007047
0.0000380993
-0.0000069191
-0.0000035705
0.0001185480
-0.0000026490
0.0001356518
0.0000172645
0.0000483293
-0.0000132205
0.0000111609
0.0000728692
0.0000075837
0.0000841733
0.0000197706
-0.0000004008
0.0000039927
0.0000788549
0.0000391426
-0.0000050319
-0.0000027731
0.0000087175
-0.0000134411
-0.0000091817
-0.0000114976
-0.0000046472
0.0000515716
0.0000004207
-0.0000069518
-0.0000147713
0.0000129702
0.0000083401
-0.0000087530
0.0001085798
-0.0000142503
0.0000038195
0.0000275208
0.0001454673
0.0000649665
0.0000041613
-0.0000027846
-0.0000133918
0.0000279055
0.0000145383
0.0000866242
0.0000023808
-0.0000102201
0.0001024222
0.0000125375
-0.0000016071
-0.0000084918
0.0000567239
0.0000000133
0.0000090615
-0.0000146595
0.0000193160
0.0000604442
-0.0000051647
0.0001113778
0.0001590923
0.0000464016
-0.0000147284
-0.0000038221
0.0000010830
-0.0000070329
-0.0000136745
0.0000634909
0.0000038238
0.0000215394
0.0001677455
-0.0000149145
-0.0000013342
0.0000034526
-0.0000147411
-0.0000008926
0.0000101169
0.0000194656
0.0000065584
-0.0000100284
0.0000604102
0.0000098604
-0.0000145669
0.0000095502
0.0000101667
-0.0000135520
-0.0000046781
0.0000483738
-0.0000130333
0.0000039595
0.0000683800
0.0000203408
0.0000551173
-0.0000112382
0.0000133755
0.0000144036
0.0000259546
0.0000199057
0.0000041982
-0.0000104930
0.0000272729
-0.0000012087
0.0000799989
0.0000187570
0.0000534980
-0.0000119410
0.0000230728
0.0000229336
0.0000108245
0.0000077661
-0.0000138183
0.0000133790
0.0000004640
0.0000105596
-0.0000045919
0.0000156884
0.0000305737
0.0000240010
0.0000203226
-0.0000109115
0.0000325914
0.0000450489
0.0000165760
0.0000063783
-0.0000118960
0.0000145419
0.0000601021
-0.0000085603
0.0000198844
-0.0000011027
-0.0000110799
0.0000159735
0.0000082915
0.0000403729
0.0000377641
0.0000171729
-0.0000071239
-0.0000082802
0.0000080134
-0.0000068272
-0.0000025840
0.0001306985
0.0000249478
-0.0000121448
-0.0000118958
-0.0000017526
-0.0000050815
-0.0000073724
0.0000208489
-0.0000088487
0.0000309291
0.0000275204
0.0000022313
0.0000011197
-0.0000009132
-0.0000144705
0.0000213518
0.0000329169
0.0000454608
-0.0000125277
-0.0000076244
0.0000394285
0.0000097300
0.0000176931
0.0000427899
-0.0000022131
-0.0000070569
-0.0000059565
0.0000092691
0.0000095244
0.0000383295
-0.0000071695
0.0000300939
0.0000206418
-0.0000086256
-0.0000077012
0.0000245822
0.0000059863
-0.0000118766
0.0000490074
-0.0000002038
0.0000016282
0.0000344874
0.0000164139
-0.0000133653
-0.0000097739
0.0000378342
-0.0000148825
0.0000287530
0.0000535694
0.0000009839
0.0000031515
0.0000233106
0.0001485570
-0.0000082278
-0.0000017119
0.0000352694
0.0000473040
0.0000074958
0.0000399826
0.0000769052
0.0000237492
-0.0000083465
-0.0000137721
-0.0000065983
-0.0000053579
0.0000159192
-0.0000024152
0.0000686533
0.0000506884
-0.0000054748
-0.0000057665
0.0000044319
0.0000205549
-0.0000034385
0.0000559414
0.0000293777
-0.0000053193
-0.0000010040
-0.0000108707
-0.0000115281
-0.0000049872
0.0000109248
0.0000049063
-0.0000127075
0.0000264142
0.0000426731
0.0001014620
0.0000371509
0.0000225888
-0.0000121660
-0.0000050747
0.0000014919
0.0000188697
0.0000716124
-0.0000047548
0.0000834601
-0.0000113473
0.0000641034
-0.0000102457
0.0000077615
0.0000541411
-0.0000075303
0.0000091802
0.0000114856
0.0000372986
-0.0000000067
-0.0000054427
-0.0000064982
-0.0000142328
-0.0000145373
0.0000359162
0.0000814778
-0.0000150370
0.0000335839
0.0000001883
0.0000286301
-0.0000081436
0.0000105739
0.0000132321
0.0000099790
0.0000160387
-0.0000124670
-0.0000148435
-0.0000065878
0.0000153923
0.0001066162
0.0000331033
0.0000178220
0.0001552148
0.0001266295
-0.0000029259
0.0000372338
-0.0000043179
-0.0000023540
0.0000131306
-0.0000119761
-0.0000027433
-0.0000030887
0.0000267333
0.0000099280
-0.0000117290
0.0000070467
-0.0000059385
-0.0000006195
-0.0000026750
-0.0000114186
0.0000199750
0.0000014665
0.0000827739
0.0000415679
0.0000499683
0.0000071191
0.0000049194
0.0000342616
-0.0000116123
-0.0000108332
-0.0000141295
0.0000016842
0.0000195048
-0.0000022212
-0.0000092048
0.0000006895
0.0000093042
0.0001067820
0.0001572232
0.0000762110
0.0000156827
0.0000023923
0.0000039989
-0.0000092783
-0.0000127476
-0.0000114195
0.0000428874
-0.0000085052
0.0000307351
-0.0000124419
0.0000076876
0.0000157543
0.0000216009
0.0000215645
-0.0000094308
0.0000951926
-0.0000020610
-0.0000114945
-0.0000087714
-0.0000051967
-0.0000119156
0.0000228321
-0.0000046983
-0.0000143095
0.0000141623
0.0000683733
-0.0000103148
0.0001651000
-0.0000110328
0.0000688442
0.0000965002
0.0000019618
-0.0000009440
-0.0000094293
-0.0000040600
0.0000161980
0.0001725896
0.0001508630
0.0000560392
-0.0000106012
0.0000245219
0.0000284870
-0.0000120933
0.0000539842
0.0000007078
0.0000033486
0.0000313839
-0.0000044052
0.0000468259
0.0000137805
0.0000350467
0.0000274225
-0.0000077175
-0.0000045868
0.0000215615
0.0000011228
0.0000107389
-0.0000014907
-0.0000089317
0.0000293716
0.0000229687
0.0000134558
0.0000135698
0.0000031491
-0.0000102985
0.0000194603
0.0000395388
0.0001205483
-0.0000039285
-0.0000070169
-0.0000113820
0.0000264409
-0.0000119805
0.0000133509
0.0000247786
0.0000082059
-0.0000101500
0.0000064960
-0.0000034457
-0.0000042714
-0.0000147323
-0.0000014388
0.0000107587
0.0000216183
0.0000182368
0.0000157572
0.0000205406
0.0000029897
0.0000525402
0.0000052151
0.0000605008
-0.0000101008
-0.0000054378
0.0000030475
0.0000328976
-0.0000053035
0.0000335104
0.0000058260
-0.0000135283
-0.0000072375
-0.0000080624
-0.0000116046
0.0000107022
0.0000594531
0.0000024355
-0.0000089398
0.0000346314
0.0000191368
-0.0000106334
0.0000549664
-0.0000078032
0.0000077217
0.0000677329
0.0000056845
0.0000050485
-0.0000009225
0.0000315870
-0.0000045598
0.0000729786
-0.0000025418
-0.0000063583
0.0000109834
0.0000149070
0.0000391488
-0.0000104810
-0.0000135117
0.0000252276
-0.0000101083
0.0000091350
-0.0000039429
-0.0000010990
0.0000189066
-0.0000103221
0.0000062998
0.0000048647
0.0000242457
0.0000369603
-0.0000069911
0.0000043155
-0.0000103253
0.0000018343
0.0000109512
0.0000403923
0.0000088839
-0.0000038096
0.0000191230
0.0000614971
-0.0000115836
-0.0000045028
-0.0000047630
0.0000161222
-0.0000041820
-0.0000060237
0.0000154926
0.0000129528
0.0001733630
0.0000223143
-0.0000002184
0.0000223396
-0.0000019373
-0.0000002248
0.0000292765
-0.0000081453
0.0000399988
0.0000234992
-0.0000060672
0.0000034673
-0.0000069753
0.0000021019
0.0000096530
-0.0000124587
-0.0000056840
0.0000170588
0.0000278573
0.0000046453
0.0000052465
0.0000261462
-0.0000099981
0.0000468865
0.0000597551
0.0000274224
0.0000085181
-0.0000114175
0.0000300859
0.0000001871
0.0000175253
0.0000268085
0.0000089277
0.0000283936
0.0000126638
-0.0000131623
0.0000175496
-0.0000088117
-0.0000125600
-0.0000086734
0.0000108267
-0.0000119058
0.0000197186
0.0000468482
0.0000734972
0.0000090740
0.0000158475
0.0000145490
-0.0000013033
-0.0000064907
0.0000849322
0.0000521558
0.0000354856
0.0000013625
0.0000492796
0.0000016640
0.0000445718
0.0000004243
0.0000033118
0.0000482486
0.0000269722
0.0000439437
0.0000765120
0.0000024271
-0.0000054602
0.0000126452
0.0000243152
0.0000272499
0.0000604153
0.0000412300
0.0000560821
-0.0000038532
-0.0000144643
-0.0000096125
0.0000037657
0.0000194544
0.0000003509
-0.0000115346
0.0000171981
0.0000241517
0.0000429632
-0.0000081826
-0.0000055672
0.0000132375
0.0000245505
0.0000821960
-0.0000072823
0.0000423865
-0.0000093160
0.0000300804
0.0000251427
0.0000315367
-0.0000151587
-0.0000107935
-0.0000065935
0.0000046994
0.0000220272
0.0000156979
0.0000035137
0.0000790402
0.0000105317
-0.0000002159
-0.0000080562
-0.0000140720
-0.0000077873
-0.0000011799
-0.0000143236
0.0000443486
-0.0000038773
0.0000210410
0.0000020506
-0.0000065302
0.0000066116
-0.0000050968
0.0000172490
0.0000320218
0.0000395084
0.0000479335
0.0000604417
0.0000468155
0.0000302817
-0.0000142637
-0.0000135562
-0.0000046671
0.0000064529
0.0000323371
-0.0000080852
0.0000065020
0.0000181732
-0.0000109263
0.0000011757
0.0000379691
-0.0000101875
0.0001105846
-0.0000151029
0.0000003518
-0.0000104286
0.0000506008
0.0000217719
0.0000024982
-0.0000131860
-0.0000076485
0.0000446369
0.0000027581
0.0000588467
0.0000192985
0.0000608645
0.0000212860
0.0000459491
0.0000314138
-0.0000103345
-0.0000013245
0.0000576627
0.0000210597
0.0000162737
0.0000298968
-0.0000043462
-0.0000150337
-0.0000117438
0.0000428122
0.0000000346
-0.0000058791
0.0000383107
-0.0000133653
0.0000187423
0.0000071390
-0.0000089932
0.0000053522
0.0000162087
-0.0000118599
0.0000793563
0.0000233138
0.0000035159
0.0001819555
0.0000034323
0.0000260796
-0.0000051124
-0.0000015443
-0.0000112523
-0.0000125661
0.0000286862
0.0000059698
0.0000280162
0.0000071617
-0.0000041895
0.0000008374
0.0000114008
-0.0000025659
-0.0000093825
-0.0000117216
-0.0000034007
0.0000038750
0.0000453937
-0.0000070653
0.0000479956
-0.0000013013
0.0000048949
-0.0000111668
-0.0000093708
-0.0000141731
0.0000216420
-0.0000009038
-0.0000010006
0.0000064591
0.0000538155
-0.0000060433
0.0000034678
0.0000293950
-0.0000102830
0.0000047390
0.0000127857
0.0000362352
-0.0000082350
0.0000044813
-0.0000109817
0.0000222805
-0.0000074592
-0.0000076800
0.0000493016
-0.0000152180
0.0000641160
0.0000069861
0.0000236191
0.0000096290
0.0000118575
0.0000057038
0.0000887671
0.0000209727
0.0000514932
0.0000349223
0.0000173562
0.0000421299
0.0000946633
0.0000418467
-0.0000127441
0.0000097245
-0.0000085009
-0.0000105356
0.0000144134
0.0000272239
0.0000634740
0.0000073385
-0.0000045637
0.0000132273
0.0000006408
0.0000259417
0.0000085248
-0.0000106988
-0.0000139945
0.0000989519
0.0000668392
0.0000617073
0.0001305725
-0.0000075927
0.0001661349
-0.0000030399
0.0000232401
-0.0000148656
0.0000065636
0.0000311729
-0.0000144763
0.0000264107
0.0000019399
-0.0000133892
-0.0000002989
-0.0000076344
0.0000286224
-0.0000134046
0.0000029365
0.0000404587
0.0000669176
0.0000695980
0.0000022748
-0.0000086225
0.0000181420
-0.0000132965
0.0000044231
0.0000042385
0.0000129348
0.0000996499
0.0000174236
0.0000199490
0.0000019261
0.0000155687
-0.0000054482
-0.0000011022
0.0000455613
-0.0000067439
0.0000097160
-0.0000108744
0.0000595084
-0.0000109610
-0.0000020720
-0.0000064731
-0.0000110670
-0.0000089782
0.0000208455
-0.0000061078
-0.0000034825
0.0001652798
-0.0000116601
0.0000228234
-0.0000030733
-0.0000001047
-0.0000124016
0.0000242535
0.0000207189
-0.0000005090
0.0000053262
0.0000654366
-0.0000048340
0.0000142682
-0.0000009091
0.0000094268
0.0000007220
-0.0000108556
0.0000116848
0.0000268309
-0.0000046474
-0.0000089468
0.0000128936
0.0000020216
-0.0000002686
0.0000172895
0.0000175818
-0.0000139254
0.0000001528
0.0000187090
0.0000459006
0.0000128454
0.0000405488
0.0001282144
-0.0000098210
-0.0000012895
0.0000071053
-0.0000035696
0.0000515817
0.0000546249
-0.0000033798
0.0001397732
-0.0000105627
-0.0000018181
-0.0000006473
0.0000043620
-0.0000072954
-0.0000093593
-0.0000110539
0.0000014545
-0.0000148748
0.0000288515
0.0000355965
0.0000666003
0.0000099502
0.0000177260
0.0000853972
0.0000116670
0.0000242662
-0.0000145061
0.0000236044
0.0000399677
0.0000772504
0.0000131463
0.0000512293
0.0000017660
0.0000146571
0.0000174092
-0.0000023359
0.0000394693
-0.0000144547
0.0000063085
0.0000321838
-0.0000116307
-0.0000103635
0.0000239622
0.0000281154
0.0000019774
0.0000312560
0.0000056934
0.0000670769
0.0000111707
0.0000036279
0.0000846708
0.0000432466
0.0000587967
-0.0000144156
0.0000108324
0.0000784953
-0.0000021704
-0.0000115998
0.0000263184
-0.0000009400
0.0000066446
-0.0000048702
0.0000280331
-0.0000018900
0.0000225911
0.0000296614
-0.0000085369
-0.0000120486
0.0000079539
0.0000015427
-0.0000127080
0.0000033703
0.0000632163
0.0000028340
0.0000121734
0.0000202542
0.0000575664
-0.0000108207
-0.0000066325
0.0000628355
-0.0000011451
0.0000211019
-0.0000005640
0.0000153150
-0.0000100217
0.0000236707
0.0000589994
0.0000276292
0.0000009922
-0.0000110842
0.0000560250
0.0000186980
0.0000367064
0.0000290198
0.0000365188
0.0000074588
0.0000162175
0.0000132600
0.0000055872
-0.0000143150
0.0000535888
0.0000121676
0.0000635322
0.0000189494
0.0000583493
0.0000004278
0.0000577226
-0.0000143870
0.0000488334
0.0000293768
-0.0000086127
0.0000267296
0.0000129430
-0.0000073920
-0.0000102592
0.0000179751
0.0000595876
0.0000085576
-0.0000148980
